{"learner":{"attributes":{"best_iteration":"98","best_ntree_limit":"99","best_score":"0.21737711938284338","scikit_learn":"{\"use_label_encoder\": null, \"n_estimators\": 100, \"objective\": \"binary:logistic\", \"max_depth\": 4, \"max_leaves\": null, \"max_bin\": null, \"grow_policy\": null, \"learning_rate\": 0.05, \"verbosity\": 0, \"booster\": null, \"tree_method\": null, \"gamma\": 1.0, \"min_child_weight\": 5, \"max_delta_step\": null, \"subsample\": 0.7, \"sampling_method\": null, \"colsample_bytree\": 0.7, \"colsample_bylevel\": null, \"colsample_bynode\": null, \"reg_alpha\": 2.0, \"reg_lambda\": 3.0, \"scale_pos_weight\": 3.0, \"base_score\": null, \"missing\": NaN, \"num_parallel_tree\": null, \"random_state\": 42, \"n_jobs\": null, \"monotone_constraints\": null, \"interaction_constraints\": null, \"importance_type\": null, \"gpu_id\": null, \"validate_parameters\": null, \"predictor\": null, \"enable_categorical\": false, \"feature_types\": null, \"max_cat_to_onehot\": null, \"max_cat_threshold\": null, \"eval_metric\": \"logloss\", \"early_stopping_rounds\": null, \"callbacks\": null, \"classes_\": [0, 1], \"n_classes_\": 2, \"evals_result_\": {\"validation_0\": {\"logloss\": [0.6558054447174072, 0.6224653657674789, 0.592312218785286, 0.5660161786079406, 0.5483950238227844, 0.5262261272072792, 0.5098250700831414, 0.4900924198627472, 0.4767970418334007, 0.4606036772727966, 0.44501410573720934, 0.4304529280662537, 0.4168826140761375, 0.4050968002676964, 0.3947215472459793, 0.386012968480587, 0.379730698466301, 0.36897940617799757, 0.3623521961271763, 0.3539772149324417, 0.3452488806247711, 0.3380985099077225, 0.33385598596930505, 0.3264581902325153, 0.3199235162436962, 0.3149804075658321, 0.3104397950470448, 0.30551646599173543, 0.30033665189146996, 0.2957646299898624, 0.2939142117351294, 0.28960732010006907, 0.2852945512384176, 0.28145176473259925, 0.2782993387579918, 0.274683029666543, 0.2718656044751406, 0.26855270498991013, 0.26733329194784167, 0.2649887230247259, 0.2627611877471209, 0.26080378037691115, 0.2592562975138426, 0.2560853728055954, 0.25505762101709845, 0.2533330732434988, 0.25051841834932564, 0.24944723923504353, 0.24792469312250615, 0.24628593550622463, 0.24488100389391185, 0.2445145262554288, 0.24315441039949656, 0.24191233195364475, 0.24078878547996282, 0.2412435839176178, 0.24028599012643098, 0.23831337931752206, 0.2378071573898196, 0.23523102774471044, 0.23390189015865326, 0.23216793890669943, 0.23118943781033158, 0.23073125927522778, 0.2309234546609223, 0.23024608451128006, 0.22992187337204814, 0.22949495875090362, 0.22848189226537943, 0.228370607316494, 0.2269036292694509, 0.2267202535569668, 0.2271463780067861, 0.22590274265035987, 0.2244681656733155, 0.22430967704579235, 0.22444897373393177, 0.22402393320575356, 0.223636206433177, 0.2240207940302789, 0.22414063211716712, 0.22403293943218888, 0.22437103676982223, 0.2233100506644696, 0.2231355253942311, 0.22220062149316072, 0.22277450442872943, 0.22124875491671264, 0.22107437408156694, 0.22018973032012581, 0.21903243445046247, 0.21903282957337797, 0.21800626326166092, 0.2182152622845024, 0.21925997100770472, 0.21788707184419037, 0.21806802064925432, 0.21786627593263982, 0.21737711938284338, 0.2178465626910329]}}, \"_estimator_type\": \"classifier\"}"},"feature_names":[],"feature_types":[],"gradient_booster":{"model":{"gbtree_model_param":{"num_parallel_tree":"1","num_trees":"100","size_leaf_vector":"0"},"tree_info":[0,0,0,0,0,0,0,0,0,0,0,0,0,0,0,0,0,0,0,0,0,0,0,0,0,0,0,0,0,0,0,0,0,0,0,0,0,0,0,0,0,0,0,0,0,0,0,0,0,0,0,0,0,0,0,0,0,0,0,0,0,0,0,0,0,0,0,0,0,0,0,0,0,0,0,0,0,0,0,0,0,0,0,0,0,0,0,0,0,0,0,0,0,0,0,0,0,0,0,0],"trees":[{"base_weights":[-8.843967E-3,-1.9529412E0,1.4273224E0,-1.4166666E0,1.7448857E0,3.880597E-1,1.8247423E0,9.5652175E-1,-3.030303E-1,3.030303E-1,1.8516556E0],"categories":[],"categories_nodes":[],"categories_segments":[],"categories_sizes":[],"default_left":[1,0,1,0,1,1,1,0,0,0,0],"id":0,"left_children":[1,-1,3,-1,5,7,9,-1,-1,-1,-1],"loss_changes":[1.1143662E3,0E0,2.1466699E2,0E0,1.5960083E1,8.7569275E0,1.9524536E0,0E0,0E0,0E0,0E0],"parents":[2147483647,0,0,2,2,4,4,5,5,6,6],"right_children":[2,-1,4,-1,6,8,10,-1,-1,-1,-1],"split_conditions":[2.710929E-1,-9.764706E-2,-4.095459E-1,-7.083333E-2,-5.826391E-1,-6.089852E-1,-1.1809782E0,4.782609E-2,-1.5151516E-2,1.5151516E-2,9.2582785E-2],"split_indices":[10,0,2,0,11,11,17,0,0,0,0],"split_type":[0,0,0,0,0,0,0,0,0,0,0],"sum_hessian":[3.9275E2,1.67E2,2.2575E2,2.1E1,2.0475E2,1.375E1,1.91E2,8.5E0,5.25E0,5.25E0,1.8575E2],"tree_param":{"num_deleted":"0","num_feature":"40","num_nodes":"11","size_leaf_vector":"0"}},{"base_weights":[-0E0,-1.7092328E0,1.4477794E0,-1.8373979E0,-9.407856E-1,-1.5435199E0,1.7383671E0,3.5934892E-1,-1.4165058E0,4.4546032E-1,1.7682611E0],"categories":[],"categories_nodes":[],"categories_segments":[],"categories_sizes":[],"default_left":[1,1,1,0,1,0,1,0,0,1,1],"id":1,"left_children":[1,3,5,-1,7,-1,-1,-1,-1,-1,-1],"loss_changes":[9.8247144E2,7.216614E0,1.9495273E2,0E0,2.4944618E1,0E0,8.464966E-1,0E0,0E0,0E0,0E0],"parents":[2147483647,0,0,1,1,2,2,4,4,6,6],"right_children":[2,4,6,-1,8,-1,-1,-1,-1,-1,-1],"split_conditions":[-1.6731049E-1,3.207688E-3,-1.8093829E-1,-9.18699E-2,-3.248816E-1,-7.7176E-2,8.6918354E-2,1.7967446E-2,-7.082529E-2,2.2273017E-2,8.841305E-2],"split_indices":[11,3,33,0,36,0,33,0,0,2147483647,2147483647],"split_type":[0,0,0,0,0,0,0,0,0,0,0],"sum_hessian":[3.9091626E2,1.7934425E2,2.1157199E2,1.4790086E2,3.1443394E1,1.6978472E1,1.9459352E2,7.493503E0,2.394989E1,6.987624E0,1.876059E2],"tree_param":{"num_deleted":"2","num_feature":"40","num_nodes":"11","size_leaf_vector":"0"}},{"base_weights":[1.3503382E-2,-1.7859654E0,1.2956877E0,-1.4991179E0,1.5464903E0,1.0453089E-1,1.625563E0,6.61827E-1,-3.7141508E-1,1.0962845E0,1.7670575E0],"categories":[],"categories_nodes":[],"categories_segments":[],"categories_sizes":[],"default_left":[1,0,1,0,1,1,1,0,0,0,0],"id":2,"left_children":[1,-1,3,-1,5,7,9,-1,-1,-1,-1],"loss_changes":[9.5782104E2,0E0,1.7758167E2,0E0,2.1728699E1,5.6253033E0,4.3495483E0,0E0,0E0,0E0,0E0],"parents":[2147483647,0,0,2,2,4,4,5,5,6,6],"right_children":[2,-1,4,-1,6,8,10,-1,-1,-1,-1],"split_conditions":[2.6427764E-1,-8.929827E-2,-5.847274E-1,-7.4955896E-2,-5.846652E-1,-6.089852E-1,6.8759546E-2,3.309135E-2,-1.8570755E-2,5.4814227E-2,8.835288E-2],"split_indices":[10,0,2,0,11,11,7,0,0,0,0],"split_type":[0,0,0,0,0,0,0,0,0,0,0],"sum_hessian":[4.0955136E2,1.6926271E2,2.4028865E2,1.7901213E1,2.2238744E2,1.3238107E1,2.0914932E2,7.493869E0,5.7442384E0,5.263603E1,1.565133E2],"tree_param":{"num_deleted":"0","num_feature":"40","num_nodes":"11","size_leaf_vector":"0"}},{"base_weights":[-3.36809E-2,-1.7142837E0,1.1790364E0,-1.4638171E0,1.4527746E0,-7.9387516E-2,1.5075743E0,3.6410198E-1,1.5535796E0],"categories":[],"categories_nodes":[],"categories_segments":[],"categories_sizes":[],"default_left":[1,0,1,0,1,0,1,0,0],"id":3,"left_children":[1,-1,3,-1,5,-1,7,-1,-1],"loss_changes":[7.960217E2,0E0,1.6979861E2,0E0,2.0587708E1,0E0,5.0504456E0,0E0,0E0],"parents":[2147483647,0,0,2,2,4,4,6,6],"right_children":[2,-1,4,-1,6,-1,8,-1,-1],"split_conditions":[2.6615715E-1,-8.5714184E-2,-5.9046626E-1,-7.319086E-2,-5.1671946E-1,-3.969376E-3,-1.1557372E0,1.8205099E-2,7.767898E-2],"split_indices":[10,0,2,0,23,0,16,0,0],"split_type":[0,0,0,0,0,0,0,0,0],"sum_hessian":[3.8407083E2,1.6115211E2,2.2291872E2,1.9012306E1,2.0390642E2,5.734377E0,1.9817204E2,1.0380419E1,1.8779163E2],"tree_param":{"num_deleted":"0","num_feature":"40","num_nodes":"9","size_leaf_vector":"0"}},{"base_weights":[-3.2163437E-2,-1.3840282E0,1.0310303E0,-1.5460632E0,1.3373312E-1,1.1090096E0,-6.012757E-1,-1.6243606E0,-1.1143798E-1,-1.9493651E-1,7.934405E-1,-1.8072131E-1,1.2070354E0,-9.319276E-1,3.808101E-1,-3.6282662E-1,1.2708707E0],"categories":[],"categories_nodes":[],"categories_segments":[],"categories_sizes":[],"default_left":[1,1,1,1,1,1,0,0,0,0,0,1,1,0,0,0,0],"id":4,"left_children":[1,3,5,7,9,11,-1,-1,-1,-1,-1,13,15,-1,-1,-1,-1],"loss_changes":[5.661493E2,4.6234314E1,3.0947586E1,1.3804504E1,5.6405945E0,2.946643E1,0E0,0E0,0E0,0E0,0E0,8.966272E0,2.3095581E1,0E0,0E0,0E0,0E0],"parents":[2147483647,0,0,1,1,2,2,3,3,4,4,5,5,11,11,12,12],"right_children":[2,4,6,8,10,12,-1,-1,-1,-1,-1,14,16,-1,-1,-1,-1],"split_conditions":[-4.2986445E-2,-1.23453975E-1,3.1773295E0,7.498647E-2,-1.448803E-1,-3.2448235E-1,-3.0063784E-2,-8.121803E-2,-5.571899E-3,-9.746826E-3,3.967203E-2,3.6426056E-2,-1.0385773E0,-4.659638E-2,1.9040506E-2,-1.8141331E-2,6.3543536E-2],"split_indices":[34,3,23,20,8,3,0,0,0,0,0,20,13,0,0,0,0],"split_type":[0,0,0,0,0,0,0,0,0,0,0,0,0,0,0,0,0],"sum_hessian":[3.874297E2,1.7098978E2,2.1643991E2,1.5563599E2,1.5353788E1,2.0865878E2,7.7811346E0,1.4588329E2,9.752711E0,9.635311E0,5.7184772E0,1.3118914E1,1.9553987E2,6.2887607E0,6.8301525E0,5.8672748E0,1.8967259E2],"tree_param":{"num_deleted":"0","num_feature":"40","num_nodes":"17","size_leaf_vector":"0"}},{"base_weights":[8.686368E-3,-1.6147077E0,1.1894162E0,-1.0518311E0,1.439263E0,-1.2964453E0,-0E0,1.5778056E-1,1.4771801E0,3.509229E-1,1.512375E0],"categories":[],"categories_nodes":[],"categories_segments":[],"categories_sizes":[],"default_left":[1,0,1,1,1,0,0,0,1,0,0],"id":5,"left_children":[1,-1,3,5,7,-1,-1,-1,9,-1,-1],"loss_changes":[7.237443E2,0E0,1.2825815E2,4.436592E0,5.7295227E0,0E0,0E0,0E0,2.2913818E0,0E0,0E0],"parents":[2147483647,0,0,2,2,3,3,4,4,8,8],"right_children":[2,-1,4,6,8,-1,-1,-1,10,-1,-1],"split_conditions":[2.667971E-1,-8.0735385E-2,-4.735003E-1,-3.6456236E-1,-1.0660075E0,-6.4822264E-2,-0E0,7.889028E-3,-1.0473857E-1,1.7546145E-2,7.561875E-2],"split_indices":[10,0,36,3,18,0,0,0,34,0,0],"split_type":[0,0,0,0,0,0,0,0,0,0,0],"sum_hessian":[3.7201938E2,1.5546832E2,2.1655106E2,1.9950531E1,1.9660052E2,1.4746551E1,5.20398E0,7.61075E0,1.8898978E2,8.446171E0,1.805436E2],"tree_param":{"num_deleted":"0","num_feature":"40","num_nodes":"11","size_leaf_vector":"0"}},{"base_weights":[-1.3691386E-2,-1.3991387E0,1.1602286E0,-1.5133226E0,-7.402385E-1,1.4284347E0,-1.3215545E0,6.240527E-1,-1.3386245E0,4.0375817E-1,1.4613284E0],"categories":[],"categories_nodes":[],"categories_segments":[],"categories_sizes":[],"default_left":[1,1,1,0,1,1,0,0,0,1,1],"id":6,"left_children":[1,3,5,-1,7,-1,-1,-1,-1,-1,-1],"loss_changes":[6.138117E2,5.2036743E0,1.4125058E2,0E0,3.1790518E1,7.5912476E-1,0E0,0E0,0E0,0E0,0E0],"parents":[2147483647,0,0,1,1,2,2,4,4,5,5],"right_children":[2,4,6,-1,8,-1,-1,-1,-1,-1,-1],"split_conditions":[-1.6731049E-1,-1.0061942E-1,5.855483E-1,-7.566613E-2,-4.280512E-1,7.1421735E-2,-6.607773E-2,3.1202635E-2,-6.6931225E-2,2.0187909E-2,7.306642E-2],"split_indices":[11,3,12,0,24,33,0,0,0,2147483647,2147483647],"split_type":[0,0,0,0,0,0,0,0,0,0,0],"sum_hessian":[3.711161E2,1.7073944E2,2.0037665E2,1.3961867E2,3.1120758E1,1.8271031E2,1.7666328E1,8.429927E0,2.2690832E1,8.812623E0,1.7389769E2],"tree_param":{"num_deleted":"2","num_feature":"40","num_nodes":"11","size_leaf_vector":"0"}},{"base_weights":[-1.8024432E-2,-1.521182E0,1.081361E0,-1.2655748E0,1.3080857E0,4.4218585E-1,1.3863603E0,7.7833515E-1,-7.860727E-2,4.575978E-1,1.4301946E0],"categories":[],"categories_nodes":[],"categories_segments":[],"categories_sizes":[],"default_left":[1,0,1,0,1,1,1,0,0,0,0],"id":7,"left_children":[1,-1,3,-1,5,7,9,-1,-1,-1,-1],"loss_changes":[6.114258E2,0E0,1.1820349E2,0E0,7.7996826E0,5.572031E0,1.441864E0,0E0,0E0,0E0,0E0],"parents":[2147483647,0,0,2,2,4,4,5,5,6,6],"right_children":[2,-1,4,-1,6,8,10,-1,-1,-1,-1],"split_conditions":[2.728359E-1,-7.6059096E-2,-4.778976E-1,-6.327874E-2,-8.153587E-1,-8.3221537E-1,-5.8495057E-1,3.891676E-2,-3.9303633E-3,2.287989E-2,7.1509734E-2],"split_indices":[10,0,35,0,28,39,11,0,0,0,0],"split_type":[0,0,0,0,0,0,0,0,0,0,0],"sum_hessian":[3.6347092E2,1.5382236E2,2.0964857E2,1.6480782E1,1.9316779E2,1.9786074E1,1.7338171E2,1.3456942E1,6.329131E0,1.1417253E1,1.6196446E2],"tree_param":{"num_deleted":"0","num_feature":"40","num_nodes":"11","size_leaf_vector":"0"}},{"base_weights":[5.21139E-3,-1.3332069E0,8.900808E-1,-1.4120983E0,-0E0,-2.1344492E-1,1.0412197E0,5.72666E-1,-7.9746306E-1,1.1117951E0,-5.6020653E-1,-1.0432391E0,-0E0,-2.6609126E-1,1.1659454E0],"categories":[],"categories_nodes":[],"categories_segments":[],"categories_sizes":[],"default_left":[1,1,1,0,0,1,1,0,1,1,0,0,0,0,0],"id":8,"left_children":[1,3,5,-1,-1,7,9,-1,11,13,-1,-1,-1,-1,-1],"loss_changes":[4.4171246E2,1.4332947E1,3.9993256E1,0E0,0E0,1.4722077E1,2.5661911E1,0E0,1.8744869E0,1.7241821E1,0E0,0E0,0E0,0E0,0E0],"parents":[2147483647,0,0,1,1,2,2,5,5,6,6,8,8,9,9],"right_children":[2,4,6,-1,-1,8,10,-1,12,14,-1,-1,-1,-1,-1],"split_conditions":[-1.06726885E-1,-1.6697204E-1,-3.652239E-2,-7.060491E-2,-0E0,-1.5159255E-1,3.5285604E0,2.86333E-2,-1.0491793E-1,-1.0511346E0,-2.8010327E-2,-5.2161958E-2,-0E0,-1.3304563E-2,5.8297273E-2],"split_indices":[2,3,34,0,0,6,35,0,3,13,0,0,0,0,0],"split_type":[0,0,0,0,0,0,0,0,0,0,0,0,0,0,0],"sum_hessian":[3.677079E2,1.4484335E2,2.2286453E2,1.3597327E2,8.870085E0,2.5103588E1,1.9776094E2,9.265555E0,1.5838033E1,1.9148813E2,6.272814E0,9.729832E0,6.1082E0,5.4002366E0,1.8608789E2],"tree_param":{"num_deleted":"0","num_feature":"40","num_nodes":"15","size_leaf_vector":"0"}},{"base_weights":[-3.6644798E-2,-1.4550021E0,9.710432E-1,-1.1888163E0,1.1838841E0,2.2804824E-1,1.2865764E0,5.694209E-1,-1.933466E-1,2.4126078E-1,1.3330514E0],"categories":[],"categories_nodes":[],"categories_segments":[],"categories_sizes":[],"default_left":[1,0,1,0,1,1,1,0,0,0,0],"id":9,"left_children":[1,-1,3,-1,5,7,9,-1,-1,-1,-1],"loss_changes":[5.1082166E2,0E0,9.973761E1,0E0,1.4887756E1,4.551317E0,4.1641846E0,0E0,0E0,0E0,0E0],"parents":[2147483647,0,0,2,2,4,4,5,5,6,6],"right_children":[2,-1,4,-1,6,8,10,-1,-1,-1,-1],"split_conditions":[2.6615715E-1,-7.275011E-2,-5.847274E-1,-5.9440818E-2,-8.925403E-2,7.767635E-2,-9.562541E-1,2.8471043E-2,-9.66733E-3,1.20630395E-2,6.665257E-2],"split_indices":[10,0,2,0,34,39,31,0,0,0,0],"split_type":[0,0,0,0,0,0,0,0,0,0,0],"sum_hessian":[3.5075967E2,1.4596364E2,2.0479605E2,1.6294113E1,1.8850194E2,2.1114132E1,1.673878E2,1.370445E1,7.4096823E0,9.747811E0,1.5763998E2],"tree_param":{"num_deleted":"0","num_feature":"40","num_nodes":"11","size_leaf_vector":"0"}},{"base_weights":[-5.18234E-3,-1.418726E0,1.022113E0,-1.1538811E0,1.21308E0,-0E0,1.2574645E0,1.2766775E0,1.3491336E-1],"categories":[],"categories_nodes":[],"categories_segments":[],"categories_sizes":[],"default_left":[1,0,1,0,1,0,1,1,1],"id":10,"left_children":[1,-1,3,-1,5,-1,-1,-1,-1],"loss_changes":[5.1123074E2,0E0,8.857182E1,0E0,9.559113E0,0E0,5.781555E-1,0E0,0E0],"parents":[2147483647,0,0,2,2,4,4,6,6],"right_children":[2,-1,4,-1,6,-1,-1,-1,-1],"split_conditions":[2.6427764E-1,-7.09363E-2,-4.7129145E-1,-5.7694055E-2,-5.0446296E-1,-0E0,6.287323E-2,6.383388E-2,6.7456677E-3],"split_indices":[10,0,3,0,25,0,10,2147483647,2147483647],"split_type":[0,0,0,0,0,0,0,0,0],"sum_hessian":[3.455145E2,1.4575774E2,1.9975677E2,1.4051017E1,1.8570576E2,7.0409193E0,1.7866484E2,1.7350172E2,5.1631174E0],"tree_param":{"num_deleted":"2","num_feature":"40","num_nodes":"9","size_leaf_vector":"0"}},{"base_weights":[7.6966947E-3,-1.3877057E0,9.888674E-1,-1.1572964E0,1.1864827E0,1.9497876E-1,1.2718921E0,5.496416E-1,-2.4814363E-1,3.3509198E-1,1.3031031E0],"categories":[],"categories_nodes":[],"categories_segments":[],"categories_sizes":[],"default_left":[1,0,1,0,1,1,1,0,0,1,1],"id":11,"left_children":[1,-1,3,-1,5,7,-1,-1,-1,-1,-1],"loss_changes":[4.8658643E2,0E0,9.317474E1,0E0,1.279187E1,4.284959E0,5.7888794E-1,0E0,0E0,0E0,0E0],"parents":[2147483647,0,0,2,2,4,4,5,5,6,6],"right_children":[2,-1,4,-1,6,8,-1,-1,-1,-1,-1],"split_conditions":[2.6615715E-1,-6.938528E-2,-4.2193854E-1,-5.7864822E-2,-8.558217E-2,-4.4803685E-1,6.35946E-2,2.7482081E-2,-1.2407182E-2,1.67546E-2,6.5155156E-2],"split_indices":[10,0,3,0,34,24,16,0,0,2147483647,2147483647],"split_type":[0,0,0,0,0,0,0,0,0,0,0],"sum_hessian":[3.4997455E2,1.4313263E2,2.0684192E2,1.5358134E1,1.9148378E2,1.7824715E1,1.7365907E2,1.2006956E1,5.8177586E0,8.800504E0,1.6485857E2],"tree_param":{"num_deleted":"2","num_feature":"40","num_nodes":"11","size_leaf_vector":"0"}},{"base_weights":[4.61894E-2,-1.3557011E0,9.5384175E-1,-1.0728048E0,1.1293503E0,4.8799467E-1,1.2650082E0,6.641403E-1,-1.8522511E-1,3.0683133E-1,1.3049885E0],"categories":[],"categories_nodes":[],"categories_segments":[],"categories_sizes":[],"default_left":[1,0,1,0,1,1,1,0,0,0,0],"id":12,"left_children":[1,-1,3,-1,5,7,9,-1,-1,-1,-1],"loss_changes":[4.2038635E2,0E0,7.54915E1,0E0,1.0998535E1,6.1034603E0,1.3487854E0,0E0,0E0,0E0,0E0],"parents":[2147483647,0,0,2,2,4,4,5,5,6,6],"right_children":[2,-1,4,-1,6,8,10,-1,-1,-1,-1],"split_conditions":[2.710929E-1,-6.7785054E-2,-5.847274E-1,-5.3640243E-2,-2.6456523E-1,-3.9276302E-1,-5.684639E-1,3.3207014E-2,-9.261256E-3,1.5341567E-2,6.524943E-2],"split_indices":[10,0,2,0,17,13,11,0,0,0,0],"split_type":[0,0,0,0,0,0,0,0,0,0,0],"sum_hessian":[3.249638E2,1.2626309E2,1.9870071E2,1.3705569E1,1.8499515E2,3.7279934E1,1.4771521E2,3.1935404E1,5.34453E0,8.962648E0,1.3875256E2],"tree_param":{"num_deleted":"0","num_feature":"40","num_nodes":"11","size_leaf_vector":"0"}},{"base_weights":[4.6432346E-2,-1.3313456E0,9.539954E-1,-1.056921E0,1.1259611E0,-0E0,1.1575876E0,5.3953547E-3,1.1905797E0],"categories":[],"categories_nodes":[],"categories_segments":[],"categories_sizes":[],"default_left":[1,0,1,0,1,0,1,0,0],"id":13,"left_children":[1,-1,3,-1,5,-1,7,-1,-1],"loss_changes":[4.2443375E2,0E0,7.487067E1,0E0,6.649719E0,0E0,4.680496E0,0E0,0E0],"parents":[2147483647,0,0,2,2,4,4,6,6],"right_children":[2,-1,4,-1,6,-1,8,-1,-1],"split_conditions":[2.6615715E-1,-6.656728E-2,-5.847274E-1,-5.284605E-2,-5.1671946E-1,-0E0,-1.2556813E0,2.6976774E-4,5.9528984E-2],"split_indices":[10,0,2,0,23,0,16,0,0],"split_type":[0,0,0,0,0,0,0,0,0],"sum_hessian":[3.339892E2,1.3120358E2,2.0278561E2,1.3842845E1,1.8894278E2,5.3824787E0,1.8356029E2,6.8944335E0,1.7666586E2],"tree_param":{"num_deleted":"0","num_feature":"40","num_nodes":"9","size_leaf_vector":"0"}},{"base_weights":[2.2848379E-2,-1.3037816E0,9.161741E-1,-8.3938414E-1,1.096719E0,3.0125558E-1,1.1721364E0,6.323384E-1,-2.0113127E-1,-0E0,1.2225004E0],"categories":[],"categories_nodes":[],"categories_segments":[],"categories_sizes":[],"default_left":[1,0,1,0,1,1,1,0,0,0,0],"id":14,"left_children":[1,-1,3,-1,5,7,9,-1,-1,-1,-1],"loss_changes":[3.703204E2,0E0,6.285823E1,0E0,6.359543E0,4.7863774E0,9.070038E0,0E0,0E0,0E0,0E0],"parents":[2147483647,0,0,2,2,4,4,5,5,6,6],"right_children":[2,-1,4,-1,6,8,10,-1,-1,-1,-1],"split_conditions":[2.710929E-1,-6.5189086E-2,-6.746709E-1,-4.1969206E-2,-1.21876955E-1,2.2273105E-1,-1.1557372E0,3.1616922E-2,-1.0056564E-2,-0E0,6.112502E-2],"split_indices":[10,0,33,0,20,3,16,0,0,0,0],"split_type":[0,0,0,0,0,0,0,0,0,0,0],"sum_hessian":[3.0710736E2,1.2212655E2,1.849808E2,1.5195893E1,1.697849E2,1.8297293E1,1.5148761E2,1.2960835E1,5.3364563E0,6.3978934E0,1.4508972E2],"tree_param":{"num_deleted":"0","num_feature":"40","num_nodes":"11","size_leaf_vector":"0"}},{"base_weights":[-2.6500152E-2,-1.1063824E0,8.830923E-1,-1.244493E0,-4.9152157E-1,1.1144363E0,-1.0013862E0,3.335319E-1,-9.1252106E-1,6.456328E-1,1.2880362E0,7.642618E-1,-0E0],"categories":[],"categories_nodes":[],"categories_segments":[],"categories_sizes":[],"default_left":[1,1,1,0,1,1,0,0,0,1,0,0,0],"id":15,"left_children":[1,3,5,-1,7,9,-1,-1,-1,11,-1,-1,-1],"loss_changes":[3.0206656E2,6.6974792E0,7.582176E1,0E0,1.3722397E1,5.8426666E0,0E0,0E0,0E0,4.637806E0,0E0,0E0,0E0],"parents":[2147483647,0,0,1,1,2,2,4,4,5,5,9,9],"right_children":[2,4,6,-1,8,10,-1,-1,-1,12,-1,-1,-1],"split_conditions":[-1.6155857E-1,-1.0061942E-1,5.853598E-1,-6.2224653E-2,-4.2774862E-1,2.3764345E-1,-5.006931E-2,1.6676595E-2,-4.5626055E-2,1.9767496E-1,6.440181E-2,3.821309E-2,-0E0],"split_indices":[11,3,12,0,24,32,0,0,0,3,0,0,0],"split_type":[0,0,0,0,0,0,0,0,0,0,0,0,0],"sum_hessian":[3.010855E2,1.3836554E2,1.6271997E2,1.078217E2,3.0543839E1,1.4696527E2,1.5754702E1,8.925258E0,2.161858E1,4.6654274E1,1.00311E2,4.037605E1,6.2782245E0],"tree_param":{"num_deleted":"0","num_feature":"40","num_nodes":"13","size_leaf_vector":"0"}},{"base_weights":[5.8006374E-3,-1.2629858E0,8.5055393E-1,-5.372679E-1,1.1186013E0,1.4543803E-1,-1.0100209E0,-0E0,1.1463758E0,-3.8364062E-3,5.0174195E-1,-0E0,1.1769291E0],"categories":[],"categories_nodes":[],"categories_segments":[],"categories_sizes":[],"default_left":[1,0,1,1,1,1,0,0,1,0,0,0,0],"id":16,"left_children":[1,-1,3,5,7,9,-1,-1,11,-1,-1,-1,-1],"loss_changes":[3.3212323E2,0E0,7.268466E1,1.2225847E1,3.2883148E0,1.7270215E0,0E0,0E0,3.4600983E0,0E0,0E0,0E0,0E0],"parents":[2147483647,0,0,2,2,3,3,4,4,5,5,8,8],"right_children":[2,-1,4,6,8,10,-1,-1,12,-1,-1,-1,-1],"split_conditions":[2.710929E-1,-6.3149296E-2,-7.490343E-1,-1.2460134E0,-9.8174036E-1,-1.0089066E0,-5.0501045E-2,-0E0,-1.2692683E0,-1.918203E-4,2.5087098E-2,-0E0,5.8846455E-2],"split_indices":[10,0,13,15,28,31,0,0,12,0,0,0,0],"split_type":[0,0,0,0,0,0,0,0,0,0,0,0,0],"sum_hessian":[3.0463373E2,1.2021806E2,1.8441566E2,2.8157104E1,1.5625856E2,1.0639322E1,1.7517782E1,5.121368E0,1.5113719E2,5.633617E0,5.0057054E0,5.40101E0,1.4573619E2],"tree_param":{"num_deleted":"0","num_feature":"40","num_nodes":"13","size_leaf_vector":"0"}},{"base_weights":[-1.2724782E-2,-1.2426025E0,8.145194E-1,-9.498326E-1,1.0190682E0,-0E0,1.0856087E0,5.189495E-1,-2.861321E-1,6.2133104E-1,1.2261131E0],"categories":[],"categories_nodes":[],"categories_segments":[],"categories_sizes":[],"default_left":[1,0,1,0,1,1,1,0,0,0,0],"id":17,"left_children":[1,-1,3,-1,5,7,9,-1,-1,-1,-1],"loss_changes":[2.9581393E2,0E0,6.525451E1,0E0,8.474045E0,3.0572681E0,3.5096436E0,0E0,0E0,0E0,0E0],"parents":[2147483647,0,0,2,2,4,4,5,5,6,6],"right_children":[2,-1,4,-1,6,8,10,-1,-1,-1,-1],"split_conditions":[2.7283204E-1,-6.2130123E-2,-3.052908E-1,-4.7491632E-2,-5.770229E-1,-6.075154E-1,-1.9979868E-3,2.5947476E-2,-1.4306605E-2,3.1066552E-2,6.1305653E-2],"split_indices":[10,0,2,0,11,11,1,0,0,0,0],"split_type":[0,0,0,0,0,0,0,0,0,0,0],"sum_hessian":[2.8392624E2,1.1454365E2,1.6938258E2,1.5445752E1,1.5393683E2,1.1458503E1,1.4247833E2,5.685118E0,5.773385E0,4.0186916E1,1.0229141E2],"tree_param":{"num_deleted":"0","num_feature":"40","num_nodes":"11","size_leaf_vector":"0"}},{"base_weights":[-0E0,-1.0504165E0,8.508577E-1,-1.1723938E0,-3.8799325E-1,1.0806491E0,-1.0175762E0,1.7280494E-1,-8.250648E-1,1.2226028E0,6.4792615E-1,-0E0,7.9416674E-1],"categories":[],"categories_nodes":[],"categories_segments":[],"categories_sizes":[],"default_left":[1,1,1,0,1,1,0,0,0,0,1,0,0],"id":18,"left_children":[1,3,5,-1,7,9,-1,-1,-1,-1,11,-1,-1],"loss_changes":[2.6422192E2,6.25679E0,7.312823E1,0E0,8.523578E0,2.910614E0,0E0,0E0,0E0,0E0,5.819866E0,0E0,0E0],"parents":[2147483647,0,0,1,1,2,2,4,4,5,5,10,10],"right_children":[2,4,6,-1,8,10,-1,-1,-1,-1,12,-1,-1],"split_conditions":[-1.6731049E-1,3.207688E-3,6.3038164E-1,-5.861969E-2,3.9542485E-3,-8.7437645E-2,-5.087881E-2,8.640247E-3,-4.125324E-2,6.1130144E-2,-9.579086E-3,-0E0,3.970834E-2],"split_indices":[11,3,12,0,22,8,0,0,0,0,12,0,0],"split_type":[0,0,0,0,0,0,0,0,0,0,0,0,0],"sum_hessian":[2.892927E2,1.2994698E2,1.5934572E2,1.0523956E2,2.4707405E1,1.439742E2,1.5371529E1,9.61218E0,1.5095226E1,1.0080678E2,4.3167416E1,6.20975E0,3.6957664E1],"tree_param":{"num_deleted":"0","num_feature":"40","num_nodes":"13","size_leaf_vector":"0"}},{"base_weights":[-4.3251384E-2,-1.2094703E0,7.573588E-1,-9.300594E-1,9.2637354E-1,5.2183E-1,1.1494907E0,6.3053954E-1,-0E0,4.9094662E-2,1.1896449E0],"categories":[],"categories_nodes":[],"categories_segments":[],"categories_sizes":[],"default_left":[1,0,1,0,1,1,1,0,0,0,0],"id":19,"left_children":[1,-1,3,-1,5,7,9,-1,-1,-1,-1],"loss_changes":[2.5937466E2,0E0,4.9129242E1,0E0,8.4823E0,4.690222E0,1.3950653E0,0E0,0E0,0E0,0E0],"parents":[2147483647,0,0,2,2,4,4,5,5,6,6],"right_children":[2,-1,4,-1,6,8,10,-1,-1,-1,-1],"split_conditions":[2.710929E-1,-6.0473513E-2,-6.0323465E-1,-4.650297E-2,3.4930354E-1,1.6350016E-1,-2.4111547E-1,3.152698E-2,-0E0,2.4547332E-3,5.9482247E-2],"split_indices":[10,0,2,0,32,9,25,0,0,0,0],"split_type":[0,0,0,0,0,0,0,0,0,0,0],"sum_hessian":[2.708846E2,1.1065852E2,1.602261E2,1.2280243E1,1.4794586E2,5.933795E1,8.86079E1,5.149281E1,7.845142E0,5.1078243E0,8.350008E1],"tree_param":{"num_deleted":"0","num_feature":"40","num_nodes":"11","size_leaf_vector":"0"}},{"base_weights":[-2.8877357E-2,-9.694616E-1,7.250226E-1,-1.1498611E0,-3.2671896E-1,-1.0528635E0,1.0089908E0,4.0642622E-1,-7.631029E-1,-0E0,1.0652504E0,-9.1226125E-1,-0E0,6.107821E-1,1.1916038E0],"categories":[],"categories_nodes":[],"categories_segments":[],"categories_sizes":[],"default_left":[1,1,1,0,1,0,1,0,1,0,1,1,1,0,0],"id":20,"left_children":[1,3,5,-1,7,-1,9,-1,-1,-1,13,-1,-1,-1,-1],"loss_changes":[1.8862993E2,9.739479E0,7.6890816E1,0E0,1.2118785E1,0E0,6.81781E0,0E0,9.6879196E-1,0E0,1.1786346E0,0E0,0E0,0E0,0E0],"parents":[2147483647,0,0,1,1,2,2,4,4,6,6,8,8,10,10],"right_children":[2,4,6,-1,8,-1,10,-1,-1,-1,14,-1,-1,-1,-1],"split_conditions":[-1.6731049E-1,-1.02580495E-1,-3.529187E-2,-5.7493057E-2,-4.6092874E-1,-5.2643176E-2,-1.007672E0,2.0321311E-2,-3.8155146E-2,-0E0,2.421888E-1,-4.561306E-2,-0E0,3.0539105E-2,5.958019E-2],"split_indices":[11,3,33,0,21,0,13,0,2,0,7,2147483647,2147483647,0,0],"split_type":[0,0,0,0,0,0,0,0,0,0,0,0,0,0,0],"sum_hessian":[2.5934763E2,1.1618608E2,1.4316154E2,8.644484E1,2.9741243E1,1.762813E1,1.2553342E2,9.464043E0,2.02772E1,7.2099276E0,1.1832349E2,1.44517565E1,5.8254437E0,3.2991142E1,8.5332344E1],"tree_param":{"num_deleted":"2","num_feature":"40","num_nodes":"15","size_leaf_vector":"0"}},{"base_weights":[-4.2207766E-2,-1.1787001E0,7.09865E-1,-9.3307054E-1,8.936469E-1,4.6677583E-1,1.1210032E0,6.5228915E-1,-2.1297027E-1,-0E0,1.1744213E0],"categories":[],"categories_nodes":[],"categories_segments":[],"categories_sizes":[],"default_left":[1,0,1,0,1,1,1,0,0,0,0],"id":21,"left_children":[1,-1,3,-1,5,7,9,-1,-1,-1,-1],"loss_changes":[2.2696954E2,0E0,5.0185493E1,0E0,9.317291E0,8.678947E0,3.6150742E0,0E0,0E0,0E0,0E0],"parents":[2147483647,0,0,2,2,4,4,5,5,6,6],"right_children":[2,-1,4,-1,6,8,10,-1,-1,-1,-1],"split_conditions":[2.710929E-1,-5.8935005E-2,-5.7001674E-1,-4.6653528E-2,3.4930354E-1,2.869593E-1,-2.2441763E-2,3.261446E-2,-1.0648514E-2,-0E0,5.8721066E-2],"split_indices":[10,0,2,0,32,3,20,0,0,0,0],"split_type":[0,0,0,0,0,0,0,0,0,0,0],"sum_hessian":[2.5851306E2,1.0332752E2,1.5518555E2,1.3287459E1,1.4189809E2,5.555227E1,8.634582E1,4.6048397E1,9.503872E0,5.3218846E0,8.102393E1],"tree_param":{"num_deleted":"0","num_feature":"40","num_nodes":"11","size_leaf_vector":"0"}},{"base_weights":[-0E0,-9.952403E-1,6.107995E-1,-1.0848806E0,-0E0,-0E0,7.31461E-1,-1.1365407E0,-2.731757E-1,6.3910246E-1,-5.469121E-1,-0E0,8.3562577E-1,-8.273932E-1,-0E0,2.9017258E-1,-5.764821E-1,9.1963017E-1,-0E0],"categories":[],"categories_nodes":[],"categories_segments":[],"categories_sizes":[],"default_left":[1,1,1,1,0,1,1,1,1,0,1,1,1,0,0,0,0,0,0],"id":22,"left_children":[1,3,5,-1,-1,9,11,-1,-1,-1,13,15,17,-1,-1,-1,-1,-1,-1],"loss_changes":[1.599222E2,9.017204E0,1.322847E1,1.162796E-1,0E0,1.0420409E1,1.1196686E1,0E0,0E0,0E0,1.723824E0,3.9464808E0,9.341263E0,0E0,0E0,0E0,0E0,0E0,0E0],"parents":[2147483647,0,0,1,1,2,2,3,3,5,5,6,6,10,10,11,11,12,12],"right_children":[2,4,6,-1,-1,10,12,-1,-1,-1,14,16,18,-1,-1,-1,-1,-1,-1],"split_conditions":[-2.9868764E-1,1.2304383E-2,-4.330335E-2,-5.424403E-2,-0E0,-3.2857442E-1,-7.3253775E-1,-5.6827035E-2,-1.3658784E-2,3.1955123E-2,5.1982445E-1,-1.8820658E-2,1.8840225E0,-4.1369658E-2,-0E0,1.4508629E-2,-2.8824106E-2,4.5981508E-2,-0E0],"split_indices":[3,2,34,2,0,6,13,2147483647,2147483647,0,4,36,30,0,0,0,0,0,0],"split_type":[0,0,0,0,0,0,0,0,0,0,0,0,0,0,0,0,0,0,0],"sum_hessian":[2.563679E2,9.7479904E1,1.5888799E2,8.922261E1,8.257293E0,2.4280191E1,1.346078E2,8.043865E1,8.7839575E0,9.467785E0,1.4812407E1,1.6133833E1,1.1847396E2,7.3008385E0,7.511568E0,1.0739861E1,5.3939734E0,1.0834062E2,1.0133344E1],"tree_param":{"num_deleted":"2","num_feature":"40","num_nodes":"19","size_leaf_vector":"0"}},{"base_weights":[-0E0,-1.1562004E0,7.376296E-1,-7.384419E-1,9.1522896E-1,-0E0,9.8498577E-1,5.556269E-1,1.1485513E0],"categories":[],"categories_nodes":[],"categories_segments":[],"categories_sizes":[],"default_left":[1,0,1,0,1,0,1,0,0],"id":23,"left_children":[1,-1,3,-1,5,-1,7,-1,-1],"loss_changes":[2.1799275E2,0E0,4.3518906E1,0E0,9.473465E0,0E0,4.0104675E0,0E0,0E0],"parents":[2147483647,0,0,2,2,4,4,6,6],"right_children":[2,-1,4,-1,6,-1,8,-1,-1],"split_conditions":[2.6615715E-1,-5.781002E-2,-3.679541E-1,-3.6922093E-2,-5.776325E-1,-0E0,6.776893E-2,2.7781347E-2,5.7427566E-2],"split_indices":[10,0,2,0,11,0,7,0,0],"split_type":[0,0,0,0,0,0,0,0,0],"sum_hessian":[2.5012485E2,9.6199814E1,1.5392503E2,1.4304216E1,1.3962082E2,9.72106E0,1.2989977E2,4.2846447E1,8.7053314E1],"tree_param":{"num_deleted":"0","num_feature":"40","num_nodes":"9","size_leaf_vector":"0"}},{"base_weights":[-4.122166E-2,-1.1424489E0,6.823358E-1,-0E0,1.0380753E0,2.632053E-1,-8.202081E-1,-0E0,1.0894678E0,5.2338934E-1,-6.9523156E-1,8.3681226E-2,1.1274604E0],"categories":[],"categories_nodes":[],"categories_segments":[],"categories_sizes":[],"default_left":[1,0,1,1,1,1,0,0,1,0,0,1,1],"id":24,"left_children":[1,-1,3,5,7,9,-1,-1,-1,-1,-1,-1,-1],"loss_changes":[1.9166411E2,0E0,3.4490685E1,1.1796926E1,3.6070633E0,1.12964525E1,0E0,0E0,6.717682E-1,0E0,0E0,0E0,0E0],"parents":[2147483647,0,0,2,2,3,3,4,4,5,5,8,8],"right_children":[2,-1,4,6,8,10,-1,-1,-1,-1,-1,-1,-1],"split_conditions":[2.7283204E-1,-5.7122447E-2,-1.9820403E-2,1.5860646E0,-1.1034396E-1,-2.3752385E-1,-4.1010406E-2,-0E0,5.447339E-2,2.6169468E-2,-3.4761578E-2,4.184061E-3,5.637302E-2],"split_indices":[10,0,31,11,20,6,0,0,1,0,0,2147483647,2147483647],"split_type":[0,0,0,0,0,0,0,0,0,0,0,0,0],"sum_hessian":[2.3345206E2,9.297497E1,1.404771E2,4.948023E1,9.0996864E1,3.930062E1,1.0179605E1,5.619941E0,8.537692E1,3.3621864E1,5.678758E0,5.373464E0,8.0003456E1],"tree_param":{"num_deleted":"2","num_feature":"40","num_nodes":"13","size_leaf_vector":"0"}},{"base_weights":[-1.798315E-2,-8.97477E-1,6.048629E-1,-1.0490736E0,4.8358202E-2,6.7306817E-1,-1.8544017E-1,-1.0971252E0,-0E0,4.0312147E-1,-9.6375465E-2,2.3827094E-1,9.2113864E-1,4.348737E-1,-1.2740983E-1,-0E0,9.781998E-1],"categories":[],"categories_nodes":[],"categories_segments":[],"categories_sizes":[],"default_left":[1,1,1,1,1,1,0,0,0,0,0,1,1,0,0,0,0],"id":25,"left_children":[1,3,5,7,9,11,-1,-1,-1,-1,-1,13,15,-1,-1,-1,-1],"loss_changes":[1.3006247E2,1.6391655E1,8.739292E0,2.9207153E0,1.4880326E0,1.0955879E1,0E0,0E0,0E0,0E0,0E0,4.656436E0,3.3201065E0,0E0,0E0,0E0,0E0],"parents":[2147483647,0,0,1,1,2,2,3,3,4,4,5,5,11,11,12,12],"right_children":[2,4,6,8,10,12,-1,-1,-1,-1,-1,14,16,-1,-1,-1,-1],"split_conditions":[-3.545304E-2,-1.0533069E-1,2.729453E0,9.115289E-2,1.1183143E-1,6.4465916E-1,-9.272008E-3,-5.485626E-2,-0E0,2.0156074E-2,-4.8187734E-3,1.3270658E-1,-9.196149E-3,2.1743685E-2,-6.370492E-3,-0E0,4.890999E-2],"split_indices":[33,3,35,25,7,7,0,0,0,0,0,14,20,0,0,0,0],"split_type":[0,0,0,0,0,0,0,0,0,0,0,0,0,0,0,0,0],"sum_hessian":[2.3039024E2,9.629896E1,1.3409128E2,8.453666E1,1.1762295E1,1.26177536E2,7.913748E0,7.946326E1,5.0734043E0,5.860369E0,5.901925E0,5.09029E1,7.5274635E1,3.6292423E1,1.4610476E1,5.3958755E0,6.987875E1],"tree_param":{"num_deleted":"0","num_feature":"40","num_nodes":"17","size_leaf_vector":"0"}},{"base_weights":[-0E0,-1.1210265E0,6.809391E-1,-8.232462E-1,8.3996844E-1,-0E0,9.162934E-1,3.1159595E-1,-3.3961198E-1,-0E0,9.922709E-1],"categories":[],"categories_nodes":[],"categories_segments":[],"categories_sizes":[],"default_left":[1,0,1,0,1,1,1,0,0,0,0],"id":26,"left_children":[1,-1,3,-1,5,7,9,-1,-1,-1,-1],"loss_changes":[1.7504803E2,0E0,3.598385E1,0E0,8.671585E0,1.760038E0,7.8627396E0,0E0,0E0,0E0,0E0],"parents":[2147483647,0,0,2,2,4,4,5,5,6,6],"right_children":[2,-1,4,-1,6,8,10,-1,-1,-1,-1],"split_conditions":[2.6615715E-1,-5.6051325E-2,-5.847274E-1,-4.116231E-2,-5.846652E-1,-4.849451E-2,-1.0656228E0,1.5579797E-2,-1.69806E-2,-0E0,4.9613547E-2],"split_indices":[10,0,2,0,11,9,28,0,0,0,0],"split_type":[0,0,0,0,0,0,0,0,0,0,0],"sum_hessian":[2.2265642E2,8.404047E1,1.3861595E2,1.08532915E1,1.27762665E2,1.0548801E1,1.1721386E2,5.1471944E0,5.4016075E0,9.718874E0,1.0749499E2],"tree_param":{"num_deleted":"0","num_feature":"40","num_nodes":"11","size_leaf_vector":"0"}},{"base_weights":[-0E0,-1.1090164E0,6.701268E-1,-4.444951E-1,8.8685405E-1,1.5336621E-1,-7.436756E-1,-0E0,9.418153E-1,7.4799806E-2,1.0141928E0],"categories":[],"categories_nodes":[],"categories_segments":[],"categories_sizes":[],"default_left":[1,0,1,1,1,0,0,0,1,0,0],"id":27,"left_children":[1,-1,3,5,7,-1,-1,-1,9,-1,-1],"loss_changes":[1.6566841E2,0E0,3.5794987E1,5.676902E0,6.1645966E0,0E0,0E0,0E0,4.6739044E0,0E0,0E0],"parents":[2147483647,0,0,2,2,3,3,4,4,8,8],"right_children":[2,-1,4,6,8,-1,-1,-1,10,-1,-1],"split_conditions":[2.7283204E-1,-5.5450823E-2,-4.2712483E-1,-5.9157604E-1,-1.2348541E0,7.6683103E-3,-3.718378E-2,-0E0,-1.05518386E-1,3.7399903E-3,5.0709642E-2],"split_indices":[10,0,22,11,16,0,0,0,20,0,0],"split_type":[0,0,0,0,0,0,0,0,0,0,0],"sum_hessian":[2.1733994E2,8.0720795E1,1.3661914E2,2.022444E1,1.1639469E2,5.0033355E0,1.5221105E1,6.578553E0,1.0981614E2,1.1060061E1,9.875608E1],"tree_param":{"num_deleted":"0","num_feature":"40","num_nodes":"11","size_leaf_vector":"0"}},{"base_weights":[-0E0,-1.0987257E0,6.663327E-1,-5.759957E-1,8.5643786E-1,-0E0,-9.154119E-1,-0E0,9.106491E-1,-0E0,9.374582E-1],"categories":[],"categories_nodes":[],"categories_segments":[],"categories_sizes":[],"default_left":[1,0,1,1,1,0,0,0,1,0,0],"id":28,"left_children":[1,-1,3,5,7,-1,-1,-1,9,-1,-1],"loss_changes":[1.5966219E2,0E0,3.430722E1,4.145191E0,4.3048553E0,0E0,0E0,0E0,1.0114136E0,0E0,0E0],"parents":[2147483647,0,0,2,2,3,3,4,4,8,8],"right_children":[2,-1,4,6,8,-1,-1,-1,10,-1,-1],"split_conditions":[2.7283204E-1,-5.4936286E-2,-4.3403852E-1,-1.1587406E0,-1.0722017E0,-0E0,-4.5770597E-2,-0E0,-4.2849204E-1,-0E0,4.687291E-2],"split_indices":[10,0,33,32,28,0,0,0,23,0,0],"split_type":[0,0,0,0,0,0,0,0,0,0,0],"sum_hessian":[2.1263182E2,7.900984E1,1.33622E2,1.5529202E1,1.1809278E2,6.2465043E0,9.282698E0,8.797201E0,1.09295586E2,5.1800814E0,1.041155E2],"tree_param":{"num_deleted":"0","num_feature":"40","num_nodes":"11","size_leaf_vector":"0"}},{"base_weights":[-8.834382E-3,-1.0841773E0,6.1233E-1,-6.417096E-1,8.0056995E-1,-0E0,-8.8630277E-1,2.9868558E-1,9.66093E-1,7.0342433E-1,-3.54761E-1,-0E0,1.030042E0],"categories":[],"categories_nodes":[],"categories_segments":[],"categories_sizes":[],"default_left":[1,0,1,1,1,0,0,1,1,0,0,0,0],"id":29,"left_children":[1,-1,3,5,7,-1,-1,9,11,-1,-1,-1,-1],"loss_changes":[1.388067E2,0E0,3.2469284E1,2.4281945E0,6.197174E0,0E0,0E0,1.0960895E1,5.011261E0,0E0,0E0,0E0,0E0],"parents":[2147483647,0,0,2,2,3,3,4,4,7,7,8,8],"right_children":[2,-1,4,6,8,-1,-1,10,12,-1,-1,-1,-1],"split_conditions":[2.6615715E-1,-5.4208864E-2,-4.735003E-1,-1.2975869E0,-9.653643E-2,-0E0,-4.431514E-2,-6.1072886E-1,-8.516149E-2,3.517122E-2,-1.773805E-2,-0E0,5.1502105E-2],"split_indices":[10,0,36,26,17,0,0,1,20,0,0,0,0],"split_type":[0,0,0,0,0,0,0,0,0,0,0,0,0],"sum_hessian":[2.0041101E2,7.3739235E1,1.26671776E2,1.4202709E1,1.1246907E2,5.093574E0,9.109135E0,3.297663E1,7.949244E1,2.2111944E1,1.0864689E1,5.201754E0,7.429068E1],"tree_param":{"num_deleted":"0","num_feature":"40","num_nodes":"13","size_leaf_vector":"0"}},{"base_weights":[-7.922198E-3,-8.916644E-1,6.7626464E-1,-1.0609989E0,-3.611116E-1,8.7216765E-1,-8.267612E-1,3.35985E-1,-8.3187455E-1,1.3344623E-1,9.5547897E-1,5.244567E-1,-1.9405696E-1],"categories":[],"categories_nodes":[],"categories_segments":[],"categories_sizes":[],"default_left":[1,1,1,0,1,1,0,0,0,1,0,0,0],"id":30,"left_children":[1,3,5,-1,7,9,-1,-1,-1,11,-1,-1,-1],"loss_changes":[1.2542723E2,4.224304E0,3.6192947E1,0E0,1.1523258E1,3.8776932E0,0E0,0E0,0E0,3.081876E0,0E0,0E0,0E0],"parents":[2147483647,0,0,1,1,2,2,4,4,5,5,9,9],"right_children":[2,4,6,-1,8,10,-1,-1,-1,12,-1,-1,-1],"split_conditions":[-1.6731049E-1,-1.041899E-1,5.853598E-1,-5.3049948E-2,-4.4803685E-1,-1.3826568E0,-4.133806E-2,1.679925E-2,-4.1593727E-2,-1.0292286E0,4.777395E-2,2.6222834E-2,-9.702848E-3],"split_indices":[11,3,12,0,24,5,0,0,0,7,0,0,0],"split_type":[0,0,0,0,0,0,0,0,0,0,0,0,0],"sum_hessian":[2.0073521E2,8.847209E1,1.1226312E2,6.193536E1,2.653673E1,1.0160929E2,1.0653835E1,9.330611E0,1.720612E1,1.3521939E1,8.808735E1,8.124575E0,5.397365E0],"tree_param":{"num_deleted":"0","num_feature":"40","num_nodes":"13","size_leaf_vector":"0"}},{"base_weights":[3.2018516E-2,-1.0555514E0,6.568854E-1,-7.2313905E-1,8.067133E-1,-0E0,8.5799414E-1,5.61944E-1,1.0574397E0],"categories":[],"categories_nodes":[],"categories_segments":[],"categories_sizes":[],"default_left":[1,0,1,0,1,0,1,0,0],"id":31,"left_children":[1,-1,3,-1,5,-1,7,-1,-1],"loss_changes":[1.3830133E2,0E0,2.901735E1,0E0,5.03022E0,0E0,1.695755E0,0E0,0E0],"parents":[2147483647,0,0,2,2,4,4,6,6],"right_children":[2,-1,4,-1,6,-1,8,-1,-1],"split_conditions":[1.2576439E0,-5.277757E-2,-4.2193854E-1,-3.6156952E-2,-4.4037583E-1,-0E0,7.676352E-1,2.8097201E-2,5.2871983E-2],"split_indices":[10,0,3,0,25,0,32,0,0],"split_type":[0,0,0,0,0,0,0,0,0],"sum_hessian":[1.9862045E2,7.0554016E1,1.2806644E2,1.0110774E1,1.17955666E2,7.193446E0,1.10762215E2,5.3229927E1,5.7532288E1],"tree_param":{"num_deleted":"0","num_feature":"40","num_nodes":"9","size_leaf_vector":"0"}},{"base_weights":[2.0485101E-3,-1.0581542E0,6.144495E-1,-7.9423654E-1,7.558456E-1,3.278196E-1,9.852664E-1,5.557119E-1,-5.1327486E-2,-0E0,1.0322816E0],"categories":[],"categories_nodes":[],"categories_segments":[],"categories_sizes":[],"default_left":[1,0,1,0,1,1,1,0,0,0,0],"id":32,"left_children":[1,-1,3,-1,5,7,9,-1,-1,-1,-1],"loss_changes":[1.2787769E2,0E0,2.7000309E1,0E0,8.007065E0,5.3080893E0,1.534378E0,0E0,0E0,0E0,0E0],"parents":[2147483647,0,0,2,2,4,4,5,5,6,6],"right_children":[2,-1,4,-1,6,8,10,-1,-1,-1,-1],"split_conditions":[2.710929E-1,-5.2907713E-2,-4.7129145E-1,-3.971183E-2,2.1443543E-1,-1.05706036E-1,2.1999925E-1,2.7785597E-2,-2.5663744E-3,-0E0,5.1614083E-2],"split_indices":[10,0,3,0,32,25,11,0,0,0,0],"split_type":[0,0,0,0,0,0,0,0,0,0,0],"sum_hessian":[1.9231892E2,6.84197E1,1.2389922E2,8.748144E0,1.1515108E2,4.576762E1,6.938346E1,3.1007814E1,1.4759804E1,5.00334E0,6.438012E1],"tree_param":{"num_deleted":"0","num_feature":"40","num_nodes":"11","size_leaf_vector":"0"}},{"base_weights":[-2.3996364E-2,-1.0482471E0,5.369713E-1,-7.168904E-1,6.6745317E-1,2.759027E-1,9.4163984E-1,5.096543E-1,-2.565211E-1,-0E0,1.0041472E0],"categories":[],"categories_nodes":[],"categories_segments":[],"categories_sizes":[],"default_left":[1,0,1,0,1,1,1,0,0,0,0],"id":33,"left_children":[1,-1,3,-1,5,7,9,-1,-1,-1,-1],"loss_changes":[1.1028803E2,0E0,2.124683E1,0E0,8.94099E0,7.604012E0,2.3467293E0,0E0,0E0,0E0,0E0],"parents":[2147483647,0,0,2,2,4,4,5,5,6,6],"right_children":[2,-1,4,-1,6,8,10,-1,-1,-1,-1],"split_conditions":[2.710929E-1,-5.2412357E-2,-5.3686416E-1,-3.584452E-2,2.8857708E-1,-4.3477765E-3,-9.556944E-3,2.5482714E-2,-1.2826055E-2,-0E0,5.0207358E-2],"split_indices":[10,0,35,0,31,6,20,0,0,0,0],"split_type":[0,0,0,0,0,0,0,0,0,0,0],"sum_hessian":[1.8422968E2,6.5533585E1,1.1869608E2,8.472218E0,1.1022386E2,5.0879215E1,5.934465E1,3.8056053E1,1.2823161E1,5.1928415E0,5.415181E1],"tree_param":{"num_deleted":"0","num_feature":"40","num_nodes":"11","size_leaf_vector":"0"}},{"base_weights":[-0E0,-7.881287E-1,5.974899E-1,-0E0,-8.6625254E-1,7.95625E-1,-7.5951177E-1,-9.0467757E-1,-0E0,2.8726918E-1,1.0352243E0,-9.450241E-1,-1.415871E-3,4.9105093E-1,-3.3947647E-1],"categories":[],"categories_nodes":[],"categories_segments":[],"categories_sizes":[],"default_left":[1,1,1,0,1,1,0,1,1,1,0,1,1,0,0],"id":34,"left_children":[1,3,5,-1,-1,9,-1,-1,-1,13,-1,-1,-1,-1,-1],"loss_changes":[8.4868774E1,5.7879257E0,2.9048958E1,0E0,8.155632E-1,7.53574E0,0E0,5.701904E-1,0E0,5.3944993E0,0E0,0E0,0E0,0E0,0E0],"parents":[2147483647,0,0,1,1,2,2,4,4,5,5,7,7,9,9],"right_children":[2,4,6,-1,-1,10,-1,-1,-1,14,-1,-1,-1,-1,-1],"split_conditions":[-1.63412E-1,-1.4549932E0,6.3038164E-1,-0E0,-4.3312628E-2,3.94256E-1,-3.797559E-2,-4.523388E-2,-0E0,-1.1068653E-2,5.1761217E-2,-4.7251206E-2,-7.079355E-5,2.4552546E-2,-1.6973823E-2],"split_indices":[11,6,12,0,2,30,0,2147483647,2147483647,14,0,2147483647,2147483647,0,0],"split_type":[0,0,0,0,0,0,0,0,0,0,0,0,0,0,0],"sum_hessian":[1.7359695E2,7.556707E1,9.802989E1,5.819087E0,6.974798E1,8.790922E1,1.0120671E1,6.469596E1,5.052023E0,3.294796E1,5.496126E1,5.9677406E1,5.0185504E0,2.7761967E1,5.185992E0],"tree_param":{"num_deleted":"4","num_feature":"40","num_nodes":"15","size_leaf_vector":"0"}},{"base_weights":[1.8734276E-2,-1.0293694E0,5.775905E-1,-7.6789767E-1,7.157727E-1,3.918366E-1,1.0035911E0,5.656144E-1,-0E0],"categories":[],"categories_nodes":[],"categories_segments":[],"categories_sizes":[],"default_left":[1,0,1,0,1,1,0,0,0],"id":35,"left_children":[1,-1,3,-1,5,7,-1,-1,-1],"loss_changes":[1.06882835E2,0E0,2.4078773E1,0E0,6.547615E0,3.7476292E0,0E0,0E0,0E0],"parents":[2147483647,0,0,2,2,4,4,5,5],"right_children":[2,-1,4,-1,6,8,-1,-1,-1],"split_conditions":[2.678963E-1,-5.146847E-2,-4.7333914E-1,-3.8394883E-2,8.481398E-1,-1.076017E-1,5.0179552E-2,2.828072E-2,-0E0],"split_indices":[10,0,3,0,31,6,0,0,0],"split_type":[0,0,0,0,0,0,0,0,0],"sum_hessian":[1.7797255E2,5.9770954E1,1.1820159E2,8.387448E0,1.0981414E2,5.8267647E1,5.1546494E1,3.811787E1,2.0149776E1],"tree_param":{"num_deleted":"0","num_feature":"40","num_nodes":"9","size_leaf_vector":"0"}},{"base_weights":[1.9606555E-2,-1.0210469E0,5.8289915E-1,-6.9462246E-1,7.258522E-1,4.292108E-1,9.543878E-1,5.609222E-1,-0E0],"categories":[],"categories_nodes":[],"categories_segments":[],"categories_sizes":[],"default_left":[1,0,1,0,1,1,0,0,0],"id":36,"left_children":[1,-1,3,-1,5,7,-1,-1,-1],"loss_changes":[1.0103042E2,0E0,2.2389366E1,0E0,3.147789E0,3.4429407E0,0E0,0E0,0E0],"parents":[2147483647,0,0,2,2,4,4,5,5],"right_children":[2,-1,4,-1,6,8,-1,-1,-1],"split_conditions":[2.6427764E-1,-5.1052343E-2,-5.7001674E-1,-3.4731124E-2,6.039201E-1,8.227744E-3,4.771939E-2,2.804611E-2,-0E0],"split_indices":[10,0,2,0,30,9,0,0,0],"split_type":[0,0,0,0,0,0,0,0,0],"sum_hessian":[1.6779926E2,5.682661E1,1.1097265E2,8.594924E0,1.0237772E2,5.211613E1,5.026159E1,4.0213867E1,1.1902264E1],"tree_param":{"num_deleted":"0","num_feature":"40","num_nodes":"9","size_leaf_vector":"0"}},{"base_weights":[-6.0454034E-3,-1.0087512E0,4.7735804E-1,1.9059513E-3,9.3943864E-1,-7.338704E-1,1.918846E-1,-0E0,1.0165201E0,4.6834204E-1,-1.289414E-1],"categories":[],"categories_nodes":[],"categories_segments":[],"categories_sizes":[],"default_left":[1,0,1,1,1,0,1,0,0,0,0],"id":37,"left_children":[1,-1,3,5,7,-1,9,-1,-1,-1,-1],"loss_changes":[8.1884575E1,0E0,2.2538677E1,7.7167697E0,2.860527E0,0E0,5.4877634E0,0E0,0E0,0E0,0E0],"parents":[2147483647,0,0,2,2,3,3,4,4,6,6],"right_children":[2,-1,4,6,8,-1,10,-1,-1,-1,-1],"split_conditions":[2.7283204E-1,-5.043756E-2,3.4930354E-1,-4.7129145E-1,-2.7519656E-2,-3.669352E-2,-1.6802567E-1,-0E0,5.082601E-2,2.3417102E-2,-6.4470703E-3],"split_indices":[10,0,32,3,20,0,23,0,0,0,0],"split_type":[0,0,0,0,0,0,0,0,0,0,0],"sum_hessian":[1.6076173E2,5.257806E1,1.0818368E2,5.6938324E1,5.1245358E1,7.7616553E0,4.917667E1,5.146513E0,4.6098843E1,2.9022413E1,2.0154255E1],"tree_param":{"num_deleted":"0","num_feature":"40","num_nodes":"11","size_leaf_vector":"0"}},{"base_weights":[-0E0,-7.7346814E-1,4.812429E-1,-9.9095136E-1,-2.1298978E-2,6.0636216E-1,1.1740271E-2,2.9398733E-1,-5.3215957E-1,6.707456E-2,7.405824E-1,-4.0402582E-1,2.4886711E-1,5.336118E-1,-4.5847005E-1,-0E0,7.958256E-1,5.398834E-1,-0E0],"categories":[],"categories_nodes":[],"categories_segments":[],"categories_sizes":[],"default_left":[1,1,1,0,1,1,1,0,0,1,1,0,1,0,0,0,0,0,0],"id":38,"left_children":[1,3,5,-1,7,9,11,-1,-1,13,15,-1,17,-1,-1,-1,-1,-1,-1],"loss_changes":[6.2341396E1,8.30077E0,4.9184723E0,0E0,4.065928E0,3.996645E0,2.805563E0,0E0,0E0,6.310041E0,1.9523468E0,0E0,2.6315002E0,0E0,0E0,0E0,0E0,0E0,0E0],"parents":[2147483647,0,0,1,1,2,2,4,4,5,5,6,6,9,9,10,10,12,12],"right_children":[2,4,6,-1,8,10,12,-1,-1,14,16,-1,18,-1,-1,-1,-1,-1,-1],"split_conditions":[-2.384567E-1,-3.383155E-1,1.0044391E0,-4.9547568E-2,6.0360618E-2,4.4243652E-2,-7.192097E-1,1.4699367E-2,-2.660798E-2,-2.1234982E-2,-1.1418078E0,-2.0201292E-2,1.4775536E0,2.6680589E-2,-2.2923503E-2,-0E0,3.9791282E-2,2.6994169E-2,-0E0],"split_indices":[3,36,2,0,32,34,5,0,0,6,16,0,32,0,0,0,0,0,0],"split_type":[0,0,0,0,0,0,0,0,0,0,0,0,0,0,0,0,0,0,0],"sum_hessian":[1.6264104E2,6.0506077E1,1.02134964E2,4.4133812E1,1.6372263E1,7.6589935E1,2.5545025E1,8.490698E0,7.8815656E0,1.9129404E1,5.7460533E1,5.4476223E0,2.0097403E1,1.2125163E1,7.004241E0,5.019916E0,5.2440617E1,1.0936177E1,9.161225E0],"tree_param":{"num_deleted":"0","num_feature":"40","num_nodes":"19","size_leaf_vector":"0"}},{"base_weights":[5.1188264E-2,-9.828306E-1,5.753382E-1,-5.753754E-1,7.375235E-1,1.4283417E-1,8.9183605E-1,4.4283256E-1,-3.8222003E-1,6.596812E-2,9.4179463E-1],"categories":[],"categories_nodes":[],"categories_segments":[],"categories_sizes":[],"default_left":[1,0,1,0,1,1,1,0,0,1,1],"id":39,"left_children":[1,-1,3,-1,5,7,-1,-1,-1,-1,-1],"loss_changes":[8.754396E1,0E0,2.1993484E1,0E0,6.599098E0,4.8128343E0,8.9515305E-1,0E0,0E0,0E0,0E0],"parents":[2147483647,0,0,2,2,4,4,5,5,6,6],"right_children":[2,-1,4,-1,6,8,-1,-1,-1,-1,-1],"split_conditions":[1.2569802E0,-4.914153E-2,-4.832196E-1,-2.8768769E-2,-3.3632416E-1,-6.8264806E-1,4.4591803E-2,2.2141628E-2,-1.9111002E-2,3.298406E-3,4.7089733E-2],"split_indices":[10,0,2,0,1,4,15,0,0,2147483647,2147483647],"split_type":[0,0,0,0,0,0,0,0,0,0,0],"sum_hessian":[1.5689967E2,5.061256E1,1.0628712E2,1.0662388E1,9.5624725E1,2.3561407E1,7.2063324E1,1.7717272E1,5.844135E0,6.791255E0,6.5272064E1],"tree_param":{"num_deleted":"2","num_feature":"40","num_nodes":"11","size_leaf_vector":"0"}},{"base_weights":[-0E0,-9.9361527E-1,4.749235E-1,-7.07278E-1,5.988643E-1,2.7910194E-1,8.648947E-1,4.1692287E-1,-2.749532E-1,-0E0,9.4198763E-1],"categories":[],"categories_nodes":[],"categories_segments":[],"categories_sizes":[],"default_left":[1,0,1,0,1,1,1,0,0,0,0],"id":40,"left_children":[1,-1,3,-1,5,7,9,-1,-1,-1,-1],"loss_changes":[7.804386E1,0E0,1.737428E1,0E0,5.8322716E0,4.8322945E0,2.094078E0,0E0,0E0,0E0,0E0],"parents":[2147483647,0,0,2,2,4,4,5,5,6,6],"right_children":[2,-1,4,-1,6,8,10,-1,-1,-1,-1],"split_conditions":[2.710929E-1,-4.9680766E-2,-4.7333914E-1,-3.53639E-2,4.4709913E-2,-9.760839E-2,-9.5377505E-1,2.0846143E-2,-1.37476595E-2,-0E0,4.709938E-2],"split_indices":[10,0,3,0,25,25,5,0,0,0,0],"split_type":[0,0,0,0,0,0,0,0,0,0,0],"sum_hessian":[1.5898773E2,5.06031E1,1.08384636E2,7.4136405E0,1.0097099E2,5.2060642E1,4.8910347E1,4.5175526E1,6.8851194E0,5.7891226E0,4.3121227E1],"tree_param":{"num_deleted":"0","num_feature":"40","num_nodes":"11","size_leaf_vector":"0"}},{"base_weights":[-1.0651645E-2,-9.8461413E-1,4.667904E-1,-0E0,8.3454233E-1,-6.731128E-1,1.3032973E-1,-0E0,9.423315E-1,3.4038666E-1,-4.3041024E-1],"categories":[],"categories_nodes":[],"categories_segments":[],"categories_sizes":[],"default_left":[1,0,1,1,1,0,1,0,0,0,0],"id":41,"left_children":[1,-1,3,5,7,-1,9,-1,-1,-1,-1],"loss_changes":[7.106355E1,0E0,1.8500574E1,5.1060925E0,5.842354E0,0E0,4.749503E0,0E0,0E0,0E0,0E0],"parents":[2147483647,0,0,2,2,3,3,4,4,6,6],"right_children":[2,-1,4,6,8,-1,10,-1,-1,-1,-1],"split_conditions":[2.678963E-1,-4.9230706E-2,-5.208563E-3,-4.6274674E-1,-2.0218949E-1,-3.365564E-2,7.291558E-1,-0E0,4.7116574E-2,1.7019333E-2,-2.1520512E-2],"split_indices":[10,0,19,3,36,0,2,0,0,0,0],"split_type":[0,0,0,0,0,0,0,0,0,0,0],"sum_hessian":[1.4462904E2,4.7905643E1,9.67234E1,4.1960445E1,5.4762947E1,6.840618E0,3.5119827E1,5.879412E0,4.8883537E1,2.900135E1,6.1184773E0],"tree_param":{"num_deleted":"0","num_feature":"40","num_nodes":"11","size_leaf_vector":"0"}},{"base_weights":[-0E0,-6.0827196E-1,4.669924E-1,-1.0054388E-1,-8.625522E-1,-0E0,6.2688076E-1,-7.405225E-1,3.6569607E-1,-4.6946954E-2,-9.336986E-1,5.092002E-1,-4.1989392E-1,6.878659E-1,-0E0,-0E0,5.705306E-1,-7.33289E-1,-0E0,-0E0,7.608018E-1],"categories":[],"categories_nodes":[],"categories_segments":[],"categories_sizes":[],"default_left":[1,1,1,1,1,1,1,0,1,1,1,0,1,1,0,0,0,0,0,0,0],"id":42,"left_children":[1,3,5,7,-1,11,13,-1,15,-1,-1,-1,17,19,-1,-1,-1,-1,-1,-1,-1],"loss_changes":[4.271289E1,6.2285614E0,5.268858E0,9.8483305E0,2.519989E-1,6.687285E0,2.403635E0,0E0,1.1355011E0,0E0,0E0,0E0,2.5831943E0,2.8413582E0,0E0,0E0,0E0,0E0,0E0,0E0,0E0],"parents":[2147483647,0,0,1,1,2,2,3,3,4,4,5,5,6,6,8,8,12,12,13,13],"right_children":[2,4,6,8,-1,12,14,-1,16,-1,-1,-1,18,20,-1,-1,-1,-1,-1,-1,-1],"split_conditions":[-5.6487508E-2,-8.004551E-1,4.687317E-2,-5.847274E-1,-4.312761E-2,-1.14549056E-1,1.8653618E0,-3.7026126E-2,2.896707E-1,-2.3473478E-3,-4.6684932E-2,2.546001E-2,7.673675E-1,-1.5607631E-1,-0E0,-0E0,2.852653E-2,-3.6664452E-2,-0E0,-0E0,3.804009E-2],"split_indices":[34,5,7,2,6,25,29,0,12,2147483647,2147483647,0,20,36,0,0,0,0,0,0,0],"split_type":[0,0,0,0,0,0,0,0,0,0,0,0,0,0,0,0,0,0,0,0,0],"sum_hessian":[1.4445444E2,6.217883E1,8.2275604E1,2.477049E1,3.740834E1,2.4544897E1,5.773071E1,1.1504187E1,1.3266305E1,5.6563163E0,3.1752024E1,1.2690298E1,1.18546E1,5.2519455E1,5.2112536E0,6.0948744E0,7.1714306E0,6.6747246E0,5.179876E0,5.2258477E0,4.7293606E1],"tree_param":{"num_deleted":"2","num_feature":"40","num_nodes":"21","size_leaf_vector":"0"}},{"base_weights":[-3.633065E-2,-9.6946305E-1,3.90983E-1,-8.7115675E-2,8.9116657E-1,2.9383486E-2,-7.8673005E-1,6.7243385E-3,9.5523363E-1,2.915352E-1,-5.0182855E-1],"categories":[],"categories_nodes":[],"categories_segments":[],"categories_sizes":[],"default_left":[1,0,1,1,1,1,0,1,1,0,0],"id":43,"left_children":[1,-1,3,5,-1,9,-1,-1,-1,-1,-1],"loss_changes":[5.8137333E1,0E0,2.497219E1,5.6710153E0,8.6639786E-1,6.0659437E0,0E0,0E0,0E0,0E0,0E0],"parents":[2147483647,0,0,2,2,3,3,4,4,5,5],"right_children":[2,-1,4,6,-1,10,-1,-1,-1,-1,-1],"split_conditions":[2.710929E-1,-4.8473153E-2,2.1443543E-1,2.8338566E-2,4.4558328E-2,1.1615214E0,-3.9336503E-2,3.3621694E-4,4.7761682E-2,1.457676E-2,-2.5091428E-2],"split_indices":[10,0,32,35,11,11,0,2147483647,2147483647,0,0],"split_type":[0,0,0,0,0,0,0,0,0,0,0],"sum_hessian":[1.3704918E2,4.332148E1,9.37277E1,4.7144127E1,4.6583576E1,4.0427464E1,6.716662E0,5.4789634E0,4.1104614E1,3.0496208E1,9.931256E0],"tree_param":{"num_deleted":"2","num_feature":"40","num_nodes":"11","size_leaf_vector":"0"}},{"base_weights":[-2.8719136E-2,-7.193926E-1,3.8501206E-1,-8.824041E-1,-0E0,5.173459E-1,-2.184448E-1,-9.484746E-1,-0E0,1.4638594E-1,-1.6701733E-1,6.0170865E-1,-1.6255982E-1,3.182516E-2,-5.774437E-1,-0E0,6.5317154E-1],"categories":[],"categories_nodes":[],"categories_segments":[],"categories_sizes":[],"default_left":[1,1,1,1,1,1,1,1,1,1,1,1,0,0,0,0,0],"id":44,"left_children":[1,3,5,-1,-1,11,13,-1,-1,-1,-1,15,-1,-1,-1,-1,-1],"loss_changes":[4.133946E1,6.2875957E0,7.911131E0,8.8866425E-1,4.0493718E-1,5.487152E0,2.502911E0,0E0,0E0,0E0,0E0,2.2072468E0,0E0,0E0,0E0,0E0,0E0],"parents":[2147483647,0,0,1,1,2,2,3,3,4,4,5,5,6,6,11,11],"right_children":[2,4,6,-1,-1,12,14,-1,-1,-1,-1,16,-1,-1,-1,-1,-1],"split_conditions":[-4.699151E-2,-1.8486434E-1,4.1406924E-1,-4.4120204E-2,-0E0,1.8738825E0,-1.7003105E0,-4.742373E-2,-0E0,7.319297E-3,-8.350867E-3,-1.609532E-1,-8.127991E-3,1.591258E-3,-2.8872186E-2,-0E0,3.2658577E-2],"split_indices":[33,9,12,39,39,30,5,2147483647,2147483647,2147483647,2147483647,20,0,0,0,0,0],"split_type":[0,0,0,0,0,0,0,0,0,0,0,0,0,0,0,0,0],"sum_hessian":[1.3642024E2,5.2086277E1,8.433396E1,4.168855E1,1.0397729E1,7.223554E1,1.209842E1,3.666725E1,5.0212955E0,5.1154366E0,5.2822924E0,6.718575E1,5.049789E0,5.4571E0,6.64132E0,5.450424E0,6.173533E1],"tree_param":{"num_deleted":"4","num_feature":"40","num_nodes":"17","size_leaf_vector":"0"}},{"base_weights":[-1.5586019E-2,-6.878768E-1,3.368641E-1,-7.938767E-1,-0E0,4.5558894E-1,-1.7579253E-1,-0E0,-8.814921E-1,5.239714E-1,-3.71181E-2,1.7992318E-1,-7.440963E-1,-9.5154077E-1,-3.8073903E-3,1.7914595E-1,7.8205216E-1],"categories":[],"categories_nodes":[],"categories_segments":[],"categories_sizes":[],"default_left":[1,1,1,1,0,1,1,0,1,1,0,0,0,1,1,0,0],"id":45,"left_children":[1,3,5,7,-1,9,11,-1,-1,15,-1,-1,-1,-1,-1,-1,-1],"loss_changes":[3.400874E1,4.737646E0,6.2994013E0,2.0617867E0,0E0,3.6387959E0,4.7619615E0,0E0,4.9866104E-1,4.038292E0,0E0,0E0,0E0,0E0,0E0,0E0,0E0],"parents":[2147483647,0,0,1,1,2,2,3,3,5,5,6,6,8,8,9,9],"right_children":[2,4,6,8,-1,10,12,-1,-1,16,-1,-1,-1,-1,-1,-1,-1],"split_conditions":[-3.1008E-1,-1.8780541E-1,4.1857496E-1,-1.4514079E0,-0E0,1.9394166E0,-1.1472175E0,-0E0,-4.4074606E-2,7.6572627E-1,-1.855905E-3,8.996159E-3,-3.7204813E-2,-4.757704E-2,-1.9036952E-4,8.957298E-3,3.910261E-2],"split_indices":[35,25,12,6,0,18,26,0,36,32,0,0,0,2147483647,2147483647,0,0],"split_type":[0,0,0,0,0,0,0,0,0,0,0,0,0,0,0,0,0],"sum_hessian":[1.346311E2,4.727485E1,8.735626E1,4.226278E1,5.01207E0,7.436862E1,1.2987639E1,5.8971486E0,3.636563E1,6.8702324E1,5.6662955E0,7.0843377E0,5.9033017E0,3.1333696E1,5.0319347E0,3.4901665E1,3.380066E1],"tree_param":{"num_deleted":"2","num_feature":"40","num_nodes":"17","size_leaf_vector":"0"}},{"base_weights":[-6.5468955E-3,-7.645403E-1,4.2342114E-1,-8.379146E-1,-0E0,-7.8284174E-2,8.90186E-1,-9.1400164E-1,-0E0,3.4861583E-2,-7.926483E-1,-4.926464E-1,5.0650615E-1],"categories":[],"categories_nodes":[],"categories_segments":[],"categories_sizes":[],"default_left":[1,1,1,1,0,1,0,0,0,1,0,0,0],"id":46,"left_children":[1,3,5,7,-1,9,-1,-1,-1,11,-1,-1,-1],"loss_changes":[4.6621216E1,1.7927685E0,2.2507015E1,1.4814224E0,0E0,5.0935817E0,0E0,0E0,0E0,1.0177317E1,0E0,0E0,0E0],"parents":[2147483647,0,0,1,1,2,2,3,3,5,5,9,9],"right_children":[2,4,6,8,-1,10,-1,-1,-1,12,-1,-1,-1],"split_conditions":[-5.763588E-1,1.6733403E0,4.687317E-2,1.5402069E0,-0E0,-2.7947956E-1,4.4509303E-2,-4.5700084E-2,-0E0,-3.377571E-3,-3.9632417E-2,-2.463232E-2,2.5325308E-2],"split_indices":[11,34,7,12,0,7,0,0,0,2,0,0,0],"split_type":[0,0,0,0,0,0,0,0,0,0,0,0,0],"sum_hessian":[1.349749E2,4.9691154E1,8.528375E1,4.3420544E1,6.2706113E0,4.0241714E1,4.5042034E1,3.778689E1,5.6336555E0,3.4785984E1,5.455731E0,1.435578E1,2.0430202E1],"tree_param":{"num_deleted":"0","num_feature":"40","num_nodes":"13","size_leaf_vector":"0"}},{"base_weights":[-0E0,-5.9438896E-1,3.8860244E-1,-8.450884E-1,6.93896E-2,5.052179E-1,-0E0,-9.4061553E-1,-0E0,4.0650716E-1,-9.502081E-2,2.4172126E-1,8.04985E-1,1.6684893E-1,-2.682175E-1,-2.7747175E-1,4.0760848E-1],"categories":[],"categories_nodes":[],"categories_segments":[],"categories_sizes":[],"default_left":[1,1,1,1,1,1,1,0,0,0,0,1,0,0,0,0,0],"id":47,"left_children":[1,3,5,7,9,11,13,-1,-1,-1,-1,15,-1,-1,-1,-1,-1],"loss_changes":[3.1363346E1,1.0489552E1,4.674183E0,2.1070118E0,1.5713667E0,2.7181396E0,1.1627581E0,0E0,0E0,0E0,0E0,4.4055624E0,0E0,0E0,0E0,0E0,0E0],"parents":[2147483647,0,0,1,1,2,2,3,3,4,4,5,5,6,6,11,11],"right_children":[2,4,6,8,10,12,14,-1,-1,-1,-1,16,-1,-1,-1,-1,-1],"split_conditions":[-2.384567E-1,-2.5302762E-1,4.389575E-1,-1.1628796E-1,-8.7190944E-1,7.602705E-1,-8.267049E-3,-4.7030777E-2,-0E0,2.0325359E-2,-4.7510406E-3,-3.762738E-1,4.024925E-2,8.342447E-3,-1.3410876E-2,-1.3873587E-2,2.0380424E-2],"split_indices":[3,25,9,34,5,32,13,0,0,0,0,8,0,0,0,0,0],"split_type":[0,0,0,0,0,0,0,0,0,0,0,0,0,0,0,0,0],"sum_hessian":[1.3115474E2,4.9654835E1,8.14999E1,3.7634457E1,1.2020379E1,6.53056E1,1.6194304E1,3.2181503E1,5.452952E0,6.480167E0,5.5402117E0,4.1190178E1,2.411542E1,6.838862E0,9.355442E0,6.5659046E0,3.4624275E1],"tree_param":{"num_deleted":"0","num_feature":"40","num_nodes":"17","size_leaf_vector":"0"}},{"base_weights":[-0E0,-9.4399816E-1,4.4962662E-1,1.0944102E-1,9.1130716E-1,2.8436786E-1,-3.718875E-1,-5.336341E-1,4.7929373E-1,-0E0,-6.3811344E-1],"categories":[],"categories_nodes":[],"categories_segments":[],"categories_sizes":[],"default_left":[1,0,1,1,0,1,1,0,0,0,0],"id":48,"left_children":[1,-1,3,5,-1,7,9,-1,-1,-1,-1],"loss_changes":[5.425109E1,0E0,1.1684441E1,4.9682884E0,0E0,8.118922E0,1.469335E0,0E0,0E0,0E0,0E0],"parents":[2147483647,0,0,2,2,3,3,5,5,6,6],"right_children":[2,-1,4,6,-1,8,10,-1,-1,-1,-1],"split_conditions":[2.6615715E-1,-4.719991E-2,7.7094376E-1,2.6502544E-1,4.556536E-2,-4.7333914E-1,-2.9709166E-1,-2.6681706E-2,2.3964686E-2,-0E0,-3.1905673E-2],"split_indices":[10,0,32,3,0,3,14,0,0,0,0],"split_type":[0,0,0,0,0,0,0,0,0,0,0],"sum_hessian":[1.2391977E2,3.7620113E1,8.629965E1,5.4318584E1,3.198107E1,4.378778E1,1.0530804E1,5.448806E0,3.8338978E1,5.3266234E0,5.2041802E0],"tree_param":{"num_deleted":"0","num_feature":"40","num_nodes":"11","size_leaf_vector":"0"}},{"base_weights":[-0E0,-9.403505E-1,4.175847E-1,4.7928456E-2,8.0312103E-1,-5.20005E-1,1.9397236E-1,-0E0,8.882858E-1,3.9953524E-1,-4.1020614E-1],"categories":[],"categories_nodes":[],"categories_segments":[],"categories_sizes":[],"default_left":[1,0,1,1,1,0,1,0,0,0,0],"id":49,"left_children":[1,-1,3,5,7,-1,9,-1,-1,-1,-1],"loss_changes":[5.1983047E1,0E0,1.1416138E1,4.066757E0,2.0967808E0,0E0,6.349689E0,0E0,0E0,0E0,0E0],"parents":[2147483647,0,0,2,2,3,3,4,4,6,6],"right_children":[2,-1,4,6,8,-1,10,-1,-1,-1,-1],"split_conditions":[2.710929E-1,-4.7017526E-2,2.1443543E-1,-5.847274E-1,-1.957287E-2,-2.600025E-2,-1.1326447E-1,-0E0,4.4414293E-2,1.9976763E-2,-2.0510307E-2],"split_indices":[10,0,32,2,20,0,14,0,0,0,0],"split_type":[0,0,0,0,0,0,0,0,0,0,0],"sum_hessian":[1.2733325E2,3.747546E1,8.9857796E1,5.0243927E1,3.9613865E1,5.90486E0,4.433907E1,5.1221933E0,3.4491673E1,3.631115E1,8.027917E0],"tree_param":{"num_deleted":"0","num_feature":"40","num_nodes":"11","size_leaf_vector":"0"}},{"base_weights":[-0E0,-9.3209153E-1,4.1347098E-1,-4.7755143E-1,5.443726E-1,1.6722563E-1,7.523779E-1,4.185511E-1,-6.250138E-1,-0E0,9.365524E-1],"categories":[],"categories_nodes":[],"categories_segments":[],"categories_sizes":[],"default_left":[1,0,1,0,1,1,1,0,0,0,0],"id":50,"left_children":[1,-1,3,-1,5,7,9,-1,-1,-1,-1],"loss_changes":[4.903801E1,0E0,1.1409108E1,0E0,4.2018433E0,7.611363E0,7.7492256E0,0E0,0E0,0E0,0E0],"parents":[2147483647,0,0,2,2,4,4,5,5,6,6],"right_children":[2,-1,4,-1,6,8,10,-1,-1,-1,-1],"split_conditions":[2.710929E-1,-4.6604577E-2,-7.173052E-1,-2.3877572E-2,6.776893E-2,3.6579952E-1,-5.852567E-1,2.0927554E-2,-3.1250693E-2,-0E0,4.682762E-2],"split_indices":[10,0,22,0,7,13,11,0,0,0,0],"split_type":[0,0,0,0,0,0,0,0,0,0,0],"sum_hessian":[1.2272217E2,3.5736717E1,8.698545E1,8.167523E0,7.881793E1,3.3359245E1,4.5458683E1,2.8315992E1,5.043254E0,8.350217E0,3.7108467E1],"tree_param":{"num_deleted":"0","num_feature":"40","num_nodes":"11","size_leaf_vector":"0"}},{"base_weights":[2.2515403E-2,-9.202734E-1,4.2828327E-1,-5.476062E-1,5.4926336E-1,-0E0,6.34051E-1,1.6769458E-1,-2.1771464E-1,-0E0,7.222396E-1],"categories":[],"categories_nodes":[],"categories_segments":[],"categories_sizes":[],"default_left":[1,0,1,0,1,1,1,1,1,0,0],"id":51,"left_children":[1,-1,3,-1,5,-1,9,-1,-1,-1,-1],"loss_changes":[4.693576E1,0E0,1.1406425E1,0E0,4.063877E0,6.189388E-1,4.4449425E0,0E0,0E0,0E0,0E0],"parents":[2147483647,0,0,2,2,4,4,5,5,6,6],"right_children":[2,-1,4,-1,6,-1,10,-1,-1,-1,-1],"split_conditions":[2.710929E-1,-4.6013672E-2,-5.9046626E-1,-2.7380312E-2,-5.826391E-1,-0E0,-1.0735402E0,8.38473E-3,-1.0885732E-2,-0E0,3.611198E-2],"split_indices":[10,0,2,0,11,11,28,2147483647,2147483647,0,0],"split_type":[0,0,0,0,0,0,0,0,0,0,0],"sum_hessian":[1.1917205E2,3.32301E1,8.594195E1,6.4888177E0,7.945313E1,1.0468832E1,6.89843E1,5.386591E0,5.082241E0,7.9846854E0,6.0999615E1],"tree_param":{"num_deleted":"2","num_feature":"40","num_nodes":"11","size_leaf_vector":"0"}},{"base_weights":[-0E0,-9.1376394E-1,3.6126882E-1,-4.7556892E-1,5.1339424E-1,1.8675694E-1,7.6315E-1,4.0084398E-1,-4.9767733E-1,-0E0,8.8050747E-1],"categories":[],"categories_nodes":[],"categories_segments":[],"categories_sizes":[],"default_left":[1,0,1,0,1,1,1,0,0,0,0],"id":52,"left_children":[1,-1,3,-1,5,7,9,-1,-1,-1,-1],"loss_changes":[4.1063496E1,0E0,1.187813E1,0E0,3.9579983E0,6.387062E0,3.3537312E0,0E0,0E0,0E0,0E0],"parents":[2147483647,0,0,2,2,4,4,5,5,6,6],"right_children":[2,-1,4,-1,6,8,10,-1,-1,-1,-1],"split_conditions":[2.710929E-1,-4.5688197E-2,-4.8235005E-1,-2.3778446E-2,3.8783807E-1,-2.7755214E-2,-5.832863E-1,2.00422E-2,-2.4883866E-2,-0E0,4.4025373E-2],"split_indices":[10,0,25,0,0,0,11,0,0,0,0],"split_type":[0,0,0,0,0,0,0,0,0,0,0],"sum_hessian":[1.1654461E2,3.258747E1,8.395714E1,9.911071E0,7.404607E1,3.7826565E1,3.62195E1,3.1986519E1,5.840047E0,5.4321823E0,3.078732E1],"tree_param":{"num_deleted":"0","num_feature":"40","num_nodes":"11","size_leaf_vector":"0"}},{"base_weights":[1.6571065E-2,-9.0645254E-1,4.0558663E-1,-6.1006033E-1,5.303188E-1,-0E0,6.058632E-1,2.8884408E-1,-2.474497E-1,2.194616E-1,8.500596E-1],"categories":[],"categories_nodes":[],"categories_segments":[],"categories_sizes":[],"default_left":[1,0,1,0,1,1,1,0,0,0,0],"id":53,"left_children":[1,-1,3,-1,5,7,9,-1,-1,-1,-1],"loss_changes":[4.225191E1,0E0,1.1728717E1,0E0,2.9650059E0,1.2071304E0,3.8551311E0,0E0,0E0,0E0,0E0],"parents":[2147483647,0,0,2,2,4,4,5,5,6,6],"right_children":[2,-1,4,-1,6,8,10,-1,-1,-1,-1],"split_conditions":[2.710929E-1,-4.5322627E-2,-4.7129145E-1,-3.0503018E-2,-5.826391E-1,-3.3037317E-1,6.776893E-2,1.44422045E-2,-1.2372485E-2,1.097308E-2,4.250298E-2],"split_indices":[10,0,3,0,11,15,7,0,0,0,0],"split_type":[0,0,0,0,0,0,0,0,0,0,0],"sum_hessian":[1.1438837E2,3.1208326E1,8.3180046E1,6.067494E0,7.711255E1,1.0655262E1,6.645729E1,5.4373827E0,5.217879E0,3.1112696E1,3.5344593E1],"tree_param":{"num_deleted":"0","num_feature":"40","num_nodes":"11","size_leaf_vector":"0"}},{"base_weights":[-4.803365E-2,-8.9914715E-1,2.7744746E-1,-4.0056296E-2,6.2984085E-1,2.4969146E-1,-2.890732E-1,-0E0,7.22696E-1,-1.22578494E-1,6.507931E-1,-0E0,-4.880197E-1,8.063558E-1,-0E0],"categories":[],"categories_nodes":[],"categories_segments":[],"categories_sizes":[],"default_left":[1,0,1,1,1,1,1,0,1,0,0,0,0,0,0],"id":54,"left_children":[1,-1,3,5,7,9,11,-1,13,-1,-1,-1,-1,-1,-1],"loss_changes":[3.2539883E1,0E0,1.0246573E1,3.3335097E0,2.3066235E0,3.8879018E0,2.3493721E0,0E0,1.0520802E0,0E0,0E0,0E0,0E0,0E0,0E0],"parents":[2147483647,0,0,2,2,3,3,4,4,5,5,6,6,8,8],"right_children":[2,-1,4,6,8,10,12,-1,14,-1,-1,-1,-1,-1,-1],"split_conditions":[2.710929E-1,-4.495736E-2,-5.596622E-2,-1.078018E0,-1.9098084E-2,-1.0172539E0,1.2906706E0,-0E0,1.1325977E0,-6.128925E-3,3.2539655E-2,-0E0,-2.4400985E-2,4.031779E-2,-0E0],"split_indices":[10,0,19,15,17,17,10,0,38,0,0,0,0,0,0],"split_type":[0,0,0,0,0,0,0,0,0,0,0,0,0,0,0],"sum_hessian":[1.07273384E2,2.991214E1,7.7361244E1,3.91084E1,3.825285E1,1.4359941E1,2.4748457E1,5.503314E0,3.2749535E1,5.941988E0,8.417953E0,8.147929E0,1.6600527E1,2.7334354E1,5.415181E0],"tree_param":{"num_deleted":"0","num_feature":"40","num_nodes":"15","size_leaf_vector":"0"}},{"base_weights":[-3.191168E-2,-8.964873E-1,2.9037374E-1,-3.8440087E-1,5.1243377E-1,3.531654E-2,-1.0126735E0,4.407476E-3,6.345664E-1,4.9318007E-1,-2.3050833E-1,7.104609E-1,-0E0],"categories":[],"categories_nodes":[],"categories_segments":[],"categories_sizes":[],"default_left":[1,0,1,1,1,0,0,1,1,0,0,0,0],"id":55,"left_children":[1,-1,3,5,7,-1,-1,9,11,-1,-1,-1,-1],"loss_changes":[3.3339775E1,0E0,1.3213501E1,7.3146143E0,2.7846603E0,0E0,0E0,3.037782E0,2.4430275E0,0E0,0E0,0E0,0E0],"parents":[2147483647,0,0,2,2,3,3,4,4,7,7,8,8],"right_children":[2,-1,4,6,8,-1,-1,10,12,-1,-1,-1,-1],"split_conditions":[2.710929E-1,-4.4824366E-2,-7.490343E-1,-1.1562827E0,-3.3983264E-2,1.7658271E-3,-5.0633676E-2,-3.6463425E-1,1.3224897E0,2.4659004E-2,-1.1525417E-2,3.5523046E-2,-0E0],"split_indices":[10,0,13,26,20,0,0,20,10,0,0,0,0],"split_type":[0,0,0,0,0,0,0,0,0,0,0,0,0],"sum_hessian":[1.094985E2,2.996742E1,7.9531075E1,1.6919113E1,6.261196E1,9.932044E0,6.987069E0,1.5911205E1,4.6700756E1,6.857925E0,9.05328E0,4.148945E1,5.211309E0],"tree_param":{"num_deleted":"0","num_feature":"40","num_nodes":"13","size_leaf_vector":"0"}},{"base_weights":[4.107318E-2,-8.8029104E-1,3.994424E-1,-0E0,7.623903E-1,1.9016917E-1,-5.058447E-1,-0E0,9.27185E-1,4.2645067E-1,-4.9094543E-1],"categories":[],"categories_nodes":[],"categories_segments":[],"categories_sizes":[],"default_left":[1,0,1,1,1,1,0,0,0,0,0],"id":56,"left_children":[1,-1,3,5,7,9,-1,-1,-1,-1,-1],"loss_changes":[3.6457447E1,0E0,1.0870203E1,4.08837E0,6.720125E0,6.398573E0,0E0,0E0,0E0,0E0,0E0],"parents":[2147483647,0,0,2,2,3,3,4,4,5,5],"right_children":[2,-1,4,6,8,10,-1,-1,-1,-1,-1],"split_conditions":[2.6615715E-1,-4.4014554E-2,-5.208563E-3,7.291558E-1,-5.684639E-1,1.5790536E0,-2.5292236E-2,-0E0,4.6359252E-2,2.1322533E-2,-2.4547271E-2],"split_indices":[10,0,19,2,11,11,0,0,0,0,0],"split_type":[0,0,0,0,0,0,0,0,0,0,0],"sum_hessian":[1.0713182E2,2.7214249E1,7.991758E1,4.145433E1,3.8463245E1,3.365752E1,7.7968097E0,5.612156E0,3.285109E1,2.8001667E1,5.6558533E0],"tree_param":{"num_deleted":"0","num_feature":"40","num_nodes":"11","size_leaf_vector":"0"}},{"base_weights":[-0E0,-8.6117023E-1,2.9545537E-1,2.4463208E-3,7.814088E-1,2.1248917E-1,-2.5973073E-1,5.1285714E-1,-3.520167E-2,-6.360595E-1,3.5767594E-1],"categories":[],"categories_nodes":[],"categories_segments":[],"categories_sizes":[],"default_left":[1,0,1,1,0,1,1,0,0,0,0],"id":57,"left_children":[1,-1,3,5,-1,7,9,-1,-1,-1,-1],"loss_changes":[2.8793072E1,0E0,9.719839E0,3.1029406E0,0E0,3.7214868E0,6.2588105E0,0E0,0E0,0E0,0E0],"parents":[2147483647,0,0,2,2,3,3,5,5,6,6],"right_children":[2,-1,4,6,-1,8,10,-1,-1,-1,-1],"split_conditions":[1.2576439E0,-4.305851E-2,8.4956956E-1,1.1448517E0,3.907044E-2,-5.526993E-1,6.914209E-1,2.5642857E-2,-1.7600835E-3,-3.180298E-2,1.7883798E-2],"split_indices":[10,0,31,11,0,4,20,0,0,0,0],"split_type":[0,0,0,0,0,0,0,0,0,0,0],"sum_hessian":[1.02802124E2,2.6489098E1,7.631303E1,5.2056137E1,2.4256891E1,3.345261E1,1.8603527E1,1.73164E1,1.6136208E1,1.3514646E1,5.0888815E0],"tree_param":{"num_deleted":"0","num_feature":"40","num_nodes":"11","size_leaf_vector":"0"}},{"base_weights":[-1.1283385E-2,-6.699642E-1,2.3859288E-1,-8.1144464E-1,-0E0,3.5777912E-1,-1.16096195E-2,-0E0,5.322338E-1,-3.3727708E-1,9.5472135E-2,2.5686646E-1,-3.0740592E-1,6.8032825E-1,-0E0,2.883578E-1,-0E0],"categories":[],"categories_nodes":[],"categories_segments":[],"categories_sizes":[],"default_left":[1,1,1,0,0,1,1,1,1,0,1,0,0,0,0,1,1],"id":58,"left_children":[1,3,5,-1,-1,7,9,11,13,-1,-1,-1,-1,-1,-1,-1,-1],"loss_changes":[1.899693E1,2.6465578E0,3.0241175E0,0E0,0E0,3.6792917E0,1.3678625E0,1.9711325E0,1.7851896E0,0E0,6.662561E-1,0E0,0E0,0E0,0E0,0E0,0E0],"parents":[2147483647,0,0,1,1,2,2,5,5,6,6,7,7,8,8,10,10],"right_children":[2,4,6,-1,-1,8,10,12,14,-1,-1,-1,-1,-1,-1,-1,-1],"split_conditions":[-3.0182767E-1,-2.5302762E-1,1.760459E-1,-4.0572233E-2,-0E0,4.882559E-2,7.100493E-1,-3.4316516E-1,6.3209504E-1,-1.6863855E-2,4.773607E-3,1.2843323E-2,-1.5370296E-2,3.401641E-2,-0E0,1.44178895E-2,-0E0],"split_indices":[3,25,9,0,0,34,16,6,33,0,14,0,0,0,0,2147483647,2147483647],"split_type":[0,0,0,0,0,0,0,0,0,0,0,0,0,0,0,0,0],"sum_hessian":[1.0426521E2,2.9489769E1,7.4775444E1,2.3167295E1,6.3224735E0,5.5189213E1,1.9586233E1,1.890604E1,3.628317E1,7.8723245E0,1.1713909E1,1.0410756E1,8.495285E0,2.489919E1,1.1383979E1,6.625621E0,5.088289E0],"tree_param":{"num_deleted":"2","num_feature":"40","num_nodes":"17","size_leaf_vector":"0"}},{"base_weights":[-1.6888551E-2,-5.553498E-1,2.3698227E-1,-7.8700423E-1,-6.198871E-2,-0E0,5.853753E-1,5.818807E-2,-3.105126E-1,3.5810658E-1,-4.2501655E-1,7.335004E-1,-0E0,5.5967975E-1,-0E0,-1.0835873E0,-0E0],"categories":[],"categories_nodes":[],"categories_segments":[],"categories_sizes":[],"default_left":[1,1,1,0,1,1,1,0,0,1,1,0,0,0,0,0,0],"id":59,"left_children":[1,3,5,-1,7,9,11,-1,-1,13,15,-1,-1,-1,-1,-1,-1],"loss_changes":[1.511367E1,2.3190432E0,6.0217924E0,0E0,1.0861387E0,7.125444E0,2.709465E0,0E0,0E0,2.8988495E0,5.5212417E0,0E0,0E0,0E0,0E0,0E0,0E0],"parents":[2147483647,0,0,1,1,2,2,4,4,5,5,6,6,9,9,10,10],"right_children":[2,4,6,-1,8,10,12,-1,-1,14,16,-1,-1,-1,-1,-1,-1],"split_conditions":[-1.07885584E-1,-4.298066E-1,7.7223194E-1,-3.935021E-2,-8.492156E-1,-2.9251987E-1,1.7903622E0,2.9094035E-3,-1.5525631E-2,7.2104555E-1,3.8479485E-2,3.667502E-2,-0E0,2.7983988E-2,-0E0,-5.4179367E-2,-0E0],"split_indices":[2,23,32,0,0,29,31,0,0,2,1,0,0,0,0,0,0],"split_type":[0,0,0,0,0,0,0,0,0,0,0,0,0,0,0,0,0],"sum_hessian":[1.00015015E2,3.342848E1,6.658653E1,1.8773916E1,1.4654563E1,4.0608276E1,2.5978256E1,6.002203E0,8.65236E0,2.169204E1,1.8916239E1,2.0492085E1,5.4861717E0,1.6363226E1,5.3288145E0,5.073992E0,1.3842246E1],"tree_param":{"num_deleted":"0","num_feature":"40","num_nodes":"17","size_leaf_vector":"0"}},{"base_weights":[-3.7288662E-2,-6.5899855E-1,2.6419854E-1,-9.403135E-2,-8.940289E-1,-1.5381278E-1,7.641677E-1,-5.429955E-1,1.883993E-1,9.82387E-2,-3.425086E-1,-0E0,3.0657443E-1,-5.344658E-1,-0E0],"categories":[],"categories_nodes":[],"categories_segments":[],"categories_sizes":[],"default_left":[1,1,1,1,0,1,0,0,0,1,1,1,1,0,0],"id":60,"left_children":[1,3,5,7,-1,9,-1,-1,-1,-1,13,-1,-1,-1,-1],"loss_changes":[1.9899029E1,2.473425E0,1.5524727E1,3.077291E0,0E0,2.3338478E0,0E0,0E0,0E0,6.3934374E-1,2.725735E0,0E0,0E0,0E0,0E0],"parents":[2147483647,0,0,1,1,2,2,3,3,5,5,9,9,10,10],"right_children":[2,4,6,8,-1,10,-1,-1,-1,-1,14,-1,-1,-1,-1],"split_conditions":[-5.8233476E-1,-4.5886794E-1,6.776893E-2,-2.8489047E-1,-4.4701446E-2,-1.1642798E0,3.8208388E-2,-2.7149776E-2,9.419966E-3,4.911935E-3,-1.9127697E-2,-0E0,1.5328722E-2,-2.672329E-2,-0E0],"split_indices":[11,6,7,2,0,14,0,0,0,11,17,2147483647,2147483647,0,0],"split_type":[0,0,0,0,0,0,0,0,0,0,0,0,0,0,0],"sum_hessian":[9.6164276E1,3.240886E1,6.3755417E1,1.3255355E1,1.9153503E1,3.367633E1,3.0079086E1,6.7843304E0,6.4710245E0,1.0495707E1,2.3180624E1,5.307536E0,5.18817E0,1.7293945E1,5.8866787E0],"tree_param":{"num_deleted":"2","num_feature":"40","num_nodes":"15","size_leaf_vector":"0"}},{"base_weights":[-3.7310757E-2,-6.1420876E-1,2.4194796E-1,-9.7972855E-2,-8.0480134E-1,-1.04572594E-1,7.774394E-1,-5.359319E-1,2.1138506E-1,3.6486092E-3,-7.3219293E-1,-5.095245E-1,2.1979511E-1],"categories":[],"categories_nodes":[],"categories_segments":[],"categories_sizes":[],"default_left":[1,1,1,1,0,1,0,0,0,1,0,0,0],"id":61,"left_children":[1,3,5,7,-1,9,-1,-1,-1,11,-1,-1,-1],"loss_changes":[1.7403034E1,1.5008249E0,1.4138305E1,3.1506267E0,0E0,4.2794065E0,0E0,0E0,0E0,3.7061493E0,0E0,0E0,0E0],"parents":[2147483647,0,0,1,1,2,2,3,3,5,5,9,9],"right_children":[2,4,6,8,-1,10,-1,-1,-1,12,-1,-1,-1],"split_conditions":[-5.824913E-1,-4.583953E-1,2.6663357E-1,-2.9044396E-1,-4.0240068E-2,-7.725844E-2,3.887197E-2,-2.6796594E-2,1.0569253E-2,-4.4419155E-1,-3.6609646E-2,-2.5476227E-2,1.0989755E-2],"split_indices":[11,6,7,7,0,18,0,0,0,25,0,0,0],"split_type":[0,0,0,0,0,0,0,0,0,0,0,0,0],"sum_hessian":[9.763508E1,3.300867E1,6.46264E1,1.2954916E1,2.0053755E1,3.843445E1,2.6191957E1,7.1294837E0,5.825432E0,3.2607777E1,5.826671E0,5.7148085E0,2.6892967E1],"tree_param":{"num_deleted":"0","num_feature":"40","num_nodes":"13","size_leaf_vector":"0"}},{"base_weights":[-7.105624E-2,-8.57496E-1,1.9289689E-1,-1.9924808E-1,6.031495E-1,3.817671E-2,-4.7005716E-1,-0E0,7.971277E-1,4.4330233E-1,-1.8635297E-1,-8.839443E-1,-0E0],"categories":[],"categories_nodes":[],"categories_segments":[],"categories_sizes":[],"default_left":[1,0,1,1,1,1,1,0,0,0,0,0,0],"id":62,"left_children":[1,-1,3,5,7,9,11,-1,-1,-1,-1,-1,-1],"loss_changes":[2.2574894E1,0E0,1.3296012E1,3.380495E0,5.528305E0,2.512773E0,5.405099E0,0E0,0E0,0E0,0E0,0E0,0E0],"parents":[2147483647,0,0,2,2,3,3,4,4,5,5,6,6],"right_children":[2,-1,4,6,8,10,12,-1,-1,-1,-1,-1,-1],"split_conditions":[2.6615715E-1,-4.2874802E-2,-1.27702E-1,-8.205441E-1,-1.5886824E-1,5.3558457E-1,6.7655346E-4,-0E0,3.9856385E-2,2.2165118E-2,-9.317649E-3,-4.4197213E-2,-0E0],"split_indices":[10,0,19,39,36,12,1,0,0,0,0,0,0],"split_type":[0,0,0,0,0,0,0,0,0,0,0,0,0],"sum_hessian":[9.6957344E1,2.4573246E1,7.2384094E1,3.530516E1,3.7078934E1,1.6250109E1,1.9055054E1,8.4324255E0,2.8646507E1,7.928646E0,8.321464E0,1.0154343E1,8.90071E0],"tree_param":{"num_deleted":"0","num_feature":"40","num_nodes":"13","size_leaf_vector":"0"}},{"base_weights":[3.3886149E-3,-8.3994097E-1,3.086234E-1,2.972385E-2,6.487619E-1,1.986314E-1,-4.7365022E-1,-0E0,7.628589E-1,4.728564E-1,-0E0],"categories":[],"categories_nodes":[],"categories_segments":[],"categories_sizes":[],"default_left":[1,0,1,1,1,1,0,0,0,0,0],"id":63,"left_children":[1,-1,3,5,7,9,-1,-1,-1,-1,-1],"loss_changes":[2.521774E1,0E0,5.8593025E0,3.8564694E0,2.0967484E0,3.081833E0,0E0,0E0,0E0,0E0,0E0],"parents":[2147483647,0,0,2,2,3,3,4,4,5,5],"right_children":[2,-1,4,6,8,10,-1,-1,-1,-1,-1],"split_conditions":[2.634597E-1,-4.199705E-2,4.6748418E-1,8.565076E-1,-1.7104313E0,-9.34965E-1,-2.368251E-2,-0E0,3.8142946E-2,2.3642821E-2,-0E0],"split_indices":[10,0,4,2,8,15,0,0,0,0,0],"split_type":[0,0,0,0,0,0,0,0,0,0,0],"sum_hessian":[9.607287E1,2.2393751E1,7.367912E1,4.5507206E1,2.8171913E1,3.840857E1,7.098637E0,5.0242E0,2.3147715E1,1.8090021E1,2.0318548E1],"tree_param":{"num_deleted":"0","num_feature":"40","num_nodes":"11","size_leaf_vector":"0"}},{"base_weights":[1.2920177E-2,-8.301179E-1,3.0347398E-1,-4.2280135E-1,4.367058E-1,-0E0,5.2719194E-1,3.0127326E-1,-3.9479285E-1,6.052156E-1,2.1290625E-2],"categories":[],"categories_nodes":[],"categories_segments":[],"categories_sizes":[],"default_left":[1,0,1,0,1,1,1,0,0,0,0],"id":64,"left_children":[1,-1,3,-1,5,7,9,-1,-1,-1,-1],"loss_changes":[2.3941486E1,0E0,8.086021E0,0E0,3.1051626E0,2.037546E0,1.0272732E0,0E0,0E0,0E0,0E0],"parents":[2147483647,0,0,2,2,4,4,5,5,6,6],"right_children":[2,-1,4,-1,6,8,10,-1,-1,-1,-1],"split_conditions":[2.6615715E-1,-4.1505896E-2,-5.0907207E-1,-2.1140067E-2,-9.724108E-1,-1.1474175E0,9.785092E-1,1.5063663E-2,-1.9739643E-2,3.026078E-2,1.0645313E-3],"split_indices":[10,0,23,0,4,26,2,0,0,0,0],"split_type":[0,0,0,0,0,0,0,0,0,0,0],"sum_hessian":[9.59558E1,2.140244E1,7.455336E1,8.218862E0,6.63345E1,1.0585899E1,5.57486E1,5.4115305E0,5.1743684E0,4.436417E1,1.1384429E1],"tree_param":{"num_deleted":"0","num_feature":"40","num_nodes":"11","size_leaf_vector":"0"}},{"base_weights":[-0E0,-8.217893E-1,2.6087296E-1,-0E0,7.901741E-1,1.5720475E-1,-3.6886868E-1,-3.8448328E-1,3.313798E-1,-0E0,-7.1283627E-1],"categories":[],"categories_nodes":[],"categories_segments":[],"categories_sizes":[],"default_left":[1,0,1,1,0,1,1,0,0,0,0],"id":65,"left_children":[1,-1,3,5,-1,7,9,-1,-1,-1,-1],"loss_changes":[2.0772333E1,0E0,9.113829E0,2.9815466E0,0E0,4.027161E0,2.7180367E0,0E0,0E0,0E0,0E0],"parents":[2147483647,0,0,2,2,3,3,5,5,6,6],"right_children":[2,-1,4,6,-1,8,10,-1,-1,-1,-1],"split_conditions":[2.710929E-1,-4.1089468E-2,7.676352E-1,2.6502544E-1,3.9508708E-2,-4.565239E-1,-4.9718112E-1,-1.9224165E-2,1.656899E-2,-0E0,-3.5641816E-2],"split_indices":[10,0,32,3,0,3,16,0,0,0,0],"split_type":[0,0,0,0,0,0,0,0,0,0,0],"sum_hessian":[8.838697E1,2.0627956E1,6.775901E1,4.844981E1,1.9309202E1,3.6758305E1,1.1691505E1,5.268402E0,3.14899E1,5.408504E0,6.2830014E0],"tree_param":{"num_deleted":"0","num_feature":"40","num_nodes":"11","size_leaf_vector":"0"}},{"base_weights":[-0E0,-8.067549E-1,2.971729E-1,5.413015E-1,-0E0,1.0088295E-1,7.869618E-1,-2.4525374E-1,4.213676E-1,4.2068875E-1,-2.9705614E-1,-4.1515696E-1,-0E0],"categories":[],"categories_nodes":[],"categories_segments":[],"categories_sizes":[],"default_left":[1,0,1,1,1,1,0,1,0,0,0,0,0],"id":66,"left_children":[1,-1,3,5,7,9,-1,11,-1,-1,-1,-1,-1],"loss_changes":[2.1855555E1,0E0,5.667539E0,2.39598E0,3.5843081E0,3.2884037E0,0E0,1.6810526E0,0E0,0E0,0E0,0E0,0E0],"parents":[2147483647,0,0,2,2,3,3,4,4,5,5,7,7],"right_children":[2,-1,4,6,8,10,-1,12,-1,-1,-1,-1,-1],"split_conditions":[1.2576559E0,-4.0337745E-2,1.3034674E0,-1.21670336E-1,2.3597506E-1,-8.256057E-1,3.9348092E-2,1.4551769E-1,2.106838E-2,2.1034438E-2,-1.4852807E-2,-2.0757848E-2,-0E0],"split_indices":[10,0,10,16,23,29,0,5,0,0,0,0,0],"split_type":[0,0,0,0,0,0,0,0,0,0,0,0,0],"sum_hessian":[8.8994865E1,2.0938478E1,6.805638E1,3.775889E1,3.0297497E1,1.7950544E1,1.9808342E1,2.1363762E1,8.933735E0,1.2643732E1,5.3068123E0,1.5255998E1,6.107765E0],"tree_param":{"num_deleted":"0","num_feature":"40","num_nodes":"13","size_leaf_vector":"0"}},{"base_weights":[6.441606E-2,-5.430447E-1,3.711176E-1,-6.950883E-1,-0E0,-7.941241E-2,5.595063E-1,2.7197418E-1,-4.439837E-1,6.992536E-2,8.1015384E-1,-2.5180352E-1,3.9317232E-1],"categories":[],"categories_nodes":[],"categories_segments":[],"categories_sizes":[],"default_left":[1,1,1,0,0,1,1,0,0,1,0,0,0],"id":67,"left_children":[1,3,5,-1,-1,7,9,-1,-1,11,-1,-1,-1],"loss_changes":[1.7065075E1,2.4037743E0,6.517412E0,0E0,0E0,3.0556784E0,4.0294704E0,0E0,0E0,2.9124107E0,0E0,0E0,0E0],"parents":[2147483647,0,0,1,1,2,2,5,5,6,6,9,9],"right_children":[2,4,6,-1,-1,8,10,-1,-1,12,-1,-1,-1],"split_conditions":[-8.431737E-2,-2.260063E-1,-5.673121E-1,-3.4754418E-2,-0E0,-2.289445E-1,2.8543758E-1,1.3598709E-2,-2.2199186E-2,1.1405108E0,4.0507693E-2,-1.2590176E-2,1.9658616E-2],"split_indices":[2,9,11,0,0,15,38,0,0,11,0,0,0],"split_type":[0,0,0,0,0,0,0,0,0,0,0,0,0],"sum_hessian":[8.7195946E1,2.6290848E1,6.0905094E1,1.9853405E1,6.437443E0,1.53396015E1,4.556549E1,5.405583E0,9.934019E0,1.9429945E1,2.6135548E1,6.9692554E0,1.24606905E1],"tree_param":{"num_deleted":"0","num_feature":"40","num_nodes":"13","size_leaf_vector":"0"}},{"base_weights":[-0E0,-5.136572E-1,2.6422715E-1,-0E0,-7.253605E-1,-8.4561326E-2,7.0059645E-1,-4.6019402E-1,2.7251497E-1,1.8967007E-1,-5.0705856E-1,-0E0,7.712318E-1,6.5062594E-1,-5.632535E-2,-7.9498327E-1,-0E0],"categories":[],"categories_nodes":[],"categories_segments":[],"categories_sizes":[],"default_left":[1,1,1,1,0,1,1,0,0,1,1,1,1,0,0,0,0],"id":68,"left_children":[1,3,5,7,-1,9,-1,-1,-1,13,15,-1,-1,-1,-1,-1,-1],"loss_changes":[1.2389454E1,2.214963E0,1.0910442E1,2.411029E0,0E0,4.9578457E0,1.8991566E-1,0E0,0E0,3.615033E0,3.1259437E0,0E0,0E0,0E0,0E0,0E0,0E0],"parents":[2147483647,0,0,1,1,2,2,3,3,5,5,6,6,9,9,10,10],"right_children":[2,4,6,8,-1,10,-1,-1,-1,14,16,-1,-1,-1,-1,-1,-1],"split_conditions":[-5.845263E-1,-4.5886794E-1,4.687317E-2,-4.182043E-1,-3.6268026E-2,-6.856482E-1,3.5029825E-2,-2.30097E-2,1.3625748E-2,4.219988E-1,-1.9127697E-2,-0E0,3.856159E-2,3.25313E-2,-2.8162675E-3,-3.9749164E-2,-0E0],"split_indices":[11,6,7,39,0,0,11,0,0,12,17,2147483647,2147483647,0,0,0,0],"split_type":[0,0,0,0,0,0,0,0,0,0,0,0,0,0,0,0,0],"sum_hessian":[8.686188E1,2.744003E1,5.9421844E1,1.0965705E1,1.6474325E1,3.1822004E1,2.7599842E1,5.370639E0,5.5950656E0,1.7428865E1,1.4393139E1,5.02916E0,2.2570683E1,7.1766324E0,1.02522335E1,9.021967E0,5.3711715E0],"tree_param":{"num_deleted":"2","num_feature":"40","num_nodes":"17","size_leaf_vector":"0"}},{"base_weights":[-0E0,-7.7795535E-1,2.3101556E-1,-3.717769E-1,4.6230814E-1,1.3421335E-2,-7.103142E-1,-0E0,5.306807E-1,4.7786E-2,7.393002E-1],"categories":[],"categories_nodes":[],"categories_segments":[],"categories_sizes":[],"default_left":[1,0,1,1,1,0,0,0,1,0,0],"id":69,"left_children":[1,-1,3,5,7,-1,-1,-1,9,-1,-1],"loss_changes":[1.685166E1,0E0,9.86721E0,3.7050545E0,1.3924103E0,0E0,0E0,0E0,2.737834E0,0E0,0E0],"parents":[2147483647,0,0,2,2,3,3,4,4,8,8],"right_children":[2,-1,4,6,8,-1,-1,-1,10,-1,-1],"split_conditions":[1.2576439E0,-3.8897768E-2,-7.384142E-1,-1.2897105E0,-2.7026975E-1,6.7106675E-4,-3.551571E-2,-0E0,6.776893E-2,2.3893001E-3,3.696501E-2],"split_indices":[10,0,13,29,20,0,0,0,7,0,0],"split_type":[0,0,0,0,0,0,0,0,0,0,0],"sum_hessian":[8.1819534E1,1.9043982E1,6.277555E1,1.4504596E1,4.8270954E1,5.3689427E0,9.135653E0,7.41611E0,4.0854843E1,1.6329863E1,2.4524982E1],"tree_param":{"num_deleted":"0","num_feature":"40","num_nodes":"11","size_leaf_vector":"0"}},{"base_weights":[-6.0927447E-2,-7.8502876E-1,1.2176498E-1,-3.6240563E-2,6.4853173E-1,-1.9200492E-1,4.1437724E-1,8.314054E-2,-6.7363095E-1],"categories":[],"categories_nodes":[],"categories_segments":[],"categories_sizes":[],"default_left":[1,0,1,1,0,1,0,0,0],"id":70,"left_children":[1,-1,3,5,-1,7,-1,-1,-1],"loss_changes":[1.3426119E1,0E0,7.2626114E0,3.6596212E0,0E0,7.481293E0,0E0,0E0,0E0],"parents":[2147483647,0,0,2,2,3,3,5,5],"right_children":[2,-1,4,6,-1,8,-1,-1,-1],"split_conditions":[2.6615715E-1,-3.925144E-2,7.676352E-1,9.335203E-1,3.242659E-2,-1.6377783E-1,2.0718863E-2,4.1570268E-3,-3.368155E-2],"split_indices":[10,0,32,21,0,35,0,0,0],"split_type":[0,0,0,0,0,0,0,0,0],"sum_hessian":[8.629638E1,1.7599026E1,6.869736E1,5.2074337E1,1.662302E1,4.327545E1,8.798885E0,2.6478323E1,1.6797129E1],"tree_param":{"num_deleted":"0","num_feature":"40","num_nodes":"9","size_leaf_vector":"0"}},{"base_weights":[-1.2132996E-3,-7.549231E-1,1.979184E-1,-1.1239649E-1,4.3194896E-1,-4.8304692E-1,1.3095427E-2,-0E0,5.434906E-1,3.8209268E-1,-2.8440407E-1,6.719378E-1,1.371113E-3],"categories":[],"categories_nodes":[],"categories_segments":[],"categories_sizes":[],"default_left":[1,0,1,1,1,0,1,0,1,0,0,0,0],"id":71,"left_children":[1,-1,3,5,7,-1,9,-1,11,-1,-1,-1,-1],"loss_changes":[1.4374091E1,0E0,5.7086544E0,2.2545633E0,3.0317316E0,0E0,2.6839738E0,0E0,1.2542286E0,0E0,0E0,0E0,0E0],"parents":[2147483647,0,0,2,2,3,3,4,4,6,6,8,8],"right_children":[2,-1,4,6,8,-1,10,-1,12,-1,-1,-1,-1],"split_conditions":[1.2569802E0,-3.7746157E-2,-2.539064E-1,-2.3991048E-1,-1.2382343E0,-2.4152346E-2,2.6502544E-1,-0E0,9.785092E-1,1.9104635E-2,-1.4220203E-2,3.3596892E-2,6.855565E-5],"split_indices":[10,0,25,3,29,0,3,0,2,0,0,0,0],"split_type":[0,0,0,0,0,0,0,0,0,0,0,0,0],"sum_hessian":[8.236248E1,1.7561794E1,6.480069E1,2.4855986E1,3.9944702E1,8.156047E0,1.669994E1,5.5546417E0,3.439006E1,1.0074233E1,6.6257057E0,2.4239298E1,1.0150762E1],"tree_param":{"num_deleted":"0","num_feature":"40","num_nodes":"13","size_leaf_vector":"0"}},{"base_weights":[-1.4094904E-2,-7.934382E-1,1.8212675E-1,-1.7186745E-1,3.754359E-1,2.4250317E-1,-6.98831E-1,4.4250748E-1,-0E0,-0E0,4.901868E-1],"categories":[],"categories_nodes":[],"categories_segments":[],"categories_sizes":[],"default_left":[1,0,1,1,1,0,0,1,0,1,1],"id":72,"left_children":[1,-1,3,5,7,-1,-1,-1,-1,-1,-1],"loss_changes":[1.4801571E1,0E0,5.3265486E0,6.398763E0,1.721549E0,0E0,0E0,6.583452E-1,0E0,0E0,0E0],"parents":[2147483647,0,0,2,2,3,3,4,4,7,7],"right_children":[2,-1,4,6,8,-1,-1,-1,-1,-1,-1],"split_conditions":[1.2576439E0,-3.967191E-2,-8.029504E-1,-1.1551358E0,1.322283E0,1.2125159E-2,-3.494155E-2,2.2125375E-2,-0E0,-0E0,2.450934E-2],"split_indices":[10,0,28,26,10,0,0,5,0,2147483647,2147483647],"split_type":[0,0,0,0,0,0,0,0,0,0,0],"sum_hessian":[8.296052E1,1.689995E1,6.606056E1,1.9796034E1,4.626453E1,9.86384E0,9.932194E0,4.125393E1,5.010603E0,5.450397E0,3.580353E1],"tree_param":{"num_deleted":"2","num_feature":"40","num_nodes":"11","size_leaf_vector":"0"}},{"base_weights":[-0E0,-7.590451E-1,2.2204146E-1,-0E0,7.194224E-1,1.1172086E-1,-6.371072E-1,-2.514726E-1,3.3309504E-1],"categories":[],"categories_nodes":[],"categories_segments":[],"categories_sizes":[],"default_left":[1,0,1,1,0,1,0,0,0],"id":73,"left_children":[1,-1,3,5,-1,7,-1,-1,-1],"loss_changes":[1.4241566E1,0E0,8.389881E0,4.290347E0,0E0,3.8156192E0,0E0,0E0,0E0],"parents":[2147483647,0,0,2,2,3,3,5,5],"right_children":[2,-1,4,6,-1,8,-1,-1,-1],"split_conditions":[2.6615715E-1,-3.7952255E-2,3.4930354E-1,1.0641521E-1,3.597112E-2,-4.5583555E-1,-3.185536E-2,-1.257363E-2,1.6654752E-2],"split_indices":[10,0,32,32,0,22,0,0,0],"split_type":[0,0,0,0,0,0,0,0,0],"sum_hessian":[8.116028E1,1.5875218E1,6.5285065E1,4.55702E1,1.971486E1,3.930114E1,6.269061E0,1.1307438E1,2.7993704E1],"tree_param":{"num_deleted":"0","num_feature":"40","num_nodes":"9","size_leaf_vector":"0"}},{"base_weights":[-1.02090305E-2,-4.920217E-1,1.7703132E-1,-0E0,-7.632005E-1,-8.065914E-2,6.72259E-1,4.6938457E-2,-6.664892E-1,-2.502933E-1,3.5104284E-1],"categories":[],"categories_nodes":[],"categories_segments":[],"categories_sizes":[],"default_left":[1,1,1,0,0,1,0,1,0,0,0],"id":74,"left_children":[1,3,5,-1,-1,7,-1,9,-1,-1,-1],"loss_changes":[8.356565E0,3.6097665E0,8.850759E0,0E0,0E0,4.226046E0,0E0,3.337706E0,0E0,0E0,0E0],"parents":[2147483647,0,0,1,1,2,2,5,5,7,7],"right_children":[2,4,6,-1,-1,8,-1,10,-1,-1,-1],"split_conditions":[-5.844568E-1,-5.844469E-1,2.328068E-1,-0E0,-3.8160026E-2,-2.3022422E-1,3.3612948E-2,-1.0176799E0,-3.332446E-2,-1.2514666E-2,1.7552143E-2],"split_indices":[11,21,7,0,0,30,0,13,0,0,0],"split_type":[0,0,0,0,0,0,0,0,0,0,0],"sum_hessian":[7.975003E1,2.3941422E1,5.5808613E1,9.546872E0,1.4394549E1,3.5703316E1,2.0105295E1,2.8780424E1,6.922892E0,1.1497207E1,1.7283216E1],"tree_param":{"num_deleted":"0","num_feature":"40","num_nodes":"11","size_leaf_vector":"0"}},{"base_weights":[-0E0,-6.9493324E-1,1.5543818E-1,-1.6601552E-1,3.1909385E-1,1.2453621E-1,-5.2959067E-1,-1.0847223E-1,5.021022E-1,1.1666855E-1,-4.6667615E-1,9.976936E-2,6.2161773E-1],"categories":[],"categories_nodes":[],"categories_segments":[],"categories_sizes":[],"default_left":[1,0,1,1,1,0,0,1,1,0,0,1,1],"id":75,"left_children":[1,-1,3,5,7,-1,-1,9,-1,-1,-1,-1,-1],"loss_changes":[9.001422E0,0E0,4.1799326E0,3.2974303E0,5.014969E0,0E0,0E0,2.053685E0,3.0329704E-1,0E0,0E0,0E0,0E0],"parents":[2147483647,0,0,2,2,3,3,4,4,7,7,8,8],"right_children":[2,-1,4,6,8,-1,-1,10,-1,-1,-1,-1,-1],"split_conditions":[-4.1988087E-1,-3.474666E-2,-5.8233476E-1,-2.2358836E-1,-1.3694288E0,6.2268106E-3,-2.6479533E-2,-1.0053483E0,2.510511E-2,5.833428E-3,-2.3333808E-2,4.9884683E-3,3.1080887E-2],"split_indices":[3,0,11,15,5,0,0,19,1,0,0,2147483647,2147483647],"split_type":[0,0,0,0,0,0,0,0,0,0,0,0,0],"sum_hessian":[7.972049E1,1.210628E1,6.7614204E1,1.8672838E1,4.894137E1,8.417476E0,1.0255363E1,1.1759887E1,3.718148E1,5.034834E0,6.7250533E0,1.3608589E1,2.3572893E1],"tree_param":{"num_deleted":"2","num_feature":"40","num_nodes":"13","size_leaf_vector":"0"}},{"base_weights":[8.465706E-3,-7.615261E-1,2.4480243E-1,-4.2344844E-1,3.9388773E-1,4.972463E-1,-0E0,6.471342E-1,-0E0,-3.4280878E-1,2.2703345E-1],"categories":[],"categories_nodes":[],"categories_segments":[],"categories_sizes":[],"default_left":[1,0,1,0,1,1,1,0,0,0,0],"id":76,"left_children":[1,-1,3,-1,5,7,9,-1,-1,-1,-1],"loss_changes":[1.4261466E1,0E0,7.038085E0,0E0,2.787053E0,3.5564108E0,1.3731037E0,0E0,0E0,0E0,0E0],"parents":[2147483647,0,0,2,2,4,4,5,5,6,6],"right_children":[2,-1,4,-1,6,8,10,-1,-1,-1,-1],"split_conditions":[1.2576439E0,-3.8076308E-2,-5.139729E-1,-2.1172423E-2,9.916812E-1,1.3149573E0,2.495176E-1,3.235671E-2,-0E0,-1.7140439E-2,1.1351673E-2],"split_indices":[10,0,23,0,2,10,17,0,0,0,0],"split_type":[0,0,0,0,0,0,0,0,0,0,0],"sum_hessian":[7.797515E1,1.4759418E1,6.3215733E1,8.076783E0,5.513895E1,4.475322E1,1.0385732E1,3.368628E1,1.1066939E1,5.010991E0,5.37474E0],"tree_param":{"num_deleted":"0","num_feature":"40","num_nodes":"11","size_leaf_vector":"0"}},{"base_weights":[-0E0,-7.22174E-1,1.8006116E-1,-0E0,6.269196E-1,-4.0442553E-1,7.7175155E-2,-0E0,7.3481804E-1,3.4900147E-1,-2.5911143E-1],"categories":[],"categories_nodes":[],"categories_segments":[],"categories_sizes":[],"default_left":[1,0,1,1,1,0,1,1,1,0,0],"id":77,"left_children":[1,-1,3,5,-1,-1,9,-1,-1,-1,-1],"loss_changes":[1.1555897E1,0E0,6.3615813E0,2.1446178E0,4.3331814E-1,0E0,3.8302715E0,0E0,0E0,0E0,0E0],"parents":[2147483647,0,0,2,2,3,3,4,4,6,6],"right_children":[2,-1,4,6,-1,-1,10,-1,-1,-1,-1],"split_conditions":[1.2576439E0,-3.61087E-2,3.5950652E-1,-4.4936574E-1,3.1345982E-2,-2.0221276E-2,-1.0820595E-1,-0E0,3.6740903E-2,1.7450074E-2,-1.29555715E-2],"split_indices":[10,0,18,25,11,0,23,2147483647,2147483647,0,0],"split_type":[0,0,0,0,0,0,0,0,0,0,0],"sum_hessian":[7.6381676E1,1.5165356E1,6.1216324E1,4.273287E1,1.8483456E1,8.765974E0,3.3966892E1,5.0434184E0,1.3440037E1,2.2009836E1,1.1957055E1],"tree_param":{"num_deleted":"2","num_feature":"40","num_nodes":"11","size_leaf_vector":"0"}},{"base_weights":[-0E0,-6.888642E-1,1.8867122E-1,-0E0,6.281886E-1,2.3857026E-1,-1.8747994E-1,-0E0,7.2313786E-1,-0E0,4.6897274E-1,1.9848007E-1,-3.6750007E-1],"categories":[],"categories_nodes":[],"categories_segments":[],"categories_sizes":[],"default_left":[1,0,1,1,1,1,1,1,1,0,0,0,0],"id":78,"left_children":[1,-1,3,5,-1,9,11,-1,-1,-1,-1,-1,-1],"loss_changes":[1.0486746E1,0E0,5.97641E0,2.1852612E0,7.197571E-2,2.014473E0,2.6531854E0,0E0,0E0,0E0,0E0,0E0,0E0],"parents":[2147483647,0,0,2,2,3,3,4,4,5,5,6,6],"right_children":[2,-1,4,6,-1,10,12,-1,-1,-1,-1,-1,-1],"split_conditions":[1.2576439E0,-3.444321E-2,2.9019344E-1,-2.3476163E-1,3.140943E-2,-1.9484738E-1,-1.300533E0,-0E0,3.6156893E-2,-0E0,2.3448637E-2,9.924004E-3,-1.8375004E-2],"split_indices":[10,0,15,9,11,2,26,2147483647,2147483647,0,0,0,0],"split_type":[0,0,0,0,0,0,0,0,0,0,0,0,0],"sum_hessian":[7.616362E1,1.4227944E1,6.193568E1,4.3933464E1,1.8002214E1,1.6762142E1,2.7171322E1,5.015531E0,1.2986684E1,5.4886317E0,1.1273509E1,5.0107856E0,2.2160536E1],"tree_param":{"num_deleted":"2","num_feature":"40","num_nodes":"13","size_leaf_vector":"0"}},{"base_weights":[1.1632293E-2,-7.191987E-1,2.3260194E-1,-0E0,6.4935064E-1,1.5028381E-1,-3.9980125E-1,7.7541703E-1,-0E0,-5.7614455E-4,5.3938246E-1],"categories":[],"categories_nodes":[],"categories_segments":[],"categories_sizes":[],"default_left":[1,0,1,1,1,1,0,0,0,0,0],"id":79,"left_children":[1,-1,3,5,7,9,-1,-1,-1,-1,-1],"loss_changes":[1.2045785E1,0E0,6.0565424E0,2.7910194E0,1.017786E0,3.1198018E0,0E0,0E0,0E0,0E0,0E0],"parents":[2147483647,0,0,2,2,3,3,4,4,5,5],"right_children":[2,-1,4,6,8,10,-1,-1,-1,-1,-1],"split_conditions":[2.678963E-1,-3.5959937E-2,2.3368087E-1,-1.5159255E-1,1.6979167E0,-7.955065E-1,-1.9990062E-2,3.877085E-2,-0E0,-2.8807228E-5,2.6969124E-2],"split_indices":[10,0,18,6,39,37,0,0,0,0,0],"split_type":[0,0,0,0,0,0,0,0,0,0,0],"sum_hessian":[7.450947E1,1.3626429E1,6.0883038E1,4.1322365E1,1.9560675E1,3.177475E1,9.547613E0,1.4513943E1,5.046732E0,2.1351784E1,1.0422967E1],"tree_param":{"num_deleted":"0","num_feature":"40","num_nodes":"11","size_leaf_vector":"0"}},{"base_weights":[6.9671054E-4,-7.048673E-1,2.0119019E-1,-1.0978006E-1,4.4156593E-1,1.4614506E-1,-4.290158E-1,-0E0,5.6171936E-1,-0E0,2.8005728E-1,-0E0,-7.202734E-1,6.9600075E-1,-0E0],"categories":[],"categories_nodes":[],"categories_segments":[],"categories_sizes":[],"default_left":[1,0,1,1,1,1,1,0,1,1,1,0,0,0,0],"id":80,"left_children":[1,-1,3,5,7,-1,11,-1,13,-1,-1,-1,-1,-1,-1],"loss_changes":[1.0584998E1,0E0,5.7434645E0,3.0051417E0,3.216651E0,4.023524E-1,1.672086E0,0E0,1.3307257E0,0E0,0E0,0E0,0E0,0E0,0E0],"parents":[2147483647,0,0,2,2,3,3,4,4,5,5,6,6,8,8],"right_children":[2,-1,4,6,8,-1,12,-1,14,-1,-1,-1,-1,-1,-1],"split_conditions":[2.678963E-1,-3.5243366E-2,-2.539064E-1,-7.595693E-1,-1.2375686E0,7.3072533E-3,1.2962198E0,-0E0,2.0484051E-1,-0E0,1.4002864E-2,-0E0,-3.601367E-2,3.4800038E-2,-0E0],"split_indices":[10,0,25,15,29,9,10,0,9,2147483647,2147483647,0,0,0,0],"split_type":[0,0,0,0,0,0,0,0,0,0,0,0,0,0,0],"sum_hessian":[7.5939896E1,1.29267E1,6.3013195E1,2.45556E1,3.8457596E1,1.1054814E1,1.3500785E1,5.644446E0,3.2813152E1,5.0975037E0,5.9573107E0,7.4237084E0,6.077076E0,2.3074224E1,9.738926E0],"tree_param":{"num_deleted":"2","num_feature":"40","num_nodes":"15","size_leaf_vector":"0"}},{"base_weights":[-4.646816E-3,-2.6263458E-1,2.015416E-1,-6.880712E-1,-0E0,-1.3428392E-1,3.9660302E-1,-0E0,-1.0733247E0,-2.3417622E-1,2.1175677E-1,1.2207094E-2,-4.7843012E-1,-0E0,6.339776E-1,4.6860126E-1,-0E0,4.3500268E-1,-3.4955466E-1],"categories":[],"categories_nodes":[],"categories_segments":[],"categories_sizes":[],"default_left":[1,1,1,1,1,1,1,0,0,0,1,0,0,1,0,0,0,0,0],"id":81,"left_children":[1,3,5,7,9,11,13,-1,-1,-1,15,-1,-1,17,-1,-1,-1,-1,-1],"loss_changes":[4.3305855E0,5.1017637E0,3.2850819E0,3.8925028E0,1.4107982E0,1.6084292E0,2.6302652E0,0E0,0E0,0E0,1.7776446E0,0E0,0E0,2.6820097E0,0E0,0E0,0E0,0E0,0E0],"parents":[2147483647,0,0,1,1,2,2,3,3,4,4,5,5,6,6,10,10,13,13],"right_children":[2,4,6,8,10,12,14,-1,-1,-1,16,-1,-1,18,-1,-1,-1,-1,-1],"split_conditions":[-1.2315958E-1,-7.993668E-1,-5.844568E-1,-1.0277855E0,-5.6631887E-1,-9.69212E-2,-1.9757438E-2,-0E0,-5.3666234E-2,-1.1708811E-2,1.1442937E0,6.103547E-4,-2.3921506E-2,-1.1193562E0,3.169888E-2,2.3430062E-2,-0E0,2.1750135E-2,-1.7477734E-2],"split_indices":[9,28,11,0,11,6,7,0,0,0,11,0,0,26,0,0,0,0,0],"split_type":[0,0,0,0,0,0,0,0,0,0,0,0,0,0,0,0,0,0,0],"sum_hessian":[7.3128845E1,3.6427944E1,3.6700905E1,1.3520252E1,2.290769E1,1.0061017E1,2.6639887E1,6.3521795E0,7.168073E0,8.457841E0,1.4449849E1,5.0103784E0,5.0506387E0,1.1496221E1,1.5143666E1,8.6587515E0,5.791097E0,5.1172853E0,6.378935E0],"tree_param":{"num_deleted":"0","num_feature":"40","num_nodes":"19","size_leaf_vector":"0"}},{"base_weights":[-0E0,-7.0043045E-1,1.4866452E-1,-0E0,6.076057E-1,1.00269444E-1,-3.7768495E-1,-2.3128466E-1,3.2815436E-1],"categories":[],"categories_nodes":[],"categories_segments":[],"categories_sizes":[],"default_left":[1,0,1,1,0,1,0,0,0],"id":82,"left_children":[1,-1,3,5,-1,7,-1,-1,-1],"loss_changes":[9.118081E0,0E0,4.6144896E0,2.1411424E0,0E0,3.4864268E0,0E0,0E0,0E0],"parents":[2147483647,0,0,2,2,3,3,5,5],"right_children":[2,-1,4,6,-1,8,-1,-1,-1],"split_conditions":[2.6615715E-1,-3.5021525E-2,7.676352E-1,2.6502544E-1,3.0380284E-2,-7.500593E-1,-1.8884247E-2,-1.1564233E-2,1.6407719E-2],"split_indices":[10,0,32,3,0,13,0,0,0],"split_type":[0,0,0,0,0,0,0,0,0],"sum_hessian":[7.273462E1,1.2747983E1,5.9986637E1,4.6716824E1,1.3269814E1,3.756579E1,9.151033E0,1.1709011E1,2.585678E1],"tree_param":{"num_deleted":"0","num_feature":"40","num_nodes":"9","size_leaf_vector":"0"}},{"base_weights":[-7.2024286E-2,-5.316932E-1,1.3378423E-1,-8.074436E-1,-0E0,4.306205E-1,-1.1210858E-1,-0E0,6.7041713E-1,-4.9630824E-1,3.6748293E-1,1.0504994E-1,-4.17647E-2,-0E0,-9.590024E-1],"categories":[],"categories_nodes":[],"categories_segments":[],"categories_sizes":[],"default_left":[1,1,1,0,0,1,1,1,0,1,0,1,1,0,0],"id":83,"left_children":[1,3,5,-1,-1,7,9,-1,-1,13,-1,-1,-1,-1,-1],"loss_changes":[7.9384985E0,5.2441077E0,4.4302297E0,0E0,0E0,2.4308681E0,5.6017056E0,1.052977E-1,0E0,2.927258E0,0E0,0E0,0E0,0E0,0E0],"parents":[2147483647,0,0,1,1,2,2,5,5,6,6,7,7,9,9],"right_children":[2,4,6,-1,-1,8,10,-1,-1,14,-1,-1,-1,-1,-1],"split_conditions":[1.2863989E0,5.33635E-1,1.1246982E0,-4.037218E-2,-0E0,-5.826391E-1,7.673675E-1,-0E0,3.352086E-2,-1.0858942E-1,1.8374147E-2,5.252497E-3,-2.088235E-3,-0E0,-4.795012E-2],"split_indices":[10,21,11,0,0,11,20,9,0,3,0,2147483647,2147483647,0,0],"split_type":[0,0,0,0,0,0,0,0,0,0,0,0,0,0,0],"sum_hessian":[7.0245316E1,2.326064E1,4.698468E1,1.6430378E1,6.830261E0,2.3951199E1,2.303348E1,1.0423472E1,1.3527726E1,1.5045896E1,7.987585E0,5.249785E0,5.1736875E0,1.0029723E1,5.016172E0],"tree_param":{"num_deleted":"2","num_feature":"40","num_nodes":"15","size_leaf_vector":"0"}},{"base_weights":[3.689922E-2,-3.983281E-1,2.3890796E-1,-0E0,-6.574924E-1,3.7033874E-1,-1.1737101E-1,-0E0,5.0616795E-1,1.6461313E-1,-2.556008E-1,-0E0,5.9562075E-1],"categories":[],"categories_nodes":[],"categories_segments":[],"categories_sizes":[],"default_left":[1,1,1,0,0,1,0,1,1,1,1,1,1],"id":84,"left_children":[1,3,5,-1,-1,7,-1,-1,-1,-1,-1,-1,-1],"loss_changes":[6.3009906E0,2.7272062E0,3.1753035E0,0E0,0E0,2.5534887E0,0E0,7.590733E-1,9.5936203E-1,0E0,0E0,0E0,0E0],"parents":[2147483647,0,0,1,1,2,2,5,5,7,7,8,8],"right_children":[2,4,6,-1,-1,8,-1,-1,-1,-1,-1,-1,-1],"split_conditions":[-3.0259728E-1,-8.8071537E-1,1.0044391E0,-0E0,-3.287462E-2,-5.8233476E-1,-5.8685504E-3,-0E0,2.5308399E-2,8.230656E-3,-1.27800405E-2,-0E0,2.9781038E-2],"split_indices":[3,15,2,0,0,11,0,9,4,2147483647,2147483647,2147483647,2147483647],"split_type":[0,0,0,0,0,0,0,0,0,0,0,0,0],"sum_hessian":[6.904685E1,1.782559E1,5.122126E1,6.873342E0,1.0952249E1,4.143218E1,9.78908E0,1.0680446E1,3.0751736E1,5.649037E0,5.0314083E0,6.6724434E0,2.4079292E1],"tree_param":{"num_deleted":"4","num_feature":"40","num_nodes":"13","size_leaf_vector":"0"}},{"base_weights":[-0E0,-6.6981894E-1,1.2298991E-1,4.912418E-1,-0E0,6.4022124E-1,-0E0,-2.788168E-1,3.05272E-1,-4.706475E-1,-0E0,-9.639754E-2,6.9173187E-1],"categories":[],"categories_nodes":[],"categories_segments":[],"categories_sizes":[],"default_left":[1,0,1,1,1,1,1,1,1,0,0,0,0],"id":85,"left_children":[1,-1,3,-1,7,-1,-1,9,11,-1,-1,-1,-1],"loss_changes":[7.446097E0,0E0,3.3807583E0,3.3564663E-1,4.431238E0,0E0,0E0,2.4673188E0,5.0192156E0,0E0,0E0,0E0,0E0],"parents":[2147483647,0,0,2,2,3,3,4,4,7,7,8,8],"right_children":[2,-1,4,-1,8,-1,-1,10,12,-1,-1,-1,-1],"split_conditions":[2.6615715E-1,-3.349095E-2,-1.0572493E0,2.456209E-2,4.012156E-1,3.2011062E-2,-0E0,5.0056523E-1,-5.684639E-1,-2.3532376E-2,-0E0,-4.819877E-3,3.4586594E-2],"split_indices":[10,0,15,26,0,2147483647,2147483647,21,11,0,0,0,0],"split_type":[0,0,0,0,0,0,0,0,0,0,0,0,0],"sum_hessian":[7.282683E1,1.1425089E1,6.140174E1,1.5046408E1,4.635533E1,8.443695E0,6.602712E0,2.5980188E1,2.0375143E1,1.83093E1,7.670889E0,8.557429E0,1.1817715E1],"tree_param":{"num_deleted":"2","num_feature":"40","num_nodes":"13","size_leaf_vector":"0"}},{"base_weights":[3.599635E-2,-6.633616E-1,2.2378862E-1,-3.613893E-1,3.2801643E-1,4.9990278E-1,-0E0,-0E0,6.6129905E-1,-3.6996928E-1,5.227728E-1],"categories":[],"categories_nodes":[],"categories_segments":[],"categories_sizes":[],"default_left":[1,0,1,0,1,1,1,0,0,0,0],"id":86,"left_children":[1,-1,3,-1,5,7,9,-1,-1,-1,-1],"loss_changes":[9.297657E0,0E0,4.125855E0,0E0,3.0709257E0,2.4153795E0,5.2163763E0,0E0,0E0,0E0,0E0],"parents":[2147483647,0,0,2,2,4,4,5,5,6,6],"right_children":[2,-1,4,-1,6,8,10,-1,-1,-1,-1],"split_conditions":[2.710929E-1,-3.316808E-2,-4.095459E-1,-1.8069467E-2,2.6282018E-1,-8.4706724E-1,6.874909E-1,-0E0,3.3064954E-2,-1.8498464E-2,2.613864E-2],"split_indices":[10,0,2,0,3,0,32,0,0,0,0],"split_type":[0,0,0,0,0,0,0,0,0,0,0],"sum_hessian":[7.109691E1,1.1187218E1,5.9909695E1,5.0373397E0,5.4872353E1,3.4205223E1,2.0667131E1,1.0421258E1,2.3783964E1,1.2185532E1,8.481601E0],"tree_param":{"num_deleted":"0","num_feature":"40","num_nodes":"11","size_leaf_vector":"0"}},{"base_weights":[-8.533568E-2,-4.1775125E-1,1.5385498E-1,-6.9731164E-1,-0E0,-1.068132E-1,3.3428213E-1,1.8603256E-1,-3.3189157E-1,4.9748365E-2,-4.4728976E-1,-0E0,6.664603E-1,3.3697593E-1,-2.52466E-1],"categories":[],"categories_nodes":[],"categories_segments":[],"categories_sizes":[],"default_left":[1,1,1,0,1,1,1,0,0,0,0,1,0,0,0],"id":87,"left_children":[1,3,5,-1,7,9,11,-1,-1,-1,-1,13,-1,-1,-1],"loss_changes":[6.238581E0,3.4480329E0,2.3987522E0,0E0,1.3459622E0,1.5928438E0,3.0831084E0,0E0,0E0,0E0,0E0,1.7323804E0,0E0,0E0,0E0],"parents":[2147483647,0,0,1,1,2,2,4,4,5,5,6,6,11,11],"right_children":[2,4,6,-1,8,10,12,-1,-1,-1,-1,14,-1,-1,-1],"split_conditions":[-1.4254788E-1,-6.64577E-2,-5.826391E-1,-3.4865584E-2,2.7097017E-1,-4.6280897E-1,2.3446378E-1,9.301628E-3,-1.659458E-2,2.4874182E-3,-2.2364488E-2,-7.22264E-1,3.3323016E-2,1.6848797E-2,-1.26233E-2],"split_indices":[9,20,11,0,33,21,31,0,0,0,0,19,0,0,0],"split_type":[0,0,0,0,0,0,0,0,0,0,0,0,0,0,0],"sum_hessian":[6.6399086E1,3.0346693E1,3.605239E1,1.605952E1,1.4287173E1,1.0713493E1,2.5338896E1,8.764163E0,5.5230103E0,5.069788E0,5.643706E0,1.4268078E1,1.1070819E1,5.843188E0,8.42489E0],"tree_param":{"num_deleted":"0","num_feature":"40","num_nodes":"15","size_leaf_vector":"0"}},{"base_weights":[-0E0,-3.7992525E-1,1.6960107E-1,-0E0,-5.670154E-1,-2.289709E-1,3.279692E-1,-0E0,-7.716602E-1,4.6052924E-1,-0E0,-9.797725E-1,-0E0,5.9190893E-1,-0E0],"categories":[],"categories_nodes":[],"categories_segments":[],"categories_sizes":[],"default_left":[1,1,1,0,1,0,1,0,1,1,0,1,1,0,0],"id":88,"left_children":[1,3,5,-1,7,-1,9,-1,-1,13,-1,-1,-1,-1,-1],"loss_changes":[5.106003E0,2.5974607E0,3.4240808E0,0E0,2.4101672E0,0E0,2.2473507E0,0E0,5.226517E-1,1.3956594E0,0E0,0E0,0E0,0E0,0E0],"parents":[2147483647,0,0,1,1,2,2,4,4,6,6,8,8,9,9],"right_children":[2,4,6,-1,8,-1,10,-1,-1,14,-1,-1,-1,-1,-1],"split_conditions":[-3.397499E-2,-1.0748708E0,-1.6394398E-1,-0E0,-6.107247E-1,-1.1448545E-2,4.2578512E-1,-0E0,-3.858301E-2,7.551726E-1,-0E0,-4.8988625E-2,-0E0,2.9595448E-2,-0E0],"split_indices":[33,16,11,0,11,0,12,0,16,22,0,2147483647,2147483647,0,0],"split_type":[0,0,0,0,0,0,0,0,0,0,0,0,0,0,0],"sum_hessian":[6.7440605E1,2.2900272E1,4.4540337E1,6.1930847E0,1.6707188E1,8.693864E0,3.5846474E1,5.0191073E0,1.1688081E1,2.7298037E1,8.548435E0,6.655468E0,5.0326123E0,1.932438E1,7.9736557E0],"tree_param":{"num_deleted":"2","num_feature":"40","num_nodes":"15","size_leaf_vector":"0"}},{"base_weights":[8.282273E-3,-7.20768E-2,3.9101514E-1,-2.2232129E-1,4.2302608E-1,6.015887E-1,-0E0,-0E0,-8.1215775E-1,-3.9786327E-1,2.4751166E-1],"categories":[],"categories_nodes":[],"categories_segments":[],