{"learner":{"attributes":{"best_iteration":"59","best_ntree_limit":"60","best_score":"0.01149656613320112","scikit_learn":"{\"use_label_encoder\": null, \"n_estimators\": 60, \"objective\": \"binary:logistic\", \"max_depth\": 4, \"max_leaves\": null, \"max_bin\": null, \"grow_policy\": null, \"learning_rate\": 0.08, \"verbosity\": 0, \"booster\": null, \"tree_method\": null, \"gamma\": null, \"min_child_weight\": null, \"max_delta_step\": null, \"subsample\": 0.75, \"sampling_method\": null, \"colsample_bytree\": 0.75, \"colsample_bylevel\": null, \"colsample_bynode\": null, \"reg_alpha\": 1.5, \"reg_lambda\": 2.0, \"scale_pos_weight\": 1.234803337306317, \"base_score\": null, \"missing\": NaN, \"num_parallel_tree\": null, \"random_state\": 42, \"n_jobs\": null, \"monotone_constraints\": null, \"interaction_constraints\": null, \"importance_type\": null, \"gpu_id\": null, \"validate_parameters\": null, \"predictor\": null, \"enable_categorical\": false, \"feature_types\": null, \"max_cat_to_onehot\": null, \"max_cat_threshold\": null, \"eval_metric\": \"logloss\", \"early_stopping_rounds\": null, \"callbacks\": null, \"classes_\": [0, 1], \"n_classes_\": 2, \"evals_result_\": {\"validation_0\": {\"logloss\": [0.6298278186798095, 0.5635939101219177, 0.5155671471595764, 0.4735495675563812, 0.4282605395793915, 0.39404761147499084, 0.3576162816524506, 0.32523357782363893, 0.2963043260097504, 0.2702753719806671, 0.24708164026737214, 0.2262963675737381, 0.20745084607601166, 0.19363571164608, 0.18063806376457214, 0.16935991532802583, 0.15571420822143556, 0.14690512056350707, 0.13514171624183655, 0.12762647356987, 0.1173961653470993, 0.11113148686885833, 0.10547637631893159, 0.09724806078672409, 0.08965803849697113, 0.0827318684220314, 0.07638079432249069, 0.0705672816991806, 0.06537345687747001, 0.06048968669772148, 0.05601649404764175, 0.05194901938438416, 0.04995180405974388, 0.04634278203845024, 0.04442882096171379, 0.04126010785698891, 0.03833278636336326, 0.03564407811760902, 0.03417148392796517, 0.031813110268116, 0.02982967227995396, 0.0278224790930748, 0.02680422376096249, 0.02601477059423923, 0.02452829359769821, 0.02308859210312366, 0.0224264135658741, 0.02182617277801037, 0.02113283393830061, 0.0206851756721735, 0.01936673687845469, 0.01816151180565357, 0.01704365958869457, 0.01604779317677021, 0.01510056826025248, 0.01422272956818342, 0.01342004847228527, 0.01268928515762091, 0.01199339840039611, 0.01149656613320112]}}, \"_estimator_type\": \"classifier\"}"},"feature_names":[],"feature_types":[],"gradient_booster":{"model":{"gbtree_model_param":{"num_parallel_tree":"1","num_trees":"60","size_leaf_vector":"0"},"tree_info":[0,0,0,0,0,0,0,0,0,0,0,0,0,0,0,0,0,0,0,0,0,0,0,0,0,0,0,0,0,0,0,0,0,0,0,0,0,0,0,0,0,0,0,0,0,0,0,0,0,0,0,0,0,0,0,0,0,0,0,0],"trees":[{"base_weights":[-0E0,-1.1265391E0,1.9615589E0,-1.8824527E0,4.991472E-2,-1.9446045E0,-4.5746908E-1,5.300481E-1,-1.3362224E0,-7.9565924E-1,-0E0,-2.858467E-1,8.4728813E-1,-0E0,-1.4587997E0],"categories":[],"categories_nodes":[],"categories_segments":[],"categories_sizes":[],"default_left":[1,1,0,1,1,0,1,1,1,0,0,0,0,0,0],"id":0,"left_children":[1,3,-1,5,7,-1,9,11,13,-1,-1,-1,-1,-1,-1],"loss_changes":[8.6529895E2,2.235162E2,0E0,8.065186E0,6.556292E1,0E0,2.1028836E0,2.0783798E1,6.0719986E0,0E0,0E0,0E0,0E0,0E0,0E0],"parents":[2147483647,0,0,1,1,3,3,4,4,6,6,7,7,8,8],"right_children":[2,4,-1,6,8,-1,10,12,14,-1,-1,-1,-1,-1,-1],"split_conditions":[3.6893916E-1,-8.624795E-2,1.5692471E-1,-2.1677509E-1,7.696985E-1,-1.5556836E-1,2.973263E-1,3.024769E-1,-1.6427293E-1,-6.365274E-2,-0E0,-2.2867735E-2,6.778305E-2,-0E0,-1.1670397E-1],"split_indices":[7,4,0,14,20,0,17,4,2,0,0,0,0,0,0],"split_type":[0,0,0,0,0,0,0,0,0,0,0,0,0,0,0],"sum_hessian":[3.8711414E2,2.4603784E2,1.4107628E2,1.49837E2,9.6200836E1,1.418674E2,7.9696064E0,7.317252E1,2.3028307E1,4.6174016E0,3.352205E0,1.9217522E1,5.3955006E1,1.1761025E0,2.1852205E1],"tree_param":{"num_deleted":"0","num_feature":"21","num_nodes":"15","size_leaf_vector":"0"}},{"base_weights":[1.08805215E-2,-1.803259E0,1.846644E0,-1.8444597E0,-1.8515112E-3,6.5004563E-1,-8.447353E-1],"categories":[],"categories_nodes":[],"categories_segments":[],"categories_sizes":[],"default_left":[1,1,0,0,1,0,0],"id":1,"left_children":[1,3,-1,-1,5,-1,-1],"loss_changes":[1.2862603E3,1.1610474E1,0E0,0E0,5.3192086E0,0E0,0E0],"parents":[2147483647,0,0,1,1,4,4],"right_children":[2,4,-1,-1,6,-1,-1],"split_conditions":[-7.2458327E-1,-7.3008215E-1,1.4773151E-1,-1.4755677E-1,-2.359086E-1,5.2003648E-2,-6.757882E-2],"split_indices":[6,6,0,0,8,0,0],"split_type":[0,0,0,0,0,0,0],"sum_hessian":[3.822066E2,1.9184235E2,1.9036426E2,1.8669197E2,5.150373E0,2.1587396E0,2.9916337E0],"tree_param":{"num_deleted":"0","num_feature":"21","num_nodes":"7","size_leaf_vector":"0"}},{"base_weights":[-2.5898645E-2,-9.7354794E-1,1.7012602E0,-1.6396052E0,9.239754E-2,-1.6742408E0,2.4622497E-1,6.4000964E-1,-9.526955E-1,-1.7001692E0,-3.6931366E-1,-1.3237979E-1,9.3001366E-1,-1.4019878E0,1.0824499E0],"categories":[],"categories_nodes":[],"categories_segments":[],"categories_sizes":[],"default_left":[1,1,0,1,1,1,0,1,1,0,0,0,0,0,0],"id":2,"left_children":[1,3,-1,5,7,9,-1,11,13,-1,-1,-1,-1,-1,-1],"loss_changes":[6.3778815E2,1.8194464E2,0E0,1.3183075E1,5.692561E1,8.7194824E-1,0E0,1.6348614E1,3.424694E1,0E0,0E0,0E0,0E0,0E0,0E0],"parents":[2147483647,0,0,1,1,3,3,4,4,5,5,7,7,8,8],"right_children":[2,4,-1,6,8,10,-1,12,14,-1,-1,-1,-1,-1,-1],"split_conditions":[3.6893916E-1,-8.624795E-2,1.3610081E-1,6.2130916E-1,1.4340311E-1,-2.5279114E-1,1.9697998E-2,2.9812515E-1,9.267845E-1,-1.3601354E-1,-2.9545091E-2,-1.0590383E-2,7.440109E-2,-1.1215902E-1,8.659599E-2],"split_indices":[7,4,0,15,20,15,0,4,15,0,0,0,0,0,0],"split_type":[0,0,0,0,0,0,0,0,0,0,0,0,0,0,0],"sum_hessian":[3.8631268E2,2.5057147E2,1.3574123E2,1.5441559E2,9.615589E1,1.5263211E2,1.783479E0,6.454554E1,3.1610348E1,1.479374E2,4.694718E0,1.6503973E1,4.804157E1,2.7007305E1,4.6030426E0],"tree_param":{"num_deleted":"0","num_feature":"21","num_nodes":"15","size_leaf_vector":"0"}},{"base_weights":[2.9402676E-3,-9.279951E-1,1.60942E0,-1.535672E0,1.03199534E-1,-1.5994363E0,-2.5626898E-1,5.384279E-1,-1.0153459E0,4.1754872E-1,-6.2326396E-1,-7.2065973E-1,7.594068E-1,-0E0,-1.1220962E0],"categories":[],"categories_nodes":[],"categories_segments":[],"categories_sizes":[],"default_left":[1,1,0,1,1,0,1,1,1,0,0,0,0,0,0],"id":3,"left_children":[1,3,-1,5,7,-1,9,11,13,-1,-1,-1,-1,-1,-1],"loss_changes":[5.703805E2,1.531364E2,0E0,8.823883E0,4.4247196E1,0E0,3.482456E0,1.9834248E1,4.2346516E0,0E0,0E0,0E0,0E0,0E0,0E0],"parents":[2147483647,0,0,1,1,3,3,4,4,6,6,7,7,8,8],"right_children":[2,4,-1,6,8,-1,10,12,14,-1,-1,-1,-1,-1,-1],"split_conditions":[3.6893916E-1,-2.9480658E-2,1.2875359E-1,-1.2194607E-1,7.696985E-1,-1.279549E-1,-7.1265185E-1,-1.3102839E0,1.1222868E-1,3.3403896E-2,-4.9861114E-2,-5.765278E-2,6.0752545E-2,-0E0,-8.9767694E-2],"split_indices":[7,4,0,14,20,0,0,17,4,0,0,0,0,0,0],"split_type":[0,0,0,0,0,0,0,0,0,0,0,0,0,0,0],"sum_hessian":[3.7670972E2,2.3844482E2,1.382649E2,1.5033153E2,8.81133E1,1.4160153E2,8.729998E0,6.514394E1,2.2969347E1,1.5399102E0,7.190088E0,8.037528E0,5.710642E1,1.16168E0,2.1807667E1],"tree_param":{"num_deleted":"0","num_feature":"21","num_nodes":"15","size_leaf_vector":"0"}},{"base_weights":[-0E0,-1.5501764E0,1.575024E0,-1.5647216E0,-0E0,-0E0,-1.993116E-1],"categories":[],"categories_nodes":[],"categories_segments":[],"categories_sizes":[],"default_left":[1,1,0,0,1,0,0],"id":4,"left_children":[1,3,-1,-1,5,-1,-1],"loss_changes":[9.2528827E2,2.848175E0,0E0,0E0,1.2791942E-1,0E0,0E0],"parents":[2147483647,0,0,1,1,4,4],"right_children":[2,4,-1,-1,6,-1,-1],"split_conditions":[-7.2458327E-1,-7.288523E-1,1.2600192E-1,-1.2517773E-1,9.930253E-3,-0E0,-1.5944928E-2],"split_indices":[6,6,0,0,8,0,0],"split_type":[0,0,0,0,0,0,0],"sum_hessian":[3.7497687E2,1.8910306E2,1.8587381E2,1.8672998E2,2.373075E0,1.1529601E0,1.2201148E0],"tree_param":{"num_deleted":"0","num_feature":"21","num_nodes":"7","size_leaf_vector":"0"}},{"base_weights":[-3.7777185E-2,-7.231362E-1,1.4592243E0,-1.2884493E0,1.10191576E-1,-1.462227E0,3.57971E-1,4.7126508E-1,-9.7162956E-1,7.7019346E-1,-5.072626E-1,-7.117315E-1,6.425789E-1,-1.3147503E0,7.3814124E-1],"categories":[],"categories_nodes":[],"categories_segments":[],"categories_sizes":[],"default_left":[1,1,0,1,1,0,1,1,1,0,0,0,0,0,0],"id":5,"left_children":[1,3,-1,5,7,-1,9,11,13,-1,-1,-1,-1,-1,-1],"loss_changes":[3.7219455E2,1.1991585E2,0E0,4.570558E1,3.9967373E1,0E0,6.5728645E0,1.6777466E1,1.7538147E1,0E0,0E0,0E0,0E0,0E0,0E0],"parents":[2147483647,0,0,1,1,3,3,4,4,6,6,7,7,8,8],"right_children":[2,4,-1,6,8,-1,10,12,14,-1,-1,-1,-1,-1,-1],"split_conditions":[4.4408834E-1,-8.775671E-2,1.1673795E-1,-3.019865E-1,7.696985E-1,-1.1697815E-1,2.1858552E-1,-1.3542352E0,9.5841753E-1,6.1615475E-2,-4.0581007E-2,-5.6938518E-2,5.140631E-2,-1.05180025E-1,5.9051298E-2],"split_indices":[13,4,0,15,20,0,20,17,15,0,0,0,0,0,0],"split_type":[0,0,0,0,0,0,0,0,0,0,0,0,0,0,0],"sum_hessian":[3.5978772E2,2.4819478E2,1.1159294E2,1.4829924E2,9.9895546E1,1.351673E2,1.3131936E1,7.678331E1,2.3112238E1,1.0217395E1,2.9145412E0,7.807076E0,6.8976234E1,2.0364775E1,2.747465E0],"tree_param":{"num_deleted":"0","num_feature":"21","num_nodes":"15","size_leaf_vector":"0"}},{"base_weights":[1.3239572E-2,-1.4390634E0,1.4512336E0,-1.4614401E0,-0E0,-0E0,1.4597647E0,2.2000659E-1,-4.2661828E-1],"categories":[],"categories_nodes":[],"categories_segments":[],"categories_sizes":[],"default_left":[1,1,1,0,1,0,0,0,0],"id":6,"left_children":[1,3,5,-1,7,-1,-1,-1,-1],"loss_changes":[7.112769E2,3.9378967E0,1.9023743E0,0E0,8.965781E-1,0E0,0E0,0E0,0E0],"parents":[2147483647,0,0,1,1,2,2,4,4],"right_children":[2,4,6,-1,8,-1,-1,-1,-1],"split_conditions":[-7.254993E-1,-7.3008215E-1,-7.2479534E-1,-1.169152E-1,-6.990905E-1,-0E0,1.16781175E-1,1.7600527E-2,-3.4129463E-2],"split_indices":[6,6,6,0,8,0,0,0,0],"split_type":[0,0,0,0,0,0,0,0,0],"sum_hessian":[3.3657538E2,1.6693483E2,1.6964055E2,1.6364491E2,3.289908E0,1.1076095E0,1.6853293E2,1.2201145E0,2.0697935E0],"tree_param":{"num_deleted":"0","num_feature":"21","num_nodes":"9","size_leaf_vector":"0"}},{"base_weights":[-2.6627043E-2,-1.3767346E0,1.4002271E0,-1.4074622E0,-9.4968855E-2,4.8859444E-1,-7.429662E-1],"categories":[],"categories_nodes":[],"categories_segments":[],"categories_sizes":[],"default_left":[1,1,0,0,1,0,0],"id":7,"left_children":[1,3,-1,-1,5,-1,-1],"loss_changes":[6.396848E2,4.219818E0,0E0,0E0,3.8659513E0,0E0,0E0],"parents":[2147483647,0,0,1,1,4,4],"right_children":[2,4,-1,-1,6,-1,-1],"split_conditions":[-7.244173E-1,-7.309433E-1,1.1201816E-1,-1.12596974E-1,-7.9285294E-1,3.9087556E-2,-5.9437294E-2],"split_indices":[6,6,0,0,14,0,0],"split_type":[0,0,0,0,0,0,0],"sum_hessian":[3.2807806E2,1.6914882E2,1.5892926E2,1.6385437E2,5.294444E0,1.8266186E0,3.4678257E0],"tree_param":{"num_deleted":"0","num_feature":"21","num_nodes":"7","size_leaf_vector":"0"}},{"base_weights":[-2.680603E-3,-1.3273773E0,1.359257E0,-1.3584926E0,-1.5298897E-1,-0E0,1.3750509E0,4.740298E-1,-7.674508E-1,2.5838897E-1,-0E0],"categories":[],"categories_nodes":[],"categories_segments":[],"categories_sizes":[],"default_left":[1,1,1,0,1,1,0,0,0,0,0],"id":8,"left_children":[1,3,5,-1,7,9,-1,-1,-1,-1,-1],"loss_changes":[5.7218933E2,3.2128296E0,1.7425232E0,0E0,4.1199393E0,2.426521E-1,0E0,0E0,0E0,0E0,0E0],"parents":[2147483647,0,0,1,1,2,2,4,4,5,5],"right_children":[2,4,6,-1,8,10,-1,-1,-1,-1,-1],"split_conditions":[-7.244173E-1,-7.308136E-1,-7.2044855E-1,-1.0867941E-1,-7.144753E-1,-3.602112E-1,1.1000407E-1,3.7922382E-2,-6.1396062E-2,2.0671116E-2,-0E0],"split_indices":[6,6,6,0,15,14,0,0,0,0,0],"split_type":[0,0,0,0,0,0,0,0,0,0,0],"sum_hessian":[3.1317737E2,1.5934329E2,1.5383408E2,1.5368074E2,5.6625447E0,2.6376672E0,1.5119641E2,1.8206339E0,3.8419108E0,1.6344291E0,1.003238E0],"tree_param":{"num_deleted":"0","num_feature":"21","num_nodes":"11","size_leaf_vector":"0"}},{"base_weights":[-0E0,-1.2810985E0,1.3121235E0,-1.3248506E0,-0E0,1.2970823E-1,1.3273814E0,6.35459E-1,-6.534302E-1,4.5304155E-1,-0E0],"categories":[],"categories_nodes":[],"categories_segments":[],"categories_sizes":[],"default_left":[1,1,1,0,1,1,0,0,0,0,0],"id":9,"left_children":[1,3,5,-1,7,9,-1,-1,-1,-1,-1],"loss_changes":[5.153885E2,7.9989777E0,1.9580078E-1,0E0,3.9734857E0,8.106701E-1,0E0,0E0,0E0,0E0,0E0],"parents":[2147483647,0,0,1,1,2,2,4,4,5,5],"right_children":[2,4,6,-1,8,10,-1,-1,-1,-1,-1],"split_conditions":[-7.2458327E-1,-7.308136E-1,-7.1823907E-1,-1.0598804E-1,-6.990905E-1,-3.602112E-1,1.0619051E-1,5.083672E-2,-5.2274417E-2,3.6243323E-2,-0E0],"split_indices":[6,6,6,0,8,14,0,0,0,0,0],"split_type":[0,0,0,0,0,0,0,0,0,0,0],"sum_hessian":[3.0262234E2,1.5353415E2,1.490882E2,1.4798824E2,5.545921E0,3.393818E0,1.4569438E2,2.4185464E0,3.1273746E0,2.3918712E0,1.0019467E0],"tree_param":{"num_deleted":"0","num_feature":"21","num_nodes":"11","size_leaf_vector":"0"}},{"base_weights":[4.640199E-3,-1.2569945E0,1.2776135E0,-1.2778418E0,-7.727961E-2,1.8177384E-1,-5.448379E-1],"categories":[],"categories_nodes":[],"categories_segments":[],"categories_sizes":[],"default_left":[1,1,0,0,1,0,0],"id":10,"left_children":[1,3,-1,-1,5,-1,-1],"loss_changes":[4.5838434E2,1.2805176E0,0E0,0E0,1.4520764E0,0E0,0E0],"parents":[2147483647,0,0,1,1,4,4],"right_children":[2,4,-1,-1,6,-1,-1],"split_conditions":[-7.2458327E-1,-7.299126E-1,1.0220908E-1,-1.02227345E-1,-2.6040322E-1,1.4541907E-2,-4.358703E-2],"split_indices":[6,6,0,0,0,0,0],"split_type":[0,0,0,0,0,0,0],"sum_hessian":[2.8139587E2,1.4074815E2,1.4064772E2,1.3689124E2,3.8569238E0,1.2040893E0,2.6528344E0],"tree_param":{"num_deleted":"0","num_feature":"21","num_nodes":"7","size_leaf_vector":"0"}},{"base_weights":[-1.4717263E-3,-1.2065407E0,1.2369269E0,-1.2350112E0,-0E0,1.0884474E-2,1.260683E0,3.4076217E-1,-5.0592417E-1,4.5226637E-1,-1.5061738E-1],"categories":[],"categories_nodes":[],"categories_segments":[],"categories_sizes":[],"default_left":[1,1,1,0,1,1,0,0,0,0,0],"id":11,"left_children":[1,3,5,-1,7,9,-1,-1,-1,-1,-1],"loss_changes":[4.0274255E2,3.3394928E0,1.9243164E0,0E0,1.5763227E0,9.976038E-1,0E0,0E0,0E0,0E0,0E0],"parents":[2147483647,0,0,1,1,2,2,4,4,5,5],"right_children":[2,4,6,-1,8,10,-1,-1,-1,-1,-1],"split_conditions":[-7.24478E-1,-7.308136E-1,-7.1858525E-1,-9.88009E-2,1.6429868E-1,-6.2559104E-1,1.00854635E-1,2.7260972E-2,-4.047393E-2,3.618131E-2,-1.204939E-2],"split_indices":[6,6,6,0,0,8,0,0,0,0,0],"split_type":[0,0,0,0,0,0,0,0,0,0,0],"sum_hessian":[2.6590082E2,1.3540384E2,1.3049696E2,1.3133125E2,4.072593E0,3.7360978E0,1.26760864E2,1.5035104E0,2.5690827E0,2.524297E0,1.2118007E0],"tree_param":{"num_deleted":"0","num_feature":"21","num_nodes":"11","size_leaf_vector":"0"}},{"base_weights":[1.2534815E-2,-1.1786625E0,1.2214216E0,-1.2121785E0,-0E0,4.0764353E-1,-5.793578E-1],"categories":[],"categories_nodes":[],"categories_segments":[],"categories_sizes":[],"default_left":[1,1,0,0,1,0,0],"id":12,"left_children":[1,3,-1,-1,5,-1,-1],"loss_changes":[3.7408926E2,3.6087952E0,0E0,0E0,2.259137E0,0E0,0E0],"parents":[2147483647,0,0,1,1,4,4],"right_children":[2,4,-1,-1,6,-1,-1],"split_conditions":[-7.2458327E-1,-7.3008215E-1,9.7713724E-2,-9.6974276E-2,-6.990905E-1,3.261148E-2,-4.6348624E-2],"split_indices":[6,6,0,0,8,0,0],"split_type":[0,0,0,0,0,0,0],"sum_hessian":[2.5573605E2,1.2821066E2,1.2752539E2,1.23565735E2,4.644932E0,1.7914395E0,2.8534925E0],"tree_param":{"num_deleted":"0","num_feature":"21","num_nodes":"7","size_leaf_vector":"0"}},{"base_weights":[4.8226938E-3,-5.982313E-1,1.1651001E0,-9.241624E-1,-1.6508259E-1,-1.098348E0,3.6356282E-1,3.8852265E-1,-7.731999E-1,-0E0,6.471635E-1,-1.715267E-1,5.261861E-1,-9.5782113E-1,4.86415E-1],"categories":[],"categories_nodes":[],"categories_segments":[],"categories_sizes":[],"default_left":[1,1,0,1,1,0,1,1,1,0,0,0,0,0,0],"id":13,"left_children":[1,3,-1,5,7,-1,9,11,13,-1,-1,-1,-1,-1,-1],"loss_changes":[1.6983241E2,2.0376743E1,0E0,2.1591774E1,2.5512215E1,0E0,1.1556338E0,3.6327553E0,1.0105043E1,0E0,0E0,0E0,0E0,0E0,0E0],"parents":[2147483647,0,0,1,1,3,3,4,4,6,6,7,7,8,8],"right_children":[2,4,-1,6,8,-1,10,12,14,-1,-1,-1,-1,-1,-1],"split_conditions":[3.6893916E-1,-3.0965877E-1,9.320801E-2,-3.0105567E-1,-6.111274E-1,-8.786784E-2,6.9905305E-1,-9.062841E-1,8.928906E-1,-0E0,5.177308E-2,-1.3722136E-2,4.2094886E-2,-7.662569E-2,3.8913198E-2],"split_indices":[7,2,0,15,20,0,15,15,15,0,0,0,0,0,0],"split_type":[0,0,0,0,0,0,0,0,0,0,0,0,0,0,0],"sum_hessian":[2.3751083E2,1.5606967E2,8.144116E1,8.5787224E1,7.028245E1,7.685087E1,8.936354E0,3.5877033E1,3.440541E1,4.7256308E0,4.210723E0,4.8318305E0,3.1045204E1,3.1463799E1,2.941611E0],"tree_param":{"num_deleted":"0","num_feature":"21","num_nodes":"15","size_leaf_vector":"0"}},{"base_weights":[-0E0,-5.635075E-1,1.1434338E0,-1.0581409E0,1.4179026E-1,-1.1456739E0,-0E0,4.5230645E-1,-6.034273E-1,-4.5498416E-2,1.9270729E-1,-3.4114876E-1,6.2461007E-1,-9.591766E-1,4.9149743E-1],"categories":[],"categories_nodes":[],"categories_segments":[],"categories_sizes":[],"default_left":[1,1,0,1,1,0,1,1,1,0,0,0,0,0,0],"id":14,"left_children":[1,3,-1,5,7,-1,9,11,13,-1,-1,-1,-1,-1,-1],"loss_changes":[1.5284726E2,5.769084E1,0E0,9.413773E0,1.5754288E1,0E0,1.644018E-1,7.638956E0,9.066596E0,0E0,0E0,0E0,0E0,0E0,0E0],"parents":[2147483647,0,0,1,1,3,3,4,4,6,6,7,7,8,8],"right_children":[2,4,-1,6,8,-1,10,12,14,-1,-1,-1,-1,-1,-1],"split_conditions":[3.6893916E-1,6.6008806E-2,9.1474704E-2,-3.0105567E-1,4.972087E-1,-9.1653906E-2,6.289662E-1,-1.2968408E0,8.8641196E-1,-3.6398731E-3,1.5416582E-2,-2.7291901E-2,4.9968805E-2,-7.6734126E-2,3.9319795E-2],"split_indices":[7,4,0,15,19,0,15,17,15,0,0,0,0,0,0],"split_type":[0,0,0,0,0,0,0,0,0,0,0,0,0,0,0],"sum_hessian":[2.3447598E2,1.5856769E2,7.5908295E1,9.386518E1,6.4702515E1,8.694802E1,6.91716E0,4.7647686E1,1.7054827E1,4.8732963E0,2.043864E0,6.598105E0,4.104958E1,1.4093619E1,2.9612074E0],"tree_param":{"num_deleted":"0","num_feature":"21","num_nodes":"15","size_leaf_vector":"0"}},{"base_weights":[-0E0,-4.82741E-1,1.1178209E0,-1.0111468E0,3.2110866E-2,-1.092161E0,5.5212412E-2,3.150359E-1,-5.793212E-1,2.8002244E-1,-0E0,7.147948E-2,8.8778687E-1,3.152203E-1,-7.800616E-1],"categories":[],"categories_nodes":[],"categories_segments":[],"categories_sizes":[],"default_left":[1,1,0,1,1,0,1,1,1,0,0,0,0,0,0],"id":15,"left_children":[1,3,-1,5,7,-1,9,11,13,-1,-1,-1,-1,-1,-1],"loss_changes":[1.2051518E2,4.4082893E1,0E0,8.47361E0,1.3758933E1,0E0,3.0678675E-1,6.451397E0,5.5428476E0,0E0,0E0,0E0,0E0,0E0,0E0],"parents":[2147483647,0,0,1,1,3,3,4,4,6,6,7,7,8,8],"right_children":[2,4,-1,6,8,-1,10,12,14,-1,-1,-1,-1,-1,-1],"split_conditions":[4.4408834E-1,-2.7026543E-1,8.942567E-2,1.8602863E-1,3.1805816E-1,-8.7372884E-2,3.3646676E-1,-4.3820158E-2,-2.72998E-1,2.2401795E-2,-0E0,5.718358E-3,7.102295E-2,2.5217623E-2,-6.2404927E-2],"split_indices":[13,4,0,14,20,0,0,14,2,0,0,0,0,0,0],"split_type":[0,0,0,0,0,0,0,0,0,0,0,0,0,0,0],"sum_hessian":[2.1968198E2,1.5440247E2,6.52795E1,7.668461E1,7.771786E1,7.253239E1,4.152227E0,5.5472225E1,2.2245628E1,2.151646E0,2.000581E0,4.2337276E1,1.3134951E1,2.4985688E0,1.9747059E1],"tree_param":{"num_deleted":"0","num_feature":"21","num_nodes":"15","size_leaf_vector":"0"}},{"base_weights":[7.9335505E-3,-1.1047449E0,1.1395565E0,-1.1412942E0,-0E0,1.3305515E-1,1.1671281E0,3.023284E-1,-3.3338538E-1,5.816312E-1,-2.2830018E-1],"categories":[],"categories_nodes":[],"categories_segments":[],"categories_sizes":[],"default_left":[1,1,1,0,1,1,0,0,0,0,0],"id":16,"left_children":[1,3,5,-1,7,9,-1,-1,-1,-1,-1],"loss_changes":[2.6396628E2,3.8480682E0,6.4123535E-1,0E0,7.8321946E-1,1.8485813E0,0E0,0E0,0E0,0E0,0E0],"parents":[2147483647,0,0,1,1,2,2,4,4,5,5],"right_children":[2,4,6,-1,8,10,-1,-1,-1,-1,-1],"split_conditions":[-7.254993E-1,-7.308136E-1,-7.1858525E-1,-9.1303535E-2,-7.144753E-1,-2.2724006E-1,9.3370244E-2,2.4186272E-2,-2.667083E-2,4.6530493E-2,-1.8264014E-2],"split_indices":[6,6,6,0,15,14,0,0,0,0,0],"split_type":[0,0,0,0,0,0,0,0,0,0,0],"sum_hessian":[2.0560025E2,1.0302347E2,1.02576775E2,9.935879E1,3.6646824E0,4.4962516E0,9.808052E1,1.4785328E0,2.1861496E0,3.314099E0,1.1821523E0],"tree_param":{"num_deleted":"0","num_feature":"21","num_nodes":"11","size_leaf_vector":"0"}},{"base_weights":[-0E0,-4.642629E-1,1.0829047E0,-9.742917E-1,4.3230664E-2,-1.0244045E0,-0E0,3.0599973E-1,-5.2329737E-1,2.006121E-2,-0E0,-2.465723E-1,4.1575494E-1,2.0129621E-1,-7.219146E-1],"categories":[],"categories_nodes":[],"categories_segments":[],"categories_sizes":[],"default_left":[1,1,0,1,1,0,1,1,1,0,0,0,0,0,0],"id":17,"left_children":[1,3,-1,5,7,-1,9,11,13,-1,-1,-1,-1,-1,-1],"loss_changes":[1.0109769E2,3.799497E1,0E0,4.1763E0,1.0586395E1,0E0,1.3104382E-3,3.5929265E0,4.1620626E0,0E0,0E0,0E0,0E0,0E0,0E0],"parents":[2147483647,0,0,1,1,3,3,4,4,6,6,7,7,8,8],"right_children":[2,4,-1,6,8,-1,10,12,14,-1,-1,-1,-1,-1,-1],"split_conditions":[4.4408834E-1,-2.7026543E-1,8.663237E-2,-2.8656766E-2,3.1805816E-1,-8.195236E-2,-2.5131232E-1,-1.295548E0,-2.171531E-1,1.6048967E-3,-0E0,-1.9725783E-2,3.3260394E-2,1.6103696E-2,-5.7753164E-2],"split_indices":[13,4,0,19,20,0,9,17,2,0,0,0,0,0,0],"split_type":[0,0,0,0,0,0,0,0,0,0,0,0,0,0,0],"sum_hessian":[1.9735213E2,1.3907037E2,5.828176E1,6.991859E1,6.915179E1,6.7034004E1,2.884582E0,4.967759E1,1.9474195E1,1.2561336E0,1.6284485E0,5.554265E0,4.4123325E1,2.559061E0,1.6915134E1],"tree_param":{"num_deleted":"0","num_feature":"21","num_nodes":"15","size_leaf_vector":"0"}},{"base_weights":[-1.2250083E-2,-1.1266404E0,1.0821322E0,-0E0,1.128083E0,4.5595565E-1,-3.708002E-1],"categories":[],"categories_nodes":[],"categories_segments":[],"categories_sizes":[],"default_left":[1,0,1,1,0,0,0],"id":18,"left_children":[1,-1,3,5,-1,-1,-1],"loss_changes":[2.3907211E2,0E0,4.5799026E0,1.4158257E0,0E0,0E0,0E0],"parents":[2147483647,0,0,2,2,3,3],"right_children":[2,-1,4,6,-1,-1,-1],"split_conditions":[-7.308136E-1,-9.013123E-2,-7.2458327E-1,-6.990905E-1,9.024664E-2,3.6476452E-2,-2.9664015E-2],"split_indices":[6,0,6,8,0,0,0],"split_type":[0,0,0,0,0,0,0],"sum_hessian":[1.919759E2,9.576836E1,9.620755E1,4.23879E0,9.1968765E1,2.020461E0,2.2183287E0],"tree_param":{"num_deleted":"0","num_feature":"21","num_nodes":"7","size_leaf_vector":"0"}},{"base_weights":[-8.681442E-3,-4.5142075E-1,1.0517193E0,-9.6619445E-1,2.2739045E-2,-1.0414271E0,-0E0,5.086747E-1,-1.9220674E-1,-1.0536141E0,-0E0,1.8572022E-1,-0E0,-1.01300776E-1,8.493557E-1,-4.2076656E-1,7.588605E-1],"categories":[],"categories_nodes":[],"categories_segments":[],"categories_sizes":[],"default_left":[1,1,0,1,1,1,1,1,1,0,0,0,0,0,0,0,0],"id":19,"left_children":[1,3,-1,5,7,9,11,13,15,-1,-1,-1,-1,-1,-1,-1,-1],"loss_changes":[8.540249E1,3.3349304E1,0E0,5.527931E0,7.81942E0,4.212799E-1,1.3179272E-1,6.214954E0,1.0297354E1,0E0,0E0,0E0,0E0,0E0,0E0,0E0,0E0],"parents":[2147483647,0,0,1,1,3,3,4,4,5,5,6,6,7,7,8,8],"right_children":[2,4,-1,6,8,10,12,14,16,-1,-1,-1,-1,-1,-1,-1,-1],"split_conditions":[4.4408834E-1,-2.7235347E-1,8.4137544E-2,-1.5103525E-1,-8.075936E-1,-8.340592E-2,1.4253327E-1,2.1028203E-1,8.856071E-1,-8.4289126E-2,-0E0,1.4857617E-2,-0E0,-8.104062E-3,6.794845E-2,-3.3661325E-2,6.070884E-2],"split_indices":[13,4,0,15,8,2,0,4,15,0,0,0,0,0,0,0,0],"split_type":[0,0,0,0,0,0,0,0,0,0,0,0,0,0,0,0,0],"sum_hessian":[1.7980368E2,1.2865196E2,5.115172E1,6.220592E1,6.6446045E1,5.8361397E1,3.8445258E0,2.1679613E1,4.476643E1,5.735259E1,1.0088068E0,1.8209654E0,2.0235603E0,6.6949444E0,1.4984669E1,3.826335E1,6.5030775E0],"tree_param":{"num_deleted":"0","num_feature":"21","num_nodes":"17","size_leaf_vector":"0"}},{"base_weights":[1.5584541E-2,-1.053258E0,1.0874816E0,-1.1208427E0,-1.8602695E-1,-0E0,1.111165E0,7.5028116E-1,-7.616313E-1,2.267055E-1,-0E0],"categories":[],"categories_nodes":[],"categories_segments":[],"categories_sizes":[],"default_left":[1,1,1,0,1,1,0,0,0,0,0],"id":20,"left_children":[1,3,5,-1,7,9,-1,-1,-1,-1,-1],"loss_changes":[2.0062608E2,2.7203445E0,8.8570404E-1,0E0,6.705923E0,1.9858831E-1,0E0,0E0,0E0,0E0,0E0],"parents":[2147483647,0,0,1,1,2,2,4,4,5,5],"right_children":[2,4,6,-1,8,10,-1,-1,-1,-1,-1],"split_conditions":[-7.2458327E-1,-7.377093E-1,-7.1858525E-1,-8.966742E-2,-7.144753E-1,-7.1582884E-1,8.8893205E-2,6.0022492E-2,-6.09305E-2,1.813644E-2,-0E0],"split_indices":[6,6,6,0,15,18,0,0,0,0,0],"split_type":[0,0,0,0,0,0,0,0,0,0,0],"sum_hessian":[1.710696E2,8.497357E1,8.609603E1,7.6683014E1,8.290555E0,2.997999E0,8.309803E1,1.9331319E0,6.3574233E0,1.8639325E0,1.1340665E0],"tree_param":{"num_deleted":"0","num_feature":"21","num_nodes":"11","size_leaf_vector":"0"}},{"base_weights":[-0E0,-3.915452E-1,1.021331E0,-8.788344E-1,8.642019E-2,-1.0145123E0,1.4520215E-2,7.152114E-1,-1.4691554E-1,-1.0271045E0,-0E0,2.9613942E-1,-7.612623E-2,-0E0,8.782678E-1,4.0107992E-1,-3.1950933E-1],"categories":[],"categories_nodes":[],"categories_segments":[],"categories_sizes":[],"default_left":[1,1,0,1,1,1,1,1,1,0,0,0,0,0,0,0,0],"id":21,"left_children":[1,3,-1,5,7,9,11,13,15,-1,-1,-1,-1,-1,-1,-1,-1],"loss_changes":[6.559405E1,2.887317E1,0E0,8.834511E0,9.857592E0,2.6509476E-1,5.910857E-1,3.3566504E0,4.261401E0,0E0,0E0,0E0,0E0,0E0,0E0,0E0,0E0],"parents":[2147483647,0,0,1,1,3,3,4,4,5,5,6,6,7,7,8,8],"right_children":[2,4,-1,6,8,10,12,14,16,-1,-1,-1,-1,-1,-1,-1,-1],"split_conditions":[4.4408834E-1,-8.775671E-2,8.170647E-2,6.1854787E-2,-8.5642743E-1,-9.999415E-2,-3.3581442E-1,-3.7716466E-1,-3.496775E-1,-8.2168356E-2,-0E0,2.3691153E-2,-6.0900985E-3,-0E0,7.0261426E-2,3.2086395E-2,-2.5560746E-2],"split_indices":[13,4,0,14,8,2,2,2,2,0,0,0,0,0,0,0,0],"split_type":[0,0,0,0,0,0,0,0,0,0,0,0,0,0,0,0,0],"sum_hessian":[1.5972176E2,1.1621286E2,4.3508904E1,5.826855E1,5.7944305E1,5.1808044E1,6.4605055E0,1.6304707E1,4.1639603E1,5.074806E1,1.0599887E0,4.498497E0,1.9620084E0,1.8142226E0,1.4490483E1,7.257622E0,3.438198E1],"tree_param":{"num_deleted":"0","num_feature":"21","num_nodes":"17","size_leaf_vector":"0"}},{"base_weights":[1.5514064E-2,-3.6337066E-1,1.0114987E0,-9.0997744E-1,8.412776E-3,-1.0134844E0,-0E0,3.8839677E-1,-3.2781336E-1,-0E0,9.283515E-2,-2.2174366E-1,5.823938E-1,-6.4542305E-1,6.0569775E-1],"categories":[],"categories_nodes":[],"categories_segments":[],"categories_sizes":[],"default_left":[1,1,0,1,1,0,1,1,1,0,0,0,0,0,0],"id":22,"left_children":[1,3,-1,5,7,-1,9,11,13,-1,-1,-1,-1,-1,-1],"loss_changes":[6.0215652E1,2.4270155E1,0E0,5.5857506E0,8.959662E0,0E0,3.3702653E-2,4.9020615E0,1.1148107E1,0E0,0E0,0E0,0E0,0E0,0E0],"parents":[2147483647,0,0,1,1,3,3,4,4,6,6,7,7,8,8],"right_children":[2,4,-1,6,8,-1,10,12,14,-1,-1,-1,-1,-1,-1],"split_conditions":[4.4408834E-1,-3.758671E-1,8.091989E-2,-4.330106E-1,-5.8697724E-1,-8.1078745E-2,8.302089E-1,-9.0841764E-1,8.1365824E-1,-0E0,7.426812E-3,-1.7739492E-2,4.6591505E-2,-5.1633842E-2,4.845582E-2],"split_indices":[13,4,0,15,8,0,14,15,15,0,0,0,0,0,0],"split_type":[0,0,0,0,0,0,0,0,0,0,0,0,0,0,0],"sum_hessian":[1.5304515E2,1.106984E2,4.234674E1,4.5274265E1,6.542413E1,4.154924E1,3.7250264E0,3.266215E1,3.2761986E1,1.8144643E0,1.910562E0,5.9453363E0,2.6716814E1,2.6104477E1,6.657509E0],"tree_param":{"num_deleted":"0","num_feature":"21","num_nodes":"15","size_leaf_vector":"0"}},{"base_weights":[3.9909843E-2,-9.7469807E-1,1.0604634E0,-1.0800875E0,-1.7706761E-2,1.0804783E0,-0E0,8.9927983E-1,-7.436163E-1],"categories":[],"categories_nodes":[],"categories_segments":[],"categories_sizes":[],"default_left":[1,1,1,0,1,0,0,0,0],"id":23,"left_children":[1,3,5,-1,7,-1,-1,-1,-1],"loss_changes":[1.5379451E2,5.75045E0,1.0928574E0,0E0,8.2654E0,0E0,0E0,0E0,0E0],"parents":[2147483647,0,0,1,1,2,2,4,4],"right_children":[2,4,6,-1,8,-1,-1,-1,-1],"split_conditions":[-7.244173E-1,-7.377169E-1,3.616418E0,-8.6407E-2,-4.9416634E-1,8.643826E-2,-0E0,7.194238E-2,-5.9489302E-2],"split_indices":[6,6,2,0,0,0,0,0,0],"split_type":[0,0,0,0,0,0,0,0,0],"sum_hessian":[1.4440677E2,7.172234E1,7.2684425E1,6.2963745E1,8.758603E0,7.087924E1,1.8051811E0,2.7458904E0,6.0127125E0],"tree_param":{"num_deleted":"0","num_feature":"21","num_nodes":"9","size_leaf_vector":"0"}},{"base_weights":[-0E0,-9.8892134E-1,1.0492187E0,-1.0771902E0,-1.7115022E-1,-0E0,1.0693747E0,7.346578E-1,-7.663983E-1],"categories":[],"categories_nodes":[],"categories_segments":[],"categories_sizes":[],"default_left":[1,1,1,0,1,0,0,0,0],"id":24,"left_children":[1,3,5,-1,7,-1,-1,-1,-1],"loss_changes":[1.4603287E2,3.0447693E0,4.3403625E-1,0E0,7.195044E0,0E0,0E0,0E0,0E0],"parents":[2147483647,0,0,1,1,2,2,4,4],"right_children":[2,4,6,-1,8,-1,-1,-1,-1],"split_conditions":[-7.244173E-1,-7.377093E-1,-7.205194E-1,-8.617521E-2,-7.368705E-1,-0E0,8.554997E-2,5.8772624E-2,-6.1311863E-2],"split_indices":[6,6,6,0,15,0,0,0,0],"split_type":[0,0,0,0,0,0,0,0,0],"sum_hessian":[1.3682849E2,7.122987E1,6.559862E1,6.206227E1,9.167601E0,2.144696E0,6.345392E1,2.450393E0,6.717208E0],"tree_param":{"num_deleted":"0","num_feature":"21","num_nodes":"9","size_leaf_vector":"0"}},{"base_weights":[-0E0,-9.311298E-1,1.0470157E0,-1.0602705E0,-9.051882E-2,1.0584948E0,-0E0,9.118426E-1,-8.589736E-1],"categories":[],"categories_nodes":[],"categories_segments":[],"categories_sizes":[],"default_left":[1,1,1,0,1,0,0,0,0],"id":25,"left_children":[1,3,5,-1,7,-1,-1,-1,-1],"loss_changes":[1.2997873E2,5.780266E0,1.6144562E-1,0E0,1.1637209E1,0E0,0E0,0E0,0E0],"parents":[2147483647,0,0,1,1,2,2,4,4],"right_children":[2,4,6,-1,8,-1,-1,-1,-1],"split_conditions":[-7.20511E-1,-7.377093E-1,3.5650153E0,-8.482164E-2,-6.278964E-1,8.467958E-2,-0E0,7.2947405E-2,-6.871789E-2],"split_indices":[6,6,19,0,8,0,0,0,0],"split_type":[0,0,0,0,0,0,0,0,0],"sum_hessian":[1.2939699E2,6.8915596E1,6.0481388E1,5.7738373E1,1.1177226E1,5.927764E1,1.2037438E0,3.8414023E0,7.335824E0],"tree_param":{"num_deleted":"0","num_feature":"21","num_nodes":"9","size_leaf_vector":"0"}},{"base_weights":[1.3136797E-2,-9.503953E-1,1.0205737E0,-1.048488E0,-8.802916E-2,-0E0,1.0513606E0,6.9283736E-1,-6.929381E-1,1.5453912E-1,-0E0],"categories":[],"categories_nodes":[],"categories_segments":[],"categories_sizes":[],"default_left":[1,1,1,0,1,1,0,0,0,0,0],"id":26,"left_children":[1,3,5,-1,7,9,-1,-1,-1,-1,-1],"loss_changes":[1.2531614E2,3.624752E0,9.9798584E-1,0E0,5.8739824E0,8.893202E-2,0E0,0E0,0E0,0E0,0E0],"parents":[2147483647,0,0,1,1,2,2,4,4,5,5],"right_children":[2,4,6,-1,8,10,-1,-1,-1,-1,-1],"split_conditions":[-7.246439E-1,-7.377093E-1,-7.1858525E-1,-8.387904E-2,-6.990905E-1,-6.6422147E-1,8.4108844E-2,5.542699E-2,-5.5435047E-2,1.2363129E-2,-0E0],"split_indices":[6,6,6,0,8,17,0,0,0,0,0],"split_type":[0,0,0,0,0,0,0,0,0,0,0],"sum_hessian":[1.24992134E2,6.3185047E1,6.1807083E1,5.4782566E1,8.402481E0,2.7793417E0,5.9027744E1,2.4584641E0,5.9440174E0,1.7237562E0,1.0555855E0],"tree_param":{"num_deleted":"0","num_feature":"21","num_nodes":"11","size_leaf_vector":"0"}},{"base_weights":[1.41658755E-2,-9.289397E-1,9.7558916E-1,-1.0365344E0,-0E0,-0E0,1.0334591E0,7.016441E-1,-5.6106895E-1,4.003903E-1,-3.1471786E-1],"categories":[],"categories_nodes":[],"categories_segments":[],"categories_sizes":[],"default_left":[1,1,1,0,1,1,0,0,0,0,0],"id":27,"left_children":[1,3,5,-1,7,9,-1,-1,-1,-1,-1],"loss_changes":[1.0528761E2,5.12978E0,2.4189034E0,0E0,4.086427E0,1.0895113E0,0E0,0E0,0E0,0E0,0E0],"parents":[2147483647,0,0,1,1,2,2,4,4,5,5],"right_children":[2,4,6,-1,8,10,-1,-1,-1,-1,-1],"split_conditions":[-7.254993E-1,-7.377093E-1,-7.1823907E-1,-8.292275E-2,-6.990905E-1,-2.9380038E-1,8.267672E-2,5.6131527E-2,-4.4885516E-2,3.2031223E-2,-2.5177428E-2],"split_indices":[6,6,6,0,8,8,0,0,0,0,0],"split_type":[0,0,0,0,0,0,0,0,0,0,0],"sum_hessian":[1.1204259E2,5.580662E1,5.6235966E1,4.9203087E1,6.6035347E0,4.0745797E0,5.2161385E1,2.2164862E0,4.3870487E0,2.7293787E0,1.3452011E0],"tree_param":{"num_deleted":"0","num_feature":"21","num_nodes":"11","size_leaf_vector":"0"}},{"base_weights":[-0E0,-9.280866E-1,9.9972916E-1,-9.9086094E-1,-0E0,1.0263835E0,-0E0,2.4197568E-1,-2.8498968E-1],"categories":[],"categories_nodes":[],"categories_segments":[],"categories_sizes":[],"default_left":[1,1,1,0,1,0,0,0,0],"id":28,"left_children":[1,3,5,-1,7,-1,-1,-1,-1],"loss_changes":[1.0315105E2,3.0334778E0,1.1790504E0,0E0,5.5970454E-1,0E0,0E0,0E0,0E0],"parents":[2147483647,0,0,1,1,2,2,4,4],"right_children":[2,4,6,-1,8,-1,-1,-1,-1],"split_conditions":[-7.24478E-1,-7.308136E-1,3.616418E0,-7.926887E-2,-7.1179295E-1,8.211068E-2,-0E0,1.9358054E-2,-2.2799173E-2],"split_indices":[6,6,2,0,8,0,0,0,0],"split_type":[0,0,0,0,0,0,0,0,0],"sum_hessian":[1.0711109E2,5.519831E1,5.191278E1,5.127017E1,3.9281416E0,5.026821E1,1.6445701E0,1.7152029E0,2.2129388E0],"tree_param":{"num_deleted":"0","num_feature":"21","num_nodes":"9","size_leaf_vector":"0"}},{"base_weights":[-0E0,-9.450479E-1,9.633544E-1,-1.0098174E0,-1.1149394E-1,-0E0,1.0093688E0,3.043988E-1,-5.3733474E-1,1.1509527E-1,-3.9322417E-2],"categories":[],"categories_nodes":[],"categories_segments":[],"categories_sizes":[],"default_left":[1,1,1,0,1,1,0,0,0,0,0],"id":29,"left_children":[1,3,5,-1,7,9,-1,-1,-1,-1,-1],"loss_changes":[9.173787E1,8.4384155E-1,1.9154015E0,0E0,2.0210814E0,5.165637E-2,0E0,0E0,0E0,0E0,0E0],"parents":[2147483647,0,0,1,1,2,2,4,4,5,5],"right_children":[2,4,6,-1,8,10,-1,-1,-1,-1,-1],"split_conditions":[-7.254993E-1,-7.3745006E-1,-7.1823907E-1,-8.0785386E-2,-7.333039E-1,-6.9728726E-1,8.07495E-2,2.4351904E-2,-4.2986777E-2,9.207621E-3,-3.1457932E-3],"split_indices":[6,6,6,0,8,17,0,0,0,0,0],"split_type":[0,0,0,0,0,0,0,0,0,0,0],"sum_hessian":[9.676812E1,4.895477E1,4.781335E1,4.3362907E1,5.59186E0,2.558179E0,4.5255173E1,1.3354894E0,4.2563705E0,1.5481535E0,1.0100254E0],"tree_param":{"num_deleted":"0","num_feature":"21","num_nodes":"11","size_leaf_vector":"0"}},{"base_weights":[6.633221E-3,-8.86808E-1,9.567584E-1,-1.0004108E0,-0E0,9.777814E-1,-0E0,6.590045E-1,-5.874192E-1],"categories":[],"categories_nodes":[],"categories_segments":[],"categories_sizes":[],"default_left":[1,1,1,0,1,0,0,0,0],"id":30,"left_children":[1,3,5,-1,7,-1,-1,-1,-1],"loss_changes":[8.287053E1,3.6238518E0,9.632416E-1,0E0,4.1497455E0,0E0,0E0,0E0,0E0],"parents":[2147483647,0,0,1,1,2,2,4,4],"right_children":[2,4,6,-1,8,-1,-1,-1,-1],"split_conditions":[-7.254993E-1,-7.377093E-1,3.5368729E0,-8.003286E-2,-7.333039E-1,7.822251E-2,-0E0,5.272036E-2,-4.6993535E-2],"split_indices":[6,6,19,0,8,0,0,0,0],"split_type":[0,0,0,0,0,0,0,0,0],"sum_hessian":[9.350065E1,4.74428E1,4.6057846E1,4.0472168E1,6.970631E0,4.502102E1,1.0368285E0,2.0818439E0,4.8887873E0],"tree_param":{"num_deleted":"0","num_feature":"21","num_nodes":"9","size_leaf_vector":"0"}},{"base_weights":[-1.827278E-2,-9.0577734E-1,9.6728146E-1,-9.738001E-1,-0E0,-0E0,9.8102134E-1,1.9604787E-1,-2.7223697E-1],"categories":[],"categories_nodes":[],"categories_segments":[],"categories_sizes":[],"default_left":[1,1,1,0,1,0,0,0,0],"id":31,"left_children":[1,3,5,-1,7,-1,-1,-1,-1],"loss_changes":[7.795739E1,2.5402832E0,2.199173E-2,0E0,4.4532216E-1,0E0,0E0,0E0,0E0],"parents":[2147483647,0,0,1,1,2,2,4,4],"right_children":[2,4,6,-1,8,-1,-1,-1,-1],"split_conditions":[-7.2458327E-1,-7.310319E-1,-7.205194E-1,-7.790401E-2,-6.990905E-1,-0E0,7.8481704E-2,1.568383E-2,-2.1778958E-2],"split_indices":[6,6,6,0,8,0,0,0,0],"split_type":[0,0,0,0,0,0,0,0,0],"sum_hessian":[8.522849E1,4.5731E1,3.949749E1,4.1974415E1,3.7565851E0,1.1314154E0,3.8366074E1,1.630827E0,2.1257582E0],"tree_param":{"num_deleted":"0","num_feature":"21","num_nodes":"9","size_leaf_vector":"0"}},{"base_weights":[-0E0,-3.658354E-1,9.005069E-1,-8.0736977E-1,4.5484144E-2,-8.412589E-1,-0E0,6.1230755E-1,-1.6173469E-1,-0E0,7.42947E-1,-0E0,-4.1392264E-1],"categories":[],"categories_nodes":[],"categories_segments":[],"categories_sizes":[],"default_left":[1,1,0,1,1,0,0,1,1,0,0,0,0],"id":32,"left_children":[1,3,-1,5,7,-1,-1,9,11,-1,-1,-1,-1],"loss_changes":[2.860577E1,1.2576536E1,0E0,8.768978E-1,4.693469E0,0E0,0E0,1.1396098E0,1.1282363E0,0E0,0E0,0E0,0E0],"parents":[2147483647,0,0,1,1,3,3,4,4,7,7,8,8],"right_children":[2,4,-1,6,8,-1,-1,10,12,-1,-1,-1,-1],"split_conditions":[3.6893916E-1,6.4389594E-2,7.204055E-2,2.7729374E-1,-8.475443E-1,-6.730071E-2,-0E0,2.3429716E-1,9.3799925E-1,-0E0,5.943576E-2,-0E0,-3.311381E-2],"split_indices":[7,4,0,19,8,0,0,4,2,0,0,0,0],"split_type":[0,0,0,0,0,0,0,0,0,0,0,0,0],"sum_hessian":[8.350464E1,6.0552475E1,2.2952162E1,3.003365E1,3.0518827E1,2.8743809E1,1.2898409E0,9.06139E0,2.1457438E1,1.4834244E0,7.5779653E0,1.3290981E1,8.166455E0],"tree_param":{"num_deleted":"0","num_feature":"21","num_nodes":"13","size_leaf_vector":"0"}},{"base_weights":[-0E0,-7.7779865E-1,9.697563E-1,-9.678988E-1,-0E0,8.3467585E-1,-7.6966447E-1],"categories":[],"categories_nodes":[],"categories_segments":[],"categories_sizes":[],"default_left":[1,1,0,0,1,0,0],"id":33,"left_children":[1,3,-1,-1,5,-1,-1],"loss_changes":[6.245941E1,6.0300026E0,0E0,0E0,8.681099E0,0E0,0E0],"parents":[2147483647,0,0,1,1,4,4],"right_children":[2,4,-1,-1,6,-1,-1],"split_conditions":[-7.1858525E-1,-7.377093E-1,7.7580504E-2,-7.74319E-2,-5.3854513E-1,6.677406E-2,-6.1573155E-2],"split_indices":[6,6,0,0,20,0,0],"split_type":[0,0,0,0,0,0,0],"sum_hessian":[7.854608E1,4.321949E1,3.5326595E1,3.363777E1,9.581717E0,4.0931373E0,5.4885793E0],"tree_param":{"num_deleted":"0","num_feature":"21","num_nodes":"7","size_leaf_vector":"0"}},{"base_weights":[6.041344E-3,-2.8832382E-1,8.696243E-1,-7.912264E-1,7.3014945E-2,-8.500727E-1,-0E0,4.8352587E-1,-2.3047765E-1,-0E0,5.6506324E-1,-4.0454802E-1,1.6033179E-1],"categories":[],"categories_nodes":[],"categories_segments":[],"categories_sizes":[],"default_left":[1,1,0,1,1,0,0,1,1,0,0,0,0],"id":34,"left_children":[1,3,-1,5,7,-1,-1,9,11,-1,-1,-1,-1],"loss_changes":[2.0770292E1,1.15712185E1,0E0,7.673359E-1,4.7548337E0,0E0,0E0,1.0941947E0,1.748852E0,0E0,0E0,0E0,0E0],"parents":[2147483647,0,0,1,1,3,3,4,4,7,7,8,8],"right_children":[2,4,-1,6,8,-1,-1,10,12,-1,-1,-1,-1],"split_conditions":[3.6893916E-1,-8.624795E-2,6.9569945E-2,-2.1474907E-1,-6.864332E-1,-6.8005815E-2,-0E0,-4.0572742E-1,8.1869006E-1,-0E0,4.5205057E-2,-3.236384E-2,1.2826542E-2],"split_indices":[7,4,0,15,8,0,0,2,15,0,0,0,0],"split_type":[0,0,0,0,0,0,0,0,0,0,0,0,0],"sum_hessian":[7.430295E1,5.511238E1,1.9190567E1,2.3783245E1,3.1329134E1,2.1398987E1,2.3842583E0,1.4913223E1,1.641591E1,1.1020259E0,1.3811197E1,1.3964061E1,2.4518504E0],"tree_param":{"num_deleted":"0","num_feature":"21","num_nodes":"13","size_leaf_vector":"0"}},{"base_weights":[-0E0,-8.2448226E-1,9.5532626E-1,-9.5308524E-1,-5.7987332E-2,5.485009E-1,-6.931322E-1],"categories":[],"categories_nodes":[],"categories_segments":[],"categories_sizes":[],"default_left":[1,1,0,0,1,0,0],"id":35,"left_children":[1,3,-1,-1,5,-1,-1],"loss_changes":[5.8181435E1,2.3411694E0,0E0,0E0,4.671201E0,0E0,0E0],"parents":[2147483647,0,0,1,1,4,4],"right_children":[2,4,-1,-1,6,-1,-1],"split_conditions":[-7.1858525E-1,-7.377093E-1,7.6426096E-2,-7.624682E-2,-4.1746083E-1,4.388007E-2,-5.5450577E-2],"split_indices":[6,6,0,0,19,0,0],"split_type":[0,0,0,0,0,0,0],"sum_hessian":[7.0022446E1,3.8257385E1,3.1765062E1,3.0668055E1,7.5893326E0,2.8137248E0,4.7756076E0],"tree_param":{"num_deleted":"0","num_feature":"21","num_nodes":"7","size_leaf_vector":"0"}},{"base_weights":[-0E0,-8.429009E-1,9.0337116E-1,-9.461291E-1,-0E0,-0E0,9.4759846E-1,3.6569563E-1,-3.7776697E-1],"categories":[],"categories_nodes":[],"categories_segments":[],"categories_sizes":[],"default_left":[1,1,1,0,1,0,0,0,0],"id":36,"left_children":[1,3,5,-1,7,-1,-1,-1,-1],"loss_changes":[5.343194E1,2.4688683E0,8.991585E-1,0E0,1.1964571E0,0E0,0E0,0E0,0E0],"parents":[2147483647,0,0,1,1,2,2,4,4],"right_children":[2,4,6,-1,8,-1,-1,-1,-1],"split_conditions":[-7.254993E-1,-7.377093E-1,-7.205194E-1,-7.569032E-2,-4.9416634E-1,-0E0,7.580788E-2,2.925565E-2,-3.0221356E-2],"split_indices":[6,6,6,0,0,0,0,0,0],"split_type":[0,0,0,0,0,0,0,0,0],"sum_hessian":[6.6090164E1,3.3675175E1,3.241499E1,2.9073137E1,4.6020384E0,2.136181E0,3.0278809E1,1.4677302E0,3.134308E0],"tree_param":{"num_deleted":"0","num_feature":"21","num_nodes":"9","size_leaf_vector":"0"}},{"base_weights":[-0E0,-7.7816147E-1,9.35127E-1,-9.330631E-1,-1.6023988E-2,6.2886953E-1,-7.1192473E-1],"categories":[],"categories_nodes":[],"categories_segments":[],"categories_sizes":[],"default_left":[1,1,0,0,1,0,0],"id":37,"left_children":[1,3,-1,-1,5,-1,-1],"loss_changes":[4.8613083E1,2.8814926E0,0E0,0E0,5.4509115E0,0E0,0E0],"parents":[2147483647,0,0,1,1,4,4],"right_children":[2,4,-1,-1,6,-1,-1],"split_conditions":[-7.1844107E-1,-7.377093E-1,7.481016E-2,-7.464504E-2,-6.6185284E-1,5.030956E-2,-5.6953978E-2],"split_indices":[6,6,0,0,8,0,0],"split_type":[0,0,0,0,0,0,0],"sum_hessian":[6.2884613E1,3.471998E1,2.8164633E1,2.6846779E1,7.8732E0,3.0676057E0,4.8055944E0],"tree_param":{"num_deleted":"0","num_feature":"21","num_nodes":"7","size_leaf_vector":"0"}},{"base_weights":[-0E0,-2.8381673E-1,8.2475156E-1,-7.44289E-1,2.263305E-2,-8.212077E-1,-0E0,4.5741287E-1,-2.084509E-1,-0E0,5.900385E-1,-4.1497773E-1,2.0422475E-1],"categories":[],"categories_nodes":[],"categories_segments":[],"categories_sizes":[],"default_left":[1,1,0,1,1,0,0,1,1,0,0,0,0],"id":38,"left_children":[1,3,-1,5,7,-1,-1,9,11,-1,-1,-1,-1],"loss_changes":[1.5579504E1,7.619598E0,0E0,9.8104095E-1,3.3428082E0,0E0,0E0,8.8806343E-1,1.949827E0,0E0,0E0,0E0,0E0],"parents":[2147483647,0,0,1,1,3,3,4,4,7,7,8,8],"right_children":[2,4,-1,6,8,-1,-1,10,12,-1,-1,-1,-1],"split_conditions":[3.6893916E-1,-7.7450976E-2,6.598012E-2,-3.0105567E-1,-7.6346004E-1,-6.569661E-2,-0E0,-1.1258552E0,8.1869006E-1,-0E0,4.720308E-2,-3.319822E-2,1.633798E-2],"split_indices":[7,4,0,15,8,0,0,17,15,0,0,0,0],"split_type":[0,0,0,0,0,0,0,0,0,0,0,0,0],"sum_hessian":[5.953318E1,4.4087086E1,1.5446097E1,1.8430555E1,2.5656528E1,1.6237251E1,2.1933038E0,1.0476849E1,1.5179681E1,2.427738E0,8.04911E0,1.25317335E1,2.6479473E0],"tree_param":{"num_deleted":"0","num_feature":"21","num_nodes":"13","size_leaf_vector":"0"}},{"base_weights":[-0E0,-7.75704E-1,9.2361975E-1,-9.1453564E-1,-4.5577556E-2,4.8803055E-1,-6.4148384E-1],"categories":[],"categories_nodes":[],"categories_segments":[],"categories_sizes":[],"default_left":[1,1,0,0,1,0,0],"id":39,"left_children":[1,3,-1,-1,5,-1,-1],"loss_changes":[4.3902824E1,1.8457336E0,0E0,0E0,3.7631726E0,0E0,0E0],"parents":[2147483647,0,0,1,1,4,4],"right_children":[2,4,-1,-1,6,-1,-1],"split_conditions":[-7.205194E-1,-7.3745006E-1,7.3889576E-2,-7.3162846E-2,-6.278964E-1,3.9042443E-2,-5.1318705E-2],"split_indices":[6,6,0,0,8,0,0],"split_type":[0,0,0,0,0,0,0],"sum_hessian":[5.7258144E1,3.1239101E1,2.6019045E1,2.4097452E1,7.141648E0,2.6307805E0,4.5108676E0],"tree_param":{"num_deleted":"0","num_feature":"21","num_nodes":"7","size_leaf_vector":"0"}},{"base_weights":[-1.4275456E-3,-7.721894E-1,9.069694E-1,-8.999837E-2,-9.1223294E-1,-5.7125336E-1,4.181505E-1],"categories":[],"categories_nodes":[],"categories_segments":[],"categories_sizes":[],"default_left":[1,1,0,1,0,0,0],"id":40,"left_children":[1,3,-1,5,-1,-1,-1],"loss_changes":[4.063894E1,1.4323788E0,0E0,3.0476565E0,0E0,0E0,0E0],"parents":[2147483647,0,0,1,1,3,3],"right_children":[2,4,-1,6,-1,-1,-1],"split_conditions":[-7.1858525E-1,-8.9425695E-1,7.255755E-2,-7.471966E-1,-7.297863E-2,-4.5700267E-2,3.345204E-2],"split_indices":[6,20,0,6,0,0,0],"split_type":[0,0,0,0,0,0,0],"sum_hessian":[5.4330746E1,3.0447567E1,2.3883179E1,7.5697007E0,2.2877867E1,5.2762337E0,2.2934668E0],"tree_param":{"num_deleted":"0","num_feature":"21","num_nodes":"7","size_leaf_vector":"0"}},{"base_weights":[1.3285428E-2,-6.899894E-1,9.0053517E-1,-8.8718456E-1,-0E0,5.8992577E-1,-5.4537505E-1],"categories":[],"categories_nodes":[],"categories_segments":[],"categories_sizes":[],"default_left":[1,1,0,0,1,0,0],"id":41,"left_children":[1,3,-1,-1,5,-1,-1],"loss_changes":[3.377137E1,3.9714327E0,0E0,0E0,3.3500466E0,0E0,0E0],"parents":[2147483647,0,0,1,1,4,4],"right_children":[2,4,-1,-1,6,-1,-1],"split_conditions":[-7.1858525E-1,-7.377093E-1,7.2042815E-2,-7.097476E-2,-4.1508603E-1,4.719406E-2,-4.3630004E-2],"split_indices":[6,6,0,0,19,0,0],"split_type":[0,0,0,0,0,0,0],"sum_hessian":[4.9624756E1,2.6987368E1,2.2637386E1,2.0579058E1,6.408311E0,3.0270789E0,3.3812318E0],"tree_param":{"num_deleted":"0","num_feature":"21","num_nodes":"7","size_leaf_vector":"0"}},{"base_weights":[-1.7753048E-2,-3.2406837E-1,7.5790465E-1,-6.409332E-1,-0E0,-7.2754633E-1,-0E0,2.6097047E-1,-3.089267E-1,-0E0,3.5344055E-1],"categories":[],"categories_nodes":[],"categories_segments":[],"categories_sizes":[],"default_left":[1,1,0,1,1,0,0,1,0,0,0],"id":42,"left_children":[1,3,-1,5,7,-1,-1,9,-1,-1,-1],"loss_changes":[1.1772256E1,4.8468943E0,0E0,7.58235E-1,1.634334E0,0E0,0E0,4.754356E-1,0E0,0E0,0E0],"parents":[2147483647,0,0,1,1,3,3,4,4,7,7],"right_children":[2,4,-1,6,8,-1,-1,10,-1,-1,-1],"split_conditions":[3.6893916E-1,2.9983956E-1,6.063237E-2,7.106865E-2,3.3796936E-1,-5.8203705E-2,-0E0,-1.3466945E0,-2.4714136E-2,-0E0,2.8275244E-2],"split_indices":[7,4,0,14,20,0,0,18,0,0,0],"split_type":[0,0,0,0,0,0,0,0,0,0,0],"sum_hessian":[4.8218822E1,3.678879E1,1.1430032E1,1.9715206E1,1.7073586E1,1.6285107E1,3.430098E0,1.1788398E1,5.2851877E0,2.4651508E0,9.323247E0],"tree_param":{"num_deleted":"0","num_feature":"21","num_nodes":"11","size_leaf_vector":"0"}},{"base_weights":[-0E0,-2.732262E-1,7.486346E-1,-6.83507E-1,-0E0,-7.1870255E-1,-0E0,2.3935871E-1,-2.5669196E-1,-0E0,3.168388E-1,-4.4972473E-1,-0E0],"categories":[],"categories_nodes":[],"categories_segments":[],"categories_sizes":[],"default_left":[1,1,0,1,1,0,0,1,1,0,0,0,0],"id":43,"left_children":[1,3,-1,5,7,-1,-1,9,11,-1,-1,-1,-1],"loss_changes":[1.0073671E1,4.540902E0,0E0,2.4651194E-1,1.551219E0,0E0,0E0,4.2726398E-1,1.1630635E0,0E0,0E0,0E0,0E0],"parents":[2147483647,0,0,1,1,3,3,4,4,7,7,8,8],"right_children":[2,4,-1,6,8,-1,-1,10,12,-1,-1,-1,-1],"split_conditions":[3.6893916E-1,-8.624795E-2,5.9890766E-2,-3.0186808E-2,-4.7166365E-1,-5.74962E-2,-0E0,-1.3092062E0,8.1869006E-1,-0E0,2.5347104E-2,-3.597798E-2,-0E0],"split_indices":[7,4,0,19,8,0,0,17,15,0,0,0,0],"split_type":[0,0,0,0,0,0,0,0,0,0,0,0,0],"sum_hessian":[4.608634E1,3.5046856E1,1.1039487E1,1.3639618E1,2.140724E1,1.2622593E1,1.017025E0,1.2291786E1,9.115454E0,1.8790287E0,1.0412758E1,7.371803E0,1.7436507E0],"tree_param":{"num_deleted":"0","num_feature":"21","num_nodes":"13","size_leaf_vector":"0"}},{"base_weights":[-0E0,-7.1735686E-1,8.6997765E-1,-0E0,-8.3667123E-1,-1.8510477E-1,2.2924653E-1,-0E0,-8.606983E-1],"categories":[],"categories_nodes":[],"categories_segments":[],"categories_sizes":[],"default_left":[1,1,0,1,1,0,0,0,0],"id":44,"left_children":[1,3,-1,5,7,-1,-1,-1,-1],"loss_changes":[2.961278E1,2.338375E0,0E0,3.3112994E-1,1.5737152E-1,0E0,0E0,0E0,0E0],"parents":[2147483647,0,0,1,1,3,3,4,4],"right_children":[2,4,-1,6,8,-1,-1,-1,-1],"split_conditions":[-7.1858525E-1,-7.2120893E-1,6.959821E-2,-7.5085175E-1,-1.0456305E0,-1.4808382E-2,1.8339721E-2,-0E0,-6.885586E-2],"split_indices":[6,19,0,6,20,0,0,0,0],"split_type":[0,0,0,0,0,0,0,0,0],"sum_hessian":[4.368327E1,2.4735023E1,1.8948246E1,3.7410092E0,2.0994013E1,2.1383293E0,1.60268E0,1.0534399E0,1.9940573E1],"tree_param":{"num_deleted":"0","num_feature":"21","num_nodes":"9","size_leaf_vector":"0"}},{"base_weights":[-0E0,-7.2266597E-1,8.670775E-1,-0E0,-8.570179E-1,-3.7275845E-1,2.4888527E-1],"categories":[],"categories_nodes":[],"categories_segments":[],"categories_sizes":[],"default_left":[1,1,0,1,0,0,0],"id":45,"left_children":[1,3,-1,5,-1,-1,-1],"loss_changes":[2.8862795E1,1.6224499E0,0E0,9.755678E-1,0E0,0E0,0E0],"parents":[2147483647,0,0,1,1,3,3],"right_children":[2,4,-1,6,-1,-1,-1],"split_conditions":[-7.1858525E-1,-7.011417E-1,6.93662E-2,-7.476431E-1,-6.856143E-2,-2.9820675E-2,1.9910822E-2],"split_indices":[6,19,0,6,0,0,0],"split_type":[0,0,0,0,0,0,0],"sum_hessian":[4.2195488E1,2.3560247E1,1.8635239E1,5.1768537E0,1.8383394E1,3.286904E0,1.8899493E0],"tree_param":{"num_deleted":"0","num_feature":"21","num_nodes":"7","size_leaf_vector":"0"}},{"base_weights":[-0E0,-6.1491436E-1,1.9903333E-1,-0E0,6.3898236E-1,1.8488066E-1,-4.7936943E-1,-0E0,3.4978044E-1],"categories":[],"categories_nodes":[],"categories_segments":[],"categories_sizes":[],"default_left":[1,0,1,1,0,1,0,0,0],"id":46,"left_children":[1,-1,3,5,-1,7,-1,-1,-1],"loss_changes":[5.3191004E0,0E0,2.4269876E0,2.2829177E0,0E0,9.49361E-1,0E0,0E0,0E0],"parents":[2147483647,0,0,2,2,3,3,5,5],"right_children":[2,-1,4,6,-1,8,-1,-1,-1],"split_conditions":[-5.324544E-1,-4.9193148E-2,8.7692773E-1,1.638479E-1,5.1118586E-2,-7.9085755E-1,-3.8349554E-2,-0E0,2.7982434E-2],"split_indices":[4,0,15,19,0,15,0,0,0],"split_type":[0,0,0,0,0,0,0,0,0],"sum_hessian":[4.0231308E1,8.5372305E0,3.1694077E1,2.4480831E1,7.2132473E0,1.9786947E1,4.693883E0,7.9405365E0,1.1846411E1],"tree_param":{"num_deleted":"0","num_feature":"21","num_nodes":"9","size_leaf_vector":"0"}},{"base_weights":[-0E0,-1.8869399E-1,6.960749E-1,-5.8623475E-1,5.2370656E-2,-6.3911897E-1,-0E0,3.182422E-1,-2.1421604E-1,-0E0,4.017917E-1,-0E0,-3.8606492E-1],"categories":[],"categories_nodes":[],"categories_segments":[],"categories_sizes":[],"default_left":[1,1,0,1,1,0,0,1,1,0,0,0,0],"id":47,"left_children":[1,3,-1,5,7,-1,-1,9,11,-1,-1,-1,-1],"loss_changes":[6.518695E0,4.0110106E0,0E0,3.7770605E-1,1.7057747E0,0E0,0E0,6.0583377E-1,6.466521E-1,0E0,0E0,0E0,0E0],"parents":[2147483647,0,0,1,1,3,3,4,4,7,7,8,8],"right_children":[2,4,-1,6,8,-1,-1,10,12,-1,-1,-1,-1],"split_conditions":[3.6893916E-1,6.6008806E-2,5.568599E-2,4.0275908E-1,-2.1659806E-2,-5.1129516E-2,-0E0,-1.3597741E0,-2.684754E-1,-0E0,3.2143336E-2,-0E0,-3.0885193E-2],"split_indices":[7,4,0,14,17,0,0,17,2,0,0,0,0],"split_type":[0,0,0,0,0,0,0,0,0,0,0,0,0],"sum_hessian":[3.9896633E1,3.0857265E1,9.03937E0,1.2916042E1,1.7941223E1,1.147438E1,1.4416631E0,1.1605756E1,6.335467E0,1.3173438E0,1.0288412E1,1.4305278E0,4.9049387E0],"tree_param":{"num_deleted":"0","num_feature":"21","num_nodes":"13","size_leaf_vector":"0"}},{"base_weights":[-0E0,-5.5509025E-1,1.9439444E-1,-6.551156E-1,-0E0,-0E0,5.907086E-1,1.617989E-1,-3.9559713E-1,-0E0,4.0780836E-1],"categories":[],"categories_nodes":[],"categories_segments":[],"categories_sizes":[],"default_left":[1,1,1,0,0,1,0,1,0,0,0],"id":48,"left_children":[1,3,5,-1,-1,7,-1,9,-1,-1,-1],"loss_changes":[4.4713283E0,7.823987E-1,1.9316884E0,0E0,0E0,1.4734948E0,0E0,5.5990076E-1,0E0,0E0,0E0],"parents":[2147483647,0,0,1,1,2,2,5,5,7,7],"right_children":[2,4,6,-1,-1,8,-1,10,-1,-1,-1],"split_conditions":[-4.8581046E-1,-3.019865E-1,8.1296825E-1,-5.2409247E-2,-0E0,2.0449096E-1,4.725669E-2,-4.1908407E-1,-3.1647768E-2,-0E0,3.262467E-2],"split_indices":[4,15,15,0,0,0,0,15,0,0,0],"split_type":[0,0,0,0,0,0,0,0,0,0,0],"sum_hessian":[3.715454E1,8.787065E0,2.8367477E1,7.5675435E0,1.2195208E0,2.1542809E1,6.8246703E0,1.7367058E1,4.1757493E0,1.2951788E1,4.415271E0],"tree_param":{"num_deleted":"0","num_feature":"21","num_nodes":"11","size_leaf_vector":"0"}},{"base_weights":[-0E0,-1.6850437E-1,6.604004E-1,-0E0,-4.0382186E-1,-3.3818054E-1,3.2903063E-1,-5.556018E-1,1.2639128E-2,-4.2265695E-1,-0E0,4.9209526E-1,-0E0,-0E0,-6.270444E-1],"categories":[],"categories_nodes":[],"categories_segments":[],"categories_sizes":[],"default_left":[1,1,0,1,1,1,1,1,0,0,0,0,0,0,0],"id":49,"left_children":[1,3,-1,5,7,9,11,13,-1,-1,-1,-1,-1,-1,-1],"loss_changes":[5.2744303E0,1.8134425E0,0E0,2.2026134E0,1.8915062E0,3.2830274E-1,1.0400541E0,5.1552963E-1,0E0,0E0,0E0,0E0,0E0,0E0,0E0],"parents":[2147483647,0,0,1,1,3,3,4,4,5,5,6,6,7,7],"right_children":[2,4,-1,6,8,10,12,14,-1,-1,-1,-1,-1,-1,-1],"split_conditions":[3.6893916E-1,-6.111274E-1,5.283203E-2,-2.5370538E-1,8.1869006E-1,-7.9536545E-1,1.0614569E0,-8.103012E-1,1.0111302E-3,-3.3812556E-2,-0E0,3.936762E-2,-0E0,-0E0,-5.016355E-2],"split_indices":[7,20,0,2,15,15,2,18,0,0,0,0,0,0,0],"split_type":[0,0,0,0,0,0,0,0,0,0,0,0,0,0,0],"sum_hessian":[3.868086E1,3.0717127E1,7.963733E0,1.5900003E1,1.4817122E1,5.897901E0,1.0002103E1,1.3009397E1,1.8077254E0,4.8941016E0,1.0037994E0,7.66071E0,2.341393E0,1.9141985E0,1.1095199E1],"tree_param":{"num_deleted":"0","num_feature":"21","num_nodes":"15","size_leaf_vector":"0"}},{"base_weights":[-0E0,-8.4072626E-1,6.754726E-1,-0E0,8.3973724E-1,5.3039545E-1,-3.6873245E-1],"categories":[],"categories_nodes":[],"categories_segments":[],"categories_sizes":[],"default_left":[1,0,1,1,0,0,0],"id":50,"left_children":[1,-1,3,5,-1,-1,-1],"loss_changes":[2.320198E1,0E0,1.9723282E0,1.967753E0,0E0,0E0,0E0],"parents":[2147483647,0,0,2,2,3,3],"right_children":[2,-1,4,6,-1,-1,-1],"split_conditions":[-7.377093E-1,-6.72581E-2,-7.205194E-1,-6.278964E-1,6.717898E-2,4.2431634E-2,-2.9498596E-2],"split_indices":[6,0,6,8,0,0,0],"split_type":[0,0,0,0,0,0,0],"sum_hessian":[3.710912E1,1.5742041E1,2.1367079E1,5.450729E0,1.5916349E1,2.697426E0,2.753303E0],"tree_param":{"num_deleted":"0","num_feature":"21","num_nodes":"7","size_leaf_vector":"0"}},{"base_weights":[-0E0,-8.216443E-1,6.0764426E-1,-0E0,8.116105E-1,5.1986444E-1,-4.337322E-1],"categories":[],"categories_nodes":[],"categories_segments":[],"categories_sizes":[],"default_left":[1,0,1,1,0,0,0],"id":51,"left_children":[1,-1,3,5,-1,-1,-1],"loss_changes":[1.9151352E1,0E0,2.5001545E0,2.2173705E0,0E0,0E0,0E0],"parents":[2147483647,0,0,2,2,3,3],"right_children":[2,-1,4,6,-1,-1,-1],"split_conditions":[-7.377093E-1,-6.573154E-2,-7.1858525E-1,-2.9380038E-1,6.492884E-2,4.1589156E-2,-3.4698576E-2],"split_indices":[6,0,6,8,0,0,0],"split_type":[0,0,0,0,0,0,0],"sum_hessian":[3.420344E1,1.4495479E1,1.9707964E1,5.744346E0,1.3963618E1,2.677991E0,3.0663555E0],"tree_param":{"num_deleted":"0","num_feature":"21","num_nodes":"7","size_leaf_vector":"0"}},{"base_weights":[-0E0,-8.115171E-1,5.974667E-1,-0E0,8.0136997E-1,6.024243E-1,-4.6338496E-1],"categories":[],"categories_nodes":[],"categories_segments":[],"categories_sizes":[],"default_left":[1,0,1,1,0,0,0],"id":52,"left_children":[1,-1,3,5,-1,-1,-1],"loss_changes":[1.8274288E1,0E0,2.0505557E0,3.065457E0,0E0,0E0,0E0],"parents":[2147483647,0,0,2,2,3,3],"right_children":[2,-1,4,6,-1,-1,-1],"split_conditions":[-7.377093E-1,-6.492137E-2,-7.1858525E-1,-2.9380038E-1,6.410959E-2,4.8193946E-2,-3.7070796E-2],"split_indices":[6,0,6,8,0,0,0],"split_type":[0,0,0,0,0,0,0],"sum_hessian":[3.3834316E1,1.3811692E1,2.0022623E1,6.5881968E0,1.3434425E1,3.343836E0,3.244361E0],"tree_param":{"num_deleted":"0","num_feature":"21","num_nodes":"7","size_leaf_vector":"0"}},{"base_weights":[7.741364E-3,-7.85819E-1,6.226872E-1,7.2162545E-1,-0E0,8.092165E-1,-0E0,-1.1267753E-2,-0E0,-0E0,1.4620622E-1],"categories":[],"categories_nodes":[],"categories_segments":[],"categories_sizes":[],"default_left":[1,0,1,1,1,0,1,0,0,0,0],"id":53,"left_children":[1,-1,3,5,7,-1,9,-1,-1,-1,-1],"loss_changes":[1.7009155E1,0E0,1.4885073E0,4.517641E-1,4.1392E-4,0E0,8.660117E-2,0E0,0E0,0E0,0E0],"parents":[2147483647,0,0,2,2,3,3,4,4,6,6],"right_children":[2,-1,4,6,8,-1,10,-1,-1,-1,-1],"split_conditions":[-7.377093E-1,-6.286552E-2,1.2408278E0,9.999099E-1,-3.0888218E-1,6.473732E-2,-3.6033148E-1,-9.0142025E-4,-0E0,-0E0,1.1696497E-2],"split_indices":[6,0,19,18,6,0,6,0,0,0,0],"split_type":[0,0,0,0,0,0,0,0,0,0,0],"sum_hessian":[3.1351074E1,1.2380114E1,1.897096E1,1.6473162E1,2.4977999E0,1.3380355E1,3.0928059E0,1.2601812E0,1.2376186E0,1.0415277E0,2.051278E0],"tree_param":{"num_deleted":"0","num_feature":"21","num_nodes":"11","size_leaf_vector":"0"}},{"base_weights":[-0E0,-6.070648E-1,7.8079313E-1,-7.7018356E-1,-0E0,3.0542585E-1,-3.7663913E-1],"categories":[],"categories_nodes":[],"categories_segments":[],"categories_sizes":[],"default_left":[1,1,0,0,1,0,0],"id":54,"left_children":[1,3,-1,-1,5,-1,-1],"loss_changes":[1.54507885E1,1.3577814E0,0E0,0E0,1.0359498E0,0E0,0E0],"parents":[2147483647,0,0,1,1,4,4],"right_children":[2,4,-1,-1,6,-1,-1],"split_conditions":[-7.1858525E-1,-7.377185E-1,6.2463447E-2,-6.1614685E-2,-6.6185284E-1,2.4434067E-2,-3.013113E-2],"split_indices":[6,6,0,0,8,0,0],"split_type":[0,0,0,0,0,0,0],"sum_hessian":[2.8580553E1,1.6296822E1,1.2283731E1,1.1656273E1,4.640548E0,1.9070328E0,2.7335153E0],"tree_param":{"num_deleted":"0","num_feature":"21","num_nodes":"7","size_leaf_vector":"0"}},{"base_weights":[-0E0,-7.6270586E-1,5.332057E-1,-0E0,7.53879E-1,4.50982E-1,-4.0077472E-1],"categories":[],"categories_nodes":[],"categories_segments":[],"categories_sizes":[],"default_left":[1,0,1,1,0,0,0],"id":55,"left_children":[1,-1,3,5,-1,-1,-1],"loss_changes":[1.30477E1,0E0,2.062811E0,1.768683E0,0E0,0E0,0E0],"parents":[2147483647,0,0,2,2,3,3],"right_children":[2,-1,4,6,-1,-1,-1],"split_conditions":[-7.3753315E-1,-6.1016466E-2,-7.1858525E-1,-5.547151E-1,6.031032E-2,3.607856E-2,-3.2061975E-2],"split_indices":[6,0,6,20,0,0,0],"split_type":[0,0,0,0,0,0,0],"sum_hessian":[2.8008228E1,1.1272816E1,1.6735413E1,5.7334623E0,1.1001951E1,2.8004982E0,2.932964E0],"tree_param":{"num_deleted":"0","num_feature":"21","num_nodes":"7","size_leaf_vector":"0"}},{"base_weights":[-0E0,-5.2751684E-1,7.3665166E-1,-7.36907E-1,-0E0,4.1200146E-1,-4.3473297E-1],"categories":[],"categories_nodes":[],"categories_segments":[],"categories_sizes":[],"default_left":[1,1,0,0,1,0,0],"id":56,"left_children":[1,3,-1,-1,5,-1,-1],"loss_changes":[1.1682863E1,1.6821122E0,0E0,0E0,1.7294139E0,0E0,0E0],"parents":[2147483647,0,0,1,1,4,4],"right_children":[2,4,-1,-1,6,-1,-1],"split_conditions":[-7.1858525E-1,-7.377093E-1,5.8932133E-2,-5.895256E-2,-4.098544E-1,3.2960117E-2,-3.4778636E-2],"split_indices":[6,6,0,0,19,0,0],"split_type":[0,0,0,0,0,0,0],"sum_hessian":[2.6226019E1,1.5850925E1,1.0375093E1,1.0245247E1,5.6056786E0,2.4675756E0,3.1381032E0],"tree_param":{"num_deleted":"0","num_feature":"21","num_nodes":"7","size_leaf_vector":"0"}},{"base_weights":[-0E0,-6.968785E-1,6.307213E-1,-0E0,7.4407756E-1,1.2257103E-1,-8.529774E-3],"categories":[],"categories_nodes":[],"categories_segments":[],"categories_sizes":[],"default_left":[1,0,1,1,0,0,0],"id":57,"left_children":[1,-1,3,5,-1,-1,-1],"loss_changes":[1.2587019E1,0E0,7.9639196E-1,5.573509E-2,0E0,0E0,0E0],"parents":[2147483647,0,0,2,2,3,3],"right_children":[2,-1,4,6,-1,-1,-1],"split_conditions":[-7.308136E-1,-5.5750277E-2,-7.205676E-1,-6.278964E-1,5.9526205E-2,9.805682E-3,-6.823819E-4],"split_indices":[6,0,6,8,0,0,0],"split_type":[0,0,0,0,0,0,0],"sum_hessian":[2.4733053E1,1.117019E1,1.3562863E1,2.9422088E0,1.0620654E1,1.6940913E0,1.2481173E0],"tree_param":{"num_deleted":"0","num_feature":"21","num_nodes":"7","size_leaf_vector":"0"}},{"base_weights":[-0E0,-7.14241E-1,5.200475E-1,7.7545416E-1,-0E0,-3.756985E-1,4.1783327E-1],"categories":[],"categories_nodes":[],"categories_segments":[],"categories_sizes":[],"default_left":[1,0,1,0,1,0,0],"id":58,"left_children":[1,-1,3,-1,5,-1,-1],"loss_changes":[1.0536686E1,0E0,1.7795086E0,0E0,1.6974883E0,0E0,0E0],"parents":[2147483647,0,0,2,2,4,4],"right_children":[2,-1,4,-1,6,-1,-1],"split_conditions":[-7.377093E-1,-5.713928E-2,1.5011825E-1,6.203633E-2,-4.1890395E-1,-3.005588E-2,3.342666E-2],"split_indices":[6,0,20,0,6,0,0],"split_type":[0,0,0,0,0,0,0],"sum_hessian":[2.48413E1,9.417098E0,1.5424201E1,8.795874E0,6.628328E0,2.7271729E0,3.901155E0],"tree_param":{"num_deleted":"0","num_feature":"21","num_nodes":"7","size_leaf_vector":"0"}},{"base_weights":[-0E0,-5.986438E-1,7.195504E-1,-0E0,-6.625586E-1,-0E0,-6.9534254E-1],"categories":[],"categories_nodes":[],"categories_segments":[],"categories_sizes":[],"default_left":[1,1,0,0,1,0,0],"id":59,"left_children":[1,3,-1,-1,5,-1,-1],"loss_changes":[1.132249E1,3.7060928E-1,0E0,0E0,2.6727676E-2,0E0,0E0],"parents":[2147483647,0,0,1,1,4,4],"right_children":[2,4,-1,-1,6,-1,-1],"split_conditions":[-7.205194E-1,-7.2120893E-1,5.7564028E-2,-0E0,-9.63068E-1,-0E0,-5.5627402E-2],"split_indices":[6,19,0,0,20,0,0],"split_type":[0,0,0,0,0,0,0],"sum_hessian":[2.2410864E1,1.2756123E1,9.654741E0,1.8653882E0,1.0890735E1,1.1316077E0,9.759127E0],"tree_param":{"num_deleted":"0","num_feature":"21","num_nodes":"7","size_leaf_vector":"0"}}]},"name":"gbtree"},"learner_model_param":{"base_score":"5E-1","boost_from_average":"1","num_class":"0","num_feature":"21","num_target":"1"},"objective":{"name":"binary:logistic","reg_loss_param":{"scale_pos_weight":"1.23480332"}}},"version":[1,7,6]}