{"learner":{"attributes":{"best_iteration":"99","best_ntree_limit":"100","scikit_learn":"{\"use_label_encoder\": null, \"n_estimators\": 100, \"objective\": \"binary:logistic\", \"max_depth\": 4, \"max_leaves\": null, \"max_bin\": null, \"grow_policy\": null, \"learning_rate\": 0.1, \"verbosity\": 0, \"booster\": null, \"tree_method\": null, \"gamma\": null, \"min_child_weight\": null, \"max_delta_step\": null, \"subsample\": 0.8, \"sampling_method\": null, \"colsample_bytree\": 0.8, \"colsample_bylevel\": null, \"colsample_bynode\": null, \"reg_alpha\": 1.0, \"reg_lambda\": 2.0, \"scale_pos_weight\": 6.174887892376682, \"base_score\": null, \"missing\": NaN, \"num_parallel_tree\": null, \"random_state\": 42, \"n_jobs\": null, \"monotone_constraints\": null, \"interaction_constraints\": null, \"importance_type\": null, \"gpu_id\": null, \"validate_parameters\": null, \"predictor\": null, \"enable_categorical\": false, \"feature_types\": null, \"max_cat_to_onehot\": null, \"max_cat_threshold\": null, \"eval_metric\": \"logloss\", \"early_stopping_rounds\": null, \"callbacks\": null, \"classes_\": [0, 1], \"n_classes_\": 2, \"_estimator_type\": \"classifier\"}"},"feature_names":[],"feature_types":[],"gradient_booster":{"model":{"gbtree_model_param":{"num_parallel_tree":"1","num_trees":"100","size_leaf_vector":"0"},"tree_info":[0,0,0,0,0,0,0,0,0,0,0,0,0,0,0,0,0,0,0,0,0,0,0,0,0,0,0,0,0,0,0,0,0,0,0,0,0,0,0,0,0,0,0,0,0,0,0,0,0,0,0,0,0,0,0,0,0,0,0,0,0,0,0,0,0,0,0,0,0,0,0,0,0,0,0,0,0,0,0,0,0,0,0,0,0,0,0,0,0,0,0,0,0,0,0,0,0,0,0,0],"trees":[{"base_weights":[1.02524515E-2,-1.3591745E0,1.8397822E0,-1.4557761E0,-9.436055E-2,8.228739E-1,1.9260081E0,-1.0910792E0,-1.6245513E0,1.1930732E0,-7.3734885E-1,1.1002195E0,-1.5099241E-1,5.2154696E-1,-1.1805342E0,-9.2811686E-1,-1.741652E0,-1.5454545E0,2.3489696E-1,-4.6153846E-1,1.3198627E0,-8.888889E-1,5.8905405E-1],"categories":[],"categories_nodes":[],"categories_segments":[],"categories_sizes":[],"default_left":[1,1,1,1,1,1,0,1,1,0,1,1,1,0,0,0,0,0,0,0,0,0,0],"id":0,"left_children":[1,3,5,7,9,11,-1,13,15,-1,17,19,21,-1,-1,-1,-1,-1,-1,-1,-1,-1,-1],"loss_changes":[1.3867784E3,3.6803223E1,1.4878052E1,1.1764343E1,2.225217E1,7.4767656E0,0E0,1.6404434E1,9.937439E0,0E0,1.6674688E1,8.557686E0,4.6473837E0,0E0,0E0,0E0,0E0,0E0,0E0,0E0,0E0,0E0,0E0],"parents":[2147483647,0,0,1,1,2,2,3,3,4,4,5,5,7,7,8,8,10,10,11,11,12,12],"right_children":[2,4,6,8,10,12,-1,14,16,-1,18,20,22,-1,-1,-1,-1,-1,-1,-1,-1,-1,-1],"split_conditions":[1.0560604E0,2.1817738E-1,1.7369602E0,-1.1099869E-1,-1.3198254E0,1.434172E0,1.9260082E-1,-9.7900254E-1,-1.1325886E0,1.1930732E-1,1.2107854E0,3.8952172E-1,1.910691E0,5.2154697E-2,-1.1805343E-1,-9.281169E-2,-1.741652E-1,-1.5454546E-1,2.3489697E-2,-4.6153847E-2,1.3198628E-1,-8.888889E-2,5.8905404E-2],"split_indices":[13,0,13,21,19,13,0,12,14,0,18,11,0,0,0,0,0,0,0,0,0,0,0],"split_type":[0,0,0,0,0,0,0,0,0,0,0,0,0,0,0,0,0,0,0,0,0,0,0],"sum_hessian":[5.4932623E2,3.141491E2,2.3517712E2,2.9084305E2,2.3306053E1,2.093722E1,2.142399E2,9.861211E1,1.9223094E2,6.6748877E0,1.6631166E1,1.6893497E1,4.043722E0,4.087444E0,9.4524666E1,3.1468609E1,1.6076233E2,9E0,7.6311655E0,1.25E0,1.5643497E1,2.5E0,1.5437219E0],"tree_param":{"num_deleted":"0","num_feature":"23","num_nodes":"23","size_leaf_vector":"0"}},{"base_weights":[1.8300083E-2,-1.1694539E0,1.7332454E0,-1.3355501E0,4.7425065E-2,-5.420183E-1,-1.4315467E0,-7.4159217E-1,7.303495E-1,2.4193221E-1,-1.1026527E0,2.3054917E-1,-1.4523199E0,5.088827E-1,-1.2169249E0,1.053039E0,-8.72298E-1],"categories":[],"categories_nodes":[],"categories_segments":[],"categories_sizes":[],"default_left":[1,1,0,1,1,1,1,1,1,0,0,0,0,0,0,0,0],"id":1,"left_children":[1,3,-1,5,7,9,11,13,15,-1,-1,-1,-1,-1,-1,-1,-1],"loss_changes":[1.127816E3,6.743341E1,0E0,1.8428223E1,2.2861086E1,1.6972437E1,1.0687195E1,1.3284158E1,1.410014E1,0E0,0E0,0E0,0E0,0E0,0E0,0E0,0E0],"parents":[2147483647,0,0,1,1,3,3,4,4,5,5,6,6,7,7,8,8],"right_children":[2,4,-1,6,8,10,12,14,16,-1,-1,-1,-1,-1,-1,-1,-1],"split_conditions":[3.009431E-1,1.9516346E-1,1.7332454E-1,-5.79603E-1,4.7224924E-2,7.3800413E-3,-1.0170188E0,-1.1671681E0,1.898999E0,2.4193222E-2,-1.1026527E-1,2.3054918E-2,-1.4523199E-1,5.088827E-2,-1.2169249E-1,1.053039E-1,-8.72298E-2],"split_indices":[20,0,0,21,4,13,0,21,6,0,0,0,0,0,0,0,0],"split_type":[0,0,0,0,0,0,0,0,0,0,0,0,0,0,0,0,0],"sum_hessian":[5.4941644E2,3.2463235E2,2.2478407E2,2.8619525E2,3.8437088E1,3.3444466E1,2.527508E2,1.7074244E1,2.1362844E1,1.36752405E1,1.9769224E1,2.2764153E0,2.5047438E2,4.084377E0,1.2989867E1,1.887271E1,2.490135E0],"tree_param":{"num_deleted":"0","num_feature":"23","num_nodes":"17","size_leaf_vector":"0"}},{"base_weights":[-3.07766E-2,-1.1198848E0,1.5793647E0,-1.2668629E0,1.8136976E-2,1.0169052E0,1.6601449E0,-9.6410394E-1,-1.4658625E0,1.0913165E0,-2.4627338E-1,1.1419593E0,-0E0,-1.0641003E0,2.1883798E-1,-1.6357675E0,-1.0286647E0,-6.093629E-1,1.0281605E0,2.7308115E-1,1.3218654E0,4.6169275E-1,-7.1515846E-1],"categories":[],"categories_nodes":[],"categories_segments":[],"categories_sizes":[],"default_left":[1,1,1,1,1,1,0,1,1,0,1,1,1,0,0,0,0,0,0,0,0,0,0],"id":2,"left_children":[1,3,5,7,9,11,-1,13,15,-1,17,19,21,-1,-1,-1,-1,-1,-1,-1,-1,-1,-1],"loss_changes":[9.4253284E2,5.5004517E1,3.7885742E0,1.1925659E1,1.2143246E1,5.288433E0,0E0,1.56171875E1,6.3192444E0,0E0,1.532229E1,2.521553E0,2.51675E0,0E0,0E0,0E0,0E0,0E0,0E0,0E0,0E0,0E0,0E0],"parents":[2147483647,0,0,1,1,2,2,3,3,4,4,5,5,7,7,8,8,10,10,11,11,12,12],"right_children":[2,4,6,8,10,12,-1,14,16,-1,18,20,22,-1,-1,-1,-1,-1,-1,-1,-1,-1,-1],"split_conditions":[3.009431E-1,1.9516346E-1,1.6413224E0,-2.641899E-1,-5.4928243E-1,3.8431566E0,1.6601449E-1,7.7617586E-1,1.8874323E-1,1.0913165E-1,1.02304E0,1.3158615E0,7.184541E-1,-1.0641003E-1,2.1883799E-2,-1.6357675E-1,-1.0286647E-1,-6.093629E-2,1.02816045E-1,2.7308116E-2,1.3218655E-1,4.6169277E-2,-7.151585E-2],"split_indices":[20,0,2,4,8,20,0,22,22,0,2,12,0,0,0,0,0,0,0,0,0,0,0],"split_type":[0,0,0,0,0,0,0,0,0,0,0,0,0,0,0,0,0,0,0,0,0,0,0],"sum_hessian":[5.3372375E2,3.1910767E2,2.1461612E2,2.8318588E2,3.5921787E1,3.1919853E1,1.8269627E2,1.1894186E2,1.6424402E2,6.6121016E0,2.9309685E1,2.8952927E1,2.9669263E0,1.1063588E2,8.305982E0,1.1268272E2,5.15613E1,2.423379E1,5.0758953E0,6.783838E0,2.2169088E1,1.5082991E0,1.4586272E0],"tree_param":{"num_deleted":"0","num_feature":"23","num_nodes":"23","size_leaf_vector":"0"}},{"base_weights":[4.7767967E-2,-9.420884E-1,1.4821498E0,-1.8976885E-1,-1.1086196E0,6.4843196E-1,1.5329326E0,4.559652E-2,-1.0969735E0,-1.1780311E0,-1.3665771E-1,-8.56255E-1,9.8394644E-1,1.5418527E0,3.536882E-2,-5.180494E-1,5.057638E-1,-1.4069425E0,1.245163E-2,-7.818004E-1,-1.3050889E0,1.0488744E0,-1.3151855E0,1.1067246E0,-0E0,1.5507545E0,5.014363E-2],"categories":[],"categories_nodes":[],"categories_segments":[],"categories_sizes":[],"default_left":[1,1,1,1,1,1,1,1,1,1,1,0,1,1,0,0,0,0,0,0,0,0,0,0,0,0,0],"id":3,"left_children":[1,3,5,7,9,11,13,15,17,19,21,-1,23,25,-1,-1,-1,-1,-1,-1,-1,-1,-1,-1,-1,-1,-1],"loss_changes":[7.6766376E2,3.828778E1,5.1872864E0,1.4256686E1,1.5901093E1,1.0538996E1,1.061676E0,1.34226465E1,6.1057987E0,8.025696E0,3.1736706E1,0E0,1.3675632E0,9.4958496E-1,0E0,0E0,0E0,0E0,0E0,0E0,0E0,0E0,0E0,0E0,0E0,0E0,0E0],"parents":[2147483647,0,0,1,1,2,2,3,3,4,4,5,5,6,6,7,7,8,8,9,9,10,10,12,12,13,13],"right_children":[2,4,6,8,10,12,14,16,18,20,22,-1,24,26,-1,-1,-1,-1,-1,-1,-1,-1,-1,-1,-1,-1,-1],"split_conditions":[2.9059896E-1,-5.79603E-1,1.0799614E0,-1.7388698E-1,-7.269499E-2,-1.3339937E0,4.316414E0,2.2190014E-1,1.2491283E0,-1.1099869E-1,-1.3061649E0,-8.56255E-2,2.1756692E0,-1.2877355E0,3.5368819E-3,-5.180494E-2,5.0576385E-2,-1.4069425E-1,1.245163E-3,-7.818004E-2,-1.3050888E-1,1.0488744E-1,-1.3151856E-1,1.1067247E-1,-0E0,1.5507546E-1,5.014363E-3],"split_indices":[20,21,19,20,20,21,20,11,13,21,19,0,8,21,0,0,0,0,0,0,0,0,0,0,0,0,0],"split_type":[0,0,0,0,0,0,0,0,0,0,0,0,0,0,0,0,0,0,0,0,0,0,0,0,0,0,0],"sum_hessian":[5.363249E2,3.1732825E2,2.1899664E2,5.937595E1,2.579523E2,1.52851E1,2.0371155E2,4.7777687E1,1.1598262E1,2.3940277E2,1.8549545E1,1.6774751E0,1.3607625E1,2.0178276E2,1.9287901E0,2.0384544E1,2.7393145E1,9.350728E0,2.247534E0,6.3513165E1,1.758896E2,8.93398E0,9.615566E0,1.1453271E1,2.1543546E0,1.9984067E2,1.9420923E0],"tree_param":{"num_deleted":"0","num_feature":"23","num_nodes":"27","size_leaf_vector":"0"}},{"base_weights":[-1.9841498E-2,-9.3657225E-1,1.386207E0,-1.0192994E0,-1.0805146E-1,1.380058E-1,1.409885E0,-1.2051244E0,-6.480658E-1,-6.424451E-1,1.0757083E0,6.147959E-1,-4.4657844E-1,1.4250917E0,2.7306175E-1,-1.2579918E0,-9.299412E-2,2.4965014E-1,-8.320659E-1,-1.1318493E0,1.0079233E-1,-0E0,4.4611585E-1],"categories":[],"categories_nodes":[],"categories_segments":[],"categories_sizes":[],"default_left":[1,1,1,1,1,1,1,1,1,1,0,0,0,0,1,0,0,0,0,0,0,0,0],"id":4,"left_children":[1,3,5,7,9,11,13,15,17,19,-1,-1,-1,-1,21,-1,-1,-1,-1,-1,-1,-1,-1],"loss_changes":[6.5436084E2,1.9757507E1,3.9762573E0,1.5806E1,2.0742018E1,2.5925846E0,9.0063477E-1,9.090057E0,1.7361927E1,9.767663E0,0E0,0E0,0E0,0E0,2.548708E-1,0E0,0E0,0E0,0E0,0E0,0E0,0E0,0E0],"parents":[2147483647,0,0,1,1,2,2,3,3,4,4,5,5,6,6,7,7,8,8,9,9,14,14],"right_children":[2,4,6,8,10,12,14,16,18,20,-1,-1,-1,-1,22,-1,-1,-1,-1,-1,-1,-1,-1],"split_conditions":[1.63984E0,1.9516346E-1,8.911123E-1,1.4248312E-1,1.3526516E0,8.1251466E-1,4.2617607E0,2.8297755E-1,-5.8403647E-1,1.1291549E0,1.0757083E-1,6.1479595E-2,-4.4657845E-2,1.4250918E-1,9.73367E-1,-1.2579918E-1,-9.299412E-3,2.4965014E-2,-8.320659E-2,-1.1318493E-1,1.0079234E-2,-0E0,4.4611584E-2],"split_indices":[16,0,0,22,21,0,20,8,6,18,0,0,0,0,5,0,0,0,0,0,0,0,0],"split_type":[0,0,0,0,0,0,0,0,0,0,0,0,0,0,0,0,0,0,0,0,0,0,0],"sum_hessian":[5.0399704E2,3.059194E2,1.9807765E2,2.7663058E2,2.9288826E1,4.72801E0,1.9334964E2,1.795624E2,9.706819E1,2.1391315E1,7.8975096E0,3.4893408E0,1.2386696E0,1.8942896E2,3.9206774E0,1.703051E2,9.257292E0,1.5465481E1,8.1602715E1,1.3078904E1,8.312411E0,2.4218585E0,1.4988189E0],"tree_param":{"num_deleted":"0","num_feature":"23","num_nodes":"23","size_leaf_vector":"0"}},{"base_weights":[6.3863383E-3,-8.430402E-1,1.3209721E0,-9.490831E-1,4.424745E-2,8.5544807E-1,1.3988838E0,-0E0,-1.0169035E0,8.4736335E-1,-5.1104224E-1,-1.9314158E-1,1.0114317E0,7.449875E-1,-7.0474607E-1,-6.903623E-1,-1.1362907E0,1.0758216E0,-3.570339E-1,3.798483E-1,-1.3313452E0,3.9190733E-1,-8.597512E-1,1.2427713E0,3.6073893E-1],"categories":[],"categories_nodes":[],"categories_segments":[],"categories_sizes":[],"default_left":[1,1,1,1,1,1,0,1,1,1,1,1,1,0,0,0,0,0,0,0,0,0,0,0,0],"id":5,"left_children":[1,3,5,7,9,11,-1,13,15,17,19,21,23,-1,-1,-1,-1,-1,-1,-1,-1,-1,-1,-1,-1],"loss_changes":[5.5956714E2,2.9564377E1,2.4971008E0,1.8281647E1,1.6064487E1,6.9714184E0,0E0,1.1286661E1,6.543091E0,5.645013E0,1.6735569E1,3.2521212E0,2.2896614E0,0E0,0E0,0E0,0E0,0E0,0E0,0E0,0E0,0E0,0E0,0E0,0E0],"parents":[2147483647,0,0,1,1,2,2,3,3,4,4,5,5,7,7,8,8,9,9,10,10,11,11,12,12],"right_children":[2,4,6,8,10,12,-1,14,16,18,20,22,24,-1,-1,-1,-1,-1,-1,-1,-1,-1,-1,-1,-1],"split_conditions":[1.1932328E0,1.9516346E-1,1.6413224E0,-7.411498E-1,-2.2320849E-1,1.2404678E0,1.3988839E-1,7.364241E-1,-8.22335E-1,5.669863E-1,-1.0847644E0,1.3104181E0,1.6883411E0,7.449875E-2,-7.047461E-2,-6.903623E-2,-1.13629065E-1,1.0758217E-1,-3.570339E-2,3.798483E-2,-1.3313453E-1,3.9190736E-2,-8.5975125E-2,1.2427713E-1,3.6073893E-2],"split_indices":[13,0,2,21,12,12,0,18,14,2,21,13,14,0,0,0,0,0,0,0,0,0,0,0,0],"split_type":[0,0,0,0,0,0,0,0,0,0,0,0,0,0,0,0,0,0,0,0,0,0,0,0,0],"sum_hessian":[4.9669244E2,3.0170248E2,1.9498996E2,2.7037656E2,3.1325912E1,3.3230686E1,1.6175928E2,1.7440802E1,2.5293578E2,1.3111554E1,1.8214357E1,3.411271E0,2.9819414E1,8.93126E0,8.509541E0,7.359203E1,1.7934373E2,1.1898387E1,1.2131664E0,8.661908E0,9.55245E0,1.4567797E0,1.9544914E0,1.9522097E1,1.0297317E1],"tree_param":{"num_deleted":"0","num_feature":"23","num_nodes":"25","size_leaf_vector":"0"}},{"base_weights":[-6.8420604E-2,-9.105286E-1,1.2495197E0,-9.9971837E-1,-7.0395015E-2,-7.3569375E-1,1.2823254E0,-1.0196949E0,7.20694E-1,6.8896407E-1,-6.3134104E-1,5.800574E-1,1.3326023E0,2.782188E-1,-1.0391225E0,9.9059534E-1,-4.4440883E-1,3.5242164E-1,-1.3076775E0,-7.424366E-1,8.91769E-1],"categories":[],"categories_nodes":[],"categories_segments":[],"categories_sizes":[],"default_left":[1,1,1,1,1,0,1,1,0,1,1,1,0,0,0,0,0,0,0,0,0],"id":6,"left_children":[1,3,5,7,9,-1,11,13,-1,15,17,19,-1,-1,-1,-1,-1,-1,-1,-1,-1],"loss_changes":[5.1238947E2,1.9938034E1,1.4135742E1,1.0495773E1,1.37254E1,0E0,2.8258667E0,7.7038574E0,0E0,5.89775E0,1.4676088E1,8.383331E0,0E0,0E0,0E0,0E0,0E0,0E0,0E0,0E0,0E0],"parents":[2147483647,0,0,1,1,2,2,3,3,4,4,6,6,7,7,9,9,10,10,11,11],"right_children":[2,4,6,8,10,-1,12,14,-1,16,18,20,-1,-1,-1,-1,-1,-1,-1,-1,-1],"split_conditions":[7.423831E-1,1.9516346E-1,5.689429E-1,1.3438227E0,1.6254078E-1,-7.356938E-2,1.2363966E0,-1.0151744E0,7.20694E-2,3.6498934E-1,-1.0715696E0,1.3158615E0,1.3326024E-1,2.7821882E-2,-1.0391225E-1,9.905954E-2,-4.4440884E-2,3.5242166E-2,-1.3076775E-1,-7.424366E-2,8.91769E-2],"split_indices":[0,0,19,19,19,0,19,0,0,0,21,12,0,0,0,0,0,0,0,0,0],"split_type":[0,0,0,0,0,0,0,0,0,0,0,0,0,0,0,0,0,0,0,0,0],"sum_hessian":[4.5793054E2,2.802437E2,1.7768683E2,2.5192842E2,2.8315279E1,1.6963902E0,1.7599043E2,2.5041656E2,1.5118634E0,1.10787325E1,1.7236547E1,1.4761813E1,1.6122862E2,2.541008E0,2.4787555E2,9.645888E0,1.4328439E0,6.8101563E0,1.0426391E1,1.6766427E0,1.3085171E1],"tree_param":{"num_deleted":"0","num_feature":"23","num_nodes":"21","size_leaf_vector":"0"}},{"base_weights":[1.5236899E-2,-6.8267214E-1,1.2234954E0,-7.4755085E-1,1.0464301E0,5.5259866E-1,1.2718778E0,-3.965174E-1,-8.664474E-1,-9.0038913E-1,9.078413E-1,-0E0,1.2894796E0,-6.128786E-1,8.806064E-1,-4.08273E-1,-9.958987E-1,1.0676049E0,9.499578E-2,-0E0,1.2957828E0],"categories":[],"categories_nodes":[],"categories_segments":[],"categories_sizes":[],"default_left":[1,1,1,1,0,1,1,1,1,0,1,0,1,0,0,0,0,0,0,0,0],"id":7,"left_children":[1,3,5,7,-1,9,11,13,15,-1,17,-1,19,-1,-1,-1,-1,-1,-1,-1,-1],"loss_changes":[3.8397235E2,3.354332E1,2.1905212E0,9.696289E0,0E0,9.983427E0,3.73349E0,2.1927036E1,9.919403E0,0E0,5.220041E-1,0E0,2.0539856E-1,0E0,0E0,0E0,0E0,0E0,0E0,0E0,0E0],"parents":[2147483647,0,0,1,1,2,2,3,3,5,5,6,6,7,7,8,8,10,10,12,12],"right_children":[2,4,6,8,-1,10,12,14,16,-1,18,-1,20,-1,-1,-1,-1,-1,-1,-1,-1],"split_conditions":[3.009431E-1,1.3494375E0,1.0799614E0,-8.22335E-1,1.0464301E-1,-1.3339937E0,1.7266085E0,-1.13830924E-1,-5.765258E-1,-9.003892E-2,2.2224636E0,-0E0,-1.4897423E0,-6.128786E-2,8.806064E-2,-4.08273E-2,-9.958988E-2,1.06760494E-1,9.499579E-3,-0E0,1.2957828E-1],"split_indices":[20,19,19,14,0,21,13,8,21,0,12,0,4,0,0,0,0,0,0,0,0],"split_type":[0,0,0,0,0,0,0,0,0,0,0,0,0,0,0,0,0,0,0,0,0],"sum_hessian":[4.507234E2,2.8572595E2,1.6499744E2,2.7704446E2,8.681495E0,1.4159915E1,1.5083752E2,7.441628E1,2.0262817E2,1.6258512E0,1.2534064E1,1.8987249E0,1.489388E2,6.5194695E1,9.22159E0,4.8170025E1,1.5445815E2,8.923152E0,3.6109114E0,1.3425586E0,1.4759624E2],"tree_param":{"num_deleted":"0","num_feature":"23","num_nodes":"21","size_leaf_vector":"0"}},{"base_weights":[2.3945563E-3,-7.262769E-1,1.0975767E0,-0E0,-7.9021466E-1,3.6369345E-1,1.2161392E0,-1.0404494E0,9.971662E-1,-9.266769E-1,-3.309583E-1,8.2136405E-1,-2.2278897E-1,7.972072E-2,1.2254105E0,-2.7543524E-1,1.2587453E0,-1.0175331E0,-3.1252316E-1,-5.615984E-2,-1.1779712E0,9.4407666E-1,-0E0,6.633926E-1,-9.7346324E-1],"categories":[],"categories_nodes":[],"categories_segments":[],"categories_sizes":[],"default_left":[1,1,1,1,1,1,1,0,1,1,1,1,1,0,0,0,0,0,0,0,0,0,0,0,0],"id":8,"left_children":[1,3,5,7,9,11,13,-1,15,17,19,21,23,-1,-1,-1,-1,-1,-1,-1,-1,-1,-1,-1,-1],"loss_changes":[3.4424088E2,1.2645767E1,1.2562454E1,2.4699387E1,1.3067215E1,8.492672E0,4.4631958E-2,0E0,5.8648024E0,8.131897E0,1.245732E1,2.0470705E0,1.0189024E1,0E0,0E0,0E0,0E0,0E0,0E0,0E0,0E0,0E0,0E0,0E0,0E0],"parents":[2147483647,0,0,1,1,2,2,3,3,4,4,5,5,6,6,8,8,9,9,10,10,11,11,12,12],"right_children":[2,4,6,8,10,12,14,-1,16,18,20,22,24,-1,-1,-1,-1,-1,-1,-1,-1,-1,-1,-1,-1],"split_conditions":[5.475821E-1,-1.3968024E0,1.2139809E0,-6.2087987E-2,7.923791E-2,3.6389005E-1,4.9360812E-1,-1.0404494E-1,-1.0350723E0,5.3314227E-1,-1.7421946E-1,1.755465E0,-1.1212051E0,7.972072E-3,1.2254105E-1,-2.7543524E-2,1.2587453E-1,-1.0175331E-1,-3.1252317E-2,-5.615984E-3,-1.1779713E-1,9.440767E-2,-0E0,6.633926E-2,-9.734633E-2],"split_indices":[0,22,19,0,8,15,11,0,4,18,20,4,4,0,0,0,0,0,0,0,0,0,0,0,0],"split_type":[0,0,0,0,0,0,0,0,0,0,0,0,0,0,0,0,0,0,0,0,0,0,0,0,0],"sum_hessian":[4.2690137E2,2.5620068E2,1.7070067E2,1.984124E1,2.3635945E2,2.604647E1,1.4465419E2,9.260094E0,1.0581145E1,1.7896829E2,5.739117E1,1.5137661E1,1.0908811E1,2.1987753E0,1.4245541E2,1.1342174E0,9.446928E0,1.5334154E2,2.5626757E1,4.5834274E1,1.1556898E1,1.3268818E1,1.8688431E0,4.49858E0,6.4102306E0],"tree_param":{"num_deleted":"0","num_feature":"23","num_nodes":"25","size_leaf_vector":"0"}},{"base_weights":[3.4949072E-3,-6.83249E-1,1.0714284E0,-7.9712206E-1,-1.7523988E-1,-1.4754263E-1,1.1671046E0,6.032661E-2,-8.863658E-1,8.2010764E-1,-6.261683E-1,-9.534762E-1,3.0944103E-1,6.967759E-1,-5.676191E-1,-1.2625763E-1,-9.722306E-1,1.5941851E0,-0E0,-8.407259E-1,6.36286E-1,7.87466E-1,-2.8119788E-1],"categories":[],"categories_nodes":[],"categories_segments":[],"categories_sizes":[],"default_left":[1,1,1,1,1,1,0,1,1,1,1,0,1,0,0,0,0,0,0,0,0,0,0],"id":9,"left_children":[1,3,5,7,9,11,-1,13,15,17,19,-1,21,-1,-1,-1,-1,-1,-1,-1,-1,-1,-1],"loss_changes":[3.0657172E2,1.3414482E1,2.0486404E1,1.6614792E1,2.3541748E1,6.002717E0,0E0,8.967236E0,1.084761E1,9.577368E0,1.1200542E1,0E0,3.4847484E0,0E0,0E0,0E0,0E0,0E0,0E0,0E0,0E0,0E0,0E0],"parents":[2147483647,0,0,1,1,2,2,3,3,4,4,5,5,7,7,8,8,9,9,10,10,12,12],"right_children":[2,4,6,8,10,12,-1,14,16,18,20,-1,22,-1,-1,-1,-1,-1,-1,-1,-1,-1,-1],"split_conditions":[8.471681E-1,-3.2710247E-2,9.6790195E-1,-5.7861125E-1,-1.3061649E0,2.955671E-1,1.1671046E-1,-2.2474621E-1,-1.1752791E0,-6.2746525E-1,1.2357129E0,-9.534762E-2,1.3828108E0,6.967759E-2,-5.676191E-2,-1.2625763E-2,-9.7223066E-2,1.5941851E-1,-0E0,-8.407259E-2,6.362861E-2,7.87466E-2,-2.8119788E-2],"split_indices":[16,2,19,21,19,20,0,14,14,15,18,0,2,0,0,0,0,0,0,0,0,0,0],"split_type":[0,0,0,0,0,0,0,0,0,0,0,0,0,0,0,0,0,0,0,0,0,0,0],"sum_hessian":[4.1349054E2,2.5152757E2,1.6196295E2,2.0293245E2,4.8595127E1,1.0947631E1,1.5101532E2,1.8135014E1,1.8479744E2,1.394932E1,3.4645805E1,3.9669294E0,6.980702E0,9.688541E0,8.446472E0,2.044019E1,1.6435725E2,5.9894133E0,7.9599066E0,3.0861095E1,3.7847114E0,4.4255447E0,2.555157E0],"tree_param":{"num_deleted":"0","num_feature":"23","num_nodes":"23","size_leaf_vector":"0"}},{"base_weights":[8.66434E-3,-6.045196E-1,1.1033705E0,-1.2279138E-2,-7.6541454E-1,1.1865455E0,7.10561E-1,-1.9344269E-1,9.6366644E-1,-1.0426999E0,-5.1867735E-1,8.293661E-1,-5.799353E-1,6.108798E-1,-5.1672566E-1,1.1643305E0,-0E0,-4.8262358E-2,-1.160829E0,7.391359E-1,-6.3503766E-1,1.061801E0,2.3288797E-1],"categories":[],"categories_nodes":[],"categories_segments":[],"categories_sizes":[],"default_left":[1,1,1,1,1,0,1,1,1,1,1,1,0,0,0,0,0,0,0,0,0,0,0],"id":10,"left_children":[1,3,5,7,9,-1,11,13,15,17,19,21,-1,-1,-1,-1,-1,-1,-1,-1,-1,-1,-1],"loss_changes":[2.6956314E2,2.3631393E1,1.137497E0,9.879768E0,1.1056053E1,0E0,6.1690044E0,1.3942958E1,8.8130474E-1,9.297241E0,1.7203417E1,2.5283852E0,0E0,0E0,0E0,0E0,0E0,0E0,0E0,0E0,0E0,0E0,0E0],"parents":[2147483647,0,0,1,1,2,2,3,3,4,4,6,6,7,7,8,8,9,9,10,10,11,11],"right_children":[2,4,6,8,10,-1,12,14,16,18,20,22,-1,-1,-1,-1,-1,-1,-1,-1,-1,-1,-1],"split_conditions":[3.009431E-1,-5.6529814E-1,-1.5797398E0,1.367017E0,-5.0846237E-1,1.1865455E-1,1.7366295E0,7.3800413E-3,1.8859572E0,-6.691494E-1,-4.686811E-1,1.6841197E0,-5.799353E-2,6.1087977E-2,-5.1672567E-2,1.1643305E-1,-0E0,-4.826236E-3,-1.160829E-1,7.39136E-2,-6.3503765E-2,1.06180094E-1,2.3288798E-2],"split_indices":[20,21,21,19,11,0,18,13,6,6,11,14,0,0,0,0,0,0,0,0,0,0,0],"split_type":[0,0,0,0,0,0,0,0,0,0,0,0,0,0,0,0,0,0,0,0,0,0,0],"sum_hessian":[3.9684955E2,2.5435713E2,1.4249242E2,5.6126858E1,1.9823027E2,1.1215682E2,3.0335598E1,4.9556053E1,6.5708017E0,8.839093E1,1.0983934E2,2.9142265E1,1.1933314E0,1.2810718E1,3.674534E1,4.5212293E0,2.0495725E0,1.0583014E1,7.780792E1,7.6667104E0,1.0217263E2,1.8641376E1,1.0500888E1],"tree_param":{"num_deleted":"0","num_feature":"23","num_nodes":"23","size_leaf_vector":"0"}},{"base_weights":[6.711735E-3,1.0249501E0,-5.799018E-1,4.4234198E-1,1.1621304E0,-6.782595E-1,1.7038463E-1,9.957596E-1,-0E0,-2.7218527E-1,-8.346382E-1,6.5498185E-1,-1.08431E0,-1.1685191E0,3.882923E-1,-7.421233E-1,2.7541405E-1,-1.2020222E0,-6.159961E-1,-4.2144102E-1,8.2856745E-1],"categories":[],"categories_nodes":[],"categories_segments":[],"categories_sizes":[],"default_left":[1,1,1,1,0,1,1,0,1,1,1,1,0,0,0,0,0,0,0,0,0],"id":11,"left_children":[1,3,5,7,-1,9,11,-1,13,15,17,19,-1,-1,-1,-1,-1,-1,-1,-1,-1],"loss_changes":[2.3010161E2,8.648972E0,1.8696365E1,6.967447E0,0E0,1.2200439E1,1.8394325E1,0E0,9.519382E0,1.7602102E1,9.048355E0,5.304015E0,0E0,0E0,0E0,0E0,0E0,0E0,0E0,0E0,0E0],"parents":[2147483647,0,0,1,1,2,2,3,3,5,5,6,6,8,8,9,9,10,10,11,11],"right_children":[2,4,6,8,-1,10,12,-1,14,16,18,20,-1,-1,-1,-1,-1,-1,-1,-1,-1],"split_conditions":[-1.0715696E0,1.7509849E0,2.1817738E-1,1.1509933E0,1.1621304E-1,-8.22335E-1,1.8600656E0,9.957596E-2,9.9384964E-1,-3.4806725E-1,-5.0846237E-1,-1.0014864E0,-1.08431004E-1,-1.1685192E-1,3.8829233E-2,-7.4212335E-2,2.7541405E-2,-1.2020222E-1,-6.1599612E-2,-4.21441E-2,8.2856745E-2],"split_indices":[21,2,0,22,0,14,6,0,19,0,11,4,0,0,0,0,0,0,0,0,0],"split_type":[0,0,0,0,0,0,0,0,0,0,0,0,0,0,0,0,0,0,0,0,0],"sum_hessian":[3.80493E2,1.3915656E2,2.4133644E2,2.9520594E1,1.0963596E2,2.147137E2,2.6622746E1,1.1247078E1,1.8273516E1,6.2998665E1,1.5171503E2,2.0469734E1,6.153011E0,3.0723276E0,1.5201189E1,3.4503872E1,2.8494793E1,5.1541267E1,1.0017376E2,1.6460208E0,1.8823713E1],"tree_param":{"num_deleted":"0","num_feature":"23","num_nodes":"21","size_leaf_vector":"0"}},{"base_weights":[3.7373092E-2,-5.944778E-1,9.329792E-1,-7.599651E-1,-2.9611778E-1,4.1492078E-1,1.1302677E0,-9.246724E-1,5.074162E-2,6.44158E-1,-5.2308726E-1,8.450391E-1,-4.4574987E-2,-1.0137541E0,2.7188298E-1,-6.7897105E-1,9.5131993E-1,-8.0228895E-1,1.4894513E0,-9.0113866E-1,-1.2726162E-1,9.7284883E-1,-0E0,-9.0337634E-1,4.353741E-1],"categories":[],"categories_nodes":[],"categories_segments":[],"categories_sizes":[],"default_left":[1,1,1,1,1,1,0,1,1,1,1,1,1,0,0,0,0,0,0,0,0,0,0,0,0],"id":12,"left_children":[1,3,5,7,9,11,-1,13,15,17,19,21,23,-1,-1,-1,-1,-1,-1,-1,-1,-1,-1,-1,-1],"loss_changes":[2.1258984E2,9.323647E0,1.3438339E1,1.9348381E1,1.8412664E1,1.0267591E1,0E0,1.3608414E1,1.7411394E1,2.3021662E1,9.123552E0,3.553667E0,1.1044417E1,0E0,0E0,0E0,0E0,0E0,0E0,0E0,0E0,0E0,0E0,0E0,0E0],"parents":[2147483647,0,0,1,1,2,2,3,3,4,4,5,5,7,7,8,8,9,9,10,10,11,11,12,12],"right_children":[2,4,6,8,10,12,-1,14,16,18,20,22,24,-1,-1,-1,-1,-1,-1,-1,-1,-1,-1,-1,-1],"split_conditions":[8.5927045E-1,1.8874323E-1,1.6413224E0,-6.397854E-2,2.7389592E-1,1.6933466E0,1.13026775E-1,4.5777065E-1,1.3526516E0,2.712701E-1,6.185799E-1,1.1580095E0,1.1995039E0,-1.01375416E-1,2.71883E-2,-6.7897104E-2,9.513199E-2,-8.0228895E-2,1.4894514E-1,-9.011387E-2,-1.2726163E-2,9.728488E-2,-0E0,-9.0337634E-2,4.353741E-2],"split_indices":[13,22,2,0,22,14,0,12,21,4,18,2,18,0,0,0,0,0,0,0,0,0,0,0,0],"split_type":[0,0,0,0,0,0,0,0,0,0,0,0,0,0,0,0,0,0,0,0,0,0,0,0,0],"sum_hessian":[3.7111536E2,2.1733865E2,1.537767E2,1.3565228E2,8.168638E1,4.552028E1,1.08256424E2,1.1353771E2,2.2114563E1,1.4312275E1,6.737411E1,2.3769056E1,2.1751223E1,1.06732895E2,6.804816E0,1.1874635E1,1.0239928E1,4.880169E0,9.432107E0,3.1862646E1,3.551146E1,2.119771E1,2.5713458E0,7.9123225E0,1.3838901E1],"tree_param":{"num_deleted":"0","num_feature":"23","num_nodes":"25","size_leaf_vector":"0"}},{"base_weights":[7.90233E-3,-5.005438E-1,1.0249369E0,-1.133868E0,-4.062464E-1,6.495598E-1,1.1193502E0,6.4280456E-1,-4.6121147E-1,8.961659E-1,1.0066927E-1,1.3552153E0,-5.4824764E-1,2.3238346E-1,-5.5074453E-1,9.769702E-1,-0E0,-6.087591E-1,7.1590513E-1],"categories":[],"categories_nodes":[],"categories_segments":[],"categories_sizes":[],"default_left":[1,1,1,0,1,1,0,1,1,1,1,0,0,0,0,0,0,0,0],"id":13,"left_children":[1,3,5,-1,7,9,-1,11,13,15,17,-1,-1,-1,-1,-1,-1,-1,-1],"loss_changes":[1.8193886E2,1.1469101E1,9.440613E-1,0E0,1.237727E1,2.9544697E0,0E0,1.1000015E1,1.2948296E1,1.7769356E0,6.6409273E0,0E0,0E0,0E0,0E0,0E0,0E0,0E0,0E0],"parents":[2147483647,0,0,1,1,2,2,4,4,5,5,7,7,8,8,9,9,10,10],"right_children":[2,4,6,-1,8,10,-1,12,14,16,18,-1,-1,-1,-1,-1,-1,-1,-1],"split_conditions":[3.4317708E-1,-7.453903E-1,1.7509849E0,-1.133868E-1,-7.0984614E-1,1.8767998E0,1.1193502E-1,-5.937063E-1,-1.1149483E0,1.9938645E0,1.9023035E0,1.3552153E-1,-5.4824766E-2,2.3238346E-2,-5.5074453E-2,9.769702E-2,-0E0,-6.087591E-2,7.159051E-2],"split_indices":[20,2,2,0,2,6,0,6,14,13,6,0,0,0,0,0,0,0,0],"split_type":[0,0,0,0,0,0,0,0,0,0,0,0,0,0,0,0,0,0,0],"sum_hessian":[3.4684137E2,2.3126E2,1.15581375E2,2.573875E1,2.0552126E2,2.852412E1,8.705726E1,8.261487E0,1.9725977E2,1.7551386E1,1.0972734E1,5.522322E0,2.7391646E0,2.0910467E1,1.7634929E2,1.6312675E1,1.2387093E0,4.35112E0,6.6216145E0],"tree_param":{"num_deleted":"0","num_feature":"23","num_nodes":"19","size_leaf_vector":"0"}},{"base_weights":[3.9344978E-2,-4.8565722E-1,9.141284E-1,-1.013935E0,-3.8879326E-1,2.530554E-1,1.0458581E0,-1.1168087E0,2.2403438E-1,7.16694E-1,-4.6251592E-1,7.5993526E-1,-1.6131979E-1,-0E0,1.0604409E0,-2.8855565E-1,1.8445041E0,4.2524093E-1,-5.253739E-1,8.91365E-1,-0E0,-1.2369217E0,4.1706803E-1,1.0760982E0,-0E0],"categories":[],"categories_nodes":[],"categories_segments":[],"categories_sizes":[],"default_left":[1,1,1,1,1,1,1,0,0,1,1,1,1,0,1,0,0,0,0,0,0,0,0,0,0],"id":14,"left_children":[1,3,5,7,9,11,13,-1,-1,15,17,19,21,-1,23,-1,-1,-1,-1,-1,-1,-1,-1,-1,-1],"loss_changes":[1.5802246E2,8.75071E0,9.438812E0,5.2505836E0,1.5530224E1,6.1782722E0,1.5047455E0,0E0,0E0,1.5699336E1,1.0368443E1,1.2910342E0,1.0896054E1,0E0,1.044342E0,0E0,0E0,0E0,0E0,0E0,0E0,0E0,0E0,0E0,0E0],"parents":[2147483647,0,0,1,1,2,2,3,3,4,4,5,5,6,6,9,9,10,10,11,11,12,12,14,14],"right_children":[2,4,6,8,10,12,14,-1,-1,16,18,20,22,-1,24,-1,-1,-1,-1,-1,-1,-1,-1,-1,-1],"split_conditions":[5.400547E-1,-7.960589E-1,1.2139809E0,1.6844083E-1,-9.8609626E-1,-7.992674E-1,1.0038049E0,-1.11680865E-1,2.240344E-2,-1.0074027E0,-7.709132E-1,1.3276513E0,1.8046266E-1,-0E0,4.316414E0,-2.8855566E-2,1.8445042E-1,4.2524096E-2,-5.253739E-2,8.91365E-2,-0E0,-1.2369217E-1,4.1706804E-2,1.0760982E-1,-0E0],"split_indices":[0,11,19,0,12,4,22,0,0,12,13,15,4,0,20,0,0,0,0,0,0,0,0,0,0],"split_type":[0,0,0,0,0,0,0,0,0,0,0,0,0,0,0,0,0,0,0,0,0,0,0,0,0],"sum_hessian":[3.392119E2,2.1182901E2,1.2738289E2,2.8288712E1,1.835403E2,2.3397598E1,1.0398529E2,2.7044836E1,1.243876E0,9.536162E0,1.7400414E2,1.0859386E1,1.2538212E1,1.5567873E0,1.02428505E2,5.360135E0,4.176027E0,9.691395E0,1.6431274E2,8.971686E0,1.8877001E0,4.1928205E0,8.345391E0,1.003136E2,2.1149118E0],"tree_param":{"num_deleted":"0","num_feature":"23","num_nodes":"25","size_leaf_vector":"0"}},{"base_weights":[4.9057547E-2,-3.9362055E-1,9.552124E-1,-2.8536996E-1,-1.1352714E0,2.471955E-1,1.0299292E0,-6.4367056E-1,-7.9719305E-2,9.076085E-1,-5.753816E-1,-7.90019E-1,6.3582635E-1,1.3332307E-1,-5.888107E-1,-1.3608532E0,3.5311964E-1],"categories":[],"categories_nodes":[],"categories_segments":[],"categories_sizes":[],"default_left":[1,1,1,1,0,1,0,1,1,0,1,0,0,0,0,0,0],"id":15,"left_children":[1,3,5,7,-1,9,-1,11,13,-1,15,-1,-1,-1,-1,-1,-1],"loss_changes":[1.299371E2,1.5279945E1,3.8507843E0,1.3351986E1,0E0,9.026033E0,0E0,1.3912571E1,1.4311215E1,0E0,6.9429655E0,0E0,0E0,0E0,0E0,0E0,0E0],"parents":[2147483647,0,0,1,1,2,2,3,3,5,5,7,7,8,8,10,10],"right_children":[2,4,6,8,-1,10,-1,12,14,-1,16,-1,-1,-1,-1,-1,-1],"split_conditions":[1.2052675E0,1.0747001E0,1.1679972E0,-4.8372483E-1,-1.1352714E-1,1.6883352E0,1.02992915E-1,-4.7279513E-3,-1.6204038E-1,9.076085E-2,1.698354E0,-7.9001896E-2,6.358264E-2,1.3332307E-2,-5.888107E-2,-1.3608532E-1,3.5311963E-2],"split_indices":[13,4,18,11,0,14,0,0,6,0,2,0,0,0,0,0,0],"split_type":[0,0,0,0,0,0,0,0,0,0,0,0,0,0,0,0,0],"sum_hessian":[3.1864902E2,2.140891E2,1.0455993E2,1.9041432E2,2.3674782E1,1.2080987E1,9.247894E1,6.6109955E1,1.2430437E2,7.2606554E0,4.8203316E0,6.071236E1,5.397592E0,8.7288284E1,3.701608E1,2.6902294E0,2.1301024E0],"tree_param":{"num_deleted":"0","num_feature":"23","num_nodes":"17","size_leaf_vector":"0"}},{"base_weights":[2.5537629E-2,-5.463331E-1,7.720171E-1,-7.278532E-1,-2.804692E-1,1.882431E-1,9.6345884E-1,8.795149E-2,-8.553189E-1,4.1427433E-1,-6.253732E-1,5.139749E-1,-5.021981E-1,9.8821044E-1,3.6808856E-2,-8.822213E-1,1.4308652E0,-9.364554E-1,2.2854567E-1,9.176172E-1,-8.145439E-1,-9.3405133E-1,-1.8980272E-2,8.447703E-1,-3.563174E-2,-1.0043014E0,3.4468552E-1,4.278317E-1,-1.4138946E-1],"categories":[],"categories_nodes":[],"categories_segments":[],"categories_sizes":[],"default_left":[1,1,1,1,1,1,1,1,1,1,1,1,1,0,1,0,0,0,0,0,0,0,0,0,0,0,0,0,0],"id":16,"left_children":[1,3,5,7,9,11,13,15,17,19,21,23,25,-1,27,-1,-1,-1,-1,-1,-1,-1,-1,-1,-1,-1,-1,-1,-1],"loss_changes":[1.3566031E2,7.2186356E0,1.3947388E1,1.1612301E1,1.9440851E1,9.061012E0,1.2510605E0,2.216136E1,9.06765E0,1.7770422E1,9.108303E0,5.9148507E0,6.53524E0,0E0,8.110577E-1,0E0,0E0,0E0,0E0,0E0,0E0,0E0,0E0,0E0,0E0,0E0,0E0,0E0,0E0],"parents":[2147483647,0,0,1,1,2,2,3,3,4,4,5,5,6,6,7,7,8,8,9,9,10,10,11,11,12,12,14,14],"right_children":[2,4,6,8,10,12,14,16,18,20,22,24,26,-1,28,-1,-1,-1,-1,-1,-1,-1,-1,-1,-1,-1,-1,-1,-1],"split_conditions":[1.3058832E-1,-7.196142E-2,2.9059896E-1,-1.2633755E0,2.1713367E-1,-5.2345615E-2,4.2475743E0,-1.3041761E0,1.5299152E0,-2.2245072E-1,-1.689738E-1,1.8870411E0,1.3549755E0,9.8821044E-2,2.5025246E-1,-8.822213E-2,1.4308652E-1,-9.364554E-2,2.2854567E-2,9.176172E-2,-8.145439E-2,-9.3405135E-2,-1.8980273E-3,8.447703E-2,-3.5631738E-3,-1.00430146E-1,3.4468554E-2,4.278317E-2,-1.4138946E-2],"split_indices":[2,15,20,14,15,20,20,14,21,14,13,6,21,0,15,0,0,0,0,0,0,0,0,0,0,0,0,0,0],"split_type":[0,0,0,0,0,0,0,0,0,0,0,0,0,0,0,0,0,0,0,0,0,0,0,0,0,0,0,0,0],"sum_hessian":[3.1328296E2,1.7693295E2,1.3634999E2,1.0084424E2,7.608871E1,3.594154E1,1.00408455E2,1.2650892E1,8.819335E1,2.414718E1,5.194153E1,2.5751965E1,1.0189573E1,9.661575E1,3.7927074E0,7.310769E0,5.340123E0,8.316255E1,5.030799E0,1.8066967E1,6.080213E0,3.2611298E1,1.9330227E1,1.6541447E1,9.210519E0,6.9048457E0,3.2847273E0,2.0670123E0,1.7256949E0],"tree_param":{"num_deleted":"0","num_feature":"23","num_nodes":"29","size_leaf_vector":"0"}},{"base_weights":[2.2515864E-4,-3.510049E-1,1.0044538E0,-9.616301E-1,-9.249705E-2,-3.7151936E-1,1.0520643E0,8.5752976E-1,-1.0476743E0,7.2925115E-1,-2.3140197E-1,1.0747081E0,-0E0,-1.1335728E0,-1.16596565E-1,1.356819E0,-7.6028895E-1,-5.404466E-1,1.3861665E-1],"categories":[],"categories_nodes":[],"categories_segments":[],"categories_sizes":[],"default_left":[1,1,1,1,1,0,1,0,1,1,1,0,0,0,0,0,0,0,0],"id":17,"left_children":[1,3,5,7,9,-1,11,-1,13,15,17,-1,-1,-1,-1,-1,-1,-1,-1],"loss_changes":[1.0424944E2,3.3000618E1,6.496422E0,1.1870083E1,1.7615059E1,0E0,2.1970367E0,0E0,3.4211884E0,2.3185736E1,1.6077122E1,0E0,0E0,0E0,0E0,0E0,0E0,0E0,0E0],"parents":[2147483647,0,0,1,1,2,2,3,3,4,4,6,6,8,8,9,9,10,10],"right_children":[2,4,6,8,10,-1,12,-1,14,16,18,-1,-1,-1,-1,-1,-1,-1,-1],"split_conditions":[1.3113244E0,-5.0846237E-1,4.2084646E-1,-5.25898E-1,-3.875262E-1,-3.7151936E-2,4.316414E0,8.575298E-2,5.44962E-2,-3.2964522E-1,-2.170245E-1,1.0747081E-1,-0E0,-1.1335728E-1,-1.1659657E-2,1.3568191E-1,-7.60289E-2,-5.404466E-2,1.38616655E-2],"split_indices":[19,11,11,21,11,0,20,0,16,8,20,0,0,0,0,0,0,0,0],"split_type":[0,0,0,0,0,0,0,0,0,0,0,0,0,0,0,0,0,0,0],"sum_hessian":[2.8971082E2,2.1486626E2,7.484456E1,6.1139515E1,1.5372675E2,1.3456007E0,7.349896E1,1.426478E0,5.9713036E1,1.9957993E1,1.3376875E2,7.225319E1,1.245769E0,5.328786E1,6.425174E0,1.4639628E1,5.318365E0,7.386069E1,5.990807E1],"tree_param":{"num_deleted":"0","num_feature":"23","num_nodes":"19","size_leaf_vector":"0"}},{"base_weights":[4.571167E-2,-3.7931406E-1,7.6270014E-1,-2.2213987E-1,-9.070368E-1,3.2022244E-1,1.0104232E0,-1.0064217E0,-8.599458E-2,-1.1428839E0,6.13085E-1,7.106873E-1,-0E0,-0E0,1.0224857E0,2.4725439E-1,-4.420656E-1,9.561517E-1,-4.8259968E-1,-6.20741E-1,2.1478008E-1],"categories":[],"categories_nodes":[],"categories_segments":[],"categories_sizes":[],"default_left":[1,1,1,1,1,1,1,0,1,0,0,1,1,0,0,0,0,0,0,0,0],"id":18,"left_children":[1,3,5,7,9,11,13,-1,15,-1,-1,17,19,-1,-1,-1,-1,-1,-1,-1,-1],"loss_changes":[9.036967E1,1.3784311E1,1.0159775E1,1.436562E1,1.6367893E1,5.93981E0,2.624588E-1,0E0,1.5603264E1,0E0,0E0,7.464819E0,3.8951285E0,0E0,0E0,0E0,0E0,0E0,0E0,0E0,0E0],"parents":[2147483647,0,0,1,1,2,2,3,3,4,4,5,5,6,6,8,8,11,11,12,12],"right_children":[2,4,6,8,10,12,14,-1,16,-1,-1,18,20,-1,-1,-1,-1,-1,-1,-1,-1],"split_conditions":[3.65996E-1,5.1869977E-1,1.7509849E0,-7.960589E-1,1.0612938E0,1.024045E0,1.1569195E0,-1.0064217E-1,-3.4170347E-1,-1.1428839E-1,6.13085E-2,-4.3757367E-1,1.132513E0,-0E0,1.0224857E-1,2.4725439E-2,-4.420656E-2,9.561517E-2,-4.825997E-2,-6.2074102E-2,2.1478008E-2],"split_indices":[2,15,2,11,22,22,19,0,8,0,0,21,18,0,0,0,0,0,0,0,0],"split_type":[0,0,0,0,0,0,0,0,0,0,0,0,0,0,0,0,0,0,0,0,0],"sum_hessian":[2.9139142E2,1.826594E2,1.0873201E2,1.4439142E2,3.826798E1,4.2120083E1,6.661192E1,1.8380226E1,1.260112E2,3.4127293E1,4.140687E0,1.8717634E1,2.3402449E1,1.3582858E0,6.525364E1,6.3956608E1,6.205459E1,1.654892E1,2.1687162E0,5.7568583E0,1.764559E1],"tree_param":{"num_deleted":"0","num_feature":"23","num_nodes":"21","size_leaf_vector":"0"}},{"base_weights":[2.5626171E-2,-3.409321E-1,8.510048E-1,-7.264134E-1,-1.7219491E-1,-0E0,9.167456E-1,3.0228855E-2,-9.9614465E-1,3.2958195E-1,-3.7376824E-1,-5.634751E-1,4.300671E-1,2.8846905E-1,9.7148174E-1,-4.7465345E-1,7.265613E-1,-2.63546E-1,-1.0880588E0,-6.8237936E-1,1.0799587E0,-7.9728967E-1,5.681923E-3,1.1349485E-1,-1.0799252E0,-3.8459843E-1,5.9383154E-1,6.731731E-2,9.925836E-1],"categories":[],"categories_nodes":[],"categories_segments":[],"categories_sizes":[],"default_left":[1,1,1,1,1,1,1,1,1,1,1,1,0,1,1,0,0,0,0,0,0,0,0,0,0,0,0,0,0],"id":19,"left_children":[1,3,5,7,9,11,13,15,17,19,21,23,-1,25,27,-1,-1,-1,-1,-1,-1,-1,-1,-1,-1,-1,-1,-1,-1],"loss_changes":[8.584265E1,1.1506916E1,5.515236E0,1.2620993E1,1.442613E1,2.4028418E0,9.9998474E-1,6.530522E0,9.646416E-1,3.201296E1,1.7202581E1,2.8928235E0,0E0,2.9024413E0,2.0178986E-1,0E0,0E0,0E0,0E0,0E0,0E0,0E0,0E0,0E0,0E0,0E0,0E0,0E0,0E0],"parents":[2147483647,0,0,1,1,2,2,3,3,4,4,5,5,6,6,7,7,8,8,9,9,10,10,11,11,13,13,14,14],"right_children":[2,4,6,8,10,12,14,16,18,20,22,24,-1,26,28,-1,-1,-1,-1,-1,-1,-1,-1,-1,-1,-1,-1,-1,-1],"split_conditions":[1.1140153E0,-5.814861E-1,1.0546331E0,-1.2651341E0,-3.3890793E-1,1.6444466E0,1.8475332E0,-7.4495065E-1,-2.2443E-1,-5.3400123E-1,7.923791E-2,-2.3065617E0,4.300671E-2,1.6566633E0,-1.5308945E0,-4.7465347E-2,7.265613E-2,-2.63546E-2,-1.0880589E-1,-6.823794E-2,1.0799587E-1,-7.972897E-2,5.6819234E-4,1.1349485E-2,-1.0799252E-1,-3.8459845E-2,5.9383154E-2,6.731731E-3,9.9258356E-2],"split_indices":[22,12,18,18,8,2,6,8,21,18,8,4,0,20,4,0,0,0,0,0,0,0,0,0,0,0,0,0,0],"split_type":[0,0,0,0,0,0,0,0,0,0,0,0,0,0,0,0,0,0,0,0,0,0,0,0,0,0,0,0,0],"sum_hessian":[2.781272E2,1.9256819E2,8.5559006E1,5.4812435E1,1.3775575E2,5.545163E0,8.001384E1,1.3897116E1,4.0915318E1,3.7693695E1,1.00062065E2,2.8088086E0,2.7363548E0,8.8813305E0,7.113251E1,7.5926228E0,6.3044925E0,6.6361823E0,3.4279137E1,1.5559141E1,2.2134554E1,4.7489704E1,5.2572357E1,1.0528731E0,1.7559354E0,1.5878022E0,7.2935286E0,2.8941526E0,6.823836E1],"tree_param":{"num_deleted":"0","num_feature":"23","num_nodes":"29","size_leaf_vector":"0"}},{"base_weights":[-3.539357E-2,-3.985936E-1,8.4762937E-1,-5.181202E-1,5.7528954E-2,3.9004362E-1,9.940628E-1,-6.066602E-1,7.5086154E-2,8.037233E-1,-2.263318E-1,-2.8775012E-1,6.744879E-1,-0E0,1.0100522E0,-9.5258653E-1,-4.2121983E-1,1.1503245E0,-5.332659E-1,-5.2860177E-1,1.4213787E0,-9.855818E-1,2.1206003E-1,-1.2951673E0,3.4615496E-1,7.4378026E-1,-0E0],"categories":[],"categories_nodes":[],"categories_segments":[],"categories_sizes":[],"default_left":[1,1,1,1,1,1,1,1,1,1,1,1,1,0,0,0,0,0,0,0,0,0,0,0,0,0,0],"id":20,"left_children":[1,3,5,7,9,11,13,15,17,19,21,23,25,-1,-1,-1,-1,-1,-1,-1,-1,-1,-1,-1,-1,-1,-1],"loss_changes":[8.694465E1,1.1083244E1,3.1097794E0,8.787689E0,9.475857E0,5.40427E0,7.1193314E-1,6.6091843E0,1.5255102E1,1.2693556E1,1.1103359E1,6.610161E0,1.2481632E0,0E0,0E0,0E0,0E0,0E0,0E0,0E0,0E0,0E0,0E0,0E0,0E0,0E0,0E0],"parents":[2147483647,0,0,1,1,2,2,3,3,4,4,5,5,6,6,7,7,8,8,9,9,10,10,11,11,12,12],"right_children":[2,4,6,8,10,12,14,16,18,20,22,24,26,-1,-1,-1,-1,-1,-1,-1,-1,-1,-1,-1,-1,-1,-1],"split_conditions":[3.009431E-1,3.5108286E-1,1.8549657E0,-7.269499E-2,-6.614069E-2,-1.4422854E0,-1.5839847E0,-5.778865E-1,-5.8206044E-2,-2.6717785E-1,7.403023E-1,1.6950146E0,1.5140597E0,-0E0,1.0100522E-1,-9.525865E-2,-4.2121984E-2,1.1503245E-1,-5.3326588E-2,-5.2860178E-2,1.4213787E-1,-9.855818E-2,2.1206005E-2,-1.2951674E-1,3.4615498E-2,7.437803E-2,-0E0],"split_indices":[20,12,0,20,13,21,4,11,20,4,7,2,0,0,0,0,0,0,0,0,0,0,0,0,0,0,0],"split_type":[0,0,0,0,0,0,0,0,0,0,0,0,0,0,0,0,0,0,0,0,0,0,0,0,0,0,0],"sum_hessian":[2.6839038E2,1.9175038E2,7.664001E1,1.5345749E2,3.829289E1,2.2011908E1,5.46281E1,1.3495497E2,1.8502531E1,1.051412E1,2.7778767E1,5.4607577E0,1.655115E1,1.0808542E0,5.354725E1,4.232822E1,9.262675E1,6.6358824E0,1.186665E1,2.9088547E0,7.605265E0,1.0089498E1,1.768927E1,1.9125298E0,3.548228E0,1.551184E1,1.0393102E0],"tree_param":{"num_deleted":"0","num_feature":"23","num_nodes":"27","size_leaf_vector":"0"}},{"base_weights":[4.8550397E-2,-2.2964174E-1,9.348894E-1,-9.654135E-1,-1.4084734E-1,-3.473986E-1,9.9419117E-1,9.5539254E-1,-2.0991285E-1,-0E0,1.7176913E0,-1.0048783E0,-1.3958147E-1],"categories":[],"categories_nodes":[],"categories_segments":[],"categories_sizes":[],"default_left":[1,1,1,0,1,0,0,1,1,0,0,0,0],"id":21,"left_children":[1,3,5,-1,7,-1,-1,9,11,-1,-1,-1,-1],"loss_changes":[6.600139E1,1.1752004E1,6.211712E0,0E0,1.3502476E1,0E0,0E0,9.183475E0,8.334066E0,0E0,0E0,0E0,0E0],"parents":[2147483647,0,0,1,1,2,2,4,4,7,7,8,8],"right_children":[2,4,6,-1,8,-1,-1,10,12,-1,-1,-1,-1],"split_conditions":[1.2717602E0,-7.960589E-1,4.2084646E-1,-9.654135E-2,-9.8591423E-1,-3.4739863E-2,9.941912E-2,-1.0074027E0,-1.436979E0,-0E0,1.7176913E-1,-1.0048783E-1,-1.3958148E-2],"split_indices":[19,11,11,0,12,0,0,12,4,0,0,0,0],"split_type":[0,0,0,0,0,0,0,0,0,0,0,0,0],"sum_hessian":[2.6107376E2,1.9897557E2,6.209819E1,1.8087908E1,1.8088766E2,1.5700356E0,6.0528156E1,8.34154E0,1.7254613E2,4.0296597E0,4.311881E0,1.0708826E1,1.618373E2],"tree_param":{"num_deleted":"0","num_feature":"23","num_nodes":"13","size_leaf_vector":"0"}},{"base_weights":[1.0644059E-2,-1.9200882E-1,9.262575E-1,-4.5764378E-1,4.7434278E-2,-0E0,9.433593E-1,1.488128E-1,-8.089032E-1,7.8892314E-1,-8.87353E-2,9.6138984E-1,-0E0,-8.383647E-1,4.9822423E-1,-9.0209323E-1,2.539651E-1,-6.654356E-1,1.3948101E0,-6.316743E-1,8.904798E-2,-0E0,9.792477E-1],"categories":[],"categories_nodes":[],"categories_segments":[],"categories_sizes":[],"default_left":[1,1,1,1,1,0,1,1,1,1,1,1,0,0,0,0,0,0,0,0,0,0,0],"id":22,"left_children":[1,3,5,7,9,-1,11,13,15,17,19,21,-1,-1,-1,-1,-1,-1,-1,-1,-1,-1,-1],"loss_changes":[4.7856415E1,1.3627863E1,4.0348434E-1,2.2280102E1,1.1822166E1,0E0,2.5829697E-1,1.3414391E1,7.5352592E0,1.8637955E1,9.5885315E0,2.5673676E-1,0E0,0E0,0E0,0E0,0E0,0E0,0E0,0E0,0E0,0E0,0E0],"parents":[2147483647,0,0,1,1,2,2,3,3,4,4,6,6,7,7,8,8,9,9,10,10,11,11],"right_children":[2,4,6,8,10,-1,12,14,16,18,20,22,-1,-1,-1,-1,-1,-1,-1,-1,-1,-1,-1],"split_conditions":[1.5164499E0,1.4248312E-1,1.4058218E0,-8.8274765E-1,2.7389592E-1,-0E0,2.151454E0,-1.247332E0,2.0615502E-1,-3.5021102E-1,-3.143339E-1,1.6630809E0,-0E0,-8.383647E-2,4.9822424E-2,-9.020933E-2,2.5396511E-2,-6.6543564E-2,1.3948101E-1,-6.316743E-2,8.904799E-3,-0E0,9.792477E-2],"split_indices":[22,22,18,14,22,0,15,15,0,15,20,14,0,0,0,0,0,0,0,0,0,0,0],"split_type":[0,0,0,0,0,0,0,0,0,0,0,0,0,0,0,0,0,0,0,0,0,0,0],"sum_hessian":[2.5004008E2,2.0512758E2,4.49125E1,9.8361E1,1.0676658E2,1.232105E0,4.3680393E1,3.545427E1,6.2906734E1,1.6216846E1,9.054973E1,4.2262478E1,1.4179146E0,7.7886477E0,2.7665623E1,5.8978962E1,3.9277713E0,4.225941E0,1.1990905E1,2.2464197E1,6.808553E1,1.3319129E0,4.0930565E1],"tree_param":{"num_deleted":"0","num_feature":"23","num_nodes":"23","size_leaf_vector":"0"}},{"base_weights":[-4.7289036E-2,-4.050152E-1,5.9938633E-1,-2.1799195E-1,-8.296166E-1,2.0974971E-1,9.3038905E-1,-6.6817385E-1,1.18304655E-1,-1.1586114E0,2.82619E-2,5.462369E-1,-2.6421225E-1,-0E0,9.493904E-1,-8.1751746E-1,5.252191E-1,3.1802592E-1,-8.7066513E-1,6.260952E-1,-7.340517E-1,-4.3308187E-1,6.9352007E-1,-7.617315E-1,5.958453E-1,9.6803343E-1,-0E0],"categories":[],"categories_nodes":[],"categories_segments":[],"categories_sizes":[],"default_left":[1,1,1,1,1,1,1,1,1,0,1,1,1,0,1,0,0,0,0,0,0,0,0,0,0,0,0],"id":23,"left_children":[1,3,5,7,9,11,13,15,17,-1,19,21,23,-1,25,-1,-1,-1,-1,-1,-1,-1,-1,-1,-1,-1,-1],"loss_changes":[5.6589867E1,1.1207314E1,9.623993E0,1.806453E1,1.4244904E1,7.5392895E0,6.6544724E-1,1.0168215E1,1.3047313E1,0E0,7.157677E0,4.818941E0,8.885197E0,0E0,3.0062485E-1,0E0,0E0,0E0,0E0,0E0,0E0,0E0,0E0,0E0,0E0,0E0,0E0],"parents":[2147483647,0,0,1,1,2,2,3,3,4,4,5,5,6,6,7,7,8,8,10,10,11,11,12,12,14,14],"right_children":[2,4,6,8,10,12,14,16,18,-1,20,22,24,-1,26,-1,-1,-1,-1,-1,-1,-1,-1,-1,-1,-1,-1],"split_conditions":[3.65996E-1,-4.8564667E-1,1.6413224E0,-4.8303765E-1,8.90955E-1,1.7025685E0,-1.5821238E0,-4.7279513E-3,6.1720145E-1,-1.1586114E-1,1.240037E0,3.867036E-2,1.9030566E0,-0E0,1.6632085E0,-8.175175E-2,5.252191E-2,3.180259E-2,-8.706652E-2,6.2609516E-2,-7.340517E-2,-4.3308187E-2,6.935201E-2,-7.617315E-2,5.958453E-2,9.6803345E-2,-0E0],"split_indices":[2,6,2,11,19,14,4,0,15,0,15,11,6,0,4,0,0,0,0,0,0,0,0,0,0,0,0],"split_type":[0,0,0,0,0,0,0,0,0,0,0,0,0,0,0,0,0,0,0,0,0,0,0,0,0,0,0],"sum_hessian":[2.413669E2,1.5687885E2,8.448805E1,1.12644516E2,4.423432E1,4.1695312E1,4.2792744E1,4.85941E1,6.4050415E1,3.2308594E1,1.1925728E1,2.5439526E1,1.6255785E1,1.0367669E0,4.1755978E1,4.4493916E1,4.1001844E0,5.525895E1,8.791471E0,7.6194577E0,4.30627E0,1.9307777E0,2.3508749E1,1.1179893E1,5.0758924E0,4.0407654E1,1.3483219E0],"tree_param":{"num_deleted":"0","num_feature":"23","num_nodes":"27","size_leaf_vector":"0"}},{"base_weights":[2.9039677E-2,-2.0813549E-1,8.8861674E-1,-6.356514E-2,-6.961103E-1,9.1759294E-1,-0E0,-3.4127176E-1,2.4682978E-1,9.187177E-2,-1.0634867E0,9.333285E-1,-0E0,-0E0,-7.7764314E-1,2.1943603E0,5.484762E-2,-6.9912225E-1,8.6730087E-1,9.532329E-1,-0E0],"categories":[],"categories_nodes":[],"categories_segments":[],"categories_sizes":[],"default_left":[1,1,1,1,1,1,0,1,1,1,0,1,0,0,0,0,0,0,0,0,0],"id":24,"left_children":[1,3,5,7,9,11,-1,13,15,17,-1,19,-1,-1,-1,-1,-1,-1,-1,-1,-1],"loss_changes":[4.949747E1,1.234095E1,1.91296E0,1.30210495E1,1.3020754E1,3.9805984E-1,0E0,1.1671082E1,2.3439821E1,9.965317E0,0E0,2.966919E-1,0E0,0E0,0E0,0E0,0E0,0E0,0E0,0E0,0E0],"parents":[2147483647,0,0,1,1,2,2,3,3,4,4,5,5,7,7,8,8,9,9,11,11],"right_children":[2,4,6,8,10,12,-1,14,16,18,-1,20,-1,-1,-1,-1,-1,-1,-1,-1,-1],"split_conditions":[1.3113244E0,8.3265257E-1,4.316414E0,-2.6513967E-1,-1.4338492E0,2.1213508E0,-0E0,-4.3950605E-1,-4.4364455E-1,-6.2087987E-2,-1.0634867E-1,-9.7395706E-1,-0E0,-0E0,-7.776432E-2,2.1943603E-1,5.484762E-3,-6.9912225E-2,8.6730085E-2,9.532329E-2,-0E0],"split_indices":[19,21,20,20,19,15,0,20,2,0,0,21,0,0,0,0,0,0,0,0,0],"split_type":[0,0,0,0,0,0,0,0,0,0,0,0,0,0,0,0,0,0,0,0,0],"sum_hessian":[2.3563675E2,1.8495592E2,5.0680817E1,1.460084E2,3.8947514E1,4.9678177E1,1.0026404E0,7.8657364E1,6.735104E1,1.1995763E1,2.6951752E1,4.8407284E1,1.2708946E0,4.5823643E1,3.283372E1,3.704322E0,6.3646725E1,5.397314E0,6.598449E0,4.665068E1,1.7566042E0],"tree_param":{"num_deleted":"0","num_feature":"23","num_nodes":"21","size_leaf_vector":"0"}},{"base_weights":[-1.7151024E-2,-2.6214337E-1,8.872455E-1,1.3743387E-1,-4.1464046E-1,-2.184973E-1,9.4359434E-1,-8.627287E-2,1.7743762E0,-7.969812E-1,-1.2344707E-1,9.7778714E-1,-0E0,4.050725E-1,-5.695136E-1,-9.4511765E-1,2.1249413E-1,1.2864887E0,-3.8015684E-1],"categories":[],"categories_nodes":[],"categories_segments":[],"categories_sizes":[],"default_left":[1,1,1,1,1,0,1,1,0,1,1,0,0,0,0,0,0,0,0],"id":25,"left_children":[1,3,5,7,9,-1,11,13,-1,15,17,-1,-1,-1,-1,-1,-1,-1,-1],"loss_changes":[4.9619793E1,1.131024E1,4.0954285E0,2.000692E1,1.3579601E1,0E0,2.0903435E0,1.1226141E1,0E0,9.3918E0,2.858786E1,0E0,0E0,0E0,0E0,0E0,0E0,0E0,0E0],"parents":[2147483647,0,0,1,1,2,2,3,3,4,4,6,6,7,7,9,9,10,10],"right_children":[2,4,6,8,10,-1,12,14,-1,16,18,-1,-1,-1,-1,-1,-1,-1,-1],"split_conditions":[1.3113244E0,-8.22335E-1,4.1927308E-1,-4.144142E-2,1.5415883E-1,-2.1849731E-2,4.316414E0,-8.136586E-1,1.7743762E-1,2.1817738E-1,2.4567446E-1,9.7778715E-2,-0E0,4.0507253E-2,-5.6951363E-2,-9.451177E-2,2.1249413E-2,1.2864886E-1,-3.8015686E-2],"split_indices":[19,14,11,8,18,0,20,19,0,0,18,0,0,0,0,0,0,0,0],"split_type":[0,0,0,0,0,0,0,0,0,0,0,0,0,0,0,0,0,0,0],"sum_hessian":[2.2266794E2,1.7719382E2,4.5474113E1,4.718869E1,1.3000513E2,1.0654224E0,4.440869E1,4.2644527E1,4.5441613E0,5.3219364E1,7.6785774E1,4.3406048E1,1.0026404E0,2.0279285E1,2.2365244E1,4.7384064E1,5.835299E0,9.991387E0,6.679439E1],"tree_param":{"num_deleted":"0","num_feature":"23","num_nodes":"19","size_leaf_vector":"0"}},{"base_weights":[9.208606E-3,-3.3499312E-1,4.828285E-1,-1.6399568E-1,-9.171218E-1,8.6586106E-1,2.1618964E-1,-6.9065195E-1,1.8753782E-1,-1.0588346E0,-0E0,-0E0,8.8734376E-1,6.118008E-1,-1.5274668E-1,7.326814E-1,-8.192775E-1,-8.7518686E-1,4.2228025E-1,5.125871E-1,-3.6553404E-1,-0E0,9.081603E-1,1.0325744E0,-2.774385E-1,-6.0609543E-1,2.888361E-1],"categories":[],"categories_nodes":[],"categories_segments":[],"categories_sizes":[],"default_left":[1,1,1,1,1,1,1,1,1,0,1,0,1,1,1,0,0,0,0,0,0,0,0,0,0,0,0],"id":26,"left_children":[1,3,5,7,9,11,13,15,17,-1,19,-1,21,23,25,-1,-1,-1,-1,-1,-1,-1,-1,-1,-1,-1,-1],"loss_changes":[3.612812E1,1.1222853E1,8.153961E0,1.9579464E1,4.022457E0,5.387783E-1,9.35703E0,9.022415E0,1.5600544E1,0E0,1.4116924E0,0E0,3.592949E-1,1.2743202E1,6.90838E0,0E0,0E0,0E0,0E0,0E0,0E0,0E0,0E0,0E0,0E0,0E0,0E0],"parents":[2147483647,0,0,1,1,2,2,3,3,4,4,5,5,6,6,7,7,8,8,10,10,12,12,13,13,14,14],"right_children":[2,4,6,8,10,12,14,16,18,-1,20,-1,22,24,26,-1,-1,-1,-1,-1,-1,-1,-1,-1,-1,-1,-1],"split_conditions":[1.7391783E-1,-4.709534E-1,-1.5224876E0,-5.0847405E-1,1.1769464E0,1.4058218E0,5.134047E-1,-9.988605E-1,-6.5489674E-1,-1.0588346E-1,1.248373E0,-0E0,1.6192107E0,-1.9169515E-1,1.248173E-1,7.326814E-2,-8.1927754E-2,-8.7518685E-2,4.2228024E-2,5.125871E-2,-3.6553405E-2,-0E0,9.0816036E-2,1.0325744E-1,-2.774385E-2,-6.0609546E-2,2.888361E-2],"split_indices":[11,6,21,11,18,18,8,2,6,0,18,0,14,20,4,0,0,0,0,0,0,0,0,0,0,0,0],"split_type":[0,0,0,0,0,0,0,0,0,0,0,0,0,0,0,0,0,0,0,0,0,0,0,0,0,0,0],"sum_hessian":[2.1672545E2,1.246271E2,9.209834E1,9.96397E1,2.49874E1,3.4415173E1,5.768317E1,4.0251503E1,5.93882E1,2.1834774E1,3.1526265E0,1.0576193E0,3.335755E1,2.850796E1,2.917521E1,1.913234E0,3.833827E1,8.986773E0,5.040143E1,1.5312632E0,1.6213634E0,1.1666932E0,3.219086E1,1.9895779E1,8.612181E0,1.5145567E1,1.4029644E1],"tree_param":{"num_deleted":"0","num_feature":"23","num_nodes":"27","size_leaf_vector":"0"}},{"base_weights":[8.965499E-2,-6.944285E-2,8.885465E-1,-4.8832536E-1,4.263926E-2,9.084159E-1,-0E0,-0E0,-1.0018529E0,2.2045467E0,-3.936552E-2,-4.2034283E-1,2.1134093E0,-8.255026E-1,8.7109886E-2],"categories":[],"categories_nodes":[],"categories_segments":[],"categories_sizes":[],"default_left":[1,1,1,1,1,0,0,1,0,0,1,0,0,0,0],"id":27,"left_children":[1,3,5,7,9,-1,-1,11,-1,-1,13,-1,-1,-1,-1],"loss_changes":[2.858316E1,9.039768E0,1.6286087E-1,1.0256947E1,2.7808893E1,0E0,0E0,2.2075598E1,0E0,0E0,1.4795559E1,0E0,0E0,0E0,0E0],"parents":[2147483647,0,0,1,1,2,2,3,3,4,4,7,7,10,10],"right_children":[2,4,6,8,10,-1,-1,12,-1,-1,14,-1,-1,-1,-1],"split_conditions":[1.6413224E0,-5.4111177E-1,1.6093493E0,-5.9493375E-1,-5.303645E-1,9.084159E-2,-0E0,-5.963954E-1,-1.0018529E-1,2.2045468E-1,-6.5489674E-1,-4.2034283E-2,2.1134093E-1,-8.255026E-2,8.710989E-3],"split_indices":[2,2,4,6,2,0,0,6,0,0,6,0,0,0,0],"split_type":[0,0,0,0,0,0,0,0,0,0,0,0,0,0,0],"sum_hessian":[2.1546838E2,1.8016354E2,3.5304836E1,3.849715E1,1.416664E2,3.3888138E1,1.4167005E0,2.0656776E1,1.7840374E1,3.7310896E0,1.379353E2,1.8526283E1,2.1304944E0,1.8679745E1,1.1925556E2],"tree_param":{"num_deleted":"0","num_feature":"23","num_nodes":"15","size_leaf_vector":"0"}},{"base_weights":[1.0692916E-1,-2.3337124E-2,9.175374E-1,-7.590924E-1,5.866848E-2,2.6027006E-1,-9.2145586E-1,4.445698E-1,-1.4190486E-1,9.896372E-1,-0E0,-8.208346E-1,7.6221526E-2],"categories":[],"categories_nodes":[],"categories_segments":[],"categories_sizes":[],"default_left":[1,1,0,1,1,0,0,1,1,0,0,0,0],"id":28,"left_children":[1,3,-1,5,7,-1,-1,9,11,-1,-1,-1,-1],"loss_changes":[2.382169E1,1.2108733E1,0E0,4.4806633E0,1.3542508E1,0E0,0E0,1.5057181E1,1.7351282E1,0E0,0E0,0E0,0E0],"parents":[2147483647,0,0,1,1,3,3,4,4,7,7,8,8],"right_children":[2,4,-1,6,8,-1,-1,10,12,-1,-1,-1,-1],"split_conditions":[1.5731795E0,-7.2325754E-1,9.175374E-2,-1.8517761E0,-3.3898997E-1,2.6027007E-2,-9.2145585E-2,-4.9831086E-1,-4.144142E-2,9.896372E-2,-0E0,-8.2083456E-2,7.6221526E-3],"split_indices":[22,11,0,22,8,0,0,2,8,0,0,0,0],"split_type":[0,0,0,0,0,0,0,0,0,0,0,0,0],"sum_hessian":[2.1472127E2,1.8560326E2,2.911802E1,1.8179317E1,1.6742393E2,1.4858303E0,1.6693487E1,5.813173E1,1.0929221E2,2.550894E1,3.262279E1,2.6346289E1,8.294592E1],"tree_param":{"num_deleted":"0","num_feature":"23","num_nodes":"13","size_leaf_vector":"0"}},{"base_weights":[-3.358643E-2,-2.3209076E-1,7.4025816E-1,-5.0310886E-1,-2.9565133E-2,7.736281E-1,-0E0,3.6784816E-1,-6.856592E-1,2.3919177E0,-1.7621623E-1,-0E0,8.091233E-1,-6.329931E-1,1.2513E0,-8.3415806E-1,3.6438793E-2,-9.350941E-1,-2.6329065E-2,1.2457054E-1,-0E0,-0E0,8.250975E-1],"categories":[],"categories_nodes":[],"categories_segments":[],"categories_sizes":[],"default_left":[1,1,1,1,1,1,0,1,1,0,1,1,1,0,0,0,0,0,0,0,0,0,0],"id":29,"left_children":[1,3,5,7,9,11,-1,13,15,-1,17,19,21,-1,-1,-1,-1,-1,-1,-1,-1,-1,-1],"loss_changes":[3.1505722E1,8.583725E0,1.2565289E0,1.1797407E1,3.399784E1,6.019001E-1,0E0,1.3090155E1,7.1545906E0,0E0,9.928067E0,4.7688585E-2,1.1323166E-1,0E0,0E0,0E0,0E0,0E0,0E0,0E0,0E0,0E0,0E0],"parents":[2147483647,0,0,1,1,2,2,3,3,4,4,5,5,7,7,8,8,10,10,11,11,12,12],"right_children":[2,4,6,8,10,12,-1,14,16,-1,18,20,22,-1,-1,-1,-1,-1,-1,-1,-1,-1,-1],"split_conditions":[1.2580607E0,-8.339972E-2,2.0186975E0,-1.1565282E0,-7.36839E-2,6.754563E-1,-0E0,-1.247332E0,1.6627282E-1,2.3919177E-1,1.8271506E-1,1.0693166E0,1.3688238E0,-6.329931E-2,1.2513E-1,-8.341581E-2,3.6438794E-3,-9.350941E-2,-2.6329064E-3,1.2457054E-2,-0E0,-0E0,8.250975E-2],"split_indices":[12,18,15,15,18,18,0,15,2,0,18,8,12,0,0,0,0,0,0,0,0,0,0],"split_type":[0,0,0,0,0,0,0,0,0,0,0,0,0,0,0,0,0,0,0,0,0,0,0],"sum_hessian":[2.0417126E2,1.646326E2,3.953866E1,6.7028984E1,9.760362E1,3.813192E1,1.4067402E0,1.0313709E1,5.671527E1,3.4356253E0,9.4168E1,2.524456E0,3.5607464E1,4.5707235E0,5.7429857E0,4.793248E1,8.782792E0,1.270313E1,8.146487E1,1.0731499E0,1.4513061E0,1.275768E0,3.4331696E1],"tree_param":{"num_deleted":"0","num_feature":"23","num_nodes":"23","size_leaf_vector":"0"}},{"base_weights":[7.605599E-2,-3.2784555E-2,8.856488E-1,-9.0894663E-1,3.732455E-2,2.303512E0,-8.748094E-3,-3.392852E-1,1.7049262E-1],"categories":[],"categories_nodes":[],"categories_segments":[],"categories_sizes":[],"default_left":[1,1,0,0,1,0,1,0,0],"id":30,"left_children":[1,3,-1,-1,5,-1,7,-1,-1],"loss_changes":[1.9568018E1,1.2455801E1,0E0,0E0,2.054968E1,0E0,1.0506615E1,0E0,0E0],"parents":[2147483647,0,0,1,1,4,4,6,6],"right_children":[2,4,-1,-1,6,-1,8,-1,-1],"split_conditions":[1.7509849E0,-7.478024E-1,8.856488E-2,-9.089466E-2,-7.433047E-1,2.3035121E-1,-8.439298E-2,-3.392852E-2,1.7049262E-2],"split_indices":[2,2,0,0,2,0,18,0,0],"split_type":[0,0,0,0,0,0,0,0,0],"sum_hessian":[2.0973195E2,1.8548007E2,2.4251867E1,1.3026041E1,1.7245404E2,1.9161056E0,1.7053793E2,6.1295826E1,1.092421E2],"tree_param":{"num_deleted":"0","num_feature":"23","num_nodes":"9","size_leaf_vector":"0"}},{"base_weights":[5.656787E-2,-7.001549E-2,7.513995E-1,-5.676161E-1,5.576198E-2,7.9468983E-1,-0E0,-8.3202225E-1,3.4128782E-1,1.1408265E0,-1.4930247E-1,8.1883466E-1,-0E0,-1.0034285E0,1.0790271E-1,-4.9717492E-1,1.212906E0,1.3185112E0,-2.4114871E-1,5.2305365E-1,-3.2176393E-1],"categories":[],"categories_nodes":[],"categories_segments":[],"categories_sizes":[],"default_left":[1,1,1,1,1,1,0,1,1,1,1,0,0,0,0,0,0,0,0,0,0],"id":31,"left_children":[1,3,5,7,9,11,-1,13,15,17,19,-1,-1,-1,-1,-1,-1,-1,-1,-1,-1],"loss_changes":[1.867597E1,1.1381577E1,1.4751873E0,9.8593445E0,3.20476E1,1.15558624E-1,0E0,5.9134903E0,8.366492E0,7.3483257E0,1.3712961E1,0E0,0E0,0E0,0E0,0E0,0E0,0E0,0E0,0E0,0E0],"parents":[2147483647,0,0,1,1,2,2,3,3,4,4,5,5,7,7,8,8,9,9,10,10],"right_children":[2,4,6,8,10,12,-1,14,16,18,20,-1,-1,-1,-1,-1,-1,-1,-1,-1,-1],"split_conditions":[1.3113244E0,-5.4115665E-1,3.8866386E0,1.0546236E0,-4.5160002E-1,-9.7395706E-1,-0E0,6.1957586E-1,-3.5299444E-1,8.3166444E-1,-1.2216312E0,8.188347E-2,-0E0,-1.0034285E-1,1.0790272E-2,-4.9717493E-2,1.212906E-1,1.3185112E-1,-2.4114871E-2,5.2305367E-2,-3.2176394E-2],"split_indices":[19,2,20,4,2,21,0,18,8,4,19,0,0,0,0,0,0,0,0,0,0],"split_type":[0,0,0,0,0,0,0,0,0,0,0,0,0,0,0,0,0,0,0,0,0],"sum_hessian":[2.0139429E2,1.7066252E2,3.0731766E1,3.462076E1,1.3604176E2,2.9598692E1,1.1330732E0,2.7802292E1,6.8184695E0,2.0948143E1,1.1509362E2,2.793503E1,1.6636624E0,2.4299742E1,3.5025494E0,3.328491E0,3.4899788E0,1.9284166E1,1.6639767E0,2.1481596E1,9.361203E1],"tree_param":{"num_deleted":"0","num_feature":"23","num_nodes":"21","size_leaf_vector":"0"}},{"base_weights":[5.1588964E-2,-6.042361E-2,6.900263E-1,-5.645466E-1,1.7533397E-2,-2.3110768E-1,7.722606E-1,-7.5977033E-1,3.0309957E-1,1.2943337E0,-4.0013567E-2,8.501355E-1,-0E0,-9.181456E-1,3.22339E-1,-1.969743E-1,9.2278564E-1,-8.833898E-1,3.433826E-2],"categories":[],"categories_nodes":[],"categories_segments":[],"categories_sizes":[],"default_left":[1,1,1,1,1,0,1,1,1,0,1,0,0,0,0,0,0,0,0],"id":32,"left_children":[1,3,5,7,9,-1,11,13,15,-1,17,-1,-1,-1,-1,-1,-1,-1,-1],"loss_changes":[1.4703995E1,7.1278315E0,3.223237E0,5.0057287E0,1.1997976E1,0E0,2.4272308E0,4.8235235E0,2.6146882E0,0E0,9.673309E0,0E0,0E0,0E0,0E0,0E0,0E0,0E0,0E0],"parents":[2147483647,0,0,1,1,2,2,3,3,4,4,6,6,7,7,8,8,10,10],"right_children":[2,4,6,8,10,-1,12,14,16,-1,18,-1,-1,-1,-1,-1,-1,-1,-1],"split_conditions":[1.3113244E0,-6.443388E-1,4.2084646E-1,5.44962E-2,-9.8609626E-1,-2.3110768E-2,3.8334622E0,1.9866464E-1,-1.2782934E-1,1.2943338E-1,-6.5387154E-1,8.501355E-2,-0E0,-9.181456E-2,3.22339E-2,-1.9697431E-2,9.227856E-2,-8.833898E-2,3.433826E-3],"split_indices":[19,11,11,17,12,0,20,0,18,0,6,0,0,0,0,0,0,0,0],"split_type":[0,0,0,0,0,0,0,0,0,0,0,0,0,0,0,0,0,0,0],"sum_hessian":[1.9364279E2,1.6494746E2,2.8695318E1,2.2137218E1,1.4281024E2,1.058427E0,2.7636892E1,1.9214981E1,2.9222376E0,5.054698E0,1.3775555E2,2.5814344E1,1.822548E0,1.7832254E1,1.3827268E0,1.4791505E0,1.4430872E0,1.0487094E1,1.27268456E2],"tree_param":{"num_deleted":"0","num_feature":"23","num_nodes":"19","size_leaf_vector":"0"}},{"base_weights":[-1.1806687E-1,-2.4035332E-1,7.6688945E-1,1.6433838E-1,-4.204346E-1,7.982922E-1,-0E0,-8.0197316E-1,4.350517E-1,-2.1779175E-1,-8.5837495E-1,-0E0,8.3263636E-1,-0E0,-9.294485E-1,-4.2490348E-1,7.697387E-1,3.857356E-1,-4.3379277E-1,-1.0022415E0,2.933325E-2],"categories":[],"categories_nodes":[],"categories_segments":[],"categories_sizes":[],"default_left":[1,1,1,1,1,1,0,1,1,1,1,0,0,0,0,0,0,0,0,0,0],"id":33,"left_children":[1,3,5,7,9,11,-1,13,15,17,19,-1,-1,-1,-1,-1,-1,-1,-1,-1,-1],"loss_changes":[2.029164E1,1.2677005E1,4.426899E-1,1.383688E1,9.102644E0,3.6164284E-1,0E0,1.1533966E0,1.32127075E1,1.1533245E1,5.5495014E0,0E0,0E0,0E0,0E0,0E0,0E0,0E0,0E0,0E0,0E0],"parents":[2147483647,0,0,1,1,2,2,3,3,4,4,5,5,7,7,8,8,9,9,10,10],"right_children":[2,4,6,8,10,12,-1,14,16,18,20,-1,-1,-1,-1,-1,-1,-1,-1,-1,-1],"split_conditions":[1.7509849E0,-7.580462E-1,1.6632085E0,-1.5031908E0,2.1973312E-1,-1.5821238E0,-0E0,-2.4911418E0,-3.506739E-1,-3.414315E-1,2.1166742E-1,-0E0,8.3263636E-2,-0E0,-9.294485E-2,-4.249035E-2,7.697387E-2,3.857356E-2,-4.3379277E-2,-1.0022415E-1,2.933325E-3],"split_indices":[2,4,4,4,21,4,0,4,0,8,0,0,0,0,0,0,0,0,0,0,0],"split_type":[0,0,0,0,0,0,0,0,0,0,0,0,0,0,0,0,0,0,0,0,0],"sum_hessian":[1.8696574E2,1.6653952E2,2.042623E1,4.9629745E1,1.16909775E2,1.9391216E1,1.0350122E0,9.193763E0,4.043598E1,8.3534775E1,3.3375E1,1.2066357E0,1.8184582E1,1.5247794E0,7.6689835E0,1.0340303E1,3.0095678E1,2.038261E1,6.3152164E1,2.9467756E1,3.9072425E0],"tree_param":{"num_deleted":"0","num_feature":"23","num_nodes":"21","size_leaf_vector":"0"}},{"base_weights":[9.541655E-2,-1.2449021E-2,7.208726E-1,1.4905909E-1,-3.9940736E-1,-0E0,8.7550247E-1,-1.651371E-2,7.006963E-1,2.0054764E-1,-6.400273E-1,4.431298E-1,-7.1689314E-1,3.1475383E-1,-3.1546366E-1,1.0296034E0,-1.5818858E-1,-3.655764E-1,5.717596E-1,-9.478359E-1,-3.1765442E-2,5.3932816E-1,-0E0],"categories":[],"categories_nodes":[],"categories_segments":[],"categories_sizes":[],"default_left":[1,1,1,1,1,1,0,1,1,1,1,1,0,0,0,0,0,0,0,0,0,0,0],"id":34,"left_children":[1,3,5,7,9,11,-1,13,15,17,19,21,-1,-1,-1,-1,-1,-1,-1,-1,-1,-1,-1],"loss_changes":[1.3515332E1,1.0511603E1,2.6497765E0,1.1131365E1,7.936572E0,2.9760773E0,0E0,8.94789E0,9.046982E0,3.711413E0,5.974573E0,3.2789123E-1,0E0,0E0,0E0,0E0,0E0,0E0,0E0,0E0,0E0,0E0,0E0],"parents":[2147483647,0,0,1,1,2,2,3,3,4,4,5,5,7,7,8,8,9,9,10,10,11,11],"right_children":[2,4,6,8,10,12,-1,14,16,18,20,22,-1,-1,-1,-1,-1,-1,-1,-1,-1,-1,-1],"split_conditions":[1.3113244E0,4.1941786E-4,9.2261654E-1,-2.4488276E-1,-8.4299994E-1,1.8932121E0,8.7550245E-2,-5.699484E-1,-1.5988648E-1,-1.1592791E0,1.1291549E0,8.09863E-1,-7.1689315E-2,3.1475384E-2,-3.1546365E-2,1.0296034E-1,-1.5818859E-2,-3.655764E-2,5.717596E-2,-9.47836E-2,-3.1765443E-3,5.3932816E-2,-0E0],"split_indices":[19,13,18,13,4,6,0,4,0,4,18,4,0,0,0,0,0,0,0,0,0,0,0],"split_type":[0,0,0,0,0,0,0,0,0,0,0,0,0,0,0,0,0,0,0,0,0,0,0],"sum_hessian":[1.8756389E2,1.6028299E2,2.7280901E1,1.1212835E2,4.8154636E1,5.972742E0,2.1308159E1,8.6340706E1,2.5787645E1,1.2690255E1,3.5464382E1,4.7678304E0,1.2049118E0,3.9319664E1,4.7021038E1,1.9201326E1,6.586319E0,3.9708765E0,8.719379E0,2.1715014E1,1.3749368E1,3.6960917E0,1.0717388E0],"tree_param":{"num_deleted":"0","num_feature":"23","num_nodes":"23","size_leaf_vector":"0"}},{"base_weights":[-0E0,3.2461798E-1,-2.4009965E-1,4.279633E-1,-4.1183844E-1,-8.143088E-3,-9.3275654E-1,1.116706E0,2.893565E-1,1.9266461E-1,-8.453881E-1,-6.555801E-1,1.5923686E-1,-1.0344197E0,1.3730602E-1,1.2655498E0,-0E0,4.464913E-1,-8.295321E-1,2.3089774E-1,-0E0,5.3416E-1,-9.286168E-1,-8.62674E-1,4.191127E-1],"categories":[],"categories_nodes":[],"categories_segments":[],"categories_sizes":[],"default_left":[1,1,1,1,1,1,1,1,1,1,0,1,1,0,0,0,0,0,0,0,0,0,0,0,0],"id":35,"left_children":[1,3,5,7,9,11,13,15,17,19,-1,21,23,-1,-1,-1,-1,-1,-1,-1,-1,-1,-1,-1,-1],"loss_changes":[1.4461319E1,6.4531965E0,1.5869095E1,4.847728E0,3.5118728E0,9.542446E0,3.9195538E0,9.740753E-1,1.1623663E1,2.1604389E-2,0E0,7.3538666E0,1.7589186E1,0E0,0E0,0E0,0E0,0E0,0E0,0E0,0E0,0E0,0E0,0E0,0E0],"parents":[2147483647,0,0,1,1,2,2,3,3,4,4,5,5,6,6,7,7,8,8,9,9,11,11,12,12],"right_children":[2,4,6,8,10,12,14,16,18,20,-1,22,24,-1,-1,-1,-1,-1,-1,-1,-1,-1,-1,-1,-1],"split_conditions":[-5.6529814E-1,1.7449722E0,-5.3273374E-1,6.4126956E-1,-1.4749398E0,-6.741613E-1,5.7174075E-1,-5.79603E-1,-7.193414E-1,2.770822E0,-8.453881E-2,-6.7426443E-1,-6.5492606E-1,-1.0344197E-1,1.3730602E-2,1.2655498E-1,-0E0,4.464913E-2,-8.295321E-2,2.3089774E-2,-0E0,5.3416003E-2,-9.286168E-2,-8.6267404E-2,4.191127E-2],"split_indices":[21,15,6,22,21,13,0,21,21,0,0,6,6,0,0,0,0,0,0,0,0,0,0,0,0],"split_type":[0,0,0,0,0,0,0,0,0,0,0,0,0,0,0,0,0,0,0,0,0,0,0,0,0],"sum_hessian":[1.8066641E2,7.794511E1,1.02721306E2,7.027869E1,7.666423E0,7.954916E1,2.317215E1,8.200771E0,6.207791E1,2.7027001E0,4.963722E0,1.6369974E1,6.317918E1,2.2075932E1,1.0962174E0,6.550592E0,1.6501797E0,5.6270958E1,5.806952E0,1.6794808E0,1.0232195E0,2.0149052E0,1.4355069E1,1.1088544E1,5.2090637E1],"tree_param":{"num_deleted":"0","num_feature":"23","num_nodes":"25","size_leaf_vector":"0"}},{"base_weights":[1.3736963E-1,1.88762E-2,5.7700026E-1,3.3047688E-1,-2.2565332E-1,1.2390237E-1,9.290389E-1,1.2883064E-1,1.5610731E0,-9.534542E-1,-3.245581E-2,-3.3488432E-1,7.418278E-1,-7.95734E-1,3.219395E-1,-1.16544284E-1,1.9587786E0,1.1886647E0,-2.0669629E-1,-8.896359E-1,4.7822382E-2],"categories":[],"categories_nodes":[],"categories_segments":[],"categories_sizes":[],"default_left":[1,1,1,1,1,1,0,1,1,0,1,1,0,0,0,0,0,0,0,0,0],"id":36,"left_children":[1,3,5,7,9,11,-1,13,15,-1,17,19,-1,-1,-1,-1,-1,-1,-1,-1,-1],"loss_changes":[9.303503E0,1.1978589E1,4.8697605E0,1.5344625E1,1.0989337E1,6.69168E0,0E0,1.1331923E1,8.313606E0,0E0,1.45746E1,3.5098321E0,0E0,0E0,0E0,0E0,0E0,0E0,0E0,0E0,0E0],"parents":[2147483647,0,0,1,1,2,2,3,3,4,4,5,5,7,7,8,8,10,10,11,11],"right_children":[2,4,6,8,10,12,-1,14,16,-1,18,20,-1,-1,-1,-1,-1,-1,-1,-1,-1],"split_conditions":[1.2078179E0,-3.3898997E-1,1.5419528E-1,-3.6164206E-1,-1.1257067E-1,1.9011004E0,9.290389E-2,-5.468757E-1,-5.208852E-1,-9.534542E-2,-8.789586E-1,1.6420814E0,7.418278E-2,-7.95734E-2,3.219395E-2,-1.1654428E-2,1.9587786E-1,1.18866466E-1,-2.066963E-2,-8.896359E-2,4.7822385E-3],"split_indices":[18,8,4,8,8,6,0,20,15,0,14,20,0,0,0,0,0,0,0,0,0],"split_type":[0,0,0,0,0,0,0,0,0,0,0,0,0,0,0,0,0,0,0,0,0],"sum_hessian":[1.8844974E2,1.5187537E2,3.6574383E1,6.8268394E1,8.3606964E1,1.8416103E1,1.8158278E1,6.1253372E1,7.015021E0,1.4801487E1,6.880548E1,1.0166005E1,8.250098E0,8.610134E0,5.2643238E1,1.1334308E0,5.88159E0,6.421171E0,6.238431E1,4.135373E0,6.030632E0],"tree_param":{"num_deleted":"0","num_feature":"23","num_nodes":"21","size_leaf_vector":"0"}},{"base_weights":[5.7149403E-2,-1.3274461E-2,7.531671E-1,4.3606404E-2,-8.4551793E-1,-8.4770364E-1,1.0783431E-1,-9.3755335E-1,-0E0,3.1760618E-1,-1.05942875E-1],"categories":[],"categories_nodes":[],"categories_segments":[],"categories_sizes":[],"default_left":[1,1,0,1,1,0,1,0,0,0,0],"id":37,"left_children":[1,3,-1,5,7,-1,9,-1,-1,-1,-1],"loss_changes":[9.678622E0,8.72898E0,0E0,8.376954E0,9.630022E-1,0E0,6.933499E0,0E0,0E0,0E0,0E0],"parents":[2147483647,0,0,1,1,3,3,4,4,6,6],"right_children":[2,4,-1,6,8,-1,10,-1,-1,-1,-1],"split_conditions":[1.5731795E0,1.3200822E0,7.531671E-2,-1.5031908E0,1.9017282E0,-8.477037E-2,-1.2956645E-1,-9.3755335E-2,-0E0,3.1760618E-2,-1.0594288E-2],"split_indices":[22,4,0,4,6,0,11,0,0,0,0],"split_type":[0,0,0,0,0,0,0,0,0,0,0],"sum_hessian":[1.7995462E2,1.638965E2,1.6058123E1,1.5406064E2,9.835857E0,7.66902E0,1.4639162E2,8.7217245E0,1.1141328E0,7.5758705E1,7.063291E1],"tree_param":{"num_deleted":"0","num_feature":"23","num_nodes":"11","size_leaf_vector":"0"}},{"base_weights":[2.4527598E-3,-7.437541E-2,7.4571407E-1,1.21312454E-1,-3.9124265E-1,7.876118E-1,-0E0,-8.2395554E-1,2.51839E-1,-4.797147E-1,4.1558284E-1,2.0929384E0,1.4749245E-1,-2.3768663E-1,-1.2053405E0,4.9773008E-1,-0E0],"categories":[],"categories_nodes":[],"categories_segments":[],"categories_sizes":[],"default_left":[1,1,1,1,1,0,0,0,1,1,1,0,0,0,0,0,0],"id":38,"left_children":[1,3,5,7,9,-1,-1,-1,11,13,15,-1,-1,-1,-1,-1,-1],"loss_changes":[1.0869266E1,1.0329093E1,5.091429E-1,1.2047791E1,5.0152807E0,0E0,0E0,0E0,1.4312922E1,8.436831E0,4.7234178E-2,0E0,0E0,0E0,0E0,0E0,0E0],"parents":[2147483647,0,0,1,1,2,2,3,3,4,4,8,8,9,9,10,10],"right_children":[2,4,6,8,10,-1,-1,-1,12,14,16,-1,-1,-1,-1,-1,-1],"split_conditions":[1.6413224E0,-4.7271815E-1,1.9062417E0,-7.478024E-1,1.9030566E0,7.876118E-2,-0E0,-8.239555E-2,-7.433047E-1,1.8820179E0,2.472651E-1,2.0929384E-1,1.4749246E-2,-2.3768663E-2,-1.20534055E-1,4.9773008E-2,-0E0],"split_indices":[2,6,15,2,6,0,0,0,2,6,4,0,0,0,0,0,0],"split_type":[0,0,0,0,0,0,0,0,0,0,0,0,0,0,0,0,0],"sum_hessian":[1.7464445E2,1.5869516E2,1.5949287E1,9.691916E1,6.177601E1,1.4911181E1,1.0381062E0,9.540544E0,8.737862E1,5.751907E1,4.256939E0,2.1282902E0,8.525032E1,4.6156944E1,1.1362124E1,2.5527005E0,1.7042385E0],"tree_param":{"num_deleted":"0","num_feature":"23","num_nodes":"17","size_leaf_vector":"0"}},{"base_weights":[1.5138078E-1,2.1907827E-1,-5.1329696E-1,-1.9020888E-1,3.2885033E-1,-8.714957E-1,1.7574295E-1,5.8868396E-1,-9.3569124E-1,1.707145E0,2.279792E-1,5.025107E-1,-1.3064691E-1,-3.9626127E-1,8.5480183E-1,-8.533963E-1,3.3160225E-1],"categories":[],"categories_nodes":[],"categories_segments":[],"categories_sizes":[],"default_left":[1,1,1,1,1,0,1,1,0,0,1,0,0,0,0,0,0],"id":39,"left_children":[1,3,5,7,9,-1,11,13,-1,-1,15,-1,-1,-1,-1,-1,-1],"loss_changes":[8.126348E0,7.8147974E0,4.968079E0,2.1704224E1,1.6081253E1,0E0,1.1244699E0,5.757401E0,0E0,0E0,1.4493755E1,0E0,0E0,0E0,0E0,0E0,0E0],"parents":[2147483647,0,0,1,1,2,2,3,3,4,4,6,6,7,7,10,10],"right_children":[2,4,6,8,10,-1,12,14,-1,-1,16,-1,-1,-1,-1,-1,-1],"split_conditions":[1.1776508E0,-6.3609326E-1,3.155519E-1,-8.4350824E-1,-6.3376206E-1,-8.7149575E-2,2.5303369E0,-3.517983E-1,-9.356912E-2,1.707145E-1,-9.62775E-1,5.0251074E-2,-1.3064692E-2,-3.962613E-2,8.548018E-2,-8.533963E-2,3.3160225E-2],"split_indices":[4,6,20,4,6,0,20,0,0,0,14,0,0,0,0,0,0],"split_type":[0,0,0,0,0,0,0,0,0,0,0,0,0,0,0,0,0],"sum_hessian":[1.801379E2,1.6606903E2,1.406886E1,3.288424E1,1.331848E2,9.863171E0,4.205689E0,1.5631464E1,1.7252773E1,6.2345643E0,1.2695023E2,2.9950502E0,1.2106386E0,2.3176494E0,1.3313815E1,8.991929E0,1.17958305E2],"tree_param":{"num_deleted":"0","num_feature":"23","num_nodes":"17","size_leaf_vector":"0"}},{"base_weights":[6.1554007E-2,-4.3873942E-1,1.757453E-1,1.736788E-1,-7.742788E-1,-8.604684E-1,2.5512052E-1,6.394473E-1,-5.3745717E-2,-0E0,-9.154099E-1,8.1791997E-1,6.6132285E-2,-5.494097E-1,3.2956073E-1,-4.030032E-1,4.0898955E-1,1.2218894E0,-2.7618203E-1,-7.319986E-1,2.6037592E-1],"categories":[],"categories_nodes":[],"categories_segments":[],"categories_sizes":[],"default_left":[1,1,1,1,1,0,1,0,1,1,0,1,1,0,0,0,0,0,0,0,0],"id":40,"left_children":[1,3,5,7,9,-1,11,-1,13,15,-1,17,19,-1,-1,-1,-1,-1,-1,-1,-1],"loss_changes":[9.931123E0,7.3636518E0,1.1853467E1,1.9006547E0,2.1410608E0,0E0,1.3704794E1,0E0,2.1602995E0,1.2608746E0,0E0,1.6307745E1,1.649003E1,0E0,0E0,0E0,0E0,0E0,0E0,0E0,0E0],"parents":[2147483647,0,0,1,1,2,2,3,3,4,4,6,6,8,8,9,9,11,11,12,12],"right_children":[2,4,6,8,10,-1,12,-1,14,16,-1,18,20,-1,-1,-1,-1,-1,-1,-1,-1],"split_conditions":[-5.923273E-1,-1.2651341E0,-1.0547175E0,-6.6925967E-1,-2.2443E-1,-8.604684E-2,-3.3898997E-1,6.394473E-2,1.489197E-1,-2.3610133E-1,-9.154099E-2,-5.712116E-1,-2.8894466E-1,-5.494097E-2,3.2956075E-2,-4.030032E-2,4.0898956E-2,1.2218894E-1,-2.7618203E-2,-7.319986E-2,2.6037592E-2],"split_indices":[8,18,18,6,21,0,8,0,2,21,0,6,13,0,0,0,0,0,0,0,0],"split_type":[0,0,0,0,0,0,0,0,0,0,0,0,0,0,0,0,0,0,0,0,0],"sum_hessian":[1.7374046E2,2.9602936E1,1.4413753E2,9.764858E0,1.9838078E1,7.958812E0,1.3617871E2,3.4575114E0,6.3073463E0,3.6595526E0,1.6178524E1,3.1229975E1,1.04948746E2,3.5102887E0,2.7970579E0,2.1880128E0,1.4715396E0,2.3305433E1,7.924541E0,1.8450811E1,8.649793E1],"tree_param":{"num_deleted":"0","num_feature":"23","num_nodes":"21","size_leaf_vector":"0"}},{"base_weights":[4.024915E-2,-6.503528E-2,5.090334E-1,1.585793E-1,-2.9023772E-1,9.392101E-2,8.129907E-1,-8.2636386E-1,3.4305298E-1,1.9464757E-1,-5.5383646E-1,-5.5838734E-1,6.6416776E-1,4.7395834E-1,-4.3318862E-1,5.592732E-1,-7.215517E-1,2.0270124E-1,-6.811949E-1,-9.434724E-1,1.117591E-1,1.0710375E0,-1.4319643E-1],"categories":[],"categories_nodes":[],"categories_segments":[],"categories_sizes":[],"default_left":[1,1,1,1,1,1,0,0,1,1,1,1,1,0,0,0,0,0,0,0,0,0,0],"id":41,"left_children":[1,3,5,7,9,11,-1,-1,13,15,17,19,21,-1,-1,-1,-1,-1,-1,-1,-1,-1,-1],"loss_changes":[9.008346E0,7.305876E0,3.1731768E0,1.2735425E1,9.905731E0,7.4807463E0,0E0,0E0,6.6412854E0,9.281833E0,5.490267E0,3.2584019E0,4.9288406E0,0E0,0E0,0E0,0E0,0E0,0E0,0E0,0E0,0E0,0E0],"parents":[2147483647,0,0,1,1,2,2,3,3,4,4,5,5,8,8,9,9,10,10,11,11,12,12],"right_children":[2,4,6,8,10,12,-1,-1,14,16,18,20,22,-1,-1,-1,-1,-1,-1,-1,-1,-1,-1],"split_conditions":[1.2107854E0,-2.641899E-1,1.2139809E0,-1.3979995E0,-4.1094053E-1,2.320845E-1,8.1299074E-2,-8.2636386E-2,4.0858135E-1,2.4002236E-1,-1.3857884E0,2.4868283E0,1.1684582E0,4.7395837E-2,-4.3318864E-2,5.5927318E-2,-7.215517E-2,2.0270124E-2,-6.811949E-2,-9.434724E-2,1.117591E-2,1.0710376E-1,-1.4319643E-2],"split_indices":[18,4,19,4,20,4,0,0,8,18,22,11,22,0,0,0,0,0,0,0,0,0,0],"split_type":[0,0,0,0,0,0,0,0,0,0,0,0,0,0,0,0,0,0,0,0,0,0,0],"sum_hessian":[1.7018152E2,1.3863483E2,3.154669E1,6.7631454E1,7.100337E1,1.5832407E1,1.5714283E1,8.715834E0,5.891562E1,2.385395E1,4.714942E1,6.5862856E0,9.246121E0,5.218264E1,6.732981E0,1.8401285E1,5.4526653E0,5.491811E0,4.165761E1,4.6123757E0,1.9739101E0,6.537159E0,2.7089624E0],"tree_param":{"num_deleted":"0","num_feature":"23","num_nodes":"23","size_leaf_vector":"0"}},{"base_weights":[-3.244567E-4,-3.8413835E-1,1.5982683E-1,-8.2089216E-1,5.7172213E-2,1.1502023E0,6.296957E-2,-9.849233E-1,-0E0,4.2782122E-1,-7.406149E-1,-5.85887E-1,1.4555319E-1,8.447707E-1,-5.0893325E-1,-6.2308854E-1,8.8942266E-1,1.8749554E-1,-8.086502E-1,3.7685198E-1,-9.3053006E-2],"categories":[],"categories_nodes":[],"categories_segments":[],"categories_sizes":[],"default_left":[1,1,1,1,1,0,1,0,1,1,0,1,1,0,0,0,0,0,0,0,0],"id":42,"left_children":[1,3,5,7,9,-1,11,-1,13,15,-1,17,19,-1,-1,-1,-1,-1,-1,-1,-1],"loss_changes":[1.0920392E1,1.1086294E1,1.0243457E1,4.266634E0,8.342524E0,0E0,5.796275E0,0E0,3.66882E0,1.1390025E1,0E0,2.9594154E0,6.0600815E0,0E0,0E0,0E0,0E0,0E0,0E0,0E0,0E0],"parents":[2147483647,0,0,1,1,2,2,3,3,4,4,6,6,8,8,9,9,11,11,12,12],"right_children":[2,4,6,8,10,-1,12,-1,14,16,-1,18,20,-1,-1,-1,-1,-1,-1,-1,-1],"split_conditions":[-3.4773284E-1,-4.394797E-1,-4.476491E-1,6.193887E-1,-4.9616444E-1,1.1502023E-1,-6.5489674E-1,-9.849233E-2,6.295755E-1,-5.5511415E-1,-7.406149E-2,-2.0620325E0,1.7488952E-1,8.4477074E-2,-5.0893325E-2,-6.2308855E-2,8.894227E-2,1.8749556E-2,-8.086502E-2,3.7685197E-2,-9.305301E-3],"split_indices":[0,14,2,18,2,0,6,0,18,20,0,18,8,0,0,0,0,0,0,0,0],"split_type":[0,0,0,0,0,0,0,0,0,0,0,0,0,0,0,0,0,0,0,0,0],"sum_hessian":[1.700121E2,5.1068863E1,1.1894324E2,2.5941223E1,2.512764E1,7.738754E0,1.1120448E2,2.1807688E1,4.1335354E0,1.8645811E1,6.4818287E0,9.812231E0,1.0139225E2,1.4360845E0,2.6974509E0,4.815805E0,1.3830006E1,1.2612E0,8.551032E0,5.302418E1,4.8368073E1],"tree_param":{"num_deleted":"0","num_feature":"23","num_nodes":"21","size_leaf_vector":"0"}},{"base_weights":[7.562939E-2,-6.9606614E-1,1.5496477E-1,1.8081343E-1,-8.693111E-1,1.3065684E0,9.309749E-2,2.5021497E-2,6.3875115E-1,1.5690526E-1,-2.7443492E-1,-0E0,6.79677E-1],"categories":[],"categories_nodes":[],"categories_segments":[],"categories_sizes":[],"default_left":[1,1,1,0,0,0,1,1,1,0,0,0,0],"id":43,"left_children":[1,3,5,-1,-1,-1,7,9,11,-1,-1,-1,-1],"loss_changes":[1.0350571E1,3.349218E0,9.823016E0,0E0,0E0,0E0,5.0881033E0,5.5824137E0,3.7175894E-1,0E0,0E0,0E0,0E0],"parents":[2147483647,0,0,1,1,2,2,6,6,7,7,8,8],"right_children":[2,4,6,-1,-1,-1,8,10,12,-1,-1,-1,-1],"split_conditions":[-6.5489674E-1,-2.089953E0,-6.525637E-1,1.8081343E-2,-8.693111E-2,1.3065684E-1,1.7509849E0,-1.7516677E-1,-1.5168943E0,1.5690526E-2,-2.7443493E-2,-0E0,6.7967705E-2],"split_indices":[6,18,6,0,0,0,2,20,4,0,0,0,0],"split_type":[0,0,0,0,0,0,0,0,0,0,0,0,0],"sum_hessian":[1.7237862E2,1.3445178E1,1.5893344E2,1.2514443E0,1.2193733E1,5.227465E0,1.5370598E2,1.401457E2,1.35602665E1,1.0027499E2,3.9870716E1,1.012725E0,1.2547541E1],"tree_param":{"num_deleted":"0","num_feature":"23","num_nodes":"13","size_leaf_vector":"0"}},{"base_weights":[1.349728E-1,1.8160406E-1,-6.476675E-1,-4.2400602E-1,2.4722868E-1,-8.209049E-1,-0E0,1.4648317E-1,-8.121121E-1,-5.986601E-1,2.8739518E-1,5.9045494E-1,-2.7124253E-1,7.365549E-1,1.8436544E-1],"categories":[],"categories_nodes":[],"categories_segments":[],"categories_sizes":[],"default_left":[1,1,1,1,1,0,0,1,0,0,1,0,0,0,0],"id":44,"left_children":[1,3,5,7,9,-1,-1,11,-1,-1,13,-1,-1,-1,-1],"loss_changes":[6.433606E0,6.9922256E0,1.6941023E0,4.5273166E0,5.4942875E0,0E0,0E0,1.9892144E0,0E0,0E0,6.0236874E0,0E0,0E0,0E0,0E0],"parents":[2147483647,0,0,1,1,2,2,3,3,4,4,7,7,10,10],"right_children":[2,4,6,8,10,-1,-1,12,-1,-1,14,-1,-1,-1,-1],"split_conditions":[1.4817889E0,-6.5489674E-1,1.9036031E0,-6.696641E-1,-7.965205E-1,-8.209049E-2,-0E0,-1.1031411E0,-8.121121E-2,-5.986601E-2,-6.3243437E-1,5.9045494E-2,-2.7124254E-2,7.365549E-2,1.8436544E-2],"split_indices":[4,6,6,6,11,0,0,14,0,0,6,0,0,0,0],"split_type":[0,0,0,0,0,0,0,0,0,0,0,0,0,0,0],"sum_hessian":[1.8060966E2,1.7310913E2,7.5005393E0,1.4366747E1,1.5874239E2,6.4277363E0,1.0728034E0,5.277584E0,9.089163E0,4.806856E0,1.5393553E2,3.318014E0,1.95957E0,2.4616348E1,1.2931918E2],"tree_param":{"num_deleted":"0","num_feature":"23","num_nodes":"15","size_leaf_vector":"0"}},{"base_weights":[3.6639307E-2,-3.248005E-2,5.6648105E-1,4.3998938E-4,-7.6638055E-1,-2.2420532E-1,6.8222344E-1,-7.479459E-1,4.975162E-2,8.678858E-1,2.5627652E-2,3.9180556E-1,-6.356857E-2,-4.5626387E-1,5.0150365E-1],"categories":[],"categories_nodes":[],"categories_segments":[],"categories_sizes":[],"default_left":[1,1,1,1,0,0,1,0,1,0,1,0,0,0,0],"id":45,"left_children":[1,3,5,7,-1,-1,9,-1,11,-1,13,-1,-1,-1,-1],"loss_changes":[6.8853126E0,4.456991E0,2.7475748E0,4.7968693E0,0E0,0E0,1.5617342E0,0E0,5.8408513E0,0E0,2.2842977E0,0E0,0E0,0E0,0E0],"parents":[2147483647,0,0,1,1,2,2,3,3,6,6,8,8,10,10],"right_children":[2,4,6,8,-1,-1,10,-1,12,-1,14,-1,-1,-1,-1],"split_conditions":[1.3113244E0,1.4817889E0,4.2084646E-1,-1.5031908E0,-7.663806E-2,-2.2420531E-2,2.002611E0,-7.479459E-2,-8.22335E-1,8.678859E-2,2.1471224E0,3.918056E-2,-6.3568573E-3,-4.5626387E-2,5.0150365E-2],"split_indices":[19,4,11,4,0,0,19,0,14,0,19,0,0,0,0],"split_type":[0,0,0,0,0,0,0,0,0,0,0,0,0,0,0],"sum_hessian":[1.704225E2,1.5074716E2,1.9675352E1,1.448844E2,5.8627553E0,1.1698066E0,1.8505545E1,5.95115E0,1.3893324E2,1.2737286E1,5.768259E0,3.554653E1,1.0338672E2,1.862874E0,3.905385E0],"tree_param":{"num_deleted":"0","num_feature":"23","num_nodes":"15","size_leaf_vector":"0"}},{"base_weights":[5.680909E-2,-2.6170075E-2,5.949321E-1,2.9333618E-1,-1.4375225E-1,7.392532E-1,-0E0,-7.257599E-1,5.4844E-1,-5.7863224E-1,1.0684436E-1,7.740752E-1,-0E0,2.030456E-1,-4.8294532E-1,3.161864E-1,1.5971221E0,-8.99732E-1,2.1917042E-1,7.6695323E-1,-9.340409E-2,-0E0,8.080918E-1],"categories":[],"categories_nodes":[],"categories_segments":[],"categories_sizes":[],"default_left":[1,1,1,1,1,1,1,0,1,1,1,1,0,0,0,0,0,0,0,0,0,0,0],"id":46,"left_children":[1,3,5,7,9,11,13,-1,15,17,19,21,-1,-1,-1,-1,-1,-1,-1,-1,-1,-1,-1],"loss_changes":[8.389215E0,5.6241393E0,2.721075E0,1.0786256E1,1.3055265E1,4.8033428E-1,9.852777E-1,0E0,5.16376E0,1.2235962E1,1.0435172E1,3.132038E-1,0E0,0E0,0E0,0E0,0E0,0E0,0E0,0E0,0E0,0E0,0E0],"parents":[2147483647,0,0,1,1,2,2,3,3,4,4,5,5,6,6,8,8,9,9,10,10,11,11],"right_children":[2,4,6,8,10,12,14,-1,16,18,20,22,-1,-1,-1,-1,-1,-1,-1,-1,-1,-1,-1],"split_conditions":[1.3550191E0,-8.8532543E-1,3.8652027E0,-1.247332E0,2.2813607E-2,1.7871015E0,2.5091057E0,-7.2575994E-2,-3.2987666E-1,6.802143E-1,2.425074E-1,6.619021E-1,-0E0,2.030456E-2,-4.8294533E-2,3.161864E-2,1.5971221E-1,-8.9973204E-2,2.1917043E-2,7.669532E-2,-9.340409E-3,-0E0,8.080918E-2],"split_indices":[12,14,20,15,15,15,12,0,15,19,15,18,0,0,0,0,0,0,0,0,0,0,0],"split_type":[0,0,0,0,0,0,0,0,0,0,0,0,0,0,0,0,0,0,0,0,0,0,0],"sum_hessian":[1.7244104E2,1.4944142E2,2.299961E1,3.7109512E1,1.1233192E2,1.917043E1,3.829181E0,5.9060316E0,3.1203482E1,4.1568047E1,7.076387E1,1.8110195E1,1.0602359E0,2.3788161E0,1.450365E0,2.8457535E1,2.7459478E0,3.0350494E1,1.1217553E1,1.631525E1,5.4448616E1,1.1778107E0,1.6932384E1],"tree_param":{"num_deleted":"0","num_feature":"23","num_nodes":"23","size_leaf_vector":"0"}},{"base_weights":[3.15272E-2,-7.5418174E-1,9.2100576E-2,-8.3791465E-1,-0E0,8.921576E-1,1.2096777E-2,1.1060097E0,-7.0500545E-2,-8.051629E-1,6.135811E-2,1.3111805E0,1.2328599E-1,1.0691749E-1,-6.005843E-1],"categories":[],"categories_nodes":[],"categories_segments":[],"categories_sizes":[],"default_left":[1,1,1,0,0,1,1,1,0,0,1,0,0,0,0],"id":47,"left_children":[1,3,5,-1,-1,7,9,11,-1,-1,13,-1,-1,-1,-1],"loss_changes":[7.636384E0,7.904706E-1,9.452147E0,0E0,0E0,3.9862232E0,5.41649E0,6.774349E-1,0E0,0E0,4.0080543E0,0E0,0E0,0E0,0E0],"parents":[2147483647,0,0,1,1,2,2,5,5,6,6,7,7,10,10],"right_children":[2,4,6,-1,-1,8,10,12,-1,-1,14,-1,-1,-1,-1],"split_conditions":[-1.3329451E0,4.6431768E-1,-1.1624E0,-8.3791465E-2,-0E0,-2.3260081E-1,-9.7530985E-1,-1.1752791E0,-7.0500546E-3,-8.051629E-2,1.4817889E0,1.3111804E-1,1.2328599E-2,1.069175E-2,-6.0058434E-2],"split_indices":[15,12,15,0,0,20,15,14,0,0,4,0,0,0,0],"split_type":[0,0,0,0,0,0,0,0,0,0,0,0,0,0,0],"sum_hessian":[1.6944406E2,9.307274E0,1.6013678E2,8.286178E0,1.0210961E0,1.1575613E1,1.4856117E2,1.0077816E1,1.4977965E0,5.546915E0,1.4301425E2,6.9423647E0,3.1354518E0,1.367873E2,6.2269683E0],"tree_param":{"num_deleted":"0","num_feature":"23","num_nodes":"15","size_leaf_vector":"0"}},{"base_weights":[-4.533491E-2,-1.08740985E-1,6.300787E-1,3.3274776E-1,-1.8156545E-1,-3.5288835E-1,1.2044342E0,-6.57615E-1,-0E0,7.9001474E-1,-7.869285E-1,1.6203518E-1,1.4973013E0,7.525478E-1,-7.99585E-1,6.736726E-1,-1.5286365E-1],"categories":[],"categories_nodes":[],"categories_segments":[],"categories_sizes":[],"default_left":[1,1,0,1,1,1,1,1,1,0,0,0,0,0,0,0,0],"id":48,"left_children":[1,3,-1,5,7,9,11,13,15,-1,-1,-1,-1,-1,-1,-1,-1],"loss_changes":[6.5035534E0,4.7952895E0,0E0,1.3663225E1,1.1099314E1,7.246274E0,8.798399E-1,8.404451E0,1.0082599E1,0E0,0E0,0E0,0E0,0E0,0E0,0E0,0E0],"parents":[2147483647,0,0,1,1,3,3,4,4,5,5,6,6,7,7,8,8],"right_children":[2,4,-1,6,8,10,12,14,16,-1,-1,-1,-1,-1,-1,-1,-1],"split_conditions":[1.5731795E0,-7.0984614E-1,6.300787E-2,-7.478024E-1,-3.4790698E-1,-1.0170188E0,-3.917345E-2,-6.329315E-1,-3.3640388E-1,7.900148E-2,-7.8692846E-2,1.6203519E-2,1.4973013E-1,7.525478E-2,-7.99585E-2,6.736726E-2,-1.52863655E-2],"split_indices":[22,2,0,2,0,0,14,20,2,0,0,0,0,0,0,0,0],"split_type":[0,0,0,0,0,0,0,0,0,0,0,0,0,0,0,0,0],"sum_hessian":[1.5883615E2,1.4809221E2,1.0743937E1,1.8014097E1,1.3007811E2,1.01072445E1,7.9068527E0,3.373392E1,9.634419E1,1.6963202E0,8.410924E0,3.1645098E0,4.742343E0,1.6545297E0,3.207939E1,1.5975401E1,8.036879E1],"tree_param":{"num_deleted":"0","num_feature":"23","num_nodes":"17","size_leaf_vector":"0"}},{"base_weights":[-3.7040073E-2,-1.9266874E-1,4.5519957E-1,2.8225416E-1,-4.2805123E-1,-6.4727795E-1,6.494224E-1,-0E0,1.045464E0,-8.961548E-1,-1.5149102E-1,9.7983533E-1,2.2173211E-1,3.2007807E-1,-8.033686E-1,-0E0,1.3937488E0,-0E0,-9.8193985E-1,7.657431E-1,-5.172001E-1,3.727697E-2,1.1203787E0,4.9528325E-1,-6.737404E-1],"categories":[],"categories_nodes":[],"categories_segments":[],"categories_sizes":[],"default_left":[1,1,1,1,1,0,1,1,1,1,1,1,1,0,0,0,0,0,0,0,0,0,0,0,0],"id":49,"left_children":[1,3,5,7,9,-1,11,13,15,17,19,21,23,-1,-1,-1,-1,-1,-1,-1,-1,-1,-1,-1,-1],"loss_changes":[1.1878483E1,1.3983553E1,8.673886E0,8.404731E0,9.493528E0,0E0,3.0080252E0,8.503202E0,4.8976393E0,2.2484684E0,1.9413012E1,9.626303E-1,4.9538693E0,0E0,0E0,0E0,0E0,0E0,0E0,0E0,0E0,0E0,0E0,0E0,0E0],"parents":[2147483647,0,0,1,1,2,2,3,3,4,4,6,6,7,7,8,8,9,9,10,10,11,11,12,12],"right_children":[2,4,6,8,10,-1,12,14,16,18,20,22,24,-1,-1,-1,-1,-1,-1,-1,-1,-1,-1,-1,-1],"split_conditions":[9.553908E-1,-8.22335E-1,2.8549844E-1,-2.6715185E-2,6.422101E-2,-6.47278E-2,1.8878497E0,-6.0689664E-1,-9.0426147E-1,-1.4524026E0,2.4567856E-1,2.9291517E-1,-1.2910192E0,3.200781E-2,-8.033686E-2,-0E0,1.3937488E-1,-0E0,-9.819399E-2,7.657431E-2,-5.1720012E-2,3.7276968E-3,1.12037875E-1,4.9528327E-2,-6.737404E-2],"split_indices":[19,14,11,12,18,0,6,6,4,22,18,15,21,0,0,0,0,0,0,0,0,0,0,0,0],"split_type":[0,0,0,0,0,0,0,0,0,0,0,0,0,0,0,0,0,0,0,0,0,0,0,0,0],"sum_hessian":[1.5419553E2,1.1962353E2,3.4572E1,3.8101276E1,8.1522255E1,3.7083068E0,3.0863693E1,2.9488697E1,8.612578E0,2.7269516E1,5.425274E1,1.4636282E1,1.6227411E1,2.214663E1,7.3420677E0,2.1200008E0,6.4925776E0,2.5588028E0,2.4710714E1,1.4061926E1,4.019081E1,3.1508331E0,1.1485449E1,1.3970272E1,2.2571385E0],"tree_param":{"num_deleted":"0","num_feature":"23","num_nodes":"25","size_leaf_vector":"0"}},{"base_weights":[-0E0,-8.4718876E-2,5.3311175E-1,2.1299277E-1,-3.563887E-1,-0E0,6.317402E-1,-2.2083518E-1,5.691139E-1,1.3324037E-1,-5.144858E-1,2.7464426E-1,-3.80312E-1,-0E0,6.594465E-1,7.7869296E-1,-7.115928E-1,8.311319E-1,-6.7281926E-1,-4.7343802E-1,3.9283356E-1,-8.989059E-1,-0E0,-0E0,6.866038E-1],"categories":[],"categories_nodes":[],"categories_segments":[],"categories_sizes":[],"default_left":[1,1,1,1,1,1,1,1,1,1,1,0,0,0,1,0,0,0,0,0,0,0,0,0,0],"id":50,"left_children":[1,3,5,7,9,11,13,15,17,19,21,-1,-1,-1,23,-1,-1,-1,-1,-1,-1,-1,-1,-1,-1],"loss_changes":[7.1548953E0,1.117388E1,1.3091855E0,1.0436686E1,6.1562643E0,7.574384E-1,2.372179E-1,1.5207201E1,1.3249412E1,3.0981069E0,1.04823065E1,0E0,0E0,0E0,7.163715E-2,0E0,0E0,0E0,0E0,0E0,0E0,0E0,0E0,0E0,0E0],"parents":[2147483647,0,0,1,1,2,2,3,3,4,4,5,5,6,6,7,7,8,8,9,9,10,10,14,14],"right_children":[2,4,6,8,10,12,14,16,18,20,22,-1,-1,-1,24,-1,-1,-1,-1,-1,-1,-1,-1,-1,-1],"split_conditions":[1.3550191E0,-3.358541E-1,1.0371014E0,-5.4111177E-1,-1.2215977E0,1.8768032E0,1.5630219E0,-5.3316027E-1,-2.2811064E-1,-1.3748756E-1,7.7169347E-1,2.7464425E-2,-3.80312E-2,-0E0,-1.4162319E0,7.7869296E-2,-7.115928E-2,8.3113186E-2,-6.7281924E-2,-4.73438E-2,3.9283358E-2,-8.989059E-2,-0E0,-0E0,6.866038E-2],"split_indices":[12,2,18,2,19,6,14,18,14,2,22,0,0,0,4,0,0,0,0,0,0,0,0,0,0],"split_type":[0,0,0,0,0,0,0,0,0,0,0,0,0,0,0,0,0,0,0,0,0,0,0,0,0],"sum_hessian":[1.5228314E2,1.3250504E2,1.97781E1,6.167214E1,7.08329E1,2.9888752E0,1.6789223E1,2.6879358E1,3.479278E1,1.5821794E1,5.5011105E1,1.661627E0,1.3272482E0,1.0001756E0,1.5789048E1,7.794061E0,1.9085297E1,2.9942404E1,4.8503785E0,3.093187E0,1.2728606E1,2.964838E1,2.5362722E1,1.2274328E0,1.4561615E1],"tree_param":{"num_deleted":"0","num_feature":"23","num_nodes":"25","size_leaf_vector":"0"}},{"base_weights":[4.1827206E-2,-4.6284187E-1,1.5324816E-1,7.2307825E-2,-9.1756314E-1,8.874015E-1,-0E0,-3.7755552E-1,9.594719E-1,1.0222785E0,-1.8027796E-1,-6.920968E-1,1.4164494E-1,4.0353354E-2,-6.439898E-1,1.1379405E0,-6.233294E-2,-9.286366E-1,2.9973927E-1,1.004058E0,4.7377925E-2],"categories":[],"categories_nodes":[],"categories_segments":[],"categories_sizes":[],"default_left":[1,1,1,1,0,1,1,1,0,1,0,1,1,0,0,0,0,0,0,0,0],"id":51,"left_children":[1,3,5,7,-1,9,11,13,-1,15,-1,17,19,-1,-1,-1,-1,-1,-1,-1,-1],"loss_changes":[8.834635E0,7.749766E0,1.429157E1,6.745083E0,0E0,4.4007034E0,1.0877739E1,1.7389374E0,0E0,3.8267345E0,0E0,5.5553904E0,6.7790956E0,0E0,0E0,0E0,0E0,0E0,0E0,0E0,0E0],"parents":[2147483647,0,0,1,1,2,2,3,3,5,5,6,6,7,7,9,9,11,11,12,12],"right_children":[2,4,6,8,-1,10,12,14,-1,16,-1,18,20,-1,-1,-1,-1,-1,-1,-1,-1],"split_conditions":[-5.4111177E-1,-5.430255E-1,-4.5160002E-1,-5.867621E-1,-9.1756314E-2,9.94274E-1,-2.77995E-1,-2.2443E-1,9.594719E-2,8.3166444E-1,-1.8027795E-2,-1.3546614E-1,-2.5470304E-1,4.0353355E-3,-6.439898E-2,1.1379405E-1,-6.233294E-3,-9.2863664E-2,2.9973928E-2,1.00405805E-1,4.7377925E-3],"split_indices":[2,12,2,8,0,21,0,21,0,4,0,2,0,0,0,0,0,0,0,0,0],"split_type":[0,0,0,0,0,0,0,0,0,0,0,0,0,0,0,0,0,0,0,0,0],"sum_hessian":[1.5809703E2,2.5828173E1,1.3226886E2,1.1627219E1,1.42009535E1,2.0152744E1,1.1211611E2,7.729436E0,3.8977828E0,1.8799511E1,1.3532342E0,1.662589E1,9.549023E1,2.2087586E0,5.5206776E0,1.7732214E1,1.067296E0,1.4341341E1,2.2845488E0,6.461926E0,8.90283E1],"tree_param":{"num_deleted":"0","num_feature":"23","num_nodes":"21","size_leaf_vector":"0"}},{"base_weights":[4.8655663E-2,3.227022E-1,-1.4239213E-1,8.935135E-1,1.2099617E-1,2.6299047E-1,-4.1033235E-1,-2.6305237E-1,1.1262959E0,-4.0449235E-1,3.2950214E-1,1.2679101E0,-4.7386844E-2,8.7994415E-1,-4.9595037E-1,1.504855E0,-0E0,-8.982755E-1,4.4252336E-1,9.6631247E-1,6.660893E-2,-0E0,1.6920481E0,2.3863222E-1,-7.699202E-1,-7.690633E-1,-0E0],"categories":[],"categories_nodes":[],"categories_segments":[],"categories_sizes":[],"default_left":[1,1,1,1,1,1,1,0,1,1,1,1,1,0,1,0,0,0,0,0,0,0,0,0,0,0,0],"id":52,"left_children":[1,3,5,7,9,11,13,-1,15,17,19,21,23,-1,25,-1,-1,-1,-1,-1,-1,-1,-1,-1,-1,-1,-1],"loss_changes":[8.404011E0,6.4330144E0,1.0220821E1,5.702034E0,5.975707E0,1.2521971E1,6.775342E0,0E0,5.4451103E0,7.328523E0,5.5782256E0,3.572958E0,6.800236E0,0E0,7.2959337E0,0E0,0E0,0E0,0E0,0E0,0E0,0E0,0E0,0E0,0E0,0E0,0E0],"parents":[2147483647,0,0,1,1,2,2,3,3,4,4,5,5,6,6,8,8,9,9,10,10,11,11,12,12,14,14],"right_children":[2,4,6,8,10,12,14,-1,16,18,20,22,24,-1,26,-1,-1,-1,-1,-1,-1,-1,-1,-1,-1,-1,-1],"split_conditions":[-5.6529814E-1,-1.9223467E-1,-7.834401E-1,-3.0123782E-1,3.576619E-1,7.814839E-1,-1.0170188E0,-2.6305238E-2,7.3800413E-3,1.0612938E0,7.8992987E-1,2.078736E-1,-1.1055257E0,8.799442E-2,4.493825E-1,1.504855E-1,-0E0,-8.982755E-2,4.4252336E-2,9.663125E-2,6.660893E-3,-0E0,1.6920482E-1,2.3863222E-2,-7.699202E-2,-7.690633E-2,-0E0],"split_indices":[21,2,18,13,2,21,0,0,13,22,22,15,19,0,4,0,0,0,0,0,0,0,0,0,0,0,0],"split_type":[0,0,0,0,0,0,0,0,0,0,0,0,0,0,0,0,0,0,0,0,0,0,0,0,0,0,0],"sum_hessian":[1.533175E2,6.456252E1,8.875498E1,1.3771903E1,5.079062E1,3.3848446E1,5.490654E1,1.5441175E0,1.2227786E1,1.2531666E1,3.8258953E1,7.2916794E0,2.6556765E1,1.5352458E0,5.3371292E1,8.374361E0,3.8534245E0,8.585925E0,3.9457412E0,8.504112E0,2.9754839E1,2.8264146E0,4.465265E0,1.899351E1,7.563255E0,3.336248E1,2.0008814E1],"tree_param":{"num_deleted":"0","num_feature":"23","num_nodes":"27","size_leaf_vector":"0"}},{"base_weights":[1.11404836E-1,-3.6202976E-1,1.6287445E-1,2.2105347E-1,-7.7438164E-1,-3.2062647E-1,2.33356E-1,6.898432E-1,-2.2059773E-1,-6.5755713E-1,5.6834954E-1,5.9564596E-1,9.618908E-2,-0E0,-8.467349E-1,8.8968956E-1,-2.1943845E-1,-6.326315E-1,2.6230782E-1],"categories":[],"categories_nodes":[],"categories_segments":[],"categories_sizes":[],"default_left":[1,1,1,1,0,1,1,0,0,1,0,1,1,0,0,0,0,0,0],"id":53,"left_children":[1,3,5,7,-1,9,11,-1,-1,13,-1,15,17,-1,-1,-1,-1,-1,-1],"loss_changes":[3.7994008E0,4.3414135E0,5.069196E0,2.11686E0,0E0,6.1471806E0,5.7131095E0,0E0,0E0,2.0252447E0,0E0,9.123822E0,1.2014225E1,0E0,0E0,0E0,0E0,0E0,0E0],"parents":[2147483647,0,0,1,1,2,2,3,3,5,5,6,6,9,9,11,11,12,12],"right_children":[2,4,6,8,-1,10,12,-1,-1,14,-1,16,18,-1,-1,-1,-1,-1,-1],"split_conditions":[-6.5489674E-1,-7.3817575E-1,-6.144814E-1,-8.200091E-1,-7.743817E-2,1.5318687E0,-3.3898997E-1,6.898432E-2,-2.2059774E-2,-2.2443E-1,5.6834955E-2,-5.712116E-1,-5.750244E-2,-0E0,-8.467349E-2,8.8968955E-2,-2.1943845E-2,-6.326315E-2,2.6230782E-2],"split_indices":[6,16,8,4,0,21,8,0,0,21,0,6,8,0,0,0,0,0,0],"split_type":[0,0,0,0,0,0,0,0,0,0,0,0,0,0,0,0,0,0,0],"sum_hessian":[1.5725417E2,1.2331184E1,1.4492297E2,4.4878707E0,7.8433137E0,1.5729934E1,1.2919304E2,2.730204E0,1.7576667E0,1.25999565E1,3.1299772E0,3.1642479E1,9.755057E1,2.9703054E0,9.629651E0,2.4020744E1,7.6217337E0,1.5947395E1,8.160317E1],"tree_param":{"num_deleted":"0","num_feature":"23","num_nodes":"19","size_leaf_vector":"0"}},{"base_weights":[5.237204E-2,1.07981555E-1,-7.0509917E-1,-6.8542194E-1,1.5804726E-1,-8.1136036E-1,-0E0,1.2151928E0,9.2215665E-2,-5.637696E-1,1.6245887E-1],"categories":[],"categories_nodes":[],"categories_segments":[],"categories_sizes":[],"default_left":[1,1,1,0,1,0,0,0,1,0,0],"id":54,"left_children":[1,3,5,-1,7,-1,-1,-1,9,-1,-1],"loss_changes":[6.223619E0,5.6654058E0,8.746791E-1,0E0,8.512793E0,0E0,0E0,0E0,6.183193E0,0E0,0E0],"parents":[2147483647,0,0,1,1,2,2,4,4,8,8],"right_children":[2,4,6,-1,8,-1,-1,-1,10,-1,-1],"split_conditions":[1.2763698E0,-7.4985194E-1,1.3892176E0,-6.85422E-2,-7.2990865E-1,-8.113604E-2,-0E0,1.2151928E-1,-5.4111177E-1,-5.637696E-2,1.6245887E-2],"split_indices":[4,2,0,0,2,0,0,0,2,0,0],"split_type":[0,0,0,0,0,0,0,0,0,0,0],"sum_hessian":[1.5631073E2,1.4844756E2,7.8631616E0,6.119272E0,1.423283E2,6.7775283E0,1.0856335E0,5.406143E0,1.3692215E2,1.0507435E1,1.2641471E2],"tree_param":{"num_deleted":"0","num_feature":"23","num_nodes":"11","size_leaf_vector":"0"}},{"base_weights":[-1.4564183E-2,4.5416647E-1,-8.251948E-2,-1.549287E-1,1.0532845E0,-1.7154485E-1,4.020144E-1,6.710766E-1,-6.605749E-1,-2.4170479E-2,1.291784E0,-6.379087E-3,-7.525855E-1,-5.2653402E-2,5.592169E-1,-1.7097735E-1,1.1919543E0,-9.224148E-1,-0E0,1.6658957E-1,-5.1576996E-1,7.893204E-1,6.2281307E-2],"categories":[],"categories_nodes":[],"categories_segments":[],"categories_sizes":[],"default_left":[1,1,1,1,1,1,1,0,0,0,0,1,1,1,1,0,0,0,0,0,0,0,0],"id":55,"left_children":[1,3,5,7,9,11,13,-1,-1,-1,-1,15,17,19,21,-1,-1,-1,-1,-1,-1,-1,-1],"loss_changes":[4.538458E0,7.6709614E0,5.7796316E0,4.917155E0,3.8970766E0,1.0569835E1,1.9938455E0,0E0,0E0,0E0,0E0,1.819459E1,3.6623774E0,1.0620041E0,9.546952E-1,0E0,0E0,0E0,0E0,0E0,0E0,0E0,0E0],"parents":[2147483647,0,0,1,1,2,2,3,3,4,4,5,5,6,6,11,11,12,12,13,13,14,14],"right_children":[2,4,6,8,10,12,14,-1,-1,-1,-1,16,18,20,22,-1,-1,-1,-1,-1,-1,-1,-1],"split_conditions":[-7.0984614E-1,-7.4985194E-1,1.3550191E0,-9.988605E-1,-5.0847405E-1,5.2502406E-1,1.0371014E0,6.710766E-2,-6.6057496E-2,-2.417048E-3,1.291784E-1,4.2697453E-1,1.0177692E0,1.8768032E0,2.1326776E0,-1.7097736E-2,1.19195424E-1,-9.224148E-2,-0E0,1.6658958E-2,-5.1576998E-2,7.893204E-2,6.228131E-3],"split_indices":[2,2,12,2,11,4,18,0,0,0,0,4,19,6,12,0,0,0,0,0,0,0,0],"split_type":[0,0,0,0,0,0,0,0,0,0,0,0,0,0,0,0,0,0,0,0,0,0,0],"sum_hessian":[1.4979703E2,1.5664801E1,1.3413222E2,7.675337E0,7.989464E0,1.161477E2,1.798453E1,1.9150239E0,5.760313E0,1.01382E0,6.9756436E0,9.335402E1,2.2793673E1,3.328011E0,1.4656519E1,8.4321144E1,9.03288E0,1.880879E1,3.9848826E0,1.6623362E0,1.6656747E0,7.8380604E0,6.8184586E0],"tree_param":{"num_deleted":"0","num_feature":"23","num_nodes":"23","size_leaf_vector":"0"}},{"base_weights":[1.1389797E-1,2.9269633E-1,-0E0,-6.698189E-2,5.508695E-1,-2.5667086E-1,2.2329359E-1,1.8581878E-1,-7.251835E-1,6.9736004E-1,-5.0597453E-1,4.603742E-1,-7.3783183E-1,5.415394E-1,-8.217952E-2,-1.7933103E-1,9.6694016E-1,-4.1506946E-1,8.4490174E-1,-4.2980736E-1,7.2438025E-1,-8.417666E-1,1.01609275E-1,-4.3114975E-1,7.414682E-1,-9.876551E-1,2.1549137E-1],"categories":[],"categories_nodes":[],"categories_segments":[],"categories_sizes":[],"default_left":[1,1,1,1,1,1,1,1,0,1,0,1,1,1,1,0,0,0,0,0,0,0,0,0,0,0,0],"id":56,"left_children":[1,3,5,7,9,11,13,15,-1,17,-1,19,21,23,25,-1,-1,-1,-1,-1,-1,-1,-1,-1,-1,-1,-1],"loss_changes":[3.2835383E0,6.3150473E0,5.6474447E0,5.1471157E0,6.769121E0,1.698611E1,5.5917854E0,6.648287E0,0E0,6.8730354E0,0E0,5.395146E0,3.4768162E0,6.2538123E0,8.368437E0,0E0,0E0,0E0,0E0,0E0,0E0,0E0,0E0,0E0,0E0,0E0,0E0],"parents":[2147483647,0,0,1,1,2,2,3,3,4,4,5,5,6,6,7,7,9,9,11,11,12,12,13,13,14,14],"right_children":[2,4,6,8,10,12,14,16,-1,18,-1,20,22,24,26,-1,-1,-1,-1,-1,-1,-1,-1,-1,-1,-1,-1],"split_conditions":[-3.3640388E-1,-5.4111177E-1,7.090865E-1,-5.840837E-1,-1.5788406E-1,-1.2216312E0,1.8638701E0,-5.963954E-1,-7.251835E-2,-9.900155E-1,-5.0597455E-2,-1.3546552E-1,7.6120627E-1,-5.28805E-1,1.7167437E0,-1.7933104E-2,9.6694015E-2,-4.1506946E-2,8.449017E-2,-4.2980738E-2,7.2438024E-2,-8.417666E-2,1.0160928E-2,-4.3114975E-2,7.414682E-2,-9.8765515E-2,2.1549137E-2],"split_indices":[2,2,18,6,6,19,6,6,0,22,0,2,0,15,14,0,0,0,0,0,0,0,0,0,0,0,0],"split_type":[0,0,0,0,0,0,0,0,0,0,0,0,0,0,0,0,0,0,0,0,0,0,0,0,0,0,0],"sum_hessian":[1.5433951E2,6.0000942E1,9.433856E1,2.4072159E1,3.5928783E1,4.4459827E1,4.987873E1,1.733157E1,6.740589E0,3.298342E1,2.9453635E0,1.7053753E1,2.7406076E1,2.5274973E1,2.4603758E1,1.1988123E1,5.3434463E0,2.6440089E0,3.033941E1,2.7471194E0,1.4306633E1,2.5441753E1,1.9643223E0,3.0621684E0,2.2212803E1,5.771412E0,1.8832346E1],"tree_param":{"num_deleted":"0","num_feature":"23","num_nodes":"27","size_leaf_vector":"0"}},{"base_weights":[-5.0667212E-3,-4.362884E-1,5.4295123E-2,-9.2000747E-1,3.3936003E-1,7.165619E-1,-3.1074643E-2,6.42039E-1,-2.5168398E-1,-6.8133175E-2,1.1574632E0,-3.8769943E-1,1.5338811E-1,3.7156332E-1,-5.074685E-1,5.7157926E-2,-6.985168E-1,4.9355018E-1,-1.0128601E-1],"categories":[],"categories_nodes":[],"categories_segments":[],"categories_sizes":[],"default_left":[1,1,1,0,1,1,1,0,0,1,0,1,1,0,0,0,0,0,0],"id":57,"left_children":[1,3,5,-1,7,9,11,-1,-1,13,-1,15,17,-1,-1,-1,-1,-1,-1],"loss_changes":[4.2263036E0,8.78699E0,8.086732E0,0E0,2.2214196E0,6.879037E0,7.9738035E0,0E0,0E0,1.8515316E0,0E0,6.5156603E0,7.070543E0,0E0,0E0,0E0,0E0,0E0,0E0],"parents":[2147483647,0,0,1,1,2,2,4,4,5,5,6,6,9,9,11,11,12,12],"right_children":[2,4,6,-1,8,10,12,-1,-1,14,-1,16,18,-1,-1,-1,-1,-1,-1],"split_conditions":[-1.0618036E0,2.1166742E-1,-7.834401E-1,-9.2000745E-2,3.1106237E-1,-9.4706E-1,-2.686311E-1,6.42039E-2,-2.5168398E-2,-6.7224145E-1,1.1574632E-1,-6.0689664E-1,1.7581058E-1,3.7156332E-2,-5.0746854E-2,5.7157925E-3,-6.985168E-2,4.935502E-2,-1.0128601E-2],"split_indices":[22,0,18,0,2,18,0,0,0,6,0,6,8,0,0,0,0,0,0],"split_type":[0,0,0,0,0,0,0,0,0,0,0,0,0,0,0,0,0,0,0],"sum_hessian":[1.4632866E2,1.820788E1,1.2812077E2,1.1779084E1,6.4287963E0,1.4278671E1,1.1384211E2,5.25634E0,1.1724563E0,4.9290466E0,9.349625E0,3.9906956E1,7.393515E1,1.4800925E0,3.448954E0,1.5762197E1,2.4144758E1,3.2532684E1,4.1402466E1],"tree_param":{"num_deleted":"0","num_feature":"23","num_nodes":"19","size_leaf_vector":"0"}},{"base_weights":[7.002569E-2,-7.9295164E-1,1.4115725E-1,-1.9659525E-1,2.1700813E-1,-5.4223925E-1,6.362316E-1,6.9045377E-1,8.911096E-2,3.77994E-1,-9.249539E-1,-0E0,7.792653E-1,-3.4305164E-1,8.6225235E-1,-5.9700686E-1,2.0506138E-1],"categories":[],"categories_nodes":[],"categories_segments":[],"categories_sizes":[],"default_left":[1,0,1,1,1,1,1,1,1,0,0,0,0,0,0,0,0],"id":58,"left_children":[1,-1,3,5,7,9,11,13,15,-1,-1,-1,-1,-1,-1,-1,-1],"loss_changes":[9.038345E0,0E0,3.8265395E0,7.8692837E0,6.4829736E0,8.213978E0,3.5136437E-1,5.368925E0,7.8075333E0,0E0,0E0,0E0,0E0,0E0,0E0,0E0,0E0],"parents":[2147483647,0,0,2,2,3,3,4,4,5,5,6,6,7,7,8,8],"right_children":[2,-1,4,6,8,10,12,14,16,-1,-1,-1,-1,-1,-1,-1,-1],"split_conditions":[-6.5492606E-1,-7.9295166E-2,-5.4800117E-1,1.3417702E0,-3.3890793E-1,-9.8591423E-1,-4.6570984E-1,-8.533683E-1,-1.1257067E-1,3.77994E-2,-9.249539E-2,-0E0,7.792653E-2,-3.4305166E-2,8.6225234E-2,-5.9700686E-2,2.0506138E-2],"split_indices":[6,0,12,21,8,12,11,18,8,0,0,0,0,0,0,0,0],"split_type":[0,0,0,0,0,0,0,0,0,0,0,0,0,0,0,0,0],"sum_hessian":[1.5221176E2,8.974778E0,1.4323698E2,2.3266645E1,1.19970345E2,1.7784286E1,5.48236E0,2.1982061E1,9.798828E1,4.463531E0,1.3320755E1,1.9160712E0,3.5662885E0,2.0193918E0,1.996267E1,1.1719289E1,8.6269E1],"tree_param":{"num_deleted":"0","num_feature":"23","num_nodes":"17","size_leaf_vector":"0"}},{"base_weights":[8.170097E-2,1.1516065E-2,5.415282E-1,1.9216973E-1,-3.334265E-1,6.268046E-1,-0E0,-0E0,5.894443E-1,2.1041553E-1,-5.8123463E-1,-0E0,6.7993957E-1,-2.786905E-1,3.4764156E-1,2.8237045E-1,-3.8925844E-1,-2.0461045E-1,9.833634E-1,4.7034436E-1,-3.8757432E-1,-1.0296208E0,-6.0452987E-2],"categories":[],"categories_nodes":[],"categories_segments":[],"categories_sizes":[],"default_left":[1,1,1,1,1,1,1,1,1,1,1,0,0,0,0,0,0,0,0,0,0,0,0],"id":59,"left_children":[1,3,5,7,9,11,13,15,17,19,21,-1,-1,-1,-1,-1,-1,-1,-1,-1,-1,-1,-1],"loss_changes":[4.216944E0,8.243332E0,3.527255E-1,6.8274612E0,6.594925E0,5.356455E-2,7.863321E-1,7.123452E0,1.0324068E1,2.6380322E0,6.321988E0,0E0,0E0,0E0,0E0,0E0,0E0,0E0,0E0,0E0,0E0,0E0,0E0],"parents":[2147483647,0,0,1,1,2,2,3,3,4,4,5,5,6,6,7,7,8,8,9,9,10,10],"right_children":[2,4,6,8,10,12,14,16,18,20,22,-1,-1,-1,-1,-1,-1,-1,-1,-1,-1,-1,-1],"split_conditions":[1.3113244E0,-6.614069E-2,2.0442963E0,-2.98513E-1,-8.4299994E-1,4.5340073E-1,1.7826273E0,-4.137154E-1,-5.742995E-1,-7.319721E-1,2.9855692E-1,-0E0,6.799396E-2,-2.786905E-2,3.4764156E-2,2.8237045E-2,-3.8925845E-2,-2.0461045E-2,9.833634E-2,4.703444E-2,-3.8757432E-2,-1.0296208E-1,-6.0452987E-3],"split_indices":[19,13,19,13,4,11,14,2,6,21,4,0,0,0,0,0,0,0,0,0,0,0,0],"split_type":[0,0,0,0,0,0,0,0,0,0,0,0,0,0,0,0,0,0,0,0,0,0,0],"sum_hessian":[1.4618799E2,1.3049493E2,1.5693043E1,8.812621E1,4.236873E1,1.2104062E1,3.5889804E0,6.089637E1,2.7229845E1,1.2093853E1,3.0274874E1,2.002376E0,1.01016865E1,1.0294698E0,2.5595107E0,3.5746475E1,2.514989E1,8.506058E0,1.8723787E1,9.892886E0,2.2009664E0,1.4186316E1,1.6088558E1],"tree_param":{"num_deleted":"0","num_feature":"23","num_nodes":"23","size_leaf_vector":"0"}},{"base_weights":[4.7301777E-2,-0E0,5.421079E-1,1.3346112E-1,-1.8694566E-1,-0E0,6.6179675E-1,-1.3354908E-3,5.4230803E-1,8.243933E-4,-5.708246E-1,7.3360187E-1,-0E0,3.4007913E-1,-1.836963E-1,9.5786583E-1,-7.47453E-2,-3.6165944E-1,4.6653166E-1,-1.1078455E0,-0E0],"categories":[],"categories_nodes":[],"categories_segments":[],"categories_sizes":[],"default_left":[1,1,1,1,1,0,1,1,1,1,1,0,0,0,0,0,0,0,0,0,0],"id":60,"left_children":[1,3,5,7,9,-1,11,13,15,17,19,-1,-1,-1,-1,-1,-1,-1,-1,-1,-1],"loss_changes":[3.0526953E0,3.356463E0,9.679146E-1,5.00092E0,4.521584E0,0E0,4.4445467E-1,3.7662432E0,6.6428533E0,6.697328E0,5.7709775E0,0E0,0E0,0E0,0E0,0E0,0E0,0E0,0E0,0E0,0E0],"parents":[2147483647,0,0,1,1,2,2,3,3,4,4,6,6,7,7,8,8,9,9,10,10],"right_children":[2,4,6,8,10,-1,12,14,16,18,20,-1,-1,-1,-1,-1,-1,-1,-1,-1,-1],"split_conditions":[1.7296317E0,4.1464782E-1,1.176997E0,1.5390936E-1,1.8499339E0,-0E0,2.4325118E0,-9.134694E-1,-5.3070825E-1,8.732388E-1,1.205333E0,7.336019E-2,-0E0,3.4007914E-2,-1.836963E-2,9.578659E-2,-7.47453E-3,-3.6165945E-2,4.6653166E-2,-1.1078455E-1,-0E0],"split_indices":[14,18,18,18,6,0,16,15,6,6,18,0,0,0,0,0,0,0,0,0,0],"split_type":[0,0,0,0,0,0,0,0,0,0,0,0,0,0,0,0,0,0,0,0,0],"sum_hessian":[1.4118616E2,1.3170848E2,9.477669E0,7.890009E1,5.2808395E1,1.566181E0,7.9114876E0,5.899653E1,1.990356E1,3.5053223E1,1.775517E1,6.892029E0,1.0194591E0,1.8029137E1,4.0967392E1,1.2202011E1,7.7015486E0,1.8754894E1,1.6298328E1,7.9468746E0,9.808296E0],"tree_param":{"num_deleted":"0","num_feature":"23","num_nodes":"21","size_leaf_vector":"0"}},{"base_weights":[1.1042545E-1,-5.0068337E-1,1.5884322E-1,5.482489E-2,-6.9478726E-1,3.4851566E-1,-0E0,-4.6564716E-1,4.1867554E-1,-3.3622482E-1,3.3491668E-1,5.199813E-1,-2.0825942E-1,-5.1726764E-1,4.2736664E-1,-4.4045264E-1,4.3293282E-1],"categories":[],"categories_nodes":[],"categories_segments":[],"categories_sizes":[],"default_left":[1,1,1,0,0,1,1,0,1,1,1,0,0,0,0,0,0],"id":61,"left_children":[1,3,5,-1,-1,7,9,-1,11,13,15,-1,-1,-1,-1,-1,-1],"loss_changes":[4.1856956E0,1.7732961E0,4.0778313E0,0E0,0E0,3.9199142E0,9.145036E0,0E0,4.3286295E0,6.05496E0,3.5099607E0,0E0,0E0,0E0,0E0,0E0,0E0],"parents":[2147483647,0,0,1,1,2,2,5,5,6,6,8,8,9,9,10,10],"right_children":[2,4,6,-1,-1,8,10,-1,12,14,16,-1,-1,-1,-1,-1,-1],"split_conditions":[-7.2325754E-1,-1.8668172E0,-1.2956645E-1,5.482489E-3,-6.947873E-2,-1.2617346E0,6.0797614E-1,-4.6564717E-2,5.1869977E-1,1.7211976E0,2.6380174E-2,5.1998135E-2,-2.0825943E-2,-5.1726766E-2,4.2736664E-2,-4.4045266E-2,4.3293282E-2],"split_indices":[11,22,11,0,0,15,15,0,15,14,11,0,0,0,0,0,0],"split_type":[0,0,0,0,0,0,0,0,0,0,0,0,0,0,0,0,0],"sum_hessian":[1.4564085E2,7.8041964E0,1.3783667E2,1.0583918E0,6.745805E0,6.0620415E1,7.721625E1,2.784217E0,5.7836197E1,3.7950985E1,3.9265263E1,5.145749E1,6.378708E0,3.2257668E1,5.693319E0,2.4774373E0,3.6787827E1],"tree_param":{"num_deleted":"0","num_feature":"23","num_nodes":"17","size_leaf_vector":"0"}},{"base_weights":[-4.9854957E-2,-3.5067865E-1,2.895598E-2,2.6185143E-1,-5.077862E-1,-1.1247408E-1,2.6538387E-1,-7.556654E-2,5.457631E-1,-6.4732844E-1,2.4021044E-1,-3.452611E-1,2.3583749E-1,6.3260293E-1,-2.4028218E-1,-7.892965E-1,3.49318E-2,7.3294234E-1,-1.4717692E-1,1.2280361E-1,-8.71567E-1,7.94129E-1,-9.521226E-2,-0E0,8.958521E-1,-8.608486E-1,2.3405339E-1],"categories":[],"categories_nodes":[],"categories_segments":[],"categories_sizes":[],"default_left":[1,1,1,1,1,1,1,0,0,1,1,1,1,1,1,0,0,0,0,0,0,0,0,0,0,0,0],"id":62,"left_children":[1,3,5,7,9,11,13,-1,-1,15,17,19,21,23,25,-1,-1,-1,-1,-1,-1,-1,-1,-1,-1,-1,-1],"loss_changes":[3.6571903E0,3.5735471E0,3.8913398E0,1.1767719E0,3.5676599E0,5.7531314E0,8.944755E0,0E0,0E0,3.1996298E0,1.6841851E0,1.1567942E1,5.7564874E0,4.6869154E0,6.619976E0,0E0,0E0,0E0,0E0,0E0,0E0,0E0,0E0,0E0,0E0,0E0,0E0],"parents":[2147483647,0,0,1,1,2,2,3,3,4,4,5,5,6,6,9,9,10,10,11,11,12,12,13,13,14,14],"right_children":[2,4,