{"learner":{"attributes":{"best_iteration":"79","best_ntree_limit":"80","scikit_learn":"{\"use_label_encoder\": null, \"n_estimators\": 80, \"objective\": \"binary:logistic\", \"max_depth\": 4, \"max_leaves\": null, \"max_bin\": null, \"grow_policy\": null, \"learning_rate\": 0.1, \"verbosity\": 0, \"booster\": null, \"tree_method\": null, \"gamma\": null, \"min_child_weight\": 3, \"max_delta_step\": null, \"subsample\": 0.8, \"sampling_method\": null, \"colsample_bytree\": 0.8, \"colsample_bylevel\": null, \"colsample_bynode\": null, \"reg_alpha\": 1.0, \"reg_lambda\": 2.0, \"scale_pos_weight\": 8.170105456212747, \"base_score\": null, \"missing\": NaN, \"num_parallel_tree\": null, \"random_state\": 42, \"n_jobs\": null, \"monotone_constraints\": null, \"interaction_constraints\": null, \"importance_type\": null, \"gpu_id\": null, \"validate_parameters\": null, \"predictor\": null, \"enable_categorical\": false, \"feature_types\": null, \"max_cat_to_onehot\": null, \"max_cat_threshold\": null, \"eval_metric\": \"logloss\", \"early_stopping_rounds\": null, \"callbacks\": null, \"classes_\": [0, 1], \"n_classes_\": 2, \"_estimator_type\": \"classifier\"}"},"feature_names":[],"feature_types":[],"gradient_booster":{"model":{"gbtree_model_param":{"num_parallel_tree":"1","num_trees":"80","size_leaf_vector":"0"},"tree_info":[0,0,0,0,0,0,0,0,0,0,0,0,0,0,0,0,0,0,0,0,0,0,0,0,0,0,0,0,0,0,0,0,0,0,0,0,0,0,0,0,0,0,0,0,0,0,0,0,0,0,0,0,0,0,0,0,0,0,0,0,0,0,0,0,0,0,0,0,0,0,0,0,0,0,0,0,0,0,0,0],"trees":[{"base_weights":[-9.11527E-3,-1.4225222E0,1.0275841E0,-1.5788939E0,-7.5067735E-1,-1.05397664E-1,1.2108172E0,-1.6137041E0,-7.1984875E-1,-8.1815755E-1,7.800023E-1,-1.0861921E0,1.3273884E-1,8.87392E-1,1.3924758E0,6.5093774E-1,-1.6228304E0,-1.2056392E0,2.754897E-1,-1.1763625E0,-4.5635512E-1,-1.2E0,1.3608719E0,-1.450646E0,-1.2928515E-2,-1.0164212E-1,7.44951E-1,5.095184E-1,1.4121412E0,8.466467E-1,1.4417808E0],"categories":[],"categories_nodes":[],"categories_segments":[],"categories_sizes":[],"default_left":[1,1,1,1,1,1,1,1,1,1,1,1,1,1,1,0,0,0,0,0,0,0,0,0,0,0,0,0,0,0,0],"id":0,"left_children":[1,3,5,7,9,11,13,15,17,19,21,23,25,27,29,-1,-1,-1,-1,-1,-1,-1,-1,-1,-1,-1,-1,-1,-1,-1,-1],"loss_changes":[1.0415749E4,3.1131543E2,8.5253955E2,6.821924E1,6.0494812E1,1.3480794E2,2.0266016E2,5.1436035E1,4.9771942E1,6.86199E1,3.1708735E1,4.2605682E1,6.695884E1,2.4988965E2,5.5958496E1,0E0,0E0,0E0,0E0,0E0,0E0,0E0,0E0,0E0,0E0,0E0,0E0,0E0,0E0,0E0,0E0],"parents":[2147483647,0,0,1,1,2,2,3,3,4,4,5,5,6,6,7,7,8,8,9,9,10,10,11,11,12,12,13,13,14,14],"right_children":[2,4,6,8,10,12,14,16,18,20,22,24,26,28,30,-1,-1,-1,-1,-1,-1,-1,-1,-1,-1,-1,-1,-1,-1,-1,-1],"split_conditions":[5.569509E-1,-4.695639E-2,2.3596984E-1,6.5142447E-1,1.9038987E0,4.8085874E-1,1.0183259E0,-1.3077884E0,4.6646702E-1,4.7552526E-1,3.9455754E-1,7.7979255E-1,1.2395214E0,1.2404996E0,3.3809775E-1,6.509378E-2,-1.6228305E-1,-1.20563924E-1,2.7548969E-2,-1.17636256E-1,-4.5635514E-2,-1.20000005E-1,1.360872E-1,-1.450646E-1,-1.2928515E-3,-1.01642115E-2,7.44951E-2,5.095184E-2,1.4121412E-1,8.466467E-2,1.4417808E-1],"split_indices":[2,11,11,27,7,10,2,22,23,0,3,7,0,9,3,0,0,0,0,0,0,0,0,0,0,0,0,0,0,0,0],"split_type":[0,0,0,0,0,0,0,0,0,0,0,0,0,0,0,0,0,0,0,0,0,0,0,0,0,0,0,0,0,0,0],"sum_hessian":[7.104113E3,3.0060156E3,4.098097E3,2.4350657E3,5.7094977E2,5.6986346E2,3.528234E3,2.337428E3,9.763789E1,5.4835956E2,2.259021E1,1.10760315E2,4.5910315E2,1.2751793E3,2.2530547E3,8.377579E0,2.3290503E3,6.600516E1,3.1632736E1,2.718982E2,2.7646136E2,4.25E0,1.834021E1,8.146263E1,2.9297684E1,3.3202454E2,1.2707863E2,7.447385E2,5.304408E2,1.9134926E2,2.0617053E3],"tree_param":{"num_deleted":"0","num_feature":"33","num_nodes":"31","size_leaf_vector":"0"}},{"base_weights":[6.371415E-3,-1.2693051E0,9.411672E-1,-1.4126352E0,-5.3358287E-1,-1.8132672E-1,1.1048785E0,-1.4347364E0,-3.1962523E-1,-7.015188E-1,4.568939E-1,-1.2511914E0,1.4242179E-2,8.0112046E-1,1.280347E0,-1.4406936E0,1.2927095E0,-1.1851871E0,6.555842E-1,-7.715829E-1,9.156956E-1,-9.643475E-2,1.0363743E0,-1.4903294E0,9.33573E-2,-2.0895828E-1,5.54135E-1,4.1322738E-1,1.3170468E0,-9.6813947E-1,1.2916392E0],"categories":[],"categories_nodes":[],"categories_segments":[],"categories_sizes":[],"default_left":[1,1,1,1,1,1,1,1,1,1,1,1,1,1,1,0,0,0,0,0,0,0,0,0,0,0,0,0,0,0,0],"id":1,"left_children":[1,3,5,7,9,11,13,15,17,19,21,23,25,27,29,-1,-1,-1,-1,-1,-1,-1,-1,-1,-1,-1,-1,-1,-1,-1,-1],"loss_changes":[8.4832E3,3.1375E2,7.5586816E2,5.808838E1,8.319197E1,1.1081942E2,1.8691846E2,4.3907227E1,4.7092346E1,4.9395218E1,2.425243E1,2.7953514E1,5.406109E1,2.6132092E2,6.0374023E1,0E0,0E0,0E0,0E0,0E0,0E0,0E0,0E0,0E0,0E0,0E0,0E0,0E0,0E0,0E0,0E0],"parents":[2147483647,0,0,1,1,2,2,3,3,4,4,5,5,6,6,7,7,8,8,9,9,10,10,11,11,12,12,13,13,14,14],"right_children":[2,4,6,8,10,12,14,16,18,20,22,24,26,28,30,-1,-1,-1,-1,-1,-1,-1,-1,-1,-1,-1,-1,-1,-1,-1,-1],"split_conditions":[5.569509E-1,-9.358978E-3,2.2434255E-1,9.016433E-1,1.0571052E0,2.7901688E-1,1.0183259E0,1.2717943E0,4.4865698E-1,1.5115447E0,5.1012534E-1,1.1536343E0,1.0274562E0,1.2389004E0,1.7353171E-1,-1.4406936E-1,1.2927096E-1,-1.1851871E-1,6.5558426E-2,-7.7158295E-2,9.1569565E-2,-9.6434755E-3,1.03637435E-1,-1.4903294E-1,9.33573E-3,-2.089583E-2,5.5413503E-2,4.1322738E-2,1.3170467E-1,-9.681395E-2,1.2916392E-1],"split_indices":[2,11,11,27,0,9,2,22,23,25,22,21,25,9,3,0,0,0,0,0,0,0,0,0,0,0,0,0,0,0,0],"split_type":[0,0,0,0,0,0,0,0,0,0,0,0,0,0,0,0,0,0,0,0,0,0,0,0,0,0,0,0,0,0,0],"sum_hessian":[7.110085E3,3.0060583E3,4.104027E3,2.5132405E3,4.9281775E2,5.215656E2,3.5824612E3,2.4619192E3,5.1321346E1,4.2273575E2,7.008201E1,7.9728226E1,4.418374E2,1.3178783E3,2.264583E3,2.4578608E3,4.0582743E0,2.750429E1,2.3817057E1,4.067767E2,1.595904E1,3.582002E1,3.4261986E1,6.8136536E1,1.1591693E1,3.1215936E2,1.2967804E2,7.554456E2,5.624327E2,1.0026857E1,2.2545562E3],"tree_param":{"num_deleted":"0","num_feature":"33","num_nodes":"31","size_leaf_vector":"0"}},{"base_weights":[-7.019441E-3,-1.164492E0,8.4425575E-1,-1.3168162E0,-5.8667934E-1,-3.2103765E-3,1.0083065E0,-1.3445574E0,-1.310382E-1,-7.2930264E-1,1.6746074E-1,-3.9588848E-1,7.303569E-1,6.9829196E-1,1.1863635E0,1.0117872E0,-1.3505905E0,-5.714915E-1,1.376869E0,-8.4938025E-1,4.8158813E-1,-8.3091415E-2,1.331487E0,-9.621238E-1,-1.2670732E-1,3.3654436E-2,1.1103208E0,4.0741822E-1,1.1682383E0,-0E0,1.1909204E0],"categories":[],"categories_nodes":[],"categories_segments":[],"categories_sizes":[],"default_left":[1,1,1,1,1,1,1,1,1,1,1,1,1,1,1,0,0,0,0,0,0,0,0,0,0,0,0,0,0,0,0],"id":2,"left_children":[1,3,5,7,9,11,13,15,17,19,21,23,25,27,29,-1,-1,-1,-1,-1,-1,-1,-1,-1,-1,-1,-1,-1,-1,-1,-1],"loss_changes":[6.894998E3,2.5759082E2,5.615E2,7.528174E1,6.789279E1,1.8887555E2,1.8296094E2,3.561914E1,3.8377907E1,7.766904E1,3.055008E1,6.4011345E1,5.917334E1,1.6690607E2,1.2635742E1,0E0,0E0,0E0,0E0,0E0,0E0,0E0,0E0,0E0,0E0,0E0,0E0,0E0,0E0,0E0,0E0],"parents":[2147483647,0,0,1,1,2,2,3,3,4,4,5,5,6,6,7,7,8,8,9,9,10,10,11,11,12,12,13,13,14,14],"right_children":[2,4,6,8,10,12,14,16,18,20,22,24,26,28,30,-1,-1,-1,-1,-1,-1,-1,-1,-1,-1,-1,-1,-1,-1,-1,-1],"split_conditions":[5.569509E-1,1.528788E-1,3.2838467E-1,1.9038987E0,8.0295527E-1,1.1181161E0,1.0018176E0,-1.2646885E0,3.7255853E-1,1.1988857E0,1.3755691E0,4.7277835E-1,9.049802E-1,1.2496916E0,2.4508396E-1,1.0117872E-1,-1.3505904E-1,-5.714915E-2,1.376869E-1,-8.493803E-2,4.8158813E-2,-8.309142E-3,1.3314871E-1,-9.621238E-2,-1.2670732E-2,3.3654438E-3,1.1103208E-1,4.0741824E-2,1.1682383E-1,-0E0,1.1909204E-1],"split_indices":[2,2,3,7,23,10,2,23,3,9,19,9,2,9,10,0,0,0,0,0,0,0,0,0,0,0,0,0,0,0,0],"split_type":[0,0,0,0,0,0,0,0,0,0,0,0,0,0,0,0,0,0,0,0,0,0,0,0,0,0,0,0,0,0,0],"sum_hessian":[6.99335E3,2.963856E3,4.0294944E3,2.34213E3,6.2172595E2,6.528445E2,3.37665E3,2.287503E3,5.462701E1,5.2401575E2,9.771022E1,4.2671045E2,2.2613402E2,1.2375009E3,2.139149E3,4.567139E0,2.2829358E3,4.375232E1,1.0874689E1,4.7803452E2,4.5981205E1,8.1225E1,1.648522E1,1.3463528E2,2.9207516E2,8.150158E1,1.4463243E2,7.680051E2,4.6949576E2,7.4451175E0,2.1317039E3],"tree_param":{"num_deleted":"0","num_feature":"33","num_nodes":"31","size_leaf_vector":"0"}},{"base_weights":[3.7761831E-3,-1.0576388E0,7.887305E-1,-1.1934795E0,-3.3179542E-1,4.201801E-1,1.0592107E0,-1.2582773E0,-8.156122E-1,-4.3404454E-1,7.3902327E-1,-1.2619783E-1,6.438373E-1,-1.1868534E0,1.064117E0,-1.2667971E0,1.6703312E-1,-9.5003194E-1,2.4305774E-1,-7.7177477E-1,-1.712838E-1,1.2952836E0,-1.7441869E-1,-7.069304E-1,1.2577856E-1,3.7440273E-1,9.307598E-1,7.2315913E-1,1.084389E0],"categories":[],"categories_nodes":[],"categories_segments":[],"categories_sizes":[],"default_left":[1,1,1,1,1,1,1,1,1,1,1,1,1,0,1,0,0,0,0,0,0,0,0,0,0,0,0,0,0],"id":3,"left_children":[1,3,5,7,9,11,13,15,17,19,21,23,25,-1,27,-1,-1,-1,-1,-1,-1,-1,-1,-1,-1,-1,-1,-1,-1],"loss_changes":[5.71171E3,2.8500952E2,3.905603E2,5.5928955E1,5.1066032E1,2.0515546E2,2.742334E1,2.6875732E1,5.3392563E1,3.6512566E1,2.2035707E1,7.193063E1,8.990735E1,0E0,1.2292969E1,0E0,0E0,0E0,0E0,0E0,0E0,0E0,0E0,0E0,0E0,0E0,0E0,0E0,0E0],"parents":[2147483647,0,0,1,1,2,2,3,3,4,4,5,5,6,6,7,7,8,8,9,9,10,10,11,11,12,12,14,14],"right_children":[2,4,6,8,10,12,14,16,18,20,22,24,26,-1,28,-1,-1,-1,-1,-1,-1,-1,-1,-1,-1,-1,-1,-1,-1],"split_conditions":[1.4400077E-1,4.7983742E-1,1.1055248E0,4.663533E-2,1.306437E0,3.061124E-1,3.9530063E-1,8.5288966E-1,9.615942E-1,3.688387E-2,1.0726798E-1,7.5871885E-1,1.0528764E0,-1.1868534E-1,2.370518E-1,-1.266797E-1,1.6703313E-2,-9.5003195E-2,2.4305774E-2,-7.717748E-2,-1.712838E-2,1.2952836E-1,-1.7441869E-2,-7.069304E-2,1.2577856E-2,3.7440274E-2,9.307598E-2,7.231592E-2,1.084389E-1],"split_indices":[11,12,10,22,25,11,20,10,13,11,3,12,24,0,11,0,0,0,0,0,0,0,0,0,0,0,0,0,0],"split_type":[0,0,0,0,0,0,0,0,0,0,0,0,0,0,0,0,0,0,0,0,0,0,0,0,0,0,0,0,0],"sum_hessian":[6.8517793E3,2.9120872E3,3.9396921E3,2.4507632E3,4.6132404E2,1.6712657E3,2.2684263E3,2.0857815E3,3.6498175E2,4.2305136E2,3.8272663E1,4.8437463E2,1.1868911E3,3.4499729E0,2.2649763E3,2.0743064E3,1.147503E1,3.2488126E2,4.0100483E1,1.8175671E2,2.4129465E2,2.3947826E1,1.4324837E1,1.4667917E2,3.3769543E2,6.162742E2,5.7061694E2,1.339937E2,2.1309827E3],"tree_param":{"num_deleted":"0","num_feature":"33","num_nodes":"29","size_leaf_vector":"0"}},{"base_weights":[-1.4890773E-2,-9.6447E-1,7.2665846E-1,-1.1377614E0,-3.02155E-1,8.294306E-2,8.4717584E-1,9.6955377E-1,-1.1460471E0,-1.5300943E0,-2.1717912E-1,-4.947154E-1,3.8881224E-1,4.3654803E-2,8.915308E-1,1.3406601E0,6.77694E-2,-1.1514885E0,9.7557425E-1,-5.775921E-1,-2.6424346E-2,-7.5008184E-1,1.0855126E0,2.3517239E-1,1.0037218E0,-8.891129E-1,4.554069E-1,6.9396996E-1,9.729719E-1],"categories":[],"categories_nodes":[],"categories_segments":[],"categories_sizes":[],"default_left":[1,1,1,1,1,1,1,1,1,0,1,1,1,1,1,0,0,0,0,0,0,0,0,0,0,0,0,0,0],"id":4,"left_children":[1,3,5,7,9,11,13,15,17,-1,19,21,23,25,27,-1,-1,-1,-1,-1,-1,-1,-1,-1,-1,-1,-1,-1,-1],"loss_changes":[4.7353774E3,3.3636743E2,2.9181262E2,4.3181152E1,6.1817284E1,1.0609349E2,1.1226636E2,1.6756115E0,2.9298096E1,0E0,3.9158073E1,8.485536E1,3.5493515E1,6.549693E1,4.542578E1,0E0,0E0,0E0,0E0,0E0,0E0,0E0,0E0,0E0,0E0,0E0,0E0,0E0,0E0],"parents":[2147483647,0,0,1,1,2,2,3,3,4,4,5,5,6,6,7,7,8,8,10,10,11,11,12,12,13,13,14,14],"right_children":[2,4,6,8,10,12,14,16,18,-1,20,22,24,26,28,-1,-1,-1,-1,-1,-1,-1,-1,-1,-1,-1,-1,-1,-1],"split_conditions":[1.6575176E-1,2.8960758E-1,7.7867925E-1,-1.3074131E0,-2.1679854E-1,6.877891E-1,2.4735636E-1,-1.608266E0,3.2434325E0,-1.5300943E-1,5.1094484E-1,1.3733062E0,1.4429762E0,8.277899E-1,1.0149984E0,1.3406602E-1,6.77694E-3,-1.1514886E-1,9.7557425E-2,-5.7759207E-2,-2.6424348E-3,-7.500818E-2,1.08551264E-1,2.351724E-2,1.0037219E-1,-8.891129E-2,4.554069E-2,6.9396995E-2,9.729719E-2],"split_indices":[30,2,2,22,0,10,30,1,32,0,27,13,0,0,2,0,0,0,0,0,0,0,0,0,0,0,0,0,0],"split_type":[0,0,0,0,0,0,0,0,0,0,0,0,0,0,0,0,0,0,0,0,0,0,0,0,0,0,0,0,0],"sum_hessian":[6.7205347E3,2.94724E3,3.7732944E3,2.3336948E3,6.13545E2,5.96879E2,3.1764155E3,7.758482E0,2.3259365E3,3.6747448E1,5.7679755E2,2.0507475E2,3.9180426E2,1.6755496E2,3.0088606E3,4.0213404E0,3.7371418E0,2.3213687E3,4.567877E0,1.9640701E2,3.8039053E2,1.779942E2,2.7080551E1,3.1699243E2,7.481183E1,4.9858982E1,1.17695984E2,8.874337E2,2.121427E3],"tree_param":{"num_deleted":"0","num_feature":"33","num_nodes":"29","size_leaf_vector":"0"}},{"base_weights":[-0E0,-9.372281E-1,6.646424E-1,-1.1272049E0,-6.1015046E-1,1.711598E-1,8.168568E-1,-6.237038E-1,-1.1669343E0,-7.7445024E-1,-5.1541112E-2,-1.9925836E-1,4.6804228E-1,5.769309E-1,9.3909174E-1,-8.0935544E-1,1.0604464E0,1.8976314E-1,-1.1792767E0,-8.3332694E-1,8.363436E-1,-1.4437915E0,1.00821875E-1,-1.4009869E0,-7.4869074E-2,-1.6438347E0,5.282398E-1,1.7626439E-1,8.304468E-1,7.02818E-1,9.706334E-1],"categories":[],"categories_nodes":[],"categories_segments":[],"categories_sizes":[],"default_left":[1,1,1,1,1,1,1,1,1,1,1,1,1,1,1,0,0,0,0,0,0,0,0,0,0,0,0,0,0,0,0],"id":5,"left_children":[1,3,5,7,9,11,13,15,17,19,21,23,25,27,29,-1,-1,-1,-1,-1,-1,-1,-1,-1,-1,-1,-1,-1,-1,-1,-1],"loss_changes":[4.122583E3,1.6750732E2,2.896073E2,3.1414307E1,9.226718E1,1.0129195E2,8.4134155E1,4.300548E1,2.8259521E1,7.56427E1,5.132553E1,5.9280945E1,6.559575E1,1.0089853E2,1.1519165E1,0E0,0E0,0E0,0E0,0E0,0E0,0E0,0E0,0E0,0E0,0E0,0E0,0E0,0E0,0E0,0E0],"parents":[2147483647,0,0,1,1,2,2,3,3,4,4,5,5,6,6,7,7,8,8,9,9,10,10,11,11,12,12,13,13,14,14],"right_children":[2,4,6,8,10,12,14,16,18,20,22,24,26,28,30,-1,-1,-1,-1,-1,-1,-1,-1,-1,-1,-1,-1,-1,-1,-1,-1],"split_conditions":[5.579943E-1,-1.7258076E-1,2.9809493E-1,-1.5886757E0,6.758827E-1,9.087832E-1,1.0581815E0,-1.3158569E0,-2.1473317E0,1.9038987E0,2.3240548E-1,-1.0602929E-1,5.5588055E-1,1.0186163E0,1.1229143E0,-8.0935545E-2,1.0604464E-1,1.8976314E-2,-1.1792767E-1,-8.3332695E-2,8.363436E-2,-1.4437915E-1,1.0082188E-2,-1.4009869E-1,-7.4869073E-3,-1.6438347E-1,5.282398E-2,1.762644E-2,8.304468E-2,7.0281796E-2,9.706334E-2],"split_indices":[2,19,11,5,0,28,29,12,21,7,4,21,26,2,28,0,0,0,0,0,0,0,0,0,0,0,0,0,0,0,0],"split_type":[0,0,0,0,0,0,0,0,0,0,0,0,0,0,0,0,0,0,0,0,0,0,0,0,0,0,0,0,0,0,0],"sum_hessian":[6.61425E3,2.7438674E3,3.8703828E3,1.7306833E3,1.0131841E3,9.149412E2,2.9554414E3,1.3085776E2,1.5998256E3,7.8093134E2,2.3225272E2,4.0585193E2,5.0908926E2,1.00413025E3,1.9513113E3,1.1933547E2,1.1522276E1,1.3433466E1,1.5863921E3,7.54924E2,2.6007353E1,2.1885E1,2.1036772E2,3.5389343E1,3.704626E2,1.2190484E1,4.9689877E2,3.9197406E2,6.121562E2,2.3903131E2,1.71228E3],"tree_param":{"num_deleted":"0","num_feature":"33","num_nodes":"31","size_leaf_vector":"0"}},{"base_weights":[1.1432866E-2,-9.1124E-1,5.8078194E-1,-9.843388E-1,-2.5735343E-1,2.9478213E-1,8.2398796E-1,-1.0029233E0,8.255169E-1,-4.095162E-1,9.78316E-1,-9.634468E-2,5.2982825E-1,-1.3280147E0,8.3113754E-1,-7.774364E-2,-1.0253172E0,-4.0099102E-1,1.5913246E0,6.7779917E-1,-5.5001867E-1,1.5591024E0,1.1276133E-1,-3.2805744E-1,2.6510325E-1,-2.325216E-1,6.2199634E-1,6.741706E-1,9.0905327E-1],"categories":[],"categories_nodes":[],"categories_segments":[],"categories_sizes":[],"default_left":[1,1,1,1,1,1,1,1,1,1,1,1,1,0,1,0,0,0,0,0,0,0,0,0,0,0,0,0,0],"id":6,"left_children":[1,3,5,7,9,11,13,15,17,19,21,23,25,-1,27,-1,-1,-1,-1,-1,-1,-1,-1,-1,-1,-1,-1,-1,-1],"loss_changes":[3.409433E3,1.1660962E2,2.776372E2,7.667627E1,4.7814827E1,1.7060916E2,3.504602E1,4.4399902E1,2.4226192E1,3.5365604E1,1.1859152E1,5.840438E1,8.2006714E1,0E0,2.362207E1,0E0,0E0,0E0,0E0,0E0,0E0,0E0,0E0,0E0,0E0,0E0,0E0,0E0,0E0],"parents":[2147483647,0,0,1,1,2,2,3,3,4,4,5,5,6,6,7,7,8,8,9,9,10,10,11,11,12,12,14,14],"right_children":[2,4,6,8,10,12,14,16,18,20,22,24,26,-1,28,-1,-1,-1,-1,-1,-1,-1,-1,-1,-1,-1,-1,-1,-1],"split_conditions":[7.616146E-2,5.0750864E-1,1.1055248E0,1.3316879E0,1.1737905E0,3.120901E-1,9.480266E-2,-1.8931103E0,4.4203E-1,-2.3675074E-1,6.899265E-1,9.873558E-1,5.8527213E-1,-1.3280147E-1,1.2375053E0,-7.774364E-3,-1.0253172E-1,-4.0099103E-2,1.5913247E-1,6.777992E-2,-5.5001866E-2,1.5591024E-1,1.1276133E-2,-3.2805745E-2,2.6510326E-2,-2.325216E-2,6.2199634E-2,6.741706E-2,9.090533E-2],"split_indices":[30,12,10,21,6,30,30,21,23,23,4,4,24,0,9,0,0,0,0,0,0,0,0,0,0,0,0,0,0],"split_type":[0,0,0,0,0,0,0,0,0,0,0,0,0,0,0,0,0,0,0,0,0,0,0,0,0,0,0,0,0],"sum_hessian":[6.4867803E3,2.4741987E3,4.0125818E3,2.2231318E3,2.5106686E2,1.8479768E3,2.164605E3,2.201965E3,2.1166569E1,2.2545087E2,2.5616003E1,6.925198E2,1.155457E3,5.481011E0,2.159124E3,5.3305573E1,2.1486597E3,8.000317E0,1.3166252E1,2.4109287E1,2.0134157E2,1.36793165E1,1.1936687E1,4.2379175E2,2.68728E2,1.2312861E2,1.0323284E3,7.2689014E2,1.4322339E3],"tree_param":{"num_deleted":"0","num_feature":"33","num_nodes":"29","size_leaf_vector":"0"}},{"base_weights":[5.2011283E-3,-7.76647E-1,5.964682E-1,-9.3639773E-1,-2.8815866E-1,3.6071017E-1,7.843073E-1,-9.461046E-1,1.1761853E0,-3.5013565E-1,9.0940684E-1,1.283461E-1,6.5682536E-1,2.1062446E-1,8.065057E-1,-9.525542E-1,1.1022568E0,1.6896921E0,1.292026E-1,-4.3386787E-1,6.15247E-1,1.5447496E0,-1.8223152E-3,3.4067307E-2,1.3568816E0,-3.9746368E-1,7.8869385E-1,7.1945435E-1,-3.3481354E-1,8.1073785E-1,-2.6241624E-1],"categories":[],"categories_nodes":[],"categories_segments":[],"categories_sizes":[],"default_left":[1,1,1,1,1,1,1,1,1,1,1,1,1,1,1,0,0,0,0,0,0,0,0,0,0,0,0,0,0,0,0],"id":7,"left_children":[1,3,5,7,9,11,13,15,17,19,21,23,25,27,29,-1,-1,-1,-1,-1,-1,-1,-1,-1,-1,-1,-1,-1,-1,-1,-1],"loss_changes":[2.8967678E3,2.0875513E2,1.5633752E2,4.36333E1,4.9750305E1,1.0835651E2,2.3886963E1,2.8672974E1,2.9634132E0,5.1969353E1,2.0476007E1,1.0212536E2,9.779962E1,2.2578075E1,9.596436E0,0E0,0E0,0E0,0E0,0E0,0E0,0E0,0E0,0E0,0E0,0E0,0E0,0E0,0E0,0E0,0E0],"parents":[2147483647,0,0,1,1,2,2,3,3,4,4,5,5,6,6,7,7,8,8,9,9,10,10,11,11,12,12,13,13,14,14],"right_children":[2,4,6,8,10,12,14,16,18,20,22,24,26,28,30,-1,-1,-1,-1,-1,-1,-1,-1,-1,-1,-1,-1,-1,-1,-1,-1],"split_conditions":[1.6717407E-1,-5.3669505E-2,1.1229143E0,1.0405905E0,1.5446858E0,1.01566E0,2.2567752E-1,1.0645368E0,-1.9474918E-1,1.2952719E0,7.828864E-1,2.0335283E0,3.3812553E-1,-7.4921286E-1,1.1779413E1,-9.525543E-2,1.1022568E-1,1.6896921E-1,1.292026E-2,-4.3386787E-2,6.15247E-2,1.5447496E-1,-1.8223152E-4,3.4067307E-3,1.3568817E-1,-3.974637E-2,7.886939E-2,7.194544E-2,-3.3481356E-2,8.107378E-2,-2.6241625E-2],"split_indices":[11,11,10,5,19,2,11,24,3,25,24,8,3,15,3,0,0,0,0,0,0,0,0,0,0,0,0,0,0,0,0],"split_type":[0,0,0,0,0,0,0,0,0,0,0,0,0,0,0,0,0,0,0,0,0,0,0,0,0,0,0,0,0,0,0],"sum_hessian":[6.2626343E3,2.6957087E3,3.5669253E3,2.028459E3,6.672499E2,1.5866611E3,1.9802642E3,2.0207517E3,7.7072453E0,6.365567E2,3.069312E1,8.9252966E2,6.9413153E2,7.623035E1,1.9040338E3,2.0159623E3,4.789474E0,3.7064865E0,4.000759E0,5.8771814E2,4.883858E1,1.7911499E1,1.278162E1,8.3158276E2,6.094688E1,7.587766E1,6.1825385E2,4.005708E1,3.6173264E1,1.8979379E3,6.0958767E0],"tree_param":{"num_deleted":"0","num_feature":"33","num_nodes":"31","size_leaf_vector":"0"}},{"base_weights":[-1.53836105E-2,-7.2465754E-1,5.1983786E-1,-8.2643783E-1,-5.6463156E-2,2.5101197E-1,7.22499E-1,-8.502447E-1,1.7858545E-1,-1.8509045E-1,8.6738026E-1,2.5830876E-2,5.5776834E-1,2.0368774E-1,7.426205E-1,-8.6465883E-1,7.9524004E-1,-4.958547E-1,1.030416E0,2.0431705E-1,-5.0711966E-1,1.112336E0,-5.0770413E-2,-1.5496646E0,7.429153E-2,-6.9883853E-1,6.3467497E-1,6.281262E-1,-4.428119E-1,1.085309E0,7.146723E-1],"categories":[],"categories_nodes":[],"categories_segments":[],"categories_sizes":[],"default_left":[1,1,1,1,1,1,1,1,1,1,1,1,1,1,1,0,0,0,0,0,0,0,0,0,0,0,0,0,0,0,0],"id":8,"left_children":[1,3,5,7,9,11,13,15,17,19,21,23,25,27,29,-1,-1,-1,-1,-1,-1,-1,-1,-1,-1,-1,-1,-1,-1,-1,-1],"loss_changes":[2.322237E3,1.7798438E2,1.8854724E2,5.5578857E1,4.1382412E1,1.0322944E2,1.9463013E1,5.4351685E1,3.2286358E1,3.9503403E1,1.069561E1,6.52476E1,6.2132767E1,2.2333263E1,1.4916504E1,0E0,0E0,0E0,0E0,0E0,0E0,0E0,0E0,0E0,0E0,0E0,0E0,0E0,0E0,0E0,0E0],"parents":[2147483647,0,0,1,1,2,2,3,3,4,4,5,5,6,6,7,7,8,8,9,9,10,10,11,11,12,12,13,13,14,14],"right_children":[2,4,6,8,10,12,14,16,18,20,22,24,26,28,30,-1,-1,-1,-1,-1,-1,-1,-1,-1,-1,-1,-1,-1,-1,-1,-1],"split_conditions":[1.656602E-1,6.728815E-1,1.1054647E0,1.9038987E0,1.2952719E0,1.0451877E0,2.2510998E-1,9.2514515E-1,-2.2970158E-1,5.047958E-1,1.0892212E0,-2.5377512E-1,2.8149122E-1,1.028641E0,7.709077E-1,-8.646589E-2,7.9524E-2,-4.9585473E-2,1.03041604E-1,2.0431705E-2,-5.0711967E-2,1.1123361E-1,-5.077041E-3,-1.5496646E-1,7.4291527E-3,-6.988385E-2,6.3467495E-2,6.281262E-2,-4.4281192E-2,1.085309E-1,7.1467236E-2],"split_indices":[30,12,10,7,25,24,30,22,0,24,21,23,3,12,1,0,0,0,0,0,0,0,0,0,0,0,0,0,0,0,0],"split_type":[0,0,0,0,0,0,0,0,0,0,0,0,0,0,0,0,0,0,0,0,0,0,0,0,0,0,0,0,0,0,0],"sum_hessian":[6.1127656E3,2.6294229E3,3.4833428E3,2.2801387E3,3.492841E2,1.5013043E3,1.9820383E3,2.2286497E3,5.148904E1,3.0895044E2,4.0333626E1,8.688988E2,6.324055E2,7.668702E1,1.9053513E3,2.2108398E3,1.7809729E1,2.8547943E1,2.2941097E1,1.387706E2,1.7017986E2,3.2365032E1,7.968595E0,2.3464298E1,8.454345E2,3.4789555E1,5.9761597E2,4.726219E1,2.9424833E1,1.3527084E2,1.7700804E3],"tree_param":{"num_deleted":"0","num_feature":"33","num_nodes":"31","size_leaf_vector":"0"}},{"base_weights":[4.156333E-3,-7.23197E-1,4.5360097E-1,-7.779766E-1,1.0555212E-1,-7.587306E-2,5.560209E-1,-8.12582E-1,4.3209937E-1,5.840764E-1,-5.1531273E-1,-6.4239335E-1,2.9875256E-2,3.3183664E-1,6.8943083E-1,-8.285241E-1,9.997481E-1,-4.5309412E-1,1.2022955E0,1.006586E0,-2.150355E-1,-8.552214E-1,7.4674207E-1,-0E0,-1.1468629E0,3.0180284E-1,-2.9886454E-1,3.9665993E-2,5.4296976E-1,-1.1260372E0,6.982663E-1],"categories":[],"categories_nodes":[],"categories_segments":[],"categories_sizes":[],"default_left":[1,1,1,1,1,1,1,1,1,1,1,1,1,1,1,0,0,0,0,0,0,0,0,0,0,0,0,0,0,0,0],"id":9,"left_children":[1,3,5,7,9,11,13,15,17,19,21,23,25,27,29,-1,-1,-1,-1,-1,-1,-1,-1,-1,-1,-1,-1,-1,-1,-1,-1],"loss_changes":[1.9690569E3,1.0524902E2,2.0252502E2,9.147827E1,4.322295E1,3.68247E1,9.1907715E1,6.216394E1,4.3099194E1,2.9157398E1,2.8194597E1,3.1607521E1,4.5707798E1,7.1643814E1,3.246997E1,0E0,0E0,0E0,0E0,0E0,0E0,0E0,0E0,0E0,0E0,0E0,0E0,0E0,0E0,0E0,0E0],"parents":[2147483647,0,0,1,1,2,2,3,3,4,4,5,5,6,6,7,7,8,8,9,9,10,10,11,11,12,12,13,13,14,14],"right_children":[2,4,6,8,10,12,14,16,18,20,22,24,26,28,30,-1,-1,-1,-1,-1,-1,-1,-1,-1,-1,-1,-1,-1,-1,-1,-1],"split_conditions":[4.7983915E-1,7.523221E-1,2.2434707E-1,1.9038987E0,6.648628E-1,2.2435822E-1,1.0021688E0,1.0418959E0,-1.404611E-1,6.180156E-1,1.0486369E0,-1.21284574E-1,-4.3288827E-1,1.0092709E0,2.5646776E-1,-8.2852416E-2,9.997481E-2,-4.5309413E-2,1.2022956E-1,1.00658596E-1,-2.1503551E-2,-8.552214E-2,7.467421E-2,-0E0,-1.1468629E-1,3.0180285E-2,-2.9886454E-2,3.9665992E-3,5.4296978E-2,-1.12603724E-1,6.982663E-2],"split_indices":[2,5,11,7,6,25,2,24,10,4,25,22,14,29,10,0,0,0,0,0,0,0,0,0,0,0,0,0,0,0,0],"split_type":[0,0,0,0,0,0,0,0,0,0,0,0,0,0,0,0,0,0,0,0,0,0,0,0,0,0,0,0,0,0,0],"sum_hessian":[6.020147E3,2.2979094E3,3.7222373E3,2.1566838E3,1.4122577E2,6.018168E2,3.1204207E3,2.0981643E3,5.8519424E1,8.0731834E1,6.0493942E1,9.455718E1,5.072596E2,1.1695536E3,1.950867E3,2.081492E3,1.6672297E1,2.7006113E1,3.1513311E1,5.3288864E1,2.7442968E1,4.8790337E1,1.1703605E1,4.223193E1,5.232525E1,2.7937308E2,2.2788654E2,4.936047E2,6.759489E2,7.6755276E0,1.9431914E3],"tree_param":{"num_deleted":"0","num_feature":"33","num_nodes":"31","size_leaf_vector":"0"}},{"base_weights":[1.2550017E-2,-6.741324E-1,4.2593136E-1,-8.29623E-1,-4.388106E-1,-4.8404336E-2,5.511282E-1,-4.8514217E-1,-9.2266595E-1,-4.747404E-1,1.1275601E0,-1.7467074E-1,5.6089556E-1,1.4306E-1,6.2827915E-1,-8.899458E-1,-8.517498E-2,3.546614E-1,-9.351638E-1,9.5692444E-1,-5.055999E-1,1.3578738E0,2.0648118E-3,-3.45987E-1,2.1753646E-1,1.5566486E-1,9.71309E-1,-5.966291E-2,6.82428E-1,4.9570078E-1,7.2190917E-1],"categories":[],"categories_nodes":[],"categories_segments":[],"categories_sizes":[],"default_left":[1,1,1,1,1,1,1,1,1,1,1,1,1,1,1,0,0,0,0,0,0,0,0,0,0,0,0,0,0,0,0],"id":10,"left_children":[1,3,5,7,9,11,13,15,17,19,21,23,25,27,29,-1,-1,-1,-1,-1,-1,-1,-1,-1,-1,-1,-1,-1,-1,-1,-1],"loss_changes":[1.6648002E3,7.8623474E1,2.1804675E2,4.006555E1,5.013649E1,5.8661266E1,9.0330444E1,4.544027E1,1.7786804E1,3.876111E1,3.7613316E0,4.3048557E1,2.0262321E1,5.162076E1,2.8302307E1,0E0,0E0,0E0,0E0,0E0,0E0,0E0,0E0,0E0,0E0,0E0,0E0,0E0,0E0,0E0,0E0],"parents":[2147483647,0,0,1,1,2,2,3,3,4,4,5,5,6,6,7,7,8,8,9,9,10,10,11,11,12,12,13,13,14,14],"right_children":[2,4,6,8,10,12,14,16,18,20,22,24,26,28,30,-1,-1,-1,-1,-1,-1,-1,-1,-1,-1,-1,-1,-1,-1,-1,-1],"split_conditions":[4.798522E-1,-3.1598827E-1,3.4021342E-1,-1.378634E0,1.6041794E0,1.3407435E0,7.9840094E-1,-1.3665096E0,-1.234873E0,-2.9904485E-1,5.0042987E-1,1.0988343E0,1.0380493E0,1.2083747E0,1.1337507E0,-8.8994585E-2,-8.517498E-3,3.5466142E-2,-9.351638E-2,9.569245E-2,-5.0559994E-2,1.3578738E-1,2.0648119E-4,-3.45987E-2,2.1753646E-2,1.5566486E-2,9.71309E-2,-5.966291E-3,6.82428E-2,4.957008E-2,7.219092E-2],"split_indices":[2,10,3,1,19,29,2,9,3,10,6,19,2,9,9,0,0,0,0,0,0,0,0,0,0,0,0,0,0,0,0],"split_type":[0,0,0,0,0,0,0,0,0,0,0,0,0,0,0,0,0,0,0,0,0,0,0,0,0,0,0,0,0,0,0],"sum_hessian":[5.8616797E3,2.2013157E3,3.6603643E3,1.319889E3,8.8142664E2,7.629604E2,2.8974038E3,2.856136E2,1.0342754E3,8.636483E2,1.777833E1,6.3453284E2,1.284276E2,4.6366235E2,2.4337415E3,1.3948828E2,1.461253E2,8.715832E0,1.0255596E3,1.6272993E1,8.473753E2,1.3677938E1,4.100392E0,4.4356766E2,1.9096516E2,6.72359E1,6.1191692E1,3.369453E2,1.2671705E2,1.0169822E3,1.4167592E3],"tree_param":{"num_deleted":"0","num_feature":"33","num_nodes":"31","size_leaf_vector":"0"}},{"base_weights":[1.6793663E-4,-6.750943E-1,3.5994285E-1,-7.5904846E-1,-2.571775E-1,1.450041E-1,5.9722674E-1,1.3398557E0,-7.706349E-1,-5.8121896E-1,1.9084565E-1,-1.705614E-2,6.080349E-1,-3.842276E-1,6.175045E-1,-4.7513264E-1,-8.271791E-1,1.1894822E0,-7.0120364E-1,7.183269E-1,-1.8641628E-1,-2.2658423E-1,3.427202E-1,-1.3223292E0,6.536587E-1,-1.4144866E0,1.0749462E0,6.226913E-1,-9.072235E-1],"categories":[],"categories_nodes":[],"categories_segments":[],"categories_sizes":[],"default_left":[1,1,1,1,1,1,1,0,1,1,1,1,1,1,1,0,0,0,0,0,0,0,0,0,0,0,0,0,0],"id":11,"left_children":[1,3,5,7,9,11,13,-1,15,17,19,21,23,25,27,-1,-1,-1,-1,-1,-1,-1,-1,-1,-1,-1,-1,-1,-1],"loss_changes":[1.3818551E3,6.794446E1,1.8843689E2,4.1450256E1,4.9344067E1,1.4715654E2,3.5769897E1,0E0,2.5241821E1,4.2943817E1,2.8877123E1,1.09115204E2,4.579677E1,5.73461E1,1.451001E1,0E0,0E0,0E0,0E0,0E0,0E0,0E0,0E0,0E0,0E0,0E0,0E0,0E0,0E0],"parents":[2147483647,0,0,1,1,2,2,3,3,4,4,5,5,6,6,8,8,9,9,10,10,11,11,12,12,13,13,14,14],"right_children":[2,4,6,8,10,12,14,-1,16,18,20,22,24,26,28,-1,-1,-1,-1,-1,-1,-1,-1,-1,-1,-1,-1,-1,-1],"split_conditions":[3.661391E-1,1.9823608E-1,1.0193721E0,-1.3077884E0,4.136684E-1,1.2790592E0,1.8662608E-1,1.3398556E-1,-1.378634E0,2.1219334E-1,7.4399754E-2,9.54574E-1,5.7031963E-2,1.301723E0,1.1779413E1,-4.7513265E-2,-8.271791E-2,1.1894822E-1,-7.0120364E-2,7.1832694E-2,-1.8641628E-2,-2.2658423E-2,3.4272023E-2,-1.3223292E-1,6.536587E-2,-1.4144866E-1,1.07494615E-1,6.226913E-2,-9.072235E-2],"split_indices":[10,23,2,22,20,9,3,0,1,23,29,25,11,21,3,0,0,0,0,0,0,0,0,0,0,0,0,0,0],"split_type":[0,0,0,0,0,0,0,0,0,0,0,0,0,0,0,0,0,0,0,0,0,0,0,0,0,0,0,0,0],"sum_hessian":[5.685291E3,1.9746099E3,3.7106814E3,1.6409404E3,3.3366943E2,1.9509183E3,1.759763E3,7.276078E0,1.6336643E3,1.9457599E2,1.3909343E2,1.4449531E3,5.059652E2,3.3897427E1,1.7258655E3,2.6825327E2,1.365411E3,1.0687734E1,1.8388826E2,5.8350845E1,8.074259E1,9.153737E2,5.2957935E2,9.883981E0,4.9608124E2,2.0306477E1,1.359095E1,1.7218473E3,4.018304E0],"tree_param":{"num_deleted":"0","num_feature":"33","num_nodes":"29","size_leaf_vector":"0"}},{"base_weights":[8.804148E-3,-5.99114E-1,3.595715E-1,-6.966171E-1,-2.5268847E-1,1.6404824E-1,5.5420715E-1,-7.202916E-1,2.3127863E-1,-1.65655E-1,-9.2708194E-1,-1.9092701E-2,5.932484E-1,-3.252514E-1,5.734644E-1,-4.4858107E-1,-7.874385E-1,1.751215E0,-2.9093567E-1,7.1756944E-2,-5.4377407E-1,-1.2275085E0,-6.899806E-2,-9.571192E-2,1.155457E0,6.901187E-1,-1.17925666E-1,9.030168E-1,-9.3774605E-1,3.5772383E-1,6.0990006E-1],"categories":[],"categories_nodes":[],"categories_segments":[],"categories_sizes":[],"default_left":[1,1,1,1,1,1,1,1,1,1,1,1,1,1,1,0,0,0,0,0,0,0,0,0,0,0,0,0,0,0,0],"id":12,"left_children":[1,3,5,7,9,11,13,15,17,19,21,23,25,27,29,-1,-1,-1,-1,-1,-1,-1,-1,-1,-1,-1,-1,-1,-1,-1,-1],"loss_changes":[1.1909282E3,6.77005E1,1.3394104E2,3.576715E1,2.525176E1,1.3996178E2,3.0635986E1,2.6386108E1,3.426042E1,3.6989346E1,1.1463207E1,1.11025444E2,3.738321E1,3.0420101E1,1.2242981E1,0E0,0E0,0E0,0E0,0E0,0E0,0E0,0E0,0E0,0E0,0E0,0E0,0E0,0E0,0E0,0E0],"parents":[2147483647,0,0,1,1,2,2,3,3,4,4,5,5,6,6,7,7,8,8,9,9,10,10,11,11,12,12,13,13,14,14],"right_children":[2,4,6,8,10,12,14,16,18,20,22,24,26,28,30,-1,-1,-1,-1,-1,-1,-1,-1,-1,-1,-1,-1,-1,-1,-1,-1],"split_conditions":[7.956676E-2,1.528788E-1,1.0149984E0,1.9038987E0,4.6224147E-4,1.2404996E0,1.7769374E-1,-1.3159475E0,-9.9980175E-1,6.050409E-1,3.722847E-1,2.0335283E0,9.399931E-1,-2.1452185E-2,3.6396375E-1,-4.485811E-2,-7.874385E-2,1.751215E-1,-2.9093567E-2,7.1756947E-3,-5.4377407E-2,-1.22750856E-1,-6.899806E-3,-9.571192E-3,1.15545705E-1,6.901187E-2,-1.1792567E-2,9.0301685E-2,-9.377461E-2,3.5772383E-2,6.0990006E-2],"split_indices":[11,2,2,7,14,9,3,1,23,4,8,8,23,3,3,0,0,0,0,0,0,0,0,0,0,0,0,0,0,0,0],"split_type":[0,0,0,0,0,0,0,0,0,0,0,0,0,0,0,0,0,0,0,0,0,0,0,0,0,0,0,0,0,0,0],"sum_hessian":[5.5820796E3,2.0408303E3,3.541249E3,1.5887585E3,4.520718E2,1.7709983E3,1.7702509E3,1.5507184E3,3.8040142E1,4.0391843E2,4.8153378E1,1.2410288E3,5.299694E2,3.6138344E1,1.7341124E3,3.1328036E2,1.237438E3,9.013588E0,2.9026552E1,2.4749684E2,1.5642159E2,3.4165237E1,1.3988139E1,1.1675543E3,7.347447E1,4.677251E2,6.2244305E1,1.11657505E1,2.4972593E1,2.5764462E2,1.4764679E3],"tree_param":{"num_deleted":"0","num_feature":"33","num_nodes":"31","size_leaf_vector":"0"}},{"base_weights":[1.5138488E-2,-5.3685457E-1,3.6556298E-1,-7.0182824E-1,-2.9391596E-1,1.8343009E-1,5.3076315E-1,3.2650048E-1,-7.403269E-1,-3.889732E-1,1.9974196E-1,3.7079506E-2,4.0536392E-1,-1.0819157E0,5.395305E-1,-1.0475522E0,9.509362E-1,1.1214273E0,-7.554308E-1,-3.4156486E-2,-5.438216E-1,4.5655885E-1,-3.6362752E-1,-8.3159134E-2,8.3379275E-1,-3.8866267E-1,4.6139127E-1,-0E0,-1.5264376E0,4.657741E-1,6.324886E-1],"categories":[],"categories_nodes":[],"categories_segments":[],"categories_sizes":[],"default_left":[1,1,1,1,1,1,1,1,1,1,1,1,1,1,1,0,0,0,0,0,0,0,0,0,0,0,0,0,0,0,0],"id":13,"left_children":[1,3,5,7,9,11,13,15,17,19,21,23,25,27,29,-1,-1,-1,-1,-1,-1,-1,-1,-1,-1,-1,-1,-1,-1,-1,-1],"loss_changes":[1.0586427E3,8.37384E1,9.986624E1,5.0834595E1,4.0940704E1,5.1461544E1,2.5401611E1,4.13385E1,3.5561707E1,3.9372467E1,2.0580555E1,9.366431E1,2.856868E1,3.9023733E0,1.0275574E1,0E0,0E0,0E0,0E0,0E0,0E0,0E0,0E0,0E0,0E0,0E0,0E0,0E0,0E0,0E0,0E0],"parents":[2147483647,0,0,1,1,2,2,3,3,4,4,5,5,6,6,7,7,8,8,9,9,10,10,11,11,12,12,13,13,14,14],"right_children":[2,4,6,8,10,12,14,16,18,20,22,24,26,28,30,-1,-1,-1,-1,-1,-1,-1,-1,-1,-1,-1,-1,-1,-1,-1,-1],"split_conditions":[5.569509E-1,-1.7258076E-1,1.1229143E0,-1.8821518E0,6.1851084E-1,1.0265489E0,7.737292E-2,-9.293138E-1,-1.2554022E0,5.4366153E-2,7.504126E-1,1.2400038E0,2.664945E-1,3.8930318E-1,1.4469692E0,-1.0475522E-1,9.509362E-2,1.12142734E-1,-7.554308E-2,-3.4156486E-3,-5.4382157E-2,4.5655888E-2,-3.6362752E-2,-8.315913E-3,8.3379276E-2,-3.8866267E-2,4.613913E-2,-0E0,-1.5264377E-1,4.657741E-2,6.3248865E-2],"split_indices":[2,19,10,21,22,2,22,22,23,18,15,9,11,24,9,0,0,0,0,0,0,0,0,0,0,0,0,0,0,0,0],"split_type":[0,0,0,0,0,0,0,0,0,0,0,0,0,0,0,0,0,0,0,0,0,0,0,0,0,0,0,0,0,0,0],"sum_hessian":[5.4698047E3,2.1224995E3,3.3473054E3,1.2593865E3,8.63113E2,1.5969475E3,1.7503578E3,4.397023E1,1.2154163E3,7.258042E2,1.3730882E2,9.66467E2,6.304806E2,7.523996E0,1.7428339E3,1.2814859E1,3.115537E1,8.069273E0,1.207347E3,2.232203E2,5.0258386E2,9.579435E1,4.151447E1,8.402013E2,1.2626569E2,3.9596176E1,5.908844E2,3.0645413E0,4.4594545E0,9.84485E2,7.583488E2],"tree_param":{"num_deleted":"0","num_feature":"33","num_nodes":"31","size_leaf_vector":"0"}},{"base_weights":[3.9953217E-3,-4.8753142E-1,3.235017E-1,-7.0977885E-1,-2.7034074E-1,1.1912918E-1,4.8484325E-1,-5.451591E-1,-9.414639E-1,1.3673849E0,-3.3100733E-1,-1.8881543E-2,5.9165514E-1,1.9315176E-1,5.2386206E-1,-6.0017306E-1,1.9866825E0,3.3263206E-2,-9.5701784E-1,-0E0,2.7654128E0,-5.337402E-1,-8.453646E-2,-2.677405E-1,1.4580534E-1,6.3158953E-1,-4.9101594E-1,-5.586332E-1,4.4786254E-1,-7.4924314E-1,5.318792E-1],"categories":[],"categories_nodes":[],"categories_segments":[],"categories_sizes":[],"default_left":[1,1,1,1,1,1,1,1,1,1,1,1,1,1,1,0,0,0,0,0,0,0,0,0,0,0,0,0,0,0,0],"id":14,"left_children":[1,3,5,7,9,11,13,15,17,19,21,23,25,27,29,-1,-1,-1,-1,-1,-1,-1,-1,-1,-1,-1,-1,-1,-1,-1,-1],"loss_changes":[8.366497E2,9.990289E1,1.0580344E2,3.6900146E1,1.0583493E2,9.388954E1,1.9589325E1,8.6158615E1,7.415283E0,7.153716E1,5.0790245E1,4.5590103E1,1.4816071E1,4.2285866E1,1.6758545E1,0E0,0E0,0E0,0E0,0E0,0E0,0E0,0E0,0E0,0E0,0E0,0E0,0E0,0E0,0E0,0E0],"parents":[2147483647,0,0,1,1,2,2,3,3,4,4,5,5,6,6,7,7,8,8,9,9,10,10,11,11,12,12,13,13,14,14],"right_children":[2,4,6,8,10,12,14,16,18,20,22,24,26,28,30,-1,-1,-1,-1,-1,-1,-1,-1,-1,-1,-1,-1,-1,-1,-1,-1],"split_conditions":[2.6564872E-1,-4.0575784E-1,1.0088608E0,-4.8718858E-1,-3.6860347E-1,1.2704549E0,3.5136163E-1,-4.8905182E-1,-1.717457E0,1.5894142E0,4.9559337E-1,8.142621E-1,1.0943284E0,1.0811304E0,4.320429E-1,-6.0017306E-2,1.9866826E-1,3.3263208E-3,-9.5701784E-2,-0E0,2.765413E-1,-5.3374022E-2,-8.453647E-3,-2.6774049E-2,1.4580535E-2,6.315895E-2,-4.9101595E-2,-5.586332E-2,4.4786256E-2,-7.492431E-2,5.3187918E-2],"split_indices":[3,6,24,11,6,9,23,11,6,14,9,5,22,4,20,0,0,0,0,0,0,0,0,0,0,0,0,0,0,0,0],"split_type":[0,0,0,0,0,0,0,0,0,0,0,0,0,0,0,0,0,0,0,0,0,0,0,0,0,0,0,0,0,0,0],"sum_hessian":[5.3244565E3,2.0959216E3,3.2285352E3,1.031384E3,1.0645376E3,1.4285964E3,1.7999386E3,6.0940454E2,4.2197943E2,3.589773E1,1.0286399E3,1.105513E3,3.2308353E2,2.1679344E2,1.5831451E3,5.983245E2,1.1080014E1,5.5822897E0,4.1639716E2,1.927779E1,1.661994E1,5.6089294E2,4.6774692E2,4.4216956E2,6.633434E2,3.132849E2,9.798627E0,5.3265778E1,1.6352766E2,7.9693885E0,1.5751758E3],"tree_param":{"num_deleted":"0","num_feature":"33","num_nodes":"31","size_leaf_vector":"0"}},{"base_weights":[1.3348048E-2,-5.48607E-1,2.6854295E-1,-5.6252223E-1,1.3387874E0,3.7272543E-2,4.098825E-1,-5.835327E-1,6.4508045E-1,1.7773537E-1,-3.9951068E-1,1.255383E-1,4.6386585E-1,1.2787943E0,-5.9429556E-1,-5.207883E-1,1.7088691E0,-1.2282633E0,2.0489135E-1,-1.0690299E0,-1.5673795E-1,-6.2504566E-1,3.977349E-1,1.1659945E0,4.3303475E-1],"categories":[],"categories_nodes":[],"categories_segments":[],"categories_sizes":[],"default_left":[1,1,1,1,0,1,1,1,1,1,1,1,1,0,0,0,0,0,0,0,0,0,0,0,0],"id":15,"left_children":[1,3,5,7,-1,9,11,13,15,17,19,21,23,-1,-1,-1,-1,-1,-1,-1,-1,-1,-1,-1,-1],"loss_changes":[7.504724E2,4.3636597E1,1.1724109E2,4.1887817E1,0E0,8.403044E1,3.356079E1,3.2861267E1,3.7573654E1,3.9206364E1,5.2480785E1,7.420724E1,3.7925476E1,0E0,0E0,0E0,0E0,0E0,0E0,0E0,0E0,0E0,0E0,0E0,0E0],"parents":[2147483647,0,0,1,1,2,2,3,3,5,5,6,6,7,7,8,8,9,9,10,10,11,11,12,12],"right_children":[2,4,6,8,-1,10,12,14,16,18,20,22,24,-1,-1,-1,-1,-1,-1,-1,-1,-1,-1,-1,-1],"split_conditions":[2.8960758E-1,2.5873694E0,8.407037E-1,1.0161505E0,1.3387875E-1,8.399472E-2,3.5139197E-1,-1.3074131E0,4.7004515E-1,-2.8039044E-1,2.7711308E-1,9.7214705E-1,3.845887E-1,1.2787943E-1,-5.9429556E-2,-5.2078832E-2,1.7088692E-1,-1.2282633E-1,2.0489136E-2,-1.06902994E-1,-1.5673796E-2,-6.250457E-2,3.977349E-2,1.16599455E-1,4.3303475E-2],"split_indices":[2,31,25,25,0,17,23,22,23,0,23,4,22,0,0,0,0,0,0,0,0,0,0,0,0],"split_type":[0,0,0,0,0,0,0,0,0,0,0,0,0,0,0,0,0,0,0,0,0,0,0,0,0],"sum_hessian":[5.2310244E3,1.6317004E3,3.599324E3,1.6216781E3,1.002243E1,1.368949E3,2.230375E3,1.5957756E3,2.590243E1,1.0384689E3,3.3048013E2,3.5989438E2,1.8704805E3,7.2815943E0,1.588494E3,1.2396843E1,1.3505587E1,1.7303383E1,1.02116547E3,8.503752E1,2.4544263E2,9.4112404E1,2.6578198E2,7.4217766E1,1.7962627E3],"tree_param":{"num_deleted":"0","num_feature":"33","num_nodes":"25","size_leaf_vector":"0"}},{"base_weights":[1.5634308E-2,-3.6616868E-1,3.0767816E-1,-5.068296E-1,1.6566034E-2,1.24674425E-1,4.4820318E-1,4.075289E-1,-5.328134E-1,-8.3014745E-1,1.1588998E-1,-7.137041E-2,4.3368793E-1,3.3635953E-1,5.236566E-1,2.2826004E0,-7.3435314E-2,-1.0399092E0,-4.724226E-1,-1.058563E0,1.1648027E0,1.805397E-1,-1.4839348E0,-1.7931354E-1,6.515898E-1,-8.2953805E-1,4.581482E-1,1.731461E-1,6.458058E-1,5.983322E-1,2.802655E-1],"categories":[],"categories_nodes":[],"categories_segments":[],"categories_sizes":[],"default_left":[1,1,1,1,1,1,1,1,1,1,1,1,1,1,1,0,0,0,0,0,0,0,0,0,0,0,0,0,0,0,0],"id":16,"left_children":[1,3,5,7,9,11,13,15,17,19,21,23,25,27,29,-1,-1,-1,-1,-1,-1,-1,-1,-1,-1,-1,-1,-1,-1,-1,-1],"loss_changes":[5.672829E2,1.1914685E2,7.349136E1,3.8892883E1,4.9287636E1,7.667615E1,1.2523651E1,4.281462E1,4.5609375E1,3.0324886E1,5.4349552E1,5.983936E1,1.5555054E1,3.262693E1,1.6289429E1,0E0,0E0,0E0,0E0,0E0,0E0,0E0,0E0,0E0,0E0,0E0,0E0,0E0,0E0,0E0,0E0],"parents":[2147483647,0,0,1,1,2,2,3,3,4,4,5,5,6,6,7,7,8,8,9,9,10,10,11,11,12,12,13,13,14,14],"right_children":[2,4,6,8,10,12,14,16,18,20,22,24,26,28,30,-1,-1,-1,-1,-1,-1,-1,-1,-1,-1,-1,-1,-1,-1,-1,-1],"split_conditions":[3.2552397E-1,3.1153643E-1,1.0115868E0,-1.8821518E0,-1.6291386E-1,1.04002E0,1.3161244E0,-1.582205E0,-1.3990026E0,6.8591446E-1,3.1557244E-1,9.615942E-1,4.0475106E-1,1.3171341E0,1.6362622E0,2.2826004E-1,-7.3435316E-3,-1.0399093E-1,-4.724226E-2,-1.058563E-1,1.1648027E-1,1.805397E-2,-1.4839348E-1,-1.7931355E-2,6.5158986E-2,-8.29538E-2,4.5814823E-2,1.7314611E-2,6.458058E-2,5.9833225E-2,2.8026551E-2],"split_indices":[3,23,9,21,19,24,9,5,9,25,3,13,22,29,10,0,0,0,0,0,0,0,0,0,0,0,0,0,0,0,0],"split_type":[0,0,0,0,0,0,0,0,0,0,0,0,0,0,0,0,0,0,0,0,0,0,0,0,0,0,0,0,0,0,0],"sum_hessian":[5.0840967E3,2.2017332E3,2.8823635E3,1.6114607E3,5.902725E2,1.2566876E3,1.6256759E3,4.2653275E1,1.5688074E3,5.9370327E1,5.309022E2,7.6784937E2,4.8883823E2,6.64647E2,9.6102893E2,7.602358E0,3.5050915E1,1.6173494E2,1.4070724E3,5.456305E1,4.8072777E0,5.1258765E2,1.8314556E1,6.706097E2,9.723967E1,7.258727E0,4.815795E2,4.3929642E2,2.2535056E2,7.300228E2,2.310061E2],"tree_param":{"num_deleted":"0","num_feature":"33","num_nodes":"31","size_leaf_vector":"0"}},{"base_weights":[-3.0805902E-3,-3.6827034E-1,2.431718E-1,-4.161137E-1,2.0956768E-1,8.585039E-2,3.8814378E-1,-4.4674665E-1,4.4189465E-1,3.8036236E-1,-1.1913049E0,-2.1866229E-1,2.4492455E-1,5.883928E-5,4.1187504E-1,-4.665691E-1,9.5025355E-1,8.76999E-1,-9.972005E-1,-9.180438E-1,5.131699E-1,-1.5729154E0,5.1317357E-2,-3.0815873E-1,7.8323346E-1,2.5801143E-1,-1.8940881E0,1.3515009E0,-1.2414796E-1,5.218169E-1,3.4792972E-1],"categories":[],"categories_nodes":[],"categories_segments":[],"categories_sizes":[],"default_left":[1,1,1,1,1,1,1,1,1,1,1,1,1,1,1,0,0,0,0,0,0,0,0,0,0,0,0,0,0,0,0],"id":17,"left_children":[1,3,5,7,9,11,13,15,17,19,21,23,25,27,29,-1,-1,-1,-1,-1,-1,-1,-1,-1,-1,-1,-1,-1,-1,-1,-1],"loss_changes":[4.521666E2,5.6393005E1,6.789462E1,4.96391E1,3.7098824E1,7.012374E1,1.3934189E1,5.055179E1,4.1990753E1,2.467914E1,9.580561E0,4.436493E1,2.5995975E1,1.7374043E1,9.07016E0,0E0,0E0,0E0,0E0,0E0,0E0,0E0,0E0,0E0,0E0,0E0,0E0,0E0,0E0,0E0,0E0],"parents":[2147483647,0,0,1,1,2,2,3,3,4,4,5,5,6,6,7,7,8,8,9,9,10,10,11,11,12,12,13,13,14,14],"right_children":[2,4,6,8,10,12,14,16,18,20,22,24,26,28,30,-1,-1,-1,-1,-1,-1,-1,-1,-1,-1,-1,-1,-1,-1,-1,-1],"split_conditions":[1.6579787E-1,9.5692647E-1,1.0193721E0,1.268292E0,1.1704948E0,9.631038E-1,2.9850248E-1,1.5794408E0,7.0275754E-1,-7.224755E-1,7.0244855E-1,2.0335283E0,1.5498283E0,2.4819031E-1,1.1345584E0,-4.665691E-2,9.502535E-2,8.7699905E-2,-9.972005E-2,-9.180438E-2,5.1316988E-2,-1.5729155E-1,5.131736E-3,-3.0815873E-2,7.832335E-2,2.5801143E-2,-1.8940882E-1,1.3515009E-1,-1.2414796E-2,5.218169E-2,3.479297E-2],"split_indices":[30,6,2,21,4,4,30,19,6,31,22,8,24,5,4,0,0,0,0,0,0,0,0,0,0,0,0,0,0,0,0],"split_type":[0,0,0,0,0,0,0,0,0,0,0,0,0,0,0,0,0,0,0,0,0,0,0,0,0,0,0,0,0,0,0],"sum_hessian":[5.022666E3,2.0240664E3,2.9985996E3,1.8714093E3,1.5265714E2,1.4428849E3,1.5557147E3,1.8089496E3,6.2459686E1,1.3800262E2,1.4654506E1,4.9269415E2,9.5019073E2,9.219325E1,1.4635215E3,1.7856602E3,2.3289387E1,4.909276E1,1.3366929E1,1.1009756E1,1.2699287E2,1.1420424E1,3.234081E0,4.5447974E2,3.8214397E1,9.4662537E2,3.5653665E0,6.774268E0,8.541899E1,5.271786E2,9.363429E2],"tree_param":{"num_deleted":"0","num_feature":"33","num_nodes":"31","size_leaf_vector":"0"}},{"base_weights":[1.3624885E-3,-5.0962245E-1,1.8838716E-1,-7.5143896E-2,-5.8669895E-1,5.7336368E-2,3.4928817E-1,-5.5968046E-1,3.3363634E-1,-7.9588974E-1,-4.2126235E-1,1.3374533E-2,8.641394E-1,-4.2005545E-1,3.758785E-1,-7.098886E-1,1.804351E0,-4.6923682E-1,9.1031444E-1,6.1855954E-1,-8.2298607E-1,3.817471E-1,-4.932889E-1,-2.4281804E-1,1.1860457E-1,1.0315285E0,1.9835787E-1,-1.1425059E0,6.5418226E-1,-1.08706E-1,3.8852087E-1],"categories":[],"categories_nodes":[],"categories_segments":[],"categories_sizes":[],"default_left":[1,1,1,1,1,1,1,1,1,1,1,1,1,1,1,0,0,0,0,0,0,0,0,0,0,0,0,0,0,0,0],"id":18,"left_children":[1,3,5,7,9,11,13,15,17,19,21,23,25,27,29,-1,-1,-1,-1,-1,-1,-1,-1,-1,-1,-1,-1,-1,-1,-1,-1],"loss_changes":[4.7040308E2,4.339853E1,7.5616776E1,4.078442E1,3.678482E1,6.981862E1,3.33181E1,3.5096924E1,5.230771E1,1.9947021E1,3.6978157E1,5.099499E1,9.708443E0,4.3623947E1,9.944244E0,0E0,0E0,0E0,0E0,0E0,0E0,0E0,0E0,0E0,0E0,0E0,0E0,0E0,0E0,0E0,0E0],"parents":[2147483647,0,0,1,1,2,2,3,3,4,4,5,5,6,6,7,7,8,8,9,9,10,10,11,11,12,12,13,13,14,14],"right_children":[2,4,6,8,10,12,14,16,18,20,22,24,26,28,30,-1,-1,-1,-1,-1,-1,-1,-1,-1,-1,-1,-1,-1,-1,-1,-1],"split_conditions":[-8.021082E-2,-1.4107975E0,1.1229143E0,-1.3751187E0,-7.440284E-1,1.9038987E0,2.012403E-1,1.9038987E0,-1.2731607E0,-1.234873E0,-6.817936E-1,7.414858E-1,4.798168E0,1.402452E0,6.8774104E-1,-7.0988856E-2,1.804351E-1,-4.6923682E-2,9.103145E-2,6.1855953E-2,-8.229861E-2,3.817471E-2,-4.932889E-2,-2.4281805E-2,1.1860457E-2,1.0315285E-1,1.9835787E-2,-1.1425059E-1,6.541823E-2,-1.08706E-2,3.885209E-2],"split_indices":[11,1,28,9,2,7,3,7,27,3,2,12,32,28,18,0,0,0,0,0,0,0,0,0,0,0,0,0,0,0,0],"split_type":[0,0,0,0,0,0,0,0,0,0,0,0,0,0,0,0,0,0,0,0,0,0,0,0,0,0,0,0,0,0,0],"sum_hessian":[4.9215967E3,1.3163354E3,3.6052612E3,2.0088347E2,1.1154519E3,1.9918584E3,1.6134028E3,9.2705505E1,1.08177956E2,4.8655197E2,6.2889996E2,1.892036E3,9.98224E1,5.1655067E1,1.5617477E3,8.888056E1,3.8249469E0,4.4651287E1,6.352667E1,7.6312838E0,4.789207E2,4.991573E1,5.7898425E2,5.473477E2,1.3446882E3,7.768928E1,2.213313E1,3.136509E1,2.0289976E1,3.7311016E1,1.5244368E3],"tree_param":{"num_deleted":"0","num_feature":"33","num_nodes":"31","size_leaf_vector":"0"}},{"base_weights":[-9.807611E-3,-4.4726422E-1,1.7274627E-1,-4.9579653E-1,2.3100711E-1,-3.4014218E-2,2.7183902E-1,-5.28549E-1,5.950614E-1,6.2742317E-1,-2.8878576E-1,7.284974E-2,-3.7756282E-1,-6.894594E-1,2.95222E-1,3.1927127E-1,-5.5730057E-1,1.4993827E0,1.795419E-1,8.066424E-1,-9.324508E-1,-1.0089035E0,7.679507E-1,-1.0696684E0,1.10392556E-1,8.7958497E-1,-4.8179317E-1,1.8281206E-1,-1.3813772E0,2.002555E-1,4.343044E-1],"categories":[],"categories_nodes":[],"categories_segments":[],"categories_sizes":[],"default_left":[1,1,1,1,1,1,1,1,1,1,1,1,1,1,1,0,0,0,0,0,0,0,0,0,0,0,0,0,0,0,0],"id":19,"left_children":[1,3,5,7,9,11,13,15,17,19,21,23,25,27,29,-1,-1,-1,-1,-1,-1,-1,-1,-1,-1,-1,-1,-1,-1,-1,-1],"loss_changes":[3.8438095E2,4.7164368E1,6.975468E1,4.7906677E1,2.020622E1,4.0652138E1,5.1635254E1,3.200107E1,1.2316077E1,1.6873251E1,3.3169254E1,3.5159935E1,3.4902767E1,3.4367355E1,2.8836624E1,0E0,0E0,0E0,0E0,0E0,0E0,0E0,0E0,0E0,0E0,0E0,0E0,0E0,0E0,0E0,0E0],"parents":[2147483647,0,0,1,1,2,2,3,3,4,4,5,5,6,6,7,7,8,8,9,9,10,10,11,11,12,12,13,13,14,14],"right_children":[2,4,6,8,10,12,14,16,18,20,22,24,26,28,30,-1,-1,-1,-1,-1,-1,-1,-1,-1,-1,-1,-1,-1,-1,-1,-1],"split_conditions":[2.1456194E-1,7.5841546E-1,3.5926464E-1,1.5689557E0,6.083834E-1,-4.3288827E-1,2.8452933E-1,-1.8821518E0,-1.286511E0,5.825763E-1,7.7079844E-1,5.8096923E-2,-3.474152E-1,2.5125078E-3,1.1167705E0,3.1927127E-2,-5.5730056E-2,1.4993827E-1,1.7954191E-2,8.066424E-2,-9.324508E-2,-1.0089035E-1,7.679507E-2,-1.06966846E-1,1.1039256E-2,8.79585E-2,-4.8179317E-2,1.8281206E-2,-1.3813773E-1,2.002555E-2,4.343044E-2],"split_indices":[9,5,23,31,20,14,25,21,18,1,10,0,12,25,25,0,0,0,0,0,0,0,0,0,0,0,0,0,0,0,0],"split_type":[0,0,0,0,0,0,0,0,0,0,0,0,0,0,0,0,0,0,0,0,0,0,0,0,0,0,0,0,0,0,0],"sum_hessian":[4.8058486E3,1.4157775E3,3.3900713E3,1.323117E3,9.266052E1,1.0954983E3,2.294573E3,1.28644E3,3.6677036E1,5.3425606E1,3.9234913E1,8.345644E2,2.6093384E2,5.2120216E1,2.242453E3,4.0391586E1,1.2460483E3,9.146783E0,2.7530252E1,4.936117E1,4.0644364E0,2.3950546E1,1.5284368E1,2.3954391E1,8.1061E2,1.8104095E1,2.4282974E2,2.3066977E1,2.905324E1,1.3397386E3,9.027142E2],"tree_param":{"num_deleted":"0","num_feature":"33","num_nodes":"31","size_leaf_vector":"0"}},{"base_weights":[-5.868658E-3,-4.0499264E-1,1.634048E-1,-4.44478E-1,3.004609E-1,4.408738E-2,3.2203326E-1,3.8086626E-1,-4.710508E-1,-6.808314E-1,7.39832E-1,1.5230592E-1,-2.3631376E-1,3.335945E-1,-1.1960012E0,1.3127859E0,-9.864159E-1,-5.3351665E-1,-1.5862444E-1,6.8901646E-1,-1.0046408E0,1.0765905E0,-5.6035155E-1,-7.9725415E-1,1.9568907E-1,-3.385706E-1,5.3528804E-1,1.6852342E-1,4.0121275E-1,2.1567613E-1,-2.9747093E0],"categories":[],"categories_nodes":[],"categories_segments":[],"categories_sizes":[],"default_left":[1,1,1,1,1,1,1,1,1,1,1,1,1,1,1,0,0,0,0,0,0,0,0,0,0,0,0,0,0,0,0],"id":20,"left_children":[1,3,5,7,9,11,13,15,17,19,21,23,25,27,29,-1,-1,-1,-1,-1,-1,-1,-1,-1,-1,-1,-1,-1,-1,-1,-1],"loss_changes":[3.191935E2,3.962233E1,6.231668E1,2.9732697E1,3.3172146E1,5.754771E1,2.4829468E1,5.5897293E1,2.4424255E1,1.2065207E1,2.4971428E1,5.6247955E1,4.1701897E1,1.5032364E1,3.0415848E1,0E0,0E0,0E0,0E0,0E0,0E0,0E0,0E0,0E0,0E0,0E0,0E0,0E0,0E0,0E0,0E0],"parents":[2147483647,0,0,1,1,2,2,3,3,4,4,5,5,6,6,7,7,8,8,9,9,10,10,11,11,12,12,13,13,14,14],"right_children":[2,4,6,8,10,12,14,16,18,20,22,24,26,28,30,-1,-1,-1,-1,-1,-1,-1,-1,-1,-1,-1,-1,-1,-1,-1,-1],"split_conditions":[2.3676872E-1,1.3000121E0,1.0193721E0,-1.6090732E0,-6.518167E-1,-4.3288827E-1,9.20706E0,-9.2773664E-1,2.9448956E-1,-1.5543282E0,7.504126E-1,-7.317151E-2,1.5238075E0,9.475286E-1,2.2504754E0,1.3127859E-1,-9.86416E-2,-5.3351667E-2,-1.5862444E-2,6.890165E-2,-1.0046408E-1,1.0765906E-1,-5.6035157E-2,-7.9725415E-2,1.9568907E-2,-3.385706E-2,5.3528804E-2,1.6852342E-2,4.0121276E-2,2.1567613E-2,-2.9747093E-1],"split_indices":[9,32,2,12,2,14,31,22,4,1,15,20,21,21,10,0,0,0,0,0,0,0,0,0,0,0,0,0,0,0,0],"split_type":[0,0,0,0,0,0,0,0,0,0,0,0,0,0,0,0,0,0,0,0,0,0,0,0,0,0,0,0,0,0,0],"sum_hessian":[4.7169814E3,1.405686E3,3.3112954E3,1.333221E3,7.246512E1,1.894869E3,1.4164263E3,3.9579926E1,1.293641E3,2.1367594E1,5.1097527E1,1.3704392E3,5.2442993E2,1.4079229E3,8.503413E0,2.4019608E1,1.556032E1,1.0742432E3,2.1939786E2,3.0635557E0,1.8304037E1,4.146961E1,9.627919E0,5.735093E1,1.3130883E3,4.651978E2,5.92321E1,4.1546204E2,9.924608E2,5.407232E0,3.0961814E0],"tree_param":{"num_deleted":"0","num_feature":"33","num_nodes":"31","size_leaf_vector":"0"}},{"base_weights":[1.4061455E-2,-3.7577933E-1,1.6199373E-1,5.620843E-1,-4.0692627E-1,5.761108E-2,3.6449113E-1,-9.5859045E-1,1.2296418E0,-4.7939244E-1,-0E0,3.2797E-3,4.5760253E-1,-1.145655E0,3.7381446E-1,1.818722E0,-8.040711E-1,-4.3543077E-1,-1.3191073E0,2.1956873E0,-8.85801E-2,-6.471028E-2,4.1581237E-1,1.5318612E0,3.7699148E-1,6.6011596E-1,3.2432285E-1],"categories":[],"categories_nodes":[],"categories_segments":[],"categories_sizes":[],"default_left":[1,1,1,1,1,1,1,0,1,1,1,1,1,0,1,0,0,0,0,0,0,0,0,0,0,0,0],"id":21,"left_children":[1,3,5,7,9,11,13,-1,15,17,19,21,23,-1,25,-1,-1,-1,-1,-1,-1,-1,-1,-1,-1,-1,-1],"loss_changes":[2.700405E2,3.7905243E1,7.137801E1,4.4436317E1,3.696135E1,4.839834E1,1.6310745E1,0E0,3.9824318E1,3.623056E1,3.803094E1,5.604465E1,2.00285E1,0E0,1.4847595E1,0E0,0E0,0E0,0E0,0E0,0E0,0E0,0E0,0E0,0E0,0E0,0E0],"parents":[2147483647,0,0,1,1,2,2,3,3,4,4,5,5,6,6,8,8,9,9,10,10,11,11,12,12,14,14],"right_children":[2,4,6,8,10,12,14,-1,16,18,20,22,24,-1,26,-1,-1,-1,-1,-1,-1,-1,-1,-1,-1,-1,-1],"split_conditions":[1.9417863E-1,-1.8821518E0,1.2405988E0,-9.507756E-1,2.7522817E-1,9.615942E-1,3.769011E-2,-9.585904E-2,-4.8693043E-1,2.664702E-1,2.8295523E-1,1.3017387E0,1.9454259E-1,-1.1456551E-1,9.612937E-1,1.818722E-1,-8.040711E-2,-4.3543078E-2,-1.3191073E-1,2.1956873E-1,-8.85801E-3,-6.471028E-3,4.158124E-2,1.5318613E-1,3.7699148E-2,6.60116E-2,3.2432284E-2],"split_indices":[29,21,29,22,21,13,22,0,11,22,21,9,10,0,9,0,0,0,0,0,0,0,0,0,0,0,0],"split_type":[0,0,0,0,0,0,0,0,0,0,0,0,0,0,0,0,0,0,0,0,0,0,0,0,0,0,0],"sum_hessian":[4.6821055E3,1.2852611E3,3.3968442E3,3.918438E1,1.2460767E3,2.2463904E3,1.1504539E3,1.1230874E1,2.7953505E1,1.0580999E3,1.8797678E2,1.9817263E3,2.6466412E2,4.90526E0,1.1455486E3,2.2220352E1,5.733153E0,1.0094786E3,4.8621357E1,5.58843E0,1.8238834E2,1.700695E3,2.8103125E2,1.5094653E1,2.4956947E2,1.6222435E2,9.833243E2],"tree_param":{"num_deleted":"0","num_feature":"33","num_nodes":"27","size_leaf_vector":"0"}},{"base_weights":[1.7749788E-2,-2.362781E-1,1.970613E-1,-2.8544965E-1,3.1345788E-1,1.0172753E0,1.8487117E-1,-3.1730622E-1,5.908149E-1,-6.2899166E-1,5.497871E-1,1.3395357E0,7.435853E-2,1.0413746E-1,3.0120853E-1,3.7516084E-1,-3.506563E-1,-7.12163E-1,7.991855E-1,1.5622717E-1,-1.0462985E0,1.8708891E0,2.8282383E-1,1.7708801E0,5.0543046E-1,-4.954851E-1,6.727926E-1,6.792936E-2,7.043843E-1,3.59511E-1,7.104679E-2],"categories":[],"categories_nodes":[],"categories_segments":[],"categories_sizes":[],"default_left":[1,1,1,1,1,1,1,1,1,1,1,1,1,1,1,0,0,0,0,0,0,0,0,0,0,0,0,0,0,0,0],"id":22,"left_children":[1,3,5,7,9,11,13,15,17,19,21,23,25,27,29,-1,-1,-1,-1,-1,-1,-1,-1,-1,-1,-1,-1,-1,-1,-1,-1],"loss_changes":[2.1071686E2,5.1843643E1,2.5563072E1,4.917656E1,3.5422462E1,9.966408E0,2.468866E1,3.946959E1,1.7859962E1,1.1512068E1,4.1533558E1,5.825184E0,5.145751E0,3.3673397E1,1.4160301E1,0E0,0E0,0E0,0E0,0E0,0E0,0E0,0E0,0E0,0E0,0E0,0E0,0E0,0E0,0E0,0E0],"parents":[2147483647,0,0,1,1,2,2,3,3,4,4,5,5,6,6,7,7,8,8,9,9,10,10,11,11,12,12,13,13,14,14],"right_children":[2,4,6,8,10,12,14,16,18,20,22,24,26,28,30,-1,-1,-1,-1,-1,-1,-1,-1,-1,-1,-1,-1,-1,-1,-1,-1],"split_conditions":[7.625751E-1,1.3000121E0,4.543031E-1,1.3004087E0,-2.126804E-1,-2.1326858E-1,1.2121686E0,-1.583018E0,4.863341E-1,-1.1617973E0,-2.0445928E-1,7.68783E-1,1.1938645E0,1.5558573E0,6.520114E-1,3.7516084E-2,-3.5065632E-2,-7.12163E-2,7.9918556E-2,1.5622717E-2,-1.0462985E-1,1.870889E-1,2.8282383E-2,1.77088E-1,5.0543047E-2,-4.954851E-2,6.7279264E-2,6.792936E-3,7.043844E-2,3.59511E-2,7.1046795E-3],"split_indices":[12,32,6,9,23,31,9,5,19,21,10,24,5,29,11,0,0,0,0,0,0,0,0,0,0,0,0,0,0,0,0],"split_type":[0,0,0,0,0,0,0,0,0,0,0,0,0,0,0,0,0,0,0,0,0,0,0,0,0,0,0,0,0,0,0],"sum_hessian":[4.6228604E3,1.9103228E3,2.7125376E3,1.7560336E3,1.5428918E2,3.6107483E1,2.6764302E3,1.6967648E3,5.926886E1,2.9418346E1,1.24870834E2,2.5492966E1,1.0614519E1,1.5872943E3,1.0891359E3,7.564389E1,1.6211208E3,6.8430977E0,5.2425762E1,9.811546E0,1.96068E1,1.8341866E1,1.0652897E2,1.4532594E1,1.0960372E1,4.75742E0,5.857099E0,1.5006636E3,8.663073E1,8.6464355E2,2.244923E2],"tree_param":{"num_deleted":"0","num_feature":"33","num_nodes":"31","size_leaf_vector":"0"}},{"base_weights":[6.277913E-3,-2.0630364E-1,1.7146327E-1,-3.0992946E-1,2.7804587E-2,1.3961999E-1,6.318964E-1,-2.5450453E-1,-1.0799087E0,-2.1322948E-1,2.713099E-1,-3.4531808E-1,1.8590584E-1,1.1890082E0,2.9699484E-1,-4.0325668E-1,-6.2535614E-2,7.344749E-1,-1.1698505E0,-9.149075E-2,-1.2861171E0,1.102463E0,8.101767E-2,-4.8122445E-1,5.0718755E-1,1.4551414E0,1.7383954E-1,1.2875965E0,-0E0,4.344358E-1,-8.84988E-1],"categories":[],"categories_nodes":[],"categories_segments":[],"categories_sizes":[],"default_left":[1,1,1,1,1,1,1,1,1,1,1,1,1,1,1,0,0,0,0,0,0,0,0,0,0,0,0,0,0,0,0],"id":23,"left_children":[1,3,5,7,9,11,13,15,17,19,21,23,25,27,29,-1,-1,-1,-1,-1,-1,-1,-1,-1,-1,-1,-1,-1,-1,-1,-1],"loss_changes":[1.6007675E2,4.8603775E1,3.6709595E1,5.7151016E1,3.5965405E1,5.3993496E1,2.8321083E1,3.6442696E1,1.7013954E1,3.8291107E1,4.708191E1,2.4622803E1,3.1563583E1,7.9340897E0,1.7526735E1,0E0,0E0,0E0,0E0,0E0,0E0,0E0,0E0,0E0,0E0,0E0,0E0,0E0,0E0,0E0,0E0],"parents":[2147483647,0,0,1,1,2,2,3,3,4,4,5,5,6,6,7,7,8,8,9,9,10,10,11,11,12,12,13,13,14,14],"right_children":[2,4,6,8,10,12,14,16,18,20,22,24,26,28,30,-1,-1,-1,-1,-1,-1,-1,-1,-1,-1,-1,-1,-1,-1,-1,-1],"split_conditions":[3.3945125E-1,3.1471062E-1,2.0335283E0,7.48687E-1,8.4806406E-1,3.7739515E-1,9.2850137E-1,-4.1101158E-1,-4.804815E-1,1.1105278E0,8.9662147E-1,1.0354311E0,1.1119698E-1,1.7808015E0,9.461662E0,-4.0325668E-2,-6.2535615E-3,7.344749E-2,-1.16985045E-1,-9.1490755E-3,-1.2861171E-1,1.102463E-1,8.101768E-3,-4.8122447E-2,5.0718755E-2,1.4551415E-1,1.7383954E-2,1.2875965E-1,-0E0,4.3443583E-2,-8.84988E-2],"split_indices":[3,23,8,25,25,29,2,6,10,26,26,2,11,3,31,0,0,0,0,0,0,0,0,0,0,0,0,0,0,0,0],"split_type":[0,0,0,0,0,0,0,0,0,0,0,0,0,0,0,0,0,0,0,0,0,0,0,0,0,0,0,0,0,0,0],"sum_hessian":[4.555574E3,1.9891416E3,2.5664326E3,1.3813318E3,6.078099E2,2.4048901E3,1.6154234E2,1.2922709E3,8.906092E1,3.0351608E2,3.042938E2,2.0653122E2,2.198359E3,5.7614117E1,1.0392822E2,7.2391547E2,5.6835535E2,3.0043342E0,8.605659E1,2.7537262E2,2.8143448E1,5.3923996E1,2.5036981E2,1.7989622E2,2.663499E1,1.7669483E1,2.1806895E3,5.3620197E1,3.9939215E0,9.499333E1,8.934888E0],"tree_param":{"num_deleted":"0","num_feature":"33","num_nodes":"31","size_leaf_vector":"0"}},{"base_weights":[-2.8779117E-2,-2.4060881E-1,1.3486817E-1,-5.7159197E-2,-3.687661E-1,-5.018182E-1,1.6428715E-1,9.270812E-1,-1.249041E-1,-6.1569697E-1,-2.2080767E-1,7.143131E-1,-8.040119E-1,8.674908E-1,1.4381982E-1,1.9886483E0,-1.2386798E-1,1.7528237E0,-1.6218102E-1,4.8161954E-1,-7.559186E-1,8.029676E-1,-3.0201727E-1,-7.900422E-1,1.5824909E0,-0E0,-1.0678154E0,2.4727497E0,5.3565985E-1,1.699503E-1,-2.9907593E-1],"categories":[],"categories_nodes":[],"categories_segments":[],"categories_sizes":[],"default_left":[1,1,1,1,1,1,1,1,1,1,1,1,1,1,1,0,0,0,0,0,0,0,0,0,0,0,0,0,0,0,0],"id":24,"left_children":[1,3,5,7,9,11,13,15,17,19,21,23,25,27,29,-1,-1,-1,-1,-1,-1,-1,-1,-1,-1,-1,-1,-1,-1,-1,-1],"loss_changes":[1.5495744E2,4.5364876E1,4.6985466E1,5.3261562E1,4.0692657E1,4.1733112E1,3.3418503E1,5.9566124E1,5.204009E1,6.640114E1,5.9935703E1,3.2458572E1,1.9222084E1,2.9695015E1,2.7113037E1,0E0,0E0,0E0,0E0,0E0,0E0,0E0,0E0,0E0,0E0,0E0,0E0,0E0,0E0,0E0,0E0],"parents":[2147483647,0,0,1,1,2,2,3,3,4,4,5,5,6,6,7,7,8,8,9,9,10,10,11,11,12,12,13,13,14,14],"right_children":[2,4,6,8,10,12,14,16,18,20,22,24,26,28,30,-1,-1,-1,-1,-1,-1,-1,-1,-1,-1,-1,-1,-1,-1,-1,-1],"split_conditions":[3.3945125E-1,-3.4431377E-1,1.19863376E-1,-1.4105979E0,-3.6200762E-1,-1.096876E0,-7.421817E-2,-1.4536474E0,-1.6084524E0,-1.6244214E0,-2.769845E-1,-1.2315294E-1,-5.5364907E-1,5.733074E-1,-2.884381E-1,1.9886483E-1,-1.2386798E-2,1.7528237E-1,-1.6218102E-2,4.8161954E-2,-7.559186E-2,8.029676E-2,-3.0201728E-2,-7.900422E-2,1.582491E-1,-0E0,-1.0678154E-1,2.4727498E-1,5.3565986E-2,1.6995031E-2,-2.9907594E-2],"split_indices":[3,7,29,25,22,26,12,21,12,29,22,30,0,3,14,0,0,0,0,0,0,0,0,0,0,0,0,0,0,0,0],"split_type":[0,0,0,0,0,0,0,0,0,0,0,0,0,0,0,0,0,0,0,0,0,0,0,0,0,0,0,0,0,0,0],"sum_hessian":[4.4631724E3,1.9474753E3,2.5156973E3,8.0535376E2,1.1421216E3,1.0818771E2,2.4075095E3,4.92782E1,7.5607556E2,4.2303256E2,7.1908905E2,2.0331226E1,8.785648E1,6.436796E1,2.3431414E3,2.4100872E1,2.5177326E1,1.2403662E1,7.436719E2,4.6572723E1,3.7645984E2,5.063728E1,6.684518E2,7.0841546E0,1.3247072E1,2.2055704E1,6.580078E1,8.299794E0,5.6068165E1,2.215896E3,1.2724559E2],"tree_param":{"num_deleted":"0","num_feature":"33","num_nodes":"31","size_leaf_vector":"0"}},{"base_weights":[8.766661E-3,-2.0394717E-1,1.6957337E-1,-2.5509715E-1,1.727189E-1,4.5253143E-2,3.0156478E-1,-1.1139834E-1,-4.1176626E-1,-4.8528934E-1,4.8785776E-1,-9.178247E-2,3.9766538E-1,6.7677927E-1,2.663066E-1,1.6094692E-1,-3.1606188E-1,5.847378E-1,-4.658312E-1,2.4970608E-2,-1.0763167E0,1.4827691E0,1.5468805E-1,-1.6166884E-1,9.6115476E-1,7.2837245E-1,1.1127597E-1,8.17462E-1,-1.8971369E-1,-3.5367176E-1,2.874216E-1],"categories":[],"categories_nodes":[],"categories_segments":[],"categories_sizes":[],"default_left":[1,1,1,1,1,1,1,1,1,1,1,1,1,1,1,0,0,0,0,0,0,0,0,0,0,0,0,0,0,0,0],"id":25,"left_children":[1,3,5,7,9,11,13,15,17,19,21,23,25,27,29,-1,-1,-1,-1,-1,-1,-1,-1,-1,-1,-1,-1,-1,-1,-1,-1],"loss_changes":[1.5263513E2,3.7140274E1,4.1377014E1,3.7490677E1,4.781233E1,6.3957436E1,1.4966675E1,4.9803986E1,4.3832657E1,2.3391329E1,4.97389E1,6.9233986E1,3.413758E1,1.336039E1,1.4929039E1,0E0,0E0,0E0,0E0,0E0,0E0,0E0,0E0,0E0,0E0,0E0,0E0,0E0,0E0,0E0,0E0],"parents":[2147483647,0,0,1,1,2,2,3,3,4,4,5,5,6,6,7,7,8,8,9,9,10,10,11,11,12,12,13,13,14,14],"right_children":[2,4,6,8,10,12,14,16,18,20,22,24,26,28,30,-1,-1,-1,-1,-1,-1,-1,-1,-1,-1,-1,-1,-1,-1,-1,-1],"split_conditions":[3.3945125E-1,1.0390242E0,1.0153759E0,8.399472E-2,4.415599E-1,1.2377727E0,6.559348E-1,-3.4431377E-1,-1.5716796E0,3.368982E-1,4.025174E-1,2.0335283E0,1.0869546E0,9.615942E-1,5.3653836E-1,1.6094692E-2,-3.160619E-2,5.8473777E-2,-4.658312E-2,2.497061E-3,-1.07631676E-1,1.4827691E-1,1.5468805E-2,-1.6166884E-2,9.611548E-2,7.283725E-2,1.1127598E-2,8.1746206E-2,-1.8971369E-2,-3.5367176E-2,2.8742163E-2],"split_indices":[3,25,2,17,23,9,10,7,12,22,22,8,1,13,0,0,0,0,0,0,0,0,0,0,0,0,0,0,0,0,0],"split_type":[0,0,0,0,0,0,0,0,0,0,0,0,0,0,0,0,0,0,0,0,0,0,0,0,0,0,0,0,0,0,0],"sum_hessian":[4.4592397E3,1.9168674E3,2.5423723E3,1.6905913E3,2.2627618E2,1.3145162E3,1.227856E3,8.869108E2,8.036804E2,7.189881E1,1.5437738E2,9.454998E2,3.690164E2,9.990658E1,1.1279495E3,3.7862143E2,5.0828943E2,3.939731E1,7.6428314E2,3.8705864E1,3.3192944E1,3.624377E1,1.18133606E2,8.8912854E2,5.637129E1,1.6820453E2,2.0081186E2,8.7041824E1,1.28647585E1,3.455275E1,1.0933967E3],"tree_param":{"num_deleted":"0","num_feature":"33","num_nodes":"31","size_leaf_vector":"0"}},{"base_weights":[6.653693E-4,-3.3238277E-1,7.994319E-2,1.7064188E-2,-4.2597005E-1,1.4755977E0,6.8836294E-2,-4.4052953E-1,5.108743E-1,-1.092342E0,-3.435371E-1,2.2025805E0,-8.6671495E-1,-3.0468067E-2,2.4182934E-1,5.842747E-1,-7.873263E-1,-9.7658265E-1,8.731504E-1,2.1089344E0,-3.7680638E-1,-0E0,2.879443E0,-8.1494786E-2,3.7712255E-1,-6.421792E-1,2.6575354E-1],"categories":[],"categories_nodes":[],"categories_segments":[],"categories_sizes":[],"default_left":[1,1,1,1,1,1,1,1,1,0,1,1,0,1,1,0,0,0,0,0,0,0,0,0,0,0,0],"id":26,"left_children":[1,3,5,7,9,11,13,15,17,-1,19,21,-1,23,25,-1,-1,-1,-1,-1,-1,-1,-1,-1,-1,-1,-1],"loss_changes":[1.1518315E2,2.7835136E1,5.3031452E1,4.0453903E1,3.4257935E1,5.1286785E1,6.0502342E1,3.3730476E1,4.8470627E1,0E0,4.8377678E1,2.986589E1,0E0,4.608776E1,2.7109787E1,0E0,0E0,0E0,0E0,0E0,0E0,0E0,0E0,0E0,0E0,0E0,0E0],"parents":[2147483647,0,0,1,1,2,2,3,3,4,4,5,5,6,6,7,7,8,8,10,10,11,11,13,13,14,14],"right_children":[2,4,6,8,10,12,14,16,18,-1,20,22,-1,24,26,-1,-1,-1,-1,-1,-1,-1,-1,-1,-1,-1,-1],"split_conditions":[-2.4930874E-1,-1.41081E0,-2.2626412E-1,-1.2132287E0,-1.0780785E0,-7.0321426E-2,1.0413694E0,-1.4505813E0,-1.3801169E0,-1.0923421E-1,-1.0662336E0,-4.879946E-1,-8.6671494E-2,1.4930434E0,1.7437673E-1,5.842747E-2,-7.873263E-2,-9.765827E-2,8.7315045E-2,2.1089344E-1,-3.7680637E-2,-0E0,2.879443E-1,-8.149479E-3,3.7712257E-2,-6.421792E-2,2.6575355E-2],"split_indices":[0,1,0,6,23,11,2,24,24,0,23,23,0,0,3,0,0,0,0,0,0,0,0,0,0,0,0],"split_type":[0,0,0,0,0,0,0,0,0,0,0,0,0,0,0,0,0,0,0,0,0,0,0,0,0,0,0],"sum_hessian":[4.3679966E3,8.361808E2,3.531816E3,1.7472452E2,6.6145624E2,2.5092041E1,3.5067239E3,8.974874E1,8.497578E1,6.8784256E1,5.92672E2,1.9565685E1,5.5263557E0,2.2252283E3,1.2814955E3,2.1616795E1,6.813194E1,1.5437947E1,6.953783E1,5.8600063E0,5.86812E2,5.3449965E0,1.4220689E1,1.9812473E3,2.4398097E2,3.130434E1,1.2501912E3],"tree_param":{"num_deleted":"0","num_feature":"33","num_nodes":"27","size_leaf_vector":"0"}},{"base_weights":[1.8060539E-2,-2.4091975E-1,1.0591411E-1,-2.0662124E-1,-1.0112555E0,6.586058E-2,3.879103E-1,-2.3540398E-1,6.6793144E-1,-1.1646525E0,4.5260203E-1,-1.5836713E-1,1.11478716E-1,7.3158616E-1,2.6143593E-1,-7.9295886E-1,-1.7765415E-1,1.7445308E0,-2.6750335E-1,1.1989981E-1,-4.8042437E-1,6.3966674E-1,8.9540854E-2,-9.489028E-1,8.096413E-1,-1.5643377E0,2.9752555E-1],"categories":[],"categories_nodes":[],"categories_segments":[],"categories_sizes":[],"default_left":[1,1,1,1,1,1,1,1,1,0,0,1,1,1,1,0,0,0,0,0,0,0,0,0,0,0,0],"id":27,"left_children":[1,3,5,7,9,11,13,15,17,-1,-1,19,21,23,25,-1,-1,-1,-1,-1,-1,-1,-1,-1,-1,-1,-1],"loss_changes":[9.9644035E1,2.7639069E1,3.6510906E1,2.667818E1,1.1977406E1,2.9397652E1,1.6187977E1,3.2015076E1,3.59795E1,0E0,0E0,4.3776215E1,2.6895782E1,1.5230553E1,1.9471912E1,0E0,0E0,0E0,0E0,0E0,0E0,0E0,0E0,0E0,0E0,0E0,0E0],"parents":[2147483647,0,0,1,1,2,2,3,3,4,4,5,5,6,6,7,7,8,8,11,11,12,12,13,13,14,14],"right_children":[2,4,6,8,10,12,14,16,18,-1,-1,20,22,24,26,-1,-1,-1,-1,-1,-1,-1,-1,-1,-1,-1,-1],"split_conditions":[-5.3669505E-2,5.8909905E-1,9.615942E-1,1.9038987E0,1.0157505E0,7.395828E-1,5.404705E-1,-1.063838E0,1.3733062E0,-1.1646525E-1,4.5260202E-2,4.497594E-1,5.830251E-1,-3.5022902E-1,5.817955E-1,-7.929589E-2,-1.7765416E-2,1.7445308E-1,-2.6750335E-2,1.1989981E-2,-4.804244E-2,6.396668E-2,8.954085E-3,-9.489028E-2,8.096413E-2,-1.5643378E-1,2.9752556E-2],"split_indices":[11,1,13,7,5,12,0,22,13,0,0,5,6,0,0,0,0,0,0,0,0,0,0,0,0,0,0],"split_type":[0,0,0,0,0,0,0,0,0,0,0,0,0,0,0,0,0,0,0,0,0,0,0,0,0,0,0],"sum_hessian":[4.3811973E3,1.1059984E3,3.275199E3,1.062525E3,4.3473396E1,2.873126E3,4.020732E2,1.0311921E3,3.1332855E1,4.0338284E1,3.1351132E0,4.811679E2,2.391958E3,1.0345998E2,2.9861325E2,9.2768265E1,9.384239E2,1.4260021E1,1.7072834E1,2.5714096E2,2.2402696E2,9.1322716E1,2.3006353E3,3.033128E0,1.0042685E2,3.609474E0,2.9500375E2],"tree_param":{"num_deleted":"0","num_feature":"33","num_nodes":"27","size_leaf_vector":"0"}},{"base_weights":[1.4664844E-2,-2.7316484E-1,8.9616075E-2,2.301636E-1,-3.497736E-1,1.5778892E0,7.535259E-2,-5.3477734E-1,9.1622806E-1,-4.6137995E-1,8.203564E-2,-7.007851E-1,2.0267665E0,-4.346747E-3,2.0163478E-1,-1.0583206E0,5.8028E-1,1.6463124E0,-0E0,-3.7895656E-1,-1.1035364E0,1.0080303E0,-4.1069666E-1,2.6364698E0,3.8160893E-1,-3.1858284E-2,6.833802E-1,3.8180625E-1,1.2623335E-1],"categories":[],"categories_nodes":[],"categories_segments":[],"categories_sizes":[],"default_left":[1,1,1,1,1,1,1,1,1,1,1,0,1,1,1,0,0,0,0,0,0,0,0,0,0,0,0,0,0],"id":28,"left_children":[1,3,5,7,9,11,13,15,17,19,21,-1,23,25,27,-1,-1,-1,-1,-1,-1,-1,-1,-1,-1,-1,-1,-1,-1],"loss_changes":[9.2981285E1,3.457875E1,7.089516E1,6.2753403E1,3.7780586E1,3.6676186E1,3.4408688E1,3.4330948E1,4.2069004E1,3.0368896E1,7.39379E1,0E0,2.2486885E1,3.8764465E1,1.7328777E1,0E0,0E0,0E0,0E0,0E0,0E0,0E0,0E0,0E0,0E0,0E0,0E0,0E0,0E0],"parents":[2147483647,0,0,1,1,2,2,3,3,4,4,5,5,6,6,7,7,8,8,9,9,10,10,12,12,13,13,14,14],"right_children":[2,4,6,8,10,12,14,16,18,20,22,-1,24,26,28,-1,-1,-1,-1,-1,-1,-1,-1,-1,-1,-1,-1,-1,-1],"split_conditions":[-1.17376715E-1,-1.3910285E0,-8.436793E-2,-1.257733E0,-1.9735432E-1,-6.8525326E-1,1.0193721E0,-1.0889809E0,-3.4431377E-1,-4.1235E-1,-3.6253124E-2,-7.0078515E-2,2.6920013E-2,1.9038987E0,1.118395E0,-1.0583206E-1,5.8028E-2,1.6463123E-1,-0E0,-3.7895657E-2,-1.1035364E-1,1.0080303E-1,-4.1069668E-2,2.63647E-1,3.8160894E-2,-3.1858284E-3,6.833802E-2,3.8180627E-2,1.2623335E-2],"split_indices":[18,25,18,9,12,13,2,2,7,24,12,0,1,7,2,0,0,0,0,0,0,0,0,0,0,0,0,0,0],"split_type":[0,0,0,0,0,0,0,0,0,0,0,0,0,0,0,0,0,0,0,0,0,0,0,0,0,0,0,0,0],"sum_hessian":[4.3142773E3,8.8748883E2,3.4267888E3,1.14981964E2,7.7250684E2,2.9783438E1,3.3970054E3,5.3885128E1,6.1096832E1,6.1558124E2,1.5692558E2,4.3501644E0,2.5433273E1,2.0789492E3,1.3180562E3,3.7348015E1,1.6537113E1,3.3064598E1,2.8032234E1,5.4975543E2,6.582582E1,5.447962E1,1.0244596E2,1.723349E1,8.199783E0,2.0022148E3,7.6734344E1,3.8255426E2,9.3550183E2],"tree_param":{"num_deleted":"0","num_feature":"33","num_nodes":"29","size_leaf_vector":"0"}},{"base_weights":[-4.2011244E-3,-2.4584073E-1,7.340263E-2,-2.0409189E-1,-1.187553E0,1.2241109E-2,2.4937494E-1,-2.7378887E-1,4.012811E-1,-1.4916375E0,-0E0,4.3411168E-1,-2.3135299E-2,5.8488405E-1,1.6647954E-1,-3.4841725E-1,9.609303E-2,-0E0,9.8541063E-1,-1.701795E0,-0E0,5.647252E-1,-5.144346E-1,-1.7766252E-1,8.6779255E-1,6.922776E-1,-4.8028648E-2,-8.8278025E-1,6.625491E-1,3.2415825E-1,-8.013569E-2],"categories":[],"categories_nodes":[],"categories_segments":[],"categories_sizes":[],"default_left":[1,1,1,1,1,1,1,1,1,1,1,1,1,1,1,0,0,0,0,0,0,0,0,0,0,0,0,0,0,0,0],"id":29,"left_children":[1,3,5,7,9,11,13,15,17,19,21,23,25,27,29,-1,-1,-1,-1,-1,-1,-1,-1,-1,-1,-1,-1,-1,-1,-1,-1],"loss_changes":[8.034379E1,3.9105846E1,3.452816E1,4.235148E1,1.5964626E1,3.633083E1,2.212502E1,2.5185814E1,2.4957304E1,1.1701103E1,3.6493366E0,5.0982372E1,3.8941685E1,1.9319962E1,2.6363968E1,0E0,0E0,0E0,0E0,0E0,0E0,0E0,0E0,0E0,0E0,0E0,0E0,0E0,0E0,0E0,0E0],"parents":[2147483647,0,0,1,1,2,2,3,3,4,4,5,5,6,6,7,7,8,8,9,9,10,10,11,11,12,12,13,13,14,14],"right_children":[2,4,6,8,10,12,14,16,18,20,22,24,26,28,30,-1,-1,-1,-1,-1,-1,-1,-1,-1,-1,-1,-1,-1,-1,-1,-1],"split_conditions":[4.813286E-2,7.5285256E-1,1.3277404E0,4.5282286E-1,1.1452258E0,2.0561805E-1,1.2650309E0,1.444964E0,3.722847E-1,1.4448736E0,4.451626E-1,2.8401172E-1,1.05262354E-1,6.0823536E-1,1.2764132E0,-3.4841727E-2,9.609303E-3,-0E0,9.8541066E-2,-1.701795E-1,-0E0,5.647252E-2,-5.1443458E-2,-1.7766252E-2,8.677926E-2,6.922776E-2,-4.802865E-3,-8.8278025E-2,6.625491E-2,3.2415826E-2,-8.013569E-3],"split_indices":[19,29,29,2,2,19,10,14,8,0,25,25,18,5,5,0,0,0,0,0,0,0,0,0,0,0,0,0,0,0,0],"split_type":[0,0,0,0,0,0,0,0,0,0,0,0,0,0,0,0,0,0,0,0,0,0,0,0,0,0,0,0,0,0,0],"sum_hessian":[4.271393E3,1.0403965E3,3.2309966E3,9.9957764E2,4.081883E1,2.403463E3,8.275337E2,8.988408E2,1.0073679E2,3.231545E1,8.503382E0,1.863947E2,2.217068E3,1.5916357E2,6.683701E2,7.502816E2,1.485592E2,5.9998177E1,4.0738617E1,2.8403711E1,3.9117362E0,4.2722383E0,4.231144E0,7.685443E1,1.0954027E2,7.139678E1,2.1456714E3,6.31012E0,1.5285345E2,4.0978888E2,2.585812E2],"tree_param":{"num_deleted":"0","num_feature":"33","num_nodes":"31","size_leaf_vector":"0"}},{"base_weights":[4.5547087E-4,-2.0576015E-1,1.0252131E-1,-2.4433109E-1,4.8840174E-1,-5.48246E-1,1.20207615E-1,-2.3015276E-1,-1.8648567E0,-3.8761306E-1,6.394682E-1,2.2008846E0,-7.49178E-1,2.5450504E0,1.0821593E-1,-7.895663E-1,-1.8898088E-1,-4.3905905E-1,-2.2214844E0,-1.1924865E0,4.3490446E-1,7.6165605E-1,-6.3629717E-1,-1.1377357E0,-0E0,3.74464E-1,3.2921216E0,3.6984375E-1,7.263461E-2],"categories":[],"categories_nodes":[],"categories_segments":[],"categories_sizes":[],"default_left":[1,1,1,1,1,1,1,1,1,1,1,0,1,1,1,0,0,0,0,0,0,0,0,0,0,0,0,0,0],"id":30,"left_children":[1,3,5,7,9,11,13,15,17,19,21,-1,23,25,27,-1,-1,-1,-1,-1,-1,-1,-1,-1,-1,-1,-1,-1,-1],"loss_changes":[9.0191795E1,3.7936863E1,3.277031E1,2.7954536E1,1.0527042E1,4.3207367E1,7.821588E1,2.9503914E1,8.6714554E-1,9.170278E0,1.1189245E1,0E0,1.9920967E1,1.5402351E1,2.5464699E1,0E0,0E0,0E0,0E0,0E0,0E0,0E0,0E0,0E0,0E0,0E0,0E0,0E0,0E0],"parents":[2147483647,0,0,1,1,2,2,3,3,4,4,5,5,6,6,7,7,8,8,9,9,10,10,12,12,13,13,14,14],"right_children":[2,4,6,8,10,12,14,16,18,20,22,-1,24,26,28,-1,-1,-1,-1,-1,-1,-1,-1,-1,-1,-1,-1,-1,-1],"split_conditions":[1.7559847E-1,5.573627E-1,-1.845547E-1,1.2734454E0,5.392918E-1,-1.5889792E0,-1.8691686E-1,-1.5083816E0,5.427676E-1,1.1576486E-1,1.1334168E0,2.2008847E-1,1.4975806E-1,4.1334875E-2,-1.1551392E0,-7.895663E-2,-1.8898088E-2,-4.3905906E-2,-2.2214845E-1,-1.1924865E-1,4.3490447E-2,7.616561E-2,-6.362972E-2,-1.1377358E-1,-0E0,3.7446402E-2,3.2921216E-1,3.6984377E-2,7.2634607E-3],"split_indices":[23,30,19,12,9,18,22,19,19,23,18,0,21,31,14,0,0,0,0,0,0,0,0,0,0,0,0,0,0],"split_type":[0,0,0,0,0,0,0,0,0,0,0,0,0,0,0,0,0,0,0,0,0,0,0,0,0,0,0,0,0],"sum_hessian":[4.286041E3,1.4151061E3,2.870935E3,1.3432078E3,7.189839E1,7.287734E1,2.7980576E3,1.3344336E3,8.774115E0,9.1407995E0,6.2757595E1,3.268908E0,6.960843E1,1.127993E1,2.7867776E3,8.732206E1,1.2471116E3,3.2093716E0,5.564743E0,4.779755E0,4.3610444E0,5.872313E1,4.0344663E0,4.443888E1,2.5169548E1,3.999778E0,7.2801523E0,3.280138E2,2.458764E3],"tree_param":{"num_deleted":"0","num_feature":"33","num_nodes":"29","size_leaf_vector":"0"}},{"base_weights":[1.8890586E-2,-2.7645108E-1,6.1401278E-2,-8.7710656E-2,-8.083716E-1,1.1104017E0,4.5587897E-2,-1.5820795E-1,1.6264622E0,-1.0050564E0,-1.935367E-1,1.834911E0,-5.599833E-1,-7.9215884E-1,6.5324515E-2,1.8993355E-1,-5.8960664E-1,-6.493605E-1,2.9167905E0,7.465913E-1,-1.0827008E0,-9.8524356E-1,6.50455E-1,-6.432736E-1,2.2378068E0,4.8131633E-1,-9.1127527E-1,1.7039186E-1,-9.644703E-1,8.1553495E-1,4.9123447E-2],"categories":[],"categories_nodes":[],"categories_segments":[],"categories_sizes":[],"default_left":[1,1,1,1,1,1,1,1,1,1,1,1,1,1,1,0,0,0,0,0,0,0,0,0,0,0,0,0,0,0,0],"id":31,"left_children":[1,3,5,7,9,11,13,15,17,19,21,23,25,27,29,-1,-1,-1,-1,-1,-1,-1,-1,-1,-1,-1,-1,-1,-1,-1,-1],"loss_changes":[5.329087E1,5.2501938E1,6.0578186E1,4.7052433E1,1.5105095E1,6.9085724E1,6.0145638E1,5.828755E1,5.1011745E1,1.5944069E1,2.6449852E1,4.319554E1,7.727748E0,1.4985367E1,4.273441E1,0E0,0E0,0E0,0E0,0E0,0E0,0E0,0E0,0E0,0E0,0E0,0E0,0E0,0E0,0E0,0E0],"parents":[2147483647,0,0,1,1,2,2,3,3,4,4,5,5,6,6,7,7,8,8,9,9,10,10,11,11,12,12,13,13,14,14],"right_children":[2,4,6,8,10,12,14,16,18,20,22,24,26,28,30,-1,-1,-1,-1,-1,-1,-1,-1,-1,-1,-1,-1,-1,-1,-1,-1],"split_conditions":[-5.109662E-1,-8.252636E-1,-4.5409802E-1,-3.0020803E-1,-2.3507398E-1,1.3817051E-1,-7.1679056E-1,-1.1667746E0,-8.490814E-1,-1.54607E0,-3.169558E-1,-1.0661588E0,-1.4675125E0,-1.3599524E0,-4.4281483E-1,1.8993355E-2,-5.8960665E-2,-6.493605E-2,2.9167905E-1,7.465913E-2,-1.0827009E-1,-9.8524354E-2,6.50455E-2,-6.432736E-2,2.2378068E-1,4.8131634E-2,-9.112753E-2,1.7039185E-2,-9.6447036E-2,8.15535E-2,4.9123447E-3],"split_indices":[22,20,22,25,0,13,2,5,22,18,21,21,20,6,3,0,0,0,0,0,0,0,0,0,0,0,0,0,0,0,0],"split_type":[0,0,0,0,0,0,0,0,0,0,0,0,0,0,0,0,0,0,0,0,0,0,0,0,0,0,0,0,0,0,0],"sum_hessian":[4.256958E3,5.3129224E2,3.7256655E3,3.9525455E2,1.360377E2,5.23342E1,3.6733315E3,3.819454E2,1.3309154E1,1.00872826E2,3.5164883E1,3.678209E1,1.5552112E1,8.1580925E1,3.5917505E3,2.1070584E2,1.7123955E2,4.894665E0,8.414489E0,3.0035214E0,9.78693E1,1.8583109E1,1.6581774E1,4.629718E0,3.215237E1,3.0183175E0,1.2533794E1,1.1509037E1,7.0071884E1,7.253482E1,3.5192156E3],"tree_param":{"num_deleted":"0","num_feature":"33","num_nodes":"31","size_leaf_vector":"0"}},{"base_weights":[-1.7445318E-2,-2.8757137E-1,4.7606766E-2,1.0811178E-1,-3.7860993E-1,-8.08703E-3,2.2326697E-1,-3.024496E-1,8.32915E-1,-5.0369567E-1,-9.788314E-3,1.0091787E-1,-1.6885518E-1,2.371705E-1,-1.7232519E0,-8.6906904E-1,9.264793E-1,1.2312459E0,-8.66472E-1,5.228841E-1,-5.5367917E-1,2.3044572E0,-1.8865615E-1,5.857091E-1,3.1716045E-2,-4.590496E-1,-1.8733593E-2,2.5854704E-1,-9.216671E-1],"categories":[],"categories_nodes":[],"categories_segments":[],"categories_sizes":[],"default_left":[1,1,1,1,1,1,1,1,1,1,1,1,1,1,0,0,0,0,0,0,0,0,0,0,0,0,0,0,0],"id":32,"left_children":[1,3,5,7,9,11,13,15,17,19,21,23,25,27,-1,-1,-1,-1,-1,-1,-1,-1,-1,-1,-1,-1,-1,-1,-1],"loss_changes":[7.427346E1,2.9914177E1,3.3411957E1,4.656322E1,3.037056E1,4.5205223E1,2.1554768E1,6.9974335E1,4.0906723E1,2.6162804E1,7.063861E1,5.071895E1,4.500357E1,2.0067112E1,0E0,0E0,0E0,0E0,0E0,0E0,0E0,0E0,0E0,0E0,0E0,0E0,0E0,0E0,0E0],"parents":[2147483647,0,0,1,1,2,2,3,3,4,4,5,5,6,6,7,7,8,8,9,9,10,10,11,11,12,12,13,13],"right_children":[2,4,6,8,10,12,14,16,18,20,22,24,26,28,-1,-1,-1,-1,-1,-1,-1,-1,-1,-1,-1,-1,-1,-1,-1],"split_conditions":[-1.6862112E-1,-1.4207172E0,1.3229039E0,-1.088377E0,-2.9465586E-1,8.399472E-2,8.086483E0,-1.3040838E0,-9.1619194E-1,-1.9063617E0,-1.008956E0,4.652394E-1,3.328249E-1,1.8197836E0,-1.723252E-1,-8.69069E-2,9.264793E-2,1.2312459E-1,-8.6647205E-2,5.228841E-2,-5.5367917E-2,2.3044573E-1,-1.8865615E-2,5.857091E-2,3.1716046E-3,-4.590496E-2,-1.8733593E-3,2.5854705E-2,-9.2166714E-2],"split_indices":[21,1,29,2,25,17,7,10,25,21,20,4,23,5,0,0,0,0,0,0,0,0,0,0,0,0,0,0,0],"split_type":[0,0,0,0,0,0,0,0,0,0,0,0,0,0,0,0,0,0,0,0,0,0,0,0,0,0,0,0,0],"sum_hessian":[4.20953E3,8.1865027E2,3.3908796E3,1.509992E2,6.6765106E2,2.5717202E3,8.191595E2,9.625931E1,5.473989E1,4.9599258E2,1.716585E2,1.529324E3,1.0423962E3,8.156039E2,3.5556178E0,6.684062E1,2.9418688E1,4.5268497E1,9.471391E0,2.122088E1,4.747717E2,1.0209324E1,1.6144916E2,1.8736517E2,1.3419589E3,3.5172083E2,6.9067535E2,8.032042E2,1.2399626E1],"tree_param":{"num_deleted":"0","num_feature":"33","num_nodes":"29","size_leaf_vector":"0"}},{"base_weights":[-1.2640138E-2,-7.8154606E-1,1.902513E-3,1.5797715E0,-9.630874E-1,-4.2545114E-2,1.8761034E-1,2.5688487E-1,-1.0683084E0,-6.169243E-2,4.4151765E-1,2.9656884E-1,-1.4357837E-2,6.652174E-1,-7.5776555E-2,-4.0966E-1,5.846808E-1,-9.18431E-1,3.2036987E-1,-5.2631795E-1,2.0312048E-1],"categories":[],"categories_nodes":[],"categories_segments":[],"categories_sizes":[],"default_left":[1,1,1,0,1,1,1,0,0,1,1,1,1,0,0,0,0,0,0,0,0],"id":33,"left_children":[1,3,5,-1,7,9,11,-1,-1,13,15,17,19,-1,-1,-1,-1,-1,-1,-1,-1],"loss_changes":[4.7636406E1,3.631744E1,3.4111465E1,0E0,1.09944E1,3.0409407E1,1.7874338E1,0E0,0E0,3.220717E1,1.5817308E1,1.509539E1,3.1567228E1,0E0,0E0,0E0,0E0,0E0,0E0,0E0,0E0],"parents":[2147483647,0,0,1,1,2,2,4,4,5,5,6,6,9,9,10,10,11,11,12,12],"right_children":[2,4,6,-1,8,10,12,-1,-1,14,16,18,20,-1,-1,-1,-1,-1,-1,-1,-1],"split_conditions":[-1.063838E0,-1.3188205E0,1.3486471E0,1.5797715E-1,-1.0969651E0,1.9038987E0,1.3098443E0,2.5688488E-2,-1.06830835E-1,-9.859164E-1,-2.2970158E-1,8.040683E-2,1.1140497E0,6.652174E-2,-7.5776554E-3,-4.0966E-2,5.846808E-2,-9.18431E-2,3.2036986E-2,-5.2631795E-2,2.0312048E-2],"split_indices":[22,22,9,0,13,7,19,0,0,22,0,19,6,0,0,0,0,0,0,0,0],"split_type":[0,0,0,0,0,0,0,0,0,0,0,0,0,0,0,0,0,0,0,0,0],"sum_hessian":[4.1881343E3,7.7060036E1,4.111074E3,4.0085287E0,7.3051506E1,3.3140427E3,7.970316E2,4.816825E0,6.823468E1,3.1916082E3,1.2243453E2,5.203343E2,2.766973E2,5.7556095E1,3.134052E3,1.608615E1,1.0634838E2,7.74557E0,5.1258875E2,8.302001E1,1.9367729E2],"tree_param":{"num_deleted":"0","num_feature":"33","num_nodes":"21","size_leaf_vector":"0"}},{"base_weights":[4.023199E-3,-9.739279E-2,1.15584396E-1,-1.5003002E-1,2.3888846E-1,-1.4287889E0,1.2428248E-1,-1.925397E-1,2.2415876E-1,1.4299151E0,1.5257666E-1,-1.2412037E0,1.3060585E-1,-1.6600604E-1,-1.4275796E0,4.8821732E-1,-2.9049158E-1,-5.2712625E-1,2.0060403E0,-1.0093575E0,2.8817847E-1,-1.3825127E-1,-1.6098442E0,3.3520275E-1,9.285904E-2],"categories":[],"categories_nodes":[],"categories_segments":[],"categories_sizes":[],"default_left":[1,1,1,1,1,0,1,1,1,1,1,1,1,0,0,0,0,0,0,0,0,0,0,0,0],"id":34,"left_children":[1,3,5,7,9,-1,11,13,15,17,19,21,23,-1,-1,-1,-1,-1,-1,-1,-1,-1,-1,-1,-1],"loss_changes":[4.7334175E1,3.867656E1,2.5864107E1,3.0180607E1,2.8209982E1,0E0,1.6373611E1,5.3778824E1,2.6537516E1,2.4844963E1,4.3537506E1,1.3125477E0,1.480685E1,0E0,0E0,0E0,0E0,0E0,0E0,0E0,0E0,0E0,0E0,0E0,0E0],"parents":[2147483647,0,0,1,1,2,2,3,3,4,4,6,6,7,7,8,8,9,9,10,10,11,11,12,12],"right_children":[2,4,6,8,10,-1,12,14,16,18,20,22,24,-1,-1,-1,-1,-1,-1,-1,-1,-1,-1,-1,-1],"split_conditions":[9.73043E-1,9.615942E-1,2.825589E-1,1.0320289E0,-1.3901665E0,-1.4287889E-1,-1.691744E-1,9.5510596E-1,1.2887844E0,-1.6096963E0,-4.0708184E-1,4.346835E-1,7.432624E-1,-1.6600605E-2,-1.4275797E-1,4.8821732E-2,-2.9049158E-2,-5.2712627E-2,2.0060404E-1,-1.0093575E-1,2.8817847E-2,-1.3825128E-2,-1.6098443E-1,3.3520278E-2,9.285904E-3],"split_indices":[4,13,10,2,10,0,19,2,2,0,11,25,20,0,0,0,0,0,0,0,0,0,0,0,0],"split_type":[0,0,0,0,0,0,0,0,0,0,0,0,0,0,0,0,0,0,0,0,0,0,0,0,0],"sum_hessian":[4.178051E3,2.183974E3,1.9940765E3,1.8919186E3,2.9205563E2,8.695325E0,1.9853812E3,1.7021852E3,1.8973334E2,1.6848034E1,2.752076E2,6.622304E0,1.9787589E3,1.6693983E3,3.2786922E1,1.2674723E2,6.298611E1,3.4757192E0,1.3372315E1,2.6643688E1,2.485639E2,3.0273545E0,3.5949495E0,3.01625E2,1.6771339E3],"tree_param":{"num_deleted":"0","num_feature":"33","num_nodes":"25","size_leaf_vector":"0"}},{"base_weights":[1.0656663E-2,-6.3141994E-2,1.4238057E-1,-3.0883696E-2,-4.2496938E-1,1.915634E-1,-7.6845616E-2,-2.0893359E-1,4.8186757E-2,-8.6306745E-1,2.7000245E-1,-3.7170175E-1,2.1083021E-1,-2.9303917E-1,3.1003428E-1,-9.242302E-2,-5.983775E-1,1.3254114E0,1.7164377E-2,-3.0759084E-1,-1.4401573E0,-1.0607203E0,4.0010422E-1,-1.3272572E0,1.8385485E-1,4.192811E-1,1.6035482E-1,-4.9319586E-1,4.2574787E-1,-5.329812E-1,4.7262344E-1],"categories":[],"categories_nodes":[],"categories_segments":[],"categories_sizes":[],"default_left":[1,1,1,1,1,1,1,1,1,1,1,1,1,1,1,0,0,0,0,0,0,0,0,0,0,0,0,0,0,0,0],"id":35,"left_children":[1,3,5,7,9,11,13,15,17,19,21,23,25,27,29,-1,-1,-1,-1,-1,-1,-1,-1,-1,-1,-1,-1,-1,-1,-1,-1],"loss_changes":[4.0773666E1,3.07797E1,1.640361E1,3.486783E1,6.6990234E1,1.3409031E1,2.3084364E1,3.3771465E1,6.612395E1,4.0378647E1,1.4794771E1,2.280556E1,1.1891716E1,2.6164856E1,1.3813821E1,0E0,0E0,0E0,0E0,0E0,0E0,0E0,0E0,0E0,0E0,0E0,0E0,0E0,0E0,0E0,0E0],"parents":[2147483647,0,0,1,1,2,2,3,3,4,4,5,5,6,6,7,7,8,8,9,9,10,10,11,11,12,12,13,13,14,14],"right_children":[2,4,6,8,10,12,14,16,18,20,22,24,26,28,30,-1,-1,-1,-1,-1,-1,-1,-1,-1,-1,-1,-1,-1,-1,-1,-1],"split_conditions":[1.0610944E0,1.0959969E0,1.4680021E0,-1.6367435E-1,1.2011325E0,2.188679E-1,1.2743936E0,-5.748819E-1,-4.3391016E-1,8.2660055E-1,4.4074112E-1,9.5929444E-1,8.827864E-1,-5.7733846E-1,1.4093825E0,-9.242303E-3,-5.9837755E-2,1.3254115E-1,1.7164377E-3,-3.0759085E-2,-1.4401573E-1,-1.0607203E-1,4.0010422E-2,-1.3272572E-1,1.8385485E-2,4.192811E-2,1.6035482E-2,-4.9319588E-2,4.257479E-2,-5.3298123E-2,4.7262345E-2],"split_indices":[29,1,5,4,9,19,2,26,3,9,19,6,1,14,12,0,0,0,0,0,0,0,0,0,0,0,0,0,0,0,0],"split_type":[0,0,0,0,0,0,0,0,0,0,0,0,0,0,0,0,0,0,0,0,0,0,0,0,0,0,0,0,0,0,0],"sum_hessian":[4.1823687E3,2.6763735E3,1.5059955E3,2.4618267E3,2.1454684E2,1.2339712E3,2.7202435E2,7.599477E2,1.7018789E3,1.321788E2,8.236804E1,3.7886047E1,1.1960851E3,1.7647673E2,9.5547615E1,5.8882916E2,1.7111855E2,3.7613346E1,1.6642655E3,6.9795815E1,6.238298E1,5.3770947E0,7.699095E1,1.3569108E1,2.4316938E1,2.264554E2,9.696297E2,1.3961722E2,3.6859505E1,1.3717341E1,8.183028E1],"tree_param":{"num_deleted":"0","num_feature":"33","num_nodes":"31","size_leaf_vector":"0"}},{"base_weights":[-1.9618863E-4,-1.8487248E-1,5.7804853E-2,7.232077E-2,-3.015638E-1,6.9918865E-1,3.9113503E-2,-6.0416037E-1,3.1529835E-1,-5.921041E-1,-1.6057561E-1,1.129764E0,-5.83652E-1,-4.487112E-1,5.4539327E-2,-8.800973E-1,1.372521E0,1.3769704E0,9.132838E-2,-3.625283E-1,-1.0681722E0,1.4970853E0,-2.6885897E-1,1.5248294E0,1.5987007E-1,-1.1572614E0,5.64417E-1,2.8367501E-1,-9.346891E-1,8.185164E-1,4.18357E-2],"categories":[],"categories_nodes":[],"categories_segments":[],"categories_sizes":[],"default_left":[1,1,1,1,1,1,1,1,1,1,1,1,1,1,1,0,0,0,0,0,0,0,0,0,0,0,0,0,0,0,0],"id":36,"left_children":[1,3,5,7,9,11,13,15,17,19,21,23,25,27,29,-1,-1,-1,-1,-1,-1,-1,-1,-1,-1,-1,-1,-1,-1,-1,-1],"loss_changes":[4.4488052E1,3.0103527E1,3.6940525E1,5.090795E1,2.7190166E1,5.0193516E1,2.2696823E1,4.6265633E1,5.2936775E1,2.1984444E1,8.3485954E1,2.3413132E1,1.6862783E1,3.395762E1,2.7914658E1,0E0,0E0,0E0,0E0,0E0,0E0,0E0,0E0,0E0,0E0,0E0,0E0,0E0,0E0,0E0,0E0],"parents":[2147483647,0,0,1,1,2,2,3,3,4,4,5,5,6,6,7,7,8,8,9,9,10,10,11,11,12,12,13,13,14,14],"right_children":[2,4,6,8,10,12,14,16,18,20,22,24,26,28,30,-1,-1,-1,-1,-1,-1,-1,-1,-1,-1,-1,-1,-1,-1,-1,-1],"split_conditions":[-4.1503422E-2,-1.0312088E0,-7.438928E-3,-1.5216815E0,-6.9390225E-1,5.975877E-1,-1.643795E-1,-9.6034425E-1,-1.4305108E0,2.177394E-1,-6.28211E-1,4.1334875E-2,5.83894E-1,-1.2502734E-1,-9.743306E-2,-8.800974E-2,1.372521E-1,1.3769704E-1,9.132839E-3,-3.625283E-2,-1.0681722E-1,1.4970854E-1,-2.6885897E-2,1.5248294E-1,1.5987007E-2,-1.15726136E-1,5.6441702E-2,2.8367503E-2,-9.346891E-2,8.185164E-2,4.18357E-3],"split_indices":[11,19,11,19,1,9,23,26,19,7,1,31,2,22,23,0,0,0,0,0,0,0,0,0,0,0,0,0,0,0,0],"split_type":[0,0,0,0,0,0,0,0,0,0,0,0,0,0,0,0,0,0,0,0,0,0,0,0,0,0,0,0,0,0,0],"sum_hessian":[4.1374717E3,9.9195056E2,3.145521E3,3.0715564E2,6.847949E2,8.549488E1,3.0600261E3,7.929618E1,2.2785945E2,2.193268E2,4.6546814E2,6.477264E1,2.0722248E1,9.008806E1,2.9699382E3,7.1000244E1,8.295938E0,3.7123608E1,1.9073584E2,1.5176448E2,6.756231E1,2.6402218E1,4.3906592E2,4.44795E1,2.0293133E1,1.4388393E1,6.333854E0,3.5445408E1,5.4642654E1,4.521468E1,2.9247234E3],"tree_param":{"num_deleted":"0","num_feature":"33","num_nodes":"31","size_leaf_vector":"0"}},{"base_weights":[-1.1025849E-2,-6.9908805E-2,1.2862645E-1,-9.8032765E-2,6.4125836E-1,-2.6651242E-1,1.8815866E-1,-1.4355895E-1,1.309128E-1,1.8459268E0,5.239586E-1,-5.216448E-1,7.959094E-1,5.380616E-1,1.3446322E-1,-7.321873E-2,-3.3497044E-1,2.1695822E-1,-5.991377E-1,-9.447862E-1,7.407583E-1,-2.6983297E-1,-2.1778371E0,1.0843425E0,-0E0,7.916178E-1,1.7965296E-1,4.3192264E-1,5.8111425E-2],"categories":[],"categories_nodes":[],"categories_segments":[],"categories_sizes":[],"default_left":[1,1,1,1,1,1,1,1,1,0,1,1,1,1,1,0,0,0,0,0,0,0,0,0,0,0,0,0,0],"id":37,"left_children":[1,3,5,7,9,11,13,15,17,-1,19,21,23,25,27,-1,-1,-1,-1,-1,-1,-1,-1,-1,-1,-1,-1,-1,-1],"loss_changes":[3.345694E1,5.7019836E1,2.8340446E1,2.8876005E1,1.0979385E1,4.2909653E1,1.8902618E1,3.06641E1,2.8530506E1,0E0,3.3710224E1,4.974379E1,7.3673153E0,1.1148506E1,2.0242939E1,0E0,0E0,0E0,0E0,0E0,0E0,0E0,0E0,0E0,0E0,0E0,0E0,0E0,0E0],"parents":[2147483647,0,0,1,1,2,2,3,3,4,4,5,5,6,6,7,7,8,8,10,10,11,11,12,12,13,13,14,14],"right_children":[2,4,6,8,10,12,14,16,18,-1,20,22,24,26,28,-1,-1,-1,-1,-1,-1,-1,-1,-1,-1,-1,-1,-1,-1],"split_conditions":[1.0413694E0,1.9038987E0,3.3809775E-1,1.2377727E0,-1.5870006E0,1.5106235E0,9.129708E-1,2.6351595E-1,5.9535706E-1,1.8459268E-1,-2.2970158E-1,3.1767595E-1,1.3395995E-1,9.1583836E-1,4.2227244E-1,-7.321873E-3,-3.3497047E-2,2.1695822E-2,-5.9913773E-2,-9.447862E-2,7.407583E-2,-2.6983296E-2,-2.1778372E-1,1.0843425E-1,-0E0,7.9161786E-2,1.7965296E-2,4.3192264E-2,5.8111427E-3],"split_indices":[2,7,3,9,29,0,24,11,11,0,0,3,32,29,3,0,0,0,0,0,0,0,0,0,0,0,0,0,0],"split_type":[0,0,0,0,0,0,0,0,0,0,0,0,0,0,0,0,0,0,0,0,0,0,0,0,0,0,0,0,0],"sum_hessian":[4.071586E3,2.8697463E3,1.2018396E3,2.7635874E3,1.06158936E2,1.5425262E2,1.047587E3,2.3094612E3,4.5412625E2,6.0479255E0,1.0011101E2,1.2596287E2,2.8289751E1,1.3449487E2,9.1309216E2,1.6946849E3,6.147763E2,4.0872803E2,4.5398216E1,1.1419492E1,8.869152E1,1.1188172E2,1.4081147E1,2.0584661E1,7.7050896E0,7.571956E1,5.877531E1,1.8192358E2,7.311686E2],"tree_param":{"num_deleted":"0","num_feature":"33","num_nodes":"29","size_leaf_vector":"0"}},{"base_weights":[2.690791E-2,-5.3016084E-1,4.4688042E-2,-5.253474E-3,-8.718468E-1,2.3348192E-2,4.35125E-1,-3.4978044E-1,1.5003864E0,-9.580773E-1,3.7601846E-1,1.2009683E0,1.6527114E-2,8.92179E-1,1.5454453E-1,-6.4851135E-1,1.2701443E0,3.1550832E0,-5.435956E-1,-0E0,-1.063396E0,2.1211288E0,-7.2897613E-1,-9.93795E-1,2.4731068E-2,1.2009554E0,2.368744E-1,-1.1029875E0,2.7570644E-1],"categories":[],"categories_nodes":[],"categories_segments":[],"categories_sizes":[],"default_left":[1,1,1,1,1,1,1,1,1,1,0,1,1,1,1,0,0,0,0,0,0,0,0,0,0,0,0,0,0],"id":38,"left_children":[1,3,5,7,9,11,13,15,17,19,-1,21,23,25,27,-1,-1,-1,-1,-1,-1,-1,-1,-1,-1,-1,-1,-1,-1],"loss_changes":[4.033366E1,2.1664925E1,3.27874E1,2.7258076E1,9.372219E0,2.9188694E1,2.48863E1,2.284247E1,3.8709793E1,6.192772E0,0E0,4.1698853E1,3.0339169E1,1.3364006E1,1.965055E1,0E0,0E0,0E0,0E0,0E0,0E0,0E0,0E0,0E0,0E0,0E0,0E0,0E0,0E0],"parents":[2147483647,0,0,1,1,2,2,3,3,4,4,5,5,6,6,7,7,8,8,9,9,11,11,12,12,13,13,14,14],"right_children":[2,4,6,8,10,12,14,16,18,20,-1,22,24,26,28,-1,-1,-1,-1,-1,-1,-1,-1,-1,-1,-1,-1,-1,-1],"split_conditions":[-5.628551E-1,-4.5833716E-1,1.9038987E0,-7.583487E-1,1.785018E0,-1.5475382E0,5.404705E-1,-5.933982E-1,-1.0933634E0,-1.6487832E0,3.7601847E-2,-1.4482871E0,-1.1256495E0,2.465952E0,6.7524457E-1,-6.4851135E-2,1.2701444E-1,3.1550834E-1,-5.4359563E-2,-0E0,-1.06339596E-1,2.1211289E-1,-7.289761E-2,-9.93795E-2,2.4731068E-3,1.2009554E-1,2.368744E-2,-1.1029875E-1,2.7570644E-2],"split_indices":[30,8,7,29,13,25,0,22,20,18,0,24,23,7,29,0,0,0,0,0,0,0,0,0,0,0,0,0,0],"split_type":[0,0,0,0,0,0,0,0,0,0,0,0,0,0,0,0,0,0,0,0,0,0,0,0,0,0,0,0,0],"sum_hessian":[4.114382E3,1.2373596E2,3.9906458E3,5.074205E1,7.299391E1,3.7882734E3,2.0237227E2,4.3083126E1,7.658924E0,6.945989E1,3.5340235E0,1.8955612E1,3.7693179E3,7.396416E1,1.2840813E2,3.7908966E1,5.174161E0,3.902069E0,3.7568548E0,7.9774227E0,6.1482468E1,1.305247E1,5.903142E0,2.74437E1,3.741874E3,4.8105656E1,2.5858496E1,9.135111E0,1.1927301E2],"tree_param":{"num_deleted":"0","num_feature":"33","num_nodes":"29","size_leaf_vector":"0"}},{"base_weights":[5.5383584E-3,-1.3242869E-1,6.861875E-2,1.4926668E0,-1.4421163E-1,-8.2644427E-1,8.138618E-2,-1.0046837E0,-1.2378668E-1,-1.0781819E0,6.754488E-1,5.412891E-1,4.314379E-2,2.5407606E-1,-1.8546036E-1,-1.178911E0,-0E0,1.1502169E0,1.3748631E-1,-7.0640665E-1,6.0138747E-2],"categories":[],"categories_nodes":[],"categories_segments":[],"categories_sizes":[],"default_left":[1,1,1,0,1,1,1,0,1,1,0,1,1,0,0,0,0,0,0,0,0],"id":39,"left_children":[1,3,5,-1,7,9,11,-1,13,15,-1,17,19,-1,-1,-1,-1,-1,-1,-1,-1],"loss_changes":[3.5757107E1,2.3715708E1,3.1722546E1,0E0,2.1112488E1,1.6555E1,4.848281E1,0E0,2.9234617E1,3.6419983E0,0E0,5.0572834E1,3.2333588E1,0E0,0E0,0E0,0E0,0E0,0E0,0E0,0E0],"parents":[2147483647,0,0,1,1,2,2,4,4,5,5,6,6,8,8,9,9,11,11,12,12],"right_children":[2,4,6,-1,8,10,12,-1,14,16,-1,18,20,-1,-1,-1,-1,-1,-1,-1,-1],"split_conditions":[4.0088707E-1,-1.3056643E0,-7.317151E-2,1.4926669E-1,-1.6961935E0,1.0551193E0,3.5737026E-1,-1.00468375E-1,-1.2488589E0,1.0586069E0,6.754488E-2,5.125177E-1,6.972692E-2,2.5407607E-2,-1.8546036E-2,-1.17891096E-1,-0E0,1.150217E-1,1.3748631E-2,-7.064067E-2,6.013875E-3],"split_indices":[9,22,20,0,28,2,20,0,28,9,0,28,22,0,0,0,0,0,0,0,0],"split_type":[0,0,0,0,0,0,0,0,0,0,0,0,0,0,0,0,0,0,0,0,0],"sum_hessian":[4.111832E3,1.2844595E3,2.8273726E3,6.8257604E0,1.2776337E3,3.6869125E1,2.7905034E3,2.6254023E1,1.2513796E3,3.2629967E1,4.239162E0,2.1019856E2,2.580305E3,1.7243709E2,1.0789425E3,2.9585495E1,3.044469E0,8.135029E1,1.2884828E2,5.410423E1,2.5262007E3],"tree_param":{"num_deleted":"0","num_feature":"33","num_nodes":"21","size_leaf_vector":"0"}},{"base_weights":[1.342849E-2,-5.2004978E-2,1.5405309E-1,-1.0157509E-1,2.504995E-1,-1.3154546E0,1.7037301E-1,4.510805E-1,-1.2097757E-1,2.9117408E-1,-6.905873E-1,-1.0761027E-1,-2.900818E0,4.02073E-1,9.784023E-2,-4.1964164E-1,1.1864827E0,-7.5127393E-1,-1.01016395E-1,-8.04303E-2,3.6643732E-1,8.962E-2,-2.3441305E0,-1.0909778E0,5.2041656E-1,-9.228947E-1,4.5099494E-1,1.1504695E-1,-1.4552817E0],"categories":[],"categories_nodes":[],"categories_segments":[],"categories_sizes":[],"default_left":[1,1,1,1,1,1,1,1,1,1,1,1,0,1,1,0,0,0,0,0,0,0,0,0,0,0,0,0,0],"id":40,"left_children":[1,3,5,7,9,11,13,15,17,19,21,23,-1,25,27,-1,-1,-1,-1,-1,-1,-1,-1,-1,-1,-1,-1,-1,-1],"loss_changes":[3.7330555E1,4.1237366E1,3.0230005E1,2.5221577E1,1.4772341E1,2.2640476E1,2.089679E1,5.2445316E1,2.7877678E1,1.07571335E1,2.2749157E1,8.0193615E0,0E0,1.9853546E1,2.5160938E1,0E0,0E0,0E0,0E0,0E0,0E0,0E0,0E0,0E0,0E0,0E0,0E0,0E0,0E0],"parents":[2147483647,0,0,1,1,2,2,3,3,4,4,5,5,6,6,7,7,8,8,9,9,10,10,11,11,13,13,14,14],"right_children":[2,4,6,8,10,12,14,16,18,20,22,24,-1,26,28,-1,-1,-1,-1,-1,-1,-1,-1,-1,-1,-1,-1,-1,-1],"split_conditions":[1.0041363E0,1.2944574E0,-1.2316824E0,-1.4404957E0,1.112293E0,1.1501995E0,9.625001E-1,-1.2769456E0,-1.4291112E0,3.0707312E-1,1.257571E0,1.3395995E-1,-2.9008183E-1,5.5436067E-2,1.7278886E0,-4.1964166E-2,1.1864827E-1,-7.512739E-2,-1.010164E-2,-8.04303E-3,3.6643732E-2,8.962001E-3,-2.3441306E-1,-1.0909778E-1,5.2041657E-2,-9.228947E-2,4.5099493E-2,1.1504695E-2,-1.4552818E-1],"split_indices":[25,9,31,25,22,18,18,2,27,3,12,32,0,19,12,0,0,0,0,0,0,0,0,0,0,0,0,0,0],"split_type":[0,0,0,0,0,0,0,0,0,0,0,0,0,0,0,0,0,0,0,0,0,0,0,0,0,0,0,0,0],"sum_hessian":[4.0421516E3,2.7545789E3,1.2875728E3,2.3707314E3,3.8384747E2,1.17206135E1,1.2758522E3,7.7150764E1,2.2935806E3,3.7028714E2,1.3560333E1,8.222582E0,3.4980316E0,2.9872528E2,9.771269E2,3.5095886E1,4.205488E1,6.6619675E1,2.226961E3,6.010431E1,3.1018283E2,1.0087494E1,3.472839E0,3.2506628E0,4.9719186E0,8.636988E0,2.900883E2,9.688885E2,8.238402E0],"tree_param":{"num_deleted":"0","num_feature":"33","num_nodes":"29","size_leaf_vector":"0"}},{"base_weights":[1.684089E-2,-5.793907E-2,9.799966E-2,-8.447583E-3,-4.811575E-1,-8.3276767E-1,1.1119445E-1,3.3193526E-5,-1.6387228E0,-7.6505387E-1,3.7441352E-1,-0E0,-1.7296594E0,7.4878466E-1,9.220515E-2,-4.0177576E-2,3.0697447E-1,-1.645615E-2,-2.2232947E0,-1.0492306E0,-6.837624E-2,6.250531E-1,-4.7594613E-1,-9.3487024E-1,6.4944583E-1,1.1982162E0,-3.405128E-1,-1.0950962E0,1.0048526E-1],"categories":[],"categories_nodes":[],"categories_segments":[],"categories_sizes":[],"default_left":[1,1,1,1,1,1,1,1,1,1,1,1,0,1,1,0,0,0,0,0,0,0,0,0,0,0,0,0,0],"id":41,"left_children":[1,3,5,7,9,11,13,15,17,19,21,23,-1,25,27,-1,-1,-1,-1,-1,-1,-1,-1,-1,-1,-1,-1,-1,-1],"loss_changes":[2.4763872E1,4.3782906E1,2.353265E1,2.7865078E1,5.420242E1,2.0901875E1,2.2451683E1,2.3599419E1,7.575201E0,3.162548E1,1.2482449E1,1.0405169E1,0E0,2.819165E1,1.7737978E1,0E0,0E0,0E0,0E0,0E0,0E0,0E0,0E0,0E0,0E0,0E0,0E0,0E0,0E0],"parents":[2147483647,0,0,1,1,2,2,3,3,4,4,5,5,6,6,7,7,8,8,9,9,10,10,11,11,13,13,14,14],"right_children":[2,4,6,8,10,12,14,16,18,20,22,24,-1,26,28,-1,-1,-1,-1,-1,-1,-1,-1,-1,-1,-1,-1,-1,-1],"split_conditions":[9.73043E-1,8.752856E-1,1.20164424E-1,1.5179898E0,1.3550885E0,6.788395E-1,1.0577425E-1,1.0232153E0,6.734634E-1,1.0295292E0,1.1663767E0,6.124456E-1,-1.7296594E-1,8.3074105E-1,3.6094266E-1,-4.0177577E-3,3.0697448E-2,-1.645615E-3,-2.2232948E-1,-1.0492306E-1,-6.8376246E-3,6.250531E-2,-4.7594614E-2,-9.3487024E-2,6.494459E-2,1.1982162E-1,-3.405128E-2,-1.09509625E-1,1.0048526E-2],"split_indices":[4,4,22,5,9,0,11,5,2,2,5,9,0,28,28,0,0,0,0,0,0,0,0,0,0,0,0,0,0],"split_type":[0,0,0,0,0,0,0,0,0,0,0,0,0,0,0,0,0,0,0,0,0,0,0,0,0,0,0,0,0],"sum_hessian":[4.0698823E3,2.1120674E3,1.9578152E3,1.8948812E3,2.171861E2,2.457069E1,1.9332444E3,1.8864543E3,8.4268675E0,1.6411102E2,5.3075066E1,1.3424848E1,1.1145843E1,5.2166348E1,1.8810781E3,1.6666018E3,2.1985252E2,3.2300353E0,5.196832E0,1.148258E2,4.928523E1,4.2310207E1,1.0764858E1,4.7574124E0,8.667436E0,3.743793E1,1.47284155E1,1.0373108E1,1.870705E3],"tree_param":{"num_deleted":"0","num_feature":"33","num_nodes":"29","size_leaf_vector":"0"}},{"base_weights":[1.3651459E-2,-3.0482128E-1,3.9450474E-2,-0E0,-9.0660536E-1,3.373969E-1,9.238853E-3,-3.7465683E-1,8.264924E-1,-9.8428684E-1,7.512683E-1,6.718316E-1,-9.862478E-2,-1.035265E0,2.5432367E-2,3.1828564E-1,-6.2294614E-1,-0E0,1.9238782E0,7.4687964E-1,-1.0665522E0,1.7177834E-1,1.2461233E0,3.8917112E-1,-5.341419E-1,-1.0968946E0,-0E0,-9.674377E-2,9.359503E-2],"categories":[],"categories_nodes":[],"categories_segments":[],"categories_sizes":[],"default_left":[1,1,1,1,1,1,1,1,1,1,0,1,1,1,1,0,0,0,0,0,0,0,0,0,0,0,0,0,0],"id":42,"left_children":[1,3,5,7,9,11,13,15,17,19,-1,21,23,25,27,-1,-1,-1,-1,-1,-1,-1,-1,-1,-1,-1,-1,-1,-1],"loss_changes":[3.2839607E1,5.417257E1,3.32155E1,6.2620895E1,1.4553772E1,5.0317474E1,5.6398758E1,2.4880392E1,5.7802284E1,1.5683403E1,0E0,5.3893738E1,3.2029613E1,2.9887886E0,2.7847641E1,0E0,0E0,0E0,0E0,0E0,0E0,0E0,0E0,0E0,0E0,0E0,0E0,0E0,0E0],"parents":[2147483647,0,0,1,1,2,2,3,3,4,4,5,5,6,6,7,7,8,8,9,9,11,11,12,12,13,13,14,14],"right_children":[2,4,6,8,10,12,14,16,18,20,-1,22,24,26,28,-1,-1,-1,-1,-1,-1,-1,-1,-1,-1,-1,-1,-1,-1],"split_conditions":[-9.864861E-1,-1.088324E0,-4.6395308E-1,-1.237447E0,1.826382E-2,4.1334875E-2,-3.211301E-1,-1.5715692E0,-1.1371014E0,-2.0145984E0,7.5126834E-2,-5.837864E-1,-9.853865E-1,4.739864E-1,3.4849894E-1,3.1828564E-2,-6.2294614E-2,-0E0,1.9238782E-1,7.4687965E-2,-1.0665522E-1,1.7177833E-2,1.2461233E-1,3.8917113E-2,-5.3414192E-2,-1.0968947E-1,-0E0,-9.674377E-3,9.359503E-3],"split_indices":[2,5,26,5,22,31,26,12,26,1,0,23,5,21,23,0,0,0,0,0,0,0,0,0,0,0,0,0,0],"split_type":[0,0,0,0,0,0,0,0,0,0,0,0,0,0,0,0,0,0,0,0,0,0,0,0,0,0,0,0,0],"sum_hessian":[4.0242644E3,2.9704443E2,3.72722E3,1.9933003E2,9.77144E1,3.3822418E2,3.3889958E3,1.385356E2,6.0794434E1,9.469322E1,3.0211794E0,1.9209583E2,1.4612834E2,4.8875027E1,3.3401208E3,3.53334E1,1.032022E2,3.558877E1,2.5205664E1,3.0112717E0,9.168195E1,1.0500462E2,8.70912E1,6.794455E1,7.81838E1,4.5802822E1,3.0722063E0,1.1905842E3,2.1495366E3],"tree_param":{"num_deleted":"0","num_feature":"33","num_nodes":"29","size_leaf_vector":"0"}},{"base_weights":[-8.0983E-3,-4.8205644E-1,5.9944596E-3,1.2123567E-1,-9.3984586E-1,1.0973426E0,-3.3146543E-3,-6.417913E-1,2.0547652E0,-0E0,-1.0554974E0,-4.0788522E-1,2.030878E0,-3.0539395E-2,1.9480479E-1,2.9236922E-1,-1.00585E0,2.86857E0,-5.073058E-1,-5.369498E-1,7.619474E-1,4.89514E-1,-8.326992E-1,3.2883754E0,4.9312618E-2,-4.0864784E-2,7.3276305E-1,-4.420419E-1,2.4922046E-1],"categories":[],"categories_nodes":[],"categories_segments":[],"categories_sizes":[],"default_left":[1,1,1,1,1,1,1,1,1,1,0,1,1,1,1,0,0,0,0,0,0,0,0,0,0,0,0,0,0],"id":43,"left_children":[1,3,5,7,9,11,13,15,17,19,-1,21,23,25,27,-1,-1,-1,-1,-1,-1,-1,-1,-1,-1,-1,-1,-1,-1],"loss_changes":[2.7088512E1,3.338636E1,4.0401325E1,7.980723E1,8.144154E0,5.0538666E1,2.0541712E1,1.4215565E1,3.7332573E1,4.553314E0,0E0,6.544945E0,4.991809E1,2.6001743E1,1.5946299E1,0E0,0E0,0E0,0E0,0E0,0E0,0E0,0E0,0E0,0E0,0E0,0E0,0E0,0E0],"parents":[2147483647,0,0,1,1,2,2,3,3,4,4,5,5,6,6,7,7,8,8,9,9,11,11,12,12,13,13,14,14],"right_children":[2,4,6,8,10,12,14,16,18,20,-1,22,24,26,28,-1,-1,-1,-1,-1,-1,-1,-1,-1,-1,-1,-1,-1,-1],"split_conditions":[-1.2975355E0,-1.4505813E0,-1.5842679E0,-1.2787702E0,-1.538283E0,-1.0748758E0,9.615942E-1,-1.1578889E0,-1.2370949E0,-1.2497901E0,-1.05549745E-1,-1.8540635E0,-1.2444649E0,2.0335283E0,-4.523547E-1,2.9236922E-2,-1.00585E-1,2.86857E-1,-5.0730582E-2,-5.3694982E-2,7.619474E-2,4.89514E-2,-8.326992E-2,3.2883754E-1,4.9312618E-3,-4.0864786E-3,7.32763E-2,-4.420419E-2,2.4922047E-2],"split_indices":[24,24,12,2,2,9,13,23,5,6,0,1,18,8,23,0,0,0,0,0,0,0,0,0,0,0,0,0,0],"split_type":[0,0,0,0,0,0,0,0,0,0,0,0,0,0,0,0,0,0,0,0,0,0,0,0,0,0,0,0,0],"sum_hessian":[3.9814058E3,1.1509673E2,3.866309E3,4.934887E1,6.574786E1,3.1631865E1,3.8346772E3,3.5972164E1,1.3376705E1,6.722755E0,5.902511E1,1.2129412E1,1.9502453E1,3.3773193E3,4.5735788E2,9.427806E0,2.654436E1,1.026669E1,3.1100154E0,3.7209141E0,3.0018408E0,3.0428855E0,9.086526E0,1.0815402E1,8.687052E0,3.3354036E3,4.191585E1,3.343475E1,4.2392313E2],"tree_param":{"num_deleted":"0","num_feature":"33","num_nodes":"29","size_leaf_vector":"0"}},{"base_weights":[2.3609154E-2,-2.7688721E-2,1.4282916E-1,-1.9025125E-2,-1.0557033E0,2.9476145E-1,6.2935956E-2,-4.145326E-2,4.4035155E-1,-0E0,-2.188784E0,8.084342E-1,1.9669199E-1,-3.6355507E-1,1.2762761E-1,-2.4126312E-2,-5.198036E-1,5.716324E-1,-4.4462892E-1,-6.3147295E-1,4.113955E-1,-0E0,-3.7721534E0,1.2276323E-1,9.6756864E-1,2.6403245E-1,-2.1911007E-1,-6.990447E-1,4.158795E-1,5.464681E-1,7.133466E-2],"categories":[],"categories_nodes":[],"categories_segments":[],"categories_sizes":[],"default_left":[1,1,1,1,1,1,1,1,1,1,1,1,1,1,1,0,0,0,0,0,0,0,0,0,0,0,0,0,0,0,0],"id":44,"left_children":[1,3,5,7,9,11,13,15,17,19,21,23,25,27,29,-1,-1,-1,-1,-1,-1,-1,-1,-1,-1,-1,-1,-1,-1,-1,-1],"loss_changes":[2.4591646E1,2.3761429E1,1.4290318E1,2.8205399E1,2.7417881E1,1.9435444E1,2.1921875E1,2.1375263E1,1.5410049E1,3.936283E0,4.110174E1,5.63171E0,9.9689455E0,2.8011032E1,1.5759651E1,0E0,0E0,0E0,0E0,0E0,0E0,0E0,0E0,0E0,0E0,0E0,0E0,0E0,0E0,0E0,0E0],"parents":[2147483647,0,0,1,1,2,2,3,3,4,4,5,5,6,6,7,7,8,8,9,9,10,10,11,11,12,12,13,13,14,14],"right_children":[2,4,6,8,10,12,14,16,18,20,22,24,26,28,30,-1,-1,-1,-1,-1,-1,-1,-1,-1,-1,-1,-1,-1,-1,-1,-1],"split_conditions":[1.024109E0,1.8731554E0,1.1460035E0,1.547137E0,1.3042531E0,7.297634E-1,3.3809775E-1,1.5333006E0,9.919903E-1,1.6199964E0,8.984897E-1,4.7503674E-1,1.5071616E0,7.9757726E-1,2.5389504E-1,-2.4126312E-3,-5.1980358E-2,5.716324E-2,-4.4462893E-2,-6.31473E-2,4.113955E-2,-0E0,-3.7721536E-1,1.22763235E-2,9.675687E-2,2.6403246E-2,-2.1911008E-2,-6.990447E-2,4.158795E-2,5.464681E-2,7.133466E-3],"split_indices":[2,0,2,29,18,10,3,5,2,9,21,10,5,23,23,0,0,0,0,0,0,0,0,0,0,0,0,0,0,0,0],"split_type":[0,0,0,0,0,0,0,0,0,0,0,0,0,0,0,0,0,0,0,0,0,0,0,0,0,0,0,0,0,0,0],"sum_hessian":[3.9989263E3,2.7911152E3,1.2078108E3,2.7707744E3,2.0340946E1,4.1007632E2,7.9773456E2,2.6456045E3,1.2516989E2,1.1420568E1,8.920378E0,6.178294E1,3.4829337E2,1.0181352E2,6.95921E2,2.5571694E3,8.843516E1,1.1060109E2,1.4568804E1,3.7792664E0,7.6413016E0,4.35506E0,4.565317E0,1.3489011E1,4.829393E1,3.0244626E2,4.5847122E1,7.221815E1,2.9595375E1,7.828348E1,6.176375E2],"tree_param":{"num_deleted":"0","num_feature":"33","num_nodes":"31","size_leaf_vector":"0"}},{"base_weights":[-6.343792E-3,-2.4389295E-2,3.323514E-1,-3.5464264E-2,4.7773817E-1,3.92815E-1,-8.1992984E-1,-4.7318656E-2,4.3083584E-1,6.797568E-1,-7.53368E-1,4.4331306E-1,-1.0912769E0,-1.8146507E0,1.546664E-1,-4.067026E-2,-9.365736E-1,-2.2453323E-1,8.157358E-1,7.781115E-1,-1.19875744E-1,-0E0,-1.797065E0,1.355816E0,3.724293E-1],"categories":[],"categories_nodes":[],"categories_segments":[],"categories_sizes":[],"default_left":[1,1,1,1,1,1,1,1,1,1,1,1,0,0,0,0,0,0,0,0,0,0,0,0,0],"id":45,"left_children":[1,3,5,7,9,11,13,15,17,19,21,23,-1,-1,-1,-1,-1,-1,-1,-1,-1,-1,-1,-1,-1],"loss_changes":[2.4119463E1,2.070502E1,1.4107309E1,2.0212244E1,2.087748E1,1.4679264E1,1.1686213E1,2.0409002E1,2.3734947E1,6.3954926E0,9.8794E0,9.381565E0,0E0,0E0,0E0,0E0,0E0,0E0,0E0,0E0,0E0,0E0,0E0,0E0,0E0],"parents":[2147483647,0,0,1,1,2,2,3,3,4,4,5,5,6,6,7,7,8,8,9,9,10,10,11,11],"right_children":[2,4,6,8,10,12,14,16,18,20,22,24,-1,-1,-1,-1,-1,-1,-1,-1,-1,-1,-1,-1,-1],"split_conditions":[1.9038987E0,1.3183959E0,1.4813135E0,2.0335283E0,1.293746E0,1.0225473E1,1.6125045E0,1.6886961E0,3.7933564E-1,1.5182242E0,1.080106E0,-9.9805355E-1,-1.0912769E-1,-1.8146507E-1,1.546664E-2,-4.067026E-3,-9.365737E-2,-2.2453323E-2,8.157358E-2,7.781115E-2,-1.1987574E-2,-0E0,-1.797065E-1,1.355816E-1,3.724293E-2],"split_indices":[7,22,4,8,11,31,4,32,3,12,27,23,0,0,0,0,0,0,0,0,0,0,0,0,0],"split_type":[0,0,0,0,0,0,0,0,0,0,0,0,0,0,0,0,0,0,0,0,0,0,0,0,0],"sum_hessian":[3.9920305E3,3.7946614E3,1.973691E2,3.7165393E3,7.812207E1,1.8960596E2,7.7631483E0,3.628243E3,8.829646E1,6.8576904E1,9.545168E0,1.8537474E2,4.231211E0,3.4965556E0,4.266593E0,3.6045103E3,2.373263E1,3.2016758E1,5.627971E1,6.222735E1,6.349553E0,6.456979E0,3.0881894E0,9.731871E0,1.7564287E2],"tree_param":{"num_deleted":"0","num_feature":"33","num_nodes":"25","size_leaf_vector":"0"}},{"base_weights":[2.5492115E-2,-5.771164E-1,3.7662473E-2,1.6970501E0,-7.4867797E-1,8.222331E-1,3.0580683E-2,4.471322E-1,-9.2580545E-1,-7.1919274E-1,1.2230486E0,-7.301296E-1,4.206043E-2,1.7836847E0,-6.461494E-1,-1.0448462E0,7.406015E-1,1.6239251E0,-6.387418E-1,-8.817446E-1,4.4635817E-1,4.2757508E-1,2.3983868E-2],"categories":[],"categories_nodes":[],"categories_segments":[],"categories_sizes":[],"default_left":[1,1,1,0,1,1,1,1,1,0,1,1,1,0,0,0,0,0,0,0,0,0,0],"id":46,"left_children":[1,3,5,-1,7,9,11,13,15,-1,17,19,21,-1,-1,-1,-1,-1,-1,-1,-1,-1,-1],"loss_changes":[2.9046352E1,3.2118248E1,2.1054392E1,0E0,1.7096443E1,2.3276464E1,3.3604954E1,1.8402426E1,1.5005646E1,0E0,2.4142761E1,1.1405706E1,2.6460987E1,0E0,0E0,0E0,0E0,0E0,0E0,0E0,0E0,0E0,0E0],"parents":[2147483647,0,0,1,1,2,2,4,4,5,5,6,6,7,7,8,8,10,10,11,11,12,12],"right_children":[2,4,6,-1,8,10,12,14,16,-1,18,20,22,-1,-1,-1,-1,-1,-1,-1,-1,-1,-1],"split_conditions":[-1.0762212E0,-1.3188205E0,-1.8821518E0,1.6970502E-1,-1.7291644E0,-9.507756E-1,-1.4230442E0,-1.5764598E0,-9.9414396E-1,-7.191928E-2,-1.2200508E0,-1.364359E-1,-1.1574821E0,1.7836848E-1,-6.4614944E-2,-1.0448462E-1,7.406015E-2,1.6239251E-1,-6.387418E-2,-8.817446E-2,4.4635817E-2,4.2757507E-2,2.3983868E-3],"split_indices":[23,22,21,0,5,22,27,4,26,0,18,25,12,0,0,0,0,0,0,0,0,0,0],"split_type":[0,0,0,0,0,0,0,0,0,0,0,0,0,0,0,0,0,0,0,0,0,0,0],"sum_hessian":[4.026156E3,7.623858E1,3.9499175E3,3.6915941E0,7.254698E1,3.201175E1,3.9179055E3,8.23785E0,6.4309135E1,5.7634706E0,2.6248276E1,5.5089123E1,3.8628164E3,3.5498242E0,4.6880264E0,6.12778E1,3.031333E0,2.225008E1,3.9981961E0,4.999701E1,5.0921154E0,1.6850578E2,3.6943108E3],"tree_param":{"num_deleted":"0","num_feature":"33","num_nodes":"23","size_leaf_vector":"0"}},{"base_weights":[-1.971311E-2,-3.2540914E-1,3.4189813E-3,-1.2996176E-1,-1.0378847E0,5.367624E-1,-1.9075807E-2,-4.8977906E-1,3.0199483E-1,-1.361053E-1,1.1800568E0,-6.2638146E-1,