{"learner":{"attributes":{"best_iteration":"67","best_ntree_limit":"68","best_score":"0.2277764168412735","scikit_learn":"{\"use_label_encoder\": null, \"n_estimators\": 100, \"objective\": \"binary:logistic\", \"max_depth\": 4, \"max_leaves\": null, \"max_bin\": null, \"grow_policy\": null, \"learning_rate\": 0.05, \"verbosity\": 0, \"booster\": null, \"tree_method\": null, \"gamma\": 1.0, \"min_child_weight\": 5, \"max_delta_step\": null, \"subsample\": 0.7, \"sampling_method\": null, \"colsample_bytree\": 0.7, \"colsample_bylevel\": null, \"colsample_bynode\": null, \"reg_alpha\": 2.0, \"reg_lambda\": 3.0, \"scale_pos_weight\": 9.344827586206897, \"base_score\": null, \"missing\": NaN, \"num_parallel_tree\": null, \"random_state\": 42, \"n_jobs\": null, \"monotone_constraints\": null, \"interaction_constraints\": null, \"importance_type\": null, \"gpu_id\": null, \"validate_parameters\": null, \"predictor\": null, \"enable_categorical\": false, \"feature_types\": null, \"max_cat_to_onehot\": null, \"max_cat_threshold\": null, \"eval_metric\": \"logloss\", \"early_stopping_rounds\": null, \"callbacks\": null, \"classes_\": [0, 1], \"n_classes_\": 2, \"evals_result_\": {\"validation_0\": {\"logloss\": [0.6524384672443072, 0.6169768512248993, 0.5844269016385079, 0.554884391228358, 0.5282933618625005, 0.5041949310898781, 0.48206058566768967, 0.46217774321635563, 0.44412522464990617, 0.4275819090505441, 0.4111992820103963, 0.39655803561210634, 0.3830980065961679, 0.37100295568505925, 0.3596923697491487, 0.3484608134130637, 0.3388574606428544, 0.32994029693305493, 0.3216153208166361, 0.3142173704504967, 0.3074759562810262, 0.3005667592585087, 0.2945413617044687, 0.2887776665141185, 0.28303203321993353, 0.27882454338173074, 0.2739946206162373, 0.26992307146390276, 0.2656682379792134, 0.26270364442219335, 0.2583949929599961, 0.25590651281177995, 0.2531092702100674, 0.2504905377328396, 0.2489406753331423, 0.24730785142630338, 0.24442201393345991, 0.24229683024187884, 0.24110967776427666, 0.2398461179311077, 0.2393817808975776, 0.2385902145629128, 0.2379643626883626, 0.236980991003414, 0.23782945881287257, 0.23784422994280854, 0.2360336244913439, 0.23455096779391169, 0.23459658625846108, 0.23300342277934155, 0.23193413282434144, 0.2323771943897009, 0.23306458139171202, 0.23312002943828702, 0.23312774750714502, 0.23219955746084453, 0.23152535173421104, 0.23217552200580638, 0.23200278849340975, 0.232203305978328, 0.23111655056787034, 0.2301513362644861, 0.23049765908159314, 0.22937558914845188, 0.22987871349789202, 0.2282622997276485, 0.228053067571794, 0.2277764168412735, 0.22866143307338158, 0.22971553731399277, 0.23122739512162904, 0.2296540343761444, 0.23030445518127332, 0.229467155377691, 0.23028765658227107, 0.2292090949586903, 0.22983911589874575, 0.22977575439183662]}}, \"_estimator_type\": \"classifier\"}"},"feature_names":[],"feature_types":[],"gradient_booster":{"model":{"gbtree_model_param":{"num_parallel_tree":"1","num_trees":"78","size_leaf_vector":"0"},"tree_info":[0,0,0,0,0,0,0,0,0,0,0,0,0,0,0,0,0,0,0,0,0,0,0,0,0,0,0,0,0,0,0,0,0,0,0,0,0,0,0,0,0,0,0,0,0,0,0,0,0,0,0,0,0,0,0,0,0,0,0,0,0,0,0,0,0,0,0,0,0,0,0,0,0,0,0,0,0,0],"trees":[{"base_weights":[2.6977466E-2,-1.9681909E0,1.5334399E0,4.5240633E-2,1.8111039E0,-1.1438053E0,1.4058452E0,4.0805125E-1,1.8322119E0,-1.6862745E0,6.163022E-1,2.8670722E-1,1.6311606E0],"categories":[],"categories_nodes":[],"categories_segments":[],"categories_sizes":[],"default_left":[1,0,1,1,1,1,1,0,0,0,0,0,0],"id":0,"left_children":[1,-1,3,5,7,9,11,-1,-1,-1,-1,-1,-1],"loss_changes":[1.7600619E3,0E0,1.3420648E2,9.721526E1,1.5859375E0,3.502126E1,1.976059E0,0E0,0E0,0E0,0E0,0E0,0E0],"parents":[2147483647,0,0,2,2,3,3,4,4,5,5,6,6],"right_children":[2,-1,4,6,8,10,12,-1,-1,-1,-1,-1,-1],"split_conditions":[1.5142494E-1,-9.840955E-2,1.2174277E0,1.8061483E0,-3.7822065E-1,1.5539559E0,1.6884835E0,2.0402564E-2,9.1610596E-2,-8.431373E-2,3.081511E-2,1.4335361E-2,8.1558034E-2],"split_indices":[3,0,30,3,2,38,29,0,0,0,0,0,0],"split_type":[0,0,0,0,0,0,0,0,0,0,0,0,0],"sum_hessian":[5.7986206E2,2.485E2,3.3136206E2,5.3784485E1,2.7757758E2,2.8172413E1,2.5612068E1,6.422414E0,2.7115518E2,2.25E1,5.672414E0,6.922414E0,1.8689655E1],"tree_param":{"num_deleted":"0","num_feature":"40","num_nodes":"13","size_leaf_vector":"0"}},{"base_weights":[-2.766973E-2,-1.8744371E0,1.4099544E0,7.557884E-2,1.7067738E0,-1.2418334E0,9.453322E-1,2.785094E-1,1.7355012E0,-0E0,-1.5338707E0,7.769768E-2,1.5292383E0],"categories":[],"categories_nodes":[],"categories_segments":[],"categories_sizes":[],"default_left":[1,0,1,1,1,1,1,0,0,0,0,0,0],"id":1,"left_children":[1,-1,3,5,7,9,11,-1,-1,-1,-1,-1,-1],"loss_changes":[1.467752E3,0E0,1.18860535E2,7.2581505E1,4.873474E0,7.9507637E0,1.6305702E1,0E0,0E0,0E0,0E0,0E0,0E0],"parents":[2147483647,0,0,2,2,3,3,4,4,5,5,6,6],"right_children":[2,-1,4,6,8,10,12,-1,-1,-1,-1,-1,-1],"split_conditions":[6.8706505E-2,-9.372186E-2,9.771845E-1,6.7231905E-1,-3.7822065E-1,-1.1681281E0,2.1622705E0,1.392547E-2,8.677506E-2,-0E0,-7.6693535E-2,3.884884E-3,7.646192E-2],"split_indices":[3,0,30,27,2,10,3,0,0,0,0,0,0],"split_type":[0,0,0,0,0,0,0,0,0,0,0,0,0],"sum_hessian":[5.4649817E2,2.3941986E2,3.070783E2,5.7788284E1,2.4929002E2,2.1555439E1,3.6232845E1,6.9205365E0,2.4236949E2,5.0808845E0,1.6474554E1,1.7320488E1,1.891236E1],"tree_param":{"num_deleted":"0","num_feature":"40","num_nodes":"13","size_leaf_vector":"0"}},{"base_weights":[2.7139295E-2,-1.7958721E0,1.4160339E0,1.12709776E-1,1.6694949E0,-1.1562703E0,8.8731617E-1,-1.4501916E0,-0E0,4.3715373E-2,1.4687093E0],"categories":[],"categories_nodes":[],"categories_segments":[],"categories_sizes":[],"default_left":[1,0,1,1,0,1,1,0,0,0,0],"id":2,"left_children":[1,-1,3,5,-1,7,9,-1,-1,-1,-1],"loss_changes":[1.493957E3,0E0,1.0675134E2,6.0681877E1,0E0,6.7725735E0,1.6109537E1,0E0,0E0,0E0,0E0],"parents":[2147483647,0,0,2,2,3,3,5,5,6,6],"right_children":[2,-1,4,6,-1,8,10,-1,-1,-1,-1],"split_conditions":[8.83766E-2,-8.979361E-2,1.2174277E0,6.8356365E-1,8.347475E-2,5.501901E-1,2.1622705E0,-7.250958E-2,-0E0,2.1857687E-3,7.343547E-2],"split_indices":[3,0,30,27,0,14,3,0,0,0,0],"split_type":[0,0,0,0,0,0,0,0,0,0,0],"sum_hessian":[5.843242E2,2.5167107E2,3.3265314E2,5.6149765E1,2.765034E2,1.9744198E1,3.6405567E1,1.46793585E1,5.0648394E0,1.7572899E1,1.8832668E1],"tree_param":{"num_deleted":"0","num_feature":"40","num_nodes":"11","size_leaf_vector":"0"}},{"base_weights":[8.918016E-3,-1.6378872E0,1.4321176E0,-1.6990972E0,6.759455E-1,-1.0845053E0,1.5155015E0,7.5432193E-1,1.5973074E0,-5.980506E-1,1.3778744E0],"categories":[],"categories_nodes":[],"categories_segments":[],"categories_sizes":[],"default_left":[1,1,1,0,0,0,1,1,0,0,0],"id":3,"left_children":[1,3,5,-1,-1,-1,7,9,-1,-1,-1],"loss_changes":[1.340591E3,4.2967224E1,7.033325E1,0E0,0E0,0E0,1.0345154E1,3.5353153E1,0E0,0E0,0E0],"parents":[2147483647,0,0,1,1,2,2,6,6,7,7],"right_children":[2,4,6,-1,-1,-1,8,10,-1,-1,-1],"split_conditions":[6.0345244E-1,2.060711E0,4.6844486E-2,-8.495486E-2,3.3797275E-2,-5.4225266E-2,1.211841E0,1.810254E0,7.986537E-2,-2.990253E-2,6.889372E-2],"split_indices":[28,3,3,0,0,0,30,3,0,0,0],"split_type":[0,0,0,0,0,0,0,0,0,0,0],"sum_hessian":[5.661629E2,2.6160178E2,3.0456113E2,2.5647833E2,5.123453E0,7.8431187E0,2.9671802E2,3.414255E1,2.6257547E2,9.801068E0,2.4341484E1],"tree_param":{"num_deleted":"0","num_feature":"40","num_nodes":"11","size_leaf_vector":"0"}},{"base_weights":[-2.4021171E-2,-1.6364245E0,1.3126217E0,-1.6689824E0,-4.5635223E-1,-1.2131569E0,1.4256499E0,-1.3443535E-3,1.4797024E0,-0E0,1.5137651E0],"categories":[],"categories_nodes":[],"categories_segments":[],"categories_sizes":[],"default_left":[1,1,1,0,0,0,1,0,1,0,0],"id":4,"left_children":[1,3,5,-1,-1,-1,7,-1,9,-1,-1],"loss_changes":[1.2494314E3,3.579895E0,9.587103E1,0E0,0E0,0E0,2.6468811E1,0E0,1.2933228E1,0E0,0E0],"parents":[2147483647,0,0,1,1,2,2,6,6,8,8],"right_children":[2,4,6,-1,-1,-1,8,-1,10,-1,-1],"split_conditions":[3.20641E-1,1.9002017E-1,5.0244782E-2,-8.344912E-2,-2.2817612E-2,-6.0657848E-2,-2.3908733E-1,-6.7217676E-5,1.3145193E-1,-0E0,7.568826E-2],"split_indices":[28,28,3,0,0,0,2,0,29,0,0],"split_type":[0,0,0,0,0,0,0,0,0,0,0],"sum_hessian":[5.7343634E2,2.6028085E2,3.131555E2,2.5043372E2,9.847121E0,1.1404784E1,3.017507E2,9.769087E0,2.9198163E2,7.482014E0,2.844996E2],"tree_param":{"num_deleted":"0","num_feature":"40","num_nodes":"11","size_leaf_vector":"0"}},{"base_weights":[-4.419436E-2,-1.4975501E0,1.3235222E0,-1.5845995E0,8.3272666E-1,-1.0677902E0,1.4088631E0,6.830481E-1,1.4707081E0,-3.051718E-1,1.103373E0],"categories":[],"categories_nodes":[],"categories_segments":[],"categories_sizes":[],"default_left":[1,1,1,0,0,0,1,1,0,0,0],"id":5,"left_children":[1,3,5,-1,-1,-1,7,9,-1,-1,-1],"loss_changes":[1.078449E3,5.8936707E1,6.208307E1,0E0,0E0,0E0,4.8547974E0,1.4834664E1,0E0,0E0,0E0],"parents":[2147483647,0,0,1,1,2,2,6,6,7,7],"right_children":[2,4,6,-1,-1,-1,8,10,-1,-1,-1],"split_conditions":[6.0345244E-1,2.0071666E0,-9.2156604E-2,-7.922997E-2,4.1636333E-2,-5.338951E-2,3.5920545E-1,2.2110093E-1,7.3535405E-2,-1.525859E-2,5.5168655E-2],"split_indices":[28,39,39,0,0,0,31,5,0,0,0],"split_type":[0,0,0,0,0,0,0,0,0,0,0],"sum_hessian":[5.363733E2,2.606162E2,2.757571E2,2.5298404E2,7.632173E0,7.5044785E0,2.6825262E2,2.6438824E1,2.4181381E2,6.7149835E0,1.972384E1],"tree_param":{"num_deleted":"0","num_feature":"40","num_nodes":"11","size_leaf_vector":"0"}},{"base_weights":[-1.1754669E-2,-1.5630678E0,1.1867548E0,-1.1812193E0,1.3003756E0,-3.0538344E-1,1.3498286E0,-0E0,1.3821411E0],"categories":[],"categories_nodes":[],"categories_segments":[],"categories_sizes":[],"default_left":[1,0,1,0,1,0,1,0,0],"id":6,"left_children":[1,-1,3,-1,5,-1,7,-1,-1],"loss_changes":[9.908236E2,0E0,8.5481964E1,0E0,2.6212585E1,0E0,1.479071E1,0E0,0E0],"parents":[2147483647,0,0,2,2,4,4,6,6],"right_children":[2,-1,4,-1,6,-1,8,-1,-1],"split_conditions":[8.83766E-2,-7.8153394E-2,1.9002017E-1,-5.906097E-2,2.1441633E-1,-1.5269172E-2,-3.7822065E-1,-0E0,6.9107056E-2],"split_indices":[3,0,28,0,27,0,2,0,0],"split_type":[0,0,0,0,0,0,0,0,0],"sum_hessian":[5.2651404E2,2.2981061E2,2.9670343E2,1.1488128E1,2.852153E2,6.849255E0,2.7836606E2,5.2595577E0,2.731065E2],"tree_param":{"num_deleted":"0","num_feature":"40","num_nodes":"9","size_leaf_vector":"0"}},{"base_weights":[8.454301E-2,-1.5176684E0,1.1843466E0,-1.1950512E0,1.3014643E0,-5.3174715E-2,1.3347485E0,5.896195E-1,1.4005467E0],"categories":[],"categories_nodes":[],"categories_segments":[],"categories_sizes":[],"default_left":[1,0,1,0,1,0,1,0,0],"id":7,"left_children":[1,-1,3,-1,5,-1,7,-1,-1],"loss_changes":[9.7500006E2,0E0,9.654199E1,0E0,1.7012085E1,0E0,8.727356E0,0E0,0E0],"parents":[2147483647,0,0,2,2,4,4,6,6],"right_children":[2,-1,4,-1,6,-1,8,-1,-1],"split_conditions":[6.574076E-2,-7.588342E-2,1.9002017E-1,-5.975256E-2,-8.081973E-2,-2.6587357E-3,3.5925588E-1,2.9480977E-2,7.002734E-2],"split_indices":[3,0,28,0,39,0,31,0,0],"split_type":[0,0,0,0,0,0,0,0,0],"sum_hessian":[5.476297E2,2.2169807E2,3.259316E2,1.3193813E1,3.127378E2,6.0158596E0,3.0672195E2,2.9778284E1,2.7694366E2],"tree_param":{"num_deleted":"0","num_feature":"40","num_nodes":"9","size_leaf_vector":"0"}},{"base_weights":[-5.255361E-3,-1.478564E0,1.1175296E0,-1.1261171E0,1.2298659E0,3.2188535E-1,1.3344687E0,-1.1479964E0,9.1432047E-1],"categories":[],"categories_nodes":[],"categories_segments":[],"categories_sizes":[],"default_left":[1,0,1,0,1,1,0,0,0],"id":8,"left_children":[1,-1,3,-1,5,7,-1,-1,-1],"loss_changes":[8.538922E2,0E0,7.79426E1,0E0,2.20206E1,3.305922E1,0E0,0E0,0E0],"parents":[2147483647,0,0,2,2,4,4,5,5],"right_children":[2,-1,4,-1,6,8,-1,-1,-1],"split_conditions":[8.83766E-2,-7.39282E-2,1.9002017E-1,-5.6305856E-2,2.796262E-1,1.0795169E0,6.6723436E-2,-5.739982E-2,4.5716025E-2],"split_indices":[3,0,28,0,2,30,0,0,0],"split_type":[0,0,0,0,0,0,0,0,0],"sum_hessian":[5.0976062E2,2.2082571E2,2.8893494E2,1.1636985E1,2.7729794E2,3.1884396E1,2.4541354E2,7.3813834E0,2.4503012E1],"tree_param":{"num_deleted":"0","num_feature":"40","num_nodes":"9","size_leaf_vector":"0"}},{"base_weights":[2.7187865E-2,-1.442143E0,1.0939136E0,-4.0728558E-2,1.2668796E0,-9.548173E-1,6.3543427E-1,-0E0,1.2943724E0,-0E0,-1.2796981E0,-9.466448E-2,9.687894E-1,7.598566E-1,1.3768911E0],"categories":[],"categories_nodes":[],"categories_segments":[],"categories_sizes":[],"default_left":[1,0,1,1,1,1,1,0,1,0,0,0,0,0,0],"id":9,"left_children":[1,-1,3,5,7,9,11,-1,13,-1,-1,-1,-1,-1,-1],"loss_changes":[8.315735E2,0E0,6.3130463E1,2.8523148E1,6.911743E0,6.479269E0,8.055195E0,0E0,4.1453857E0,0E0,0E0,0E0,0E0,0E0,0E0],"parents":[2147483647,0,0,2,2,3,3,4,4,5,5,6,6,8,8],"right_children":[2,-1,4,6,8,10,12,-1,14,-1,-1,-1,-1,-1,-1],"split_conditions":[6.574076E-2,-7.210715E-2,3.6478114E-1,7.5506973E-1,-3.7822065E-1,-7.601166E-1,-2.202762E-1,-0E0,1.2121553E0,-0E0,-6.398491E-2,-4.733224E-3,4.843947E-2,3.799283E-2,6.884456E-2],"split_indices":[3,0,31,16,2,12,17,0,30,0,0,0,0,0,0],"split_type":[0,0,0,0,0,0,0,0,0,0,0,0,0,0,0],"sum_hessian":[5.2497723E2,2.1958519E2,3.0539206E2,3.917013E1,2.6622192E2,1.7386824E1,2.1783308E1,7.1897945E0,2.5903214E2,5.0808716E0,1.2305951E1,5.620977E0,1.616233E1,4.1978416E1,2.1705371E2],"tree_param":{"num_deleted":"0","num_feature":"40","num_nodes":"15","size_leaf_vector":"0"}},{"base_weights":[-0E0,-1.1870795E0,1.2080225E0,-1.3090616E0,8.805012E-1,-3.532001E-1,1.2617964E0,-1.4193429E0,-2.9363438E-1,-0E0,1.2890228E0,3.7751445E-1,-1.1802889E0,1.6454865E-1,1.3083445E0],"categories":[],"categories_nodes":[],"categories_segments":[],"categories_sizes":[],"default_left":[1,1,1,1,0,0,1,0,1,0,1,0,0,0,0],"id":10,"left_children":[1,3,5,7,-1,-1,9,-1,11,-1,13,-1,-1,-1,-1],"loss_changes":[7.0133704E2,6.640396E1,2.3544098E1,2.1593353E1,0E0,0E0,8.104614E0,0E0,1.9926207E1,0E0,1.4416504E0,0E0,0E0,0E0,0E0],"parents":[2147483647,0,0,1,1,2,2,3,3,6,6,8,8,10,10],"right_children":[2,4,6,8,-1,-1,10,-1,12,-1,14,-1,-1,-1,-1],"split_conditions":[9.6403533E-1,2.012449E0,1.3145193E-1,1.8158281E-1,4.402506E-2,-1.7660005E-2,-8.081973E-2,-7.0967145E-2,4.100188E-1,-0E0,1.1449692E0,1.8875724E-2,-5.9014447E-2,8.227433E-3,6.541722E-2],"split_indices":[30,39,29,30,0,0,39,0,31,0,30,0,0,0,0],"split_type":[0,0,0,0,0,0,0,0,0,0,0,0,0,0,0],"sum_hessian":[4.8305417E2,2.4318169E2,2.3987247E2,2.3158656E2,1.1595132E1,6.1923447E0,2.3368013E2,2.0604584E2,2.5540718E1,5.0149775E0,2.2866515E2,1.4233641E1,1.1307077E1,6.0935745E0,2.2257158E2],"tree_param":{"num_deleted":"0","num_feature":"40","num_nodes":"15","size_leaf_vector":"0"}},{"base_weights":[-0E0,-1.2990546E0,1.1143972E0,-1.355312E0,4.1586778E-1,-1.0387841E0,1.2118255E0,-1.3906147E0,-3.2122198E-1,4.7411492E-1,1.2950985E0,-1.12991825E-1,1.114236E0,1.3214935E0,3.7893596E-1],"categories":[],"categories_nodes":[],"categories_segments":[],"categories_sizes":[],"default_left":[1,1,1,1,0,0,1,0,0,1,1,0,0,1,1],"id":11,"left_children":[1,3,5,7,-1,-1,9,-1,-1,11,-1,-1,-1,-1,-1],"loss_changes":[6.91025E2,2.4816101E1,5.8074768E1,3.0872192E0,0E0,0E0,9.87439E0,0E0,0E0,1.4540306E1,3.9190674E-1,0E0,0E0,0E0,0E0],"parents":[2147483647,0,0,1,1,2,2,3,3,6,6,9,9,10,10],"right_children":[2,4,6,8,-1,-1,10,-1,-1,12,-1,-1,-1,-1,-1],"split_conditions":[5.115411E-1,2.382999E0,-8.228633E-2,7.915374E-1,2.079339E-2,-5.1939208E-2,1.2121553E0,-6.953074E-2,-1.60611E-2,2.5654588E0,6.4754926E-2,-5.6495913E-3,5.5711802E-2,6.607468E-2,1.8946799E-2],"split_indices":[28,2,39,15,0,0,30,0,0,3,25,0,0,2147483647,2147483647],"split_type":[0,0,0,0,0,0,0,0,0,0,0,0,0,0,0],"sum_hessian":[4.7140533E2,2.1722165E2,2.5418369E2,2.1206041E2,5.161233E0,8.860094E0,2.453236E2,2.021895E2,9.870915E0,2.9356281E1,2.159673E2,1.4971108E1,1.4385172E1,2.0650748E2,9.459832E0],"tree_param":{"num_deleted":"2","num_feature":"40","num_nodes":"15","size_leaf_vector":"0"}},{"base_weights":[-5.5526115E-2,-1.3622006E0,9.37046E-1,-1.6882864E-1,1.1431719E0,-1.2579376E0,7.0924115E-1,5.689997E-2,1.194468E0,-0E0,1.0128586E0,-2.987726E-1,5.616388E-1,2.9050446E-1,1.2345358E0],"categories":[],"categories_nodes":[],"categories_segments":[],"categories_sizes":[],"default_left":[1,0,1,1,1,0,1,1,1,0,0,0,0,0,0],"id":12,"left_children":[1,-1,3,5,7,-1,9,11,13,-1,-1,-1,-1,-1,-1],"loss_changes":[5.757005E2,0E0,5.976973E1,4.254494E1,9.194122E0,0E0,4.9635687E0,3.6391857E0,3.191681E0,0E0,0E0,0E0,0E0,0E0,0E0],"parents":[2147483647,0,0,2,2,3,3,4,4,6,6,7,7,8,8],"right_children":[2,-1,4,6,8,-1,10,12,14,-1,-1,-1,-1,-1,-1],"split_conditions":[-8.143032E-2,-6.8110034E-2,3.718334E-1,5.417158E-1,-8.7941134E-1,-6.289688E-2,6.5745723E-1,1.5332682E0,-3.4100646E-1,-0E0,5.0642934E-2,-1.493863E-2,2.8081939E-2,1.4525223E-2,6.172679E-2],"split_indices":[39,0,31,13,33,0,38,39,15,0,0,0,0,0,0],"split_type":[0,0,0,0,0,0,0,0,0,0,0,0,0,0,0],"sum_hessian":[4.372734E2,1.8915608E2,2.4811732E2,3.754214E1,2.1057518E2,1.7194685E1,2.0347458E1,1.1538887E1,1.9903629E2,7.061114E0,1.3286344E1,5.1626735E0,6.376214E0,1.1616829E1,1.8741946E2],"tree_param":{"num_deleted":"0","num_feature":"40","num_nodes":"15","size_leaf_vector":"0"}},{"base_weights":[7.299874E-2,-1.2416121E0,1.0568544E0,-1.300379E0,3.9273742E-1,-9.061247E-1,1.1344262E0,-1.3328106E0,-4.494014E-1,-2.8500983E-1,1.1782175E0,-0E0,-7.995983E-1,-0E0,1.2067311E0],"categories":[],"categories_nodes":[],"categories_segments":[],"categories_sizes":[],"default_left":[1,1,1,1,0,0,1,0,1,0,1,0,0,0,0],"id":13,"left_children":[1,3,5,7,-1,-1,9,-1,11,-1,13,-1,-1,-1,-1],"loss_changes":[6.0617676E2,2.2551147E1,4.4497223E1,1.7120361E-2,0E0,0E0,1.9020996E1,0E0,2.835549E0,0E0,8.058289E0,0E0,0E0,0E0,0E0],"parents":[2147483647,0,0,1,1,2,2,3,3,6,6,8,8,10,10],"right_children":[2,4,6,8,-1,-1,10,-1,12,-1,14,-1,-1,-1,-1],"split_conditions":[5.1524085E-1,1.6921947E0,-8.228633E-2,1.8158281E-1,1.9636871E-2,-4.5306236E-2,2.625541E-1,-6.664053E-2,2.533973E-1,-1.4250492E-2,1.9240867E-1,-0E0,-3.9979916E-2,-0E0,6.0336556E-2],"split_indices":[28,39,39,30,0,0,27,0,29,0,31,0,0,0,0],"split_type":[0,0,0,0,0,0,0,0,0,0,0,0,0,0,0],"sum_hessian":[4.6291583E2,1.9694395E2,2.6597186E2,1.9188116E2,5.0627885E0,7.9127007E0,2.5805917E2,1.8093663E2,1.0944535E1,5.8617654E0,2.521974E2,5.104707E0,5.839828E0,6.383721E0,2.4581369E2],"tree_param":{"num_deleted":"0","num_feature":"40","num_nodes":"15","size_leaf_vector":"0"}},{"base_weights":[3.5708357E-2,-1.2906325E0,9.948166E-1,-1.3157512E0,-0E0,-6.384632E-1,1.1036451E0,-0E0,-9.3453825E-1,4.433884E-1,1.2002655E0,-4.743354E-1,1.061025E0,1.9556041E-1,1.2184397E0],"categories":[],"categories_nodes":[],"categories_segments":[],"categories_sizes":[],"default_left":[1,1,1,0,0,1,1,0,0,1,1,0,0,1,1],"id":14,"left_children":[1,3,5,-1,-1,7,9,-1,-1,11,-1,-1,-1,-1,-1],"loss_changes":[5.993056E2,4.175232E0,5.1833862E1,0E0,0E0,3.962947E0,1.1676422E1,0E0,0E0,2.5661045E1,5.117798E-1,0E0,0E0,0E0,0E0],"parents":[2147483647,0,0,1,1,2,2,5,5,6,6,9,9,10,10],"right_children":[2,4,6,-1,-1,8,10,-1,-1,12,-1,-1,-1,-1,-1],"split_conditions":[-3.68523E-2,1.9302707E0,1.8463671E-1,-6.578756E-2,-0E0,-5.532499E-1,1.2121553E0,-0E0,-4.6726912E-2,1.7860432E0,6.0013276E-2,-2.371677E-2,5.3051252E-2,9.778021E-3,6.0921986E-2],"split_indices":[39,16,28,0,0,35,30,0,0,3,5,0,0,2147483647,2147483647],"split_type":[0,0,0,0,0,0,0,0,0,0,0,0,0,0,0],"sum_hessian":[4.6555066E2,1.9406204E2,2.7148862E2,1.8902147E2,5.0405693E0,1.489964E1,2.56589E2,5.007535E0,9.892105E0,3.7538136E1,2.1905086E2,1.4078017E1,2.346012E1,6.474149E0,2.125767E2],"tree_param":{"num_deleted":"2","num_feature":"40","num_nodes":"15","size_leaf_vector":"0"}},{"base_weights":[-1.3984186E-2,-1.2833499E0,9.228432E-1,-0E0,1.1617279E0,-5.5144143E-1,1.1169522E0,1.1100978E-1,1.1786305E0,3.5567293E-1,-1.4269547E0,4.912846E-2,1.2002473E0],"categories":[],"categories_nodes":[],"categories_segments":[],"categories_sizes":[],"default_left":[1,0,1,1,1,1,0,0,1,0,0,0,0],"id":15,"left_children":[1,-1,3,5,7,9,-1,-1,11,-1,-1,-1,-1],"loss_changes":[5.0972968E2,0E0,5.3208176E1,3.5615288E1,4.7851562E-1,3.367068E1,0E0,0E0,1.9393616E0,0E0,0E0,0E0,0E0],"parents":[2147483647,0,0,2,2,3,3,4,4,5,5,8,8],"right_children":[2,-1,4,6,8,10,-1,-1,12,-1,-1,-1,-1],"split_conditions":[6.8706505E-2,-6.416749E-2,1.332641E0,2.266994E0,-1.8195868E-2,-9.851693E-1,5.584761E-2,5.550489E-3,-2.1028519E-1,1.7783647E-2,-7.1347736E-2,2.4564231E-3,6.0012367E-2],"split_indices":[3,0,30,3,29,18,0,0,2,0,0,0,0],"split_type":[0,0,0,0,0,0,0,0,0,0,0,0,0],"sum_hessian":[4.220468E2,1.796513E2,2.4239551E2,5.111985E1,1.9127567E2,3.4781265E1,1.6338585E1,5.261036E0,1.8601462E2,1.6835249E1,1.7946016E1,5.4149613E0,1.8059966E2],"tree_param":{"num_deleted":"0","num_feature":"40","num_nodes":"13","size_leaf_vector":"0"}},{"base_weights":[-0E0,-1.2688903E0,8.852674E-1,-2.0168401E-1,1.0819895E0,-1.1716819E0,6.6071504E-1,-0E0,1.101582E0,-0E0,8.7438565E-1],"categories":[],"categories_nodes":[],"categories_segments":[],"categories_sizes":[],"default_left":[1,0,1,1,1,0,1,0,0,0,0],"id":16,"left_children":[1,-1,3,5,7,-1,9,-1,-1,-1,-1],"loss_changes":[4.83329E2,0E0,5.6838104E1,3.678471E1,3.1590424E0,0E0,1.9321394E0,0E0,0E0,0E0,0E0],"parents":[2147483647,0,0,2,2,3,3,4,4,6,6],"right_children":[2,-1,4,6,8,-1,10,-1,-1,-1,-1],"split_conditions":[-8.143032E-2,-6.344452E-2,3.630393E-1,5.166595E-1,-1.3011353E0,-5.8584094E-2,1.2922924E0,-0E0,5.5079103E-2,-0E0,4.3719284E-2],"split_indices":[39,0,31,15,8,0,35,0,0,0,0],"split_type":[0,0,0,0,0,0,0,0,0,0,0],"sum_hessian":[4.248216E2,1.7330397E2,2.5151764E2,3.697528E1,2.1454236E2,1.798715E1,1.898813E1,5.0662203E0,2.0947614E2,6.906148E0,1.2081983E1],"tree_param":{"num_deleted":"0","num_feature":"40","num_nodes":"11","size_leaf_vector":"0"}},{"base_weights":[2.5126556E-2,-1.1377205E0,1.0049831E0,-1.2447932E0,-5.843795E-2,-0E0,1.1204199E0,6.4966094E-1,-6.2088317E-1,-9.871546E-1,6.320608E-1,6.500153E-1,1.1860327E0,-9.954342E-1,-0E0,7.8950554E-1,-0E0,-2.4608944E-2,8.674296E-1],"categories":[],"categories_nodes":[],"categories_segments":[],"categories_sizes":[],"default_left":[1,1,1,0,1,1,1,0,1,0,1,1,0,0,0,1,1,0,0],"id":17,"left_children":[1,3,5,-1,7,9,11,-1,13,-1,-1,17,-1,-1,-1,-1,-1,-1,-1],"loss_changes":[4.8173538E2,1.9426102E1,2.7689331E1,0E0,9.998611E0,1.8387608E1,4.1885376E-1,0E0,3.971498E0,0E0,6.7688847E-1,6.995656E0,0E0,0E0,0E0,0E0,0E0,0E0,0E0],"parents":[2147483647,0,0,1,1,2,2,4,4,5,5,6,6,8,8,10,10,11,11],"right_children":[2,4,6,-1,8,10,12,-1,14,-1,-1,18,-1,-1,-1,-1,-1,-1,-1],"split_conditions":[2.1143836E-1,8.550513E-2,3.639667E-1,-6.2239658E-2,-1.0103977E0,5.166595E-1,7.3710626E-1,3.248305E-2,-5.8069795E-1,-4.935773E-2,3.1603042E-2,8.7063044E-2,5.9301633E-2,-4.977171E-2,-0E0,3.9475277E-2,-0E0,-1.2304472E-3,4.337148E-2],"split_indices":[39,3,31,0,36,15,39,0,32,0,16,13,0,0,0,2147483647,2147483647,0,0],"split_type":[0,0,0,0,0,0,0,0,0,0,0,0,0,0,0,0,0,0,0],"sum_hessian":[4.1701135E2,1.8954451E2,2.2746683E2,1.7033308E2,1.9211432E1,2.2986305E1,2.0448053E2,6.7244654E0,1.2486965E1,8.839775E0,1.4146529E1,3.2766495E1,1.7171404E2,7.033069E0,5.453896E0,9.075584E0,5.0709453E0,6.3924603E0,2.6374035E1],"tree_param":{"num_deleted":"2","num_feature":"40","num_nodes":"19","size_leaf_vector":"0"}},{"base_weights":[-1.1420014E-2,-1.2266698E0,8.361719E-1,-2.8243563E-1,9.764595E-1,-8.129024E-1,8.1530416E-1,4.5275137E-2,1.0857652E0,-0E0,-1.108668E0,-4.9195215E-1,7.7071667E-1,1.4353317E-1,1.1172775E0],"categories":[],"categories_nodes":[],"categories_segments":[],"categories_sizes":[],"default_left":[1,0,1,1,1,1,0,1,1,0,0,0,0,0,0],"id":18,"left_children":[1,-1,3,5,7,9,-1,11,13,-1,-1,-1,-1,-1,-1],"loss_changes":[4.1814438E2,0E0,3.952626E1,1.7841936E1,1.9323914E1,5.73691E0,0E0,1.2406285E1,2.610321E0,0E0,0E0,0E0,0E0,0E0,0E0],"parents":[2147483647,0,0,2,2,3,3,4,4,5,5,7,7,8,8],"right_children":[2,-1,4,6,8,10,-1,12,14,-1,-1,-1,-1,-1,-1],"split_conditions":[6.574076E-2,-6.133349E-2,5.1182246E-1,2.3037434E0,2.7921236E-1,1.6163132E-1,4.0765207E-2,1.8218904E0,1.3145193E-1,-0E0,-5.54334E-2,-2.4597608E-2,3.8535833E-2,7.1766586E-3,5.5863876E-2],"split_indices":[3,0,28,3,2,29,0,14,29,0,0,0,0,0,0],"split_type":[0,0,0,0,0,0,0,0,0,0,0,0,0,0,0],"sum_hessian":[3.992057E2,1.644461E2,2.3475958E2,2.4233482E1,2.105261E2,1.8091421E1,6.142061E0,2.4484081E1,1.8604202E2,5.0848923E0,1.3006528E1,1.3037653E1,1.1446428E1,8.613923E0,1.774281E2],"tree_param":{"num_deleted":"0","num_feature":"40","num_nodes":"15","size_leaf_vector":"0"}},{"base_weights":[1.9220965E-2,-1.0620914E0,1.0139532E0,-1.1354471E0,1.20960444E-1,-0E0,1.080597E0,-1.1981254E0,-0E0,-6.1083776E-1,6.970595E-1,-0E0,1.1136724E0,-1.2330278E0,-4.0803224E-1],"categories":[],"categories_nodes":[],"categories_segments":[],"categories_sizes":[],"default_left":[1,1,1,1,0,1,1,1,0,0,0,0,0,1,1],"id":19,"left_children":[1,3,5,7,-1,9,11,-1,-1,-1,-1,-1,-1,-1,-1],"loss_changes":[4.3547665E2,1.9198471E1,1.3586853E1,1.3722397E1,0E0,8.441916E0,6.4034424E0,2.178955E-2,0E0,0E0,0E0,0E0,0E0,0E0,0E0],"parents":[2147483647,0,0,1,1,2,2,3,3,5,5,6,6,7,7],"right_children":[2,4,6,8,-1,10,12,-1,-1,-1,-1,-1,-1,-1,-1],"split_conditions":[9.19371E-1,1.942971E0,1.2698308E0,6.395222E-1,6.0480223E-3,1.1160076E0,-2.398665E-1,-5.990627E-2,-0E0,-3.0541888E-2,3.4852978E-2,-0E0,5.568362E-2,-6.165139E-2,-2.0401612E-2],"split_indices":[28,29,30,30,0,37,2,15,0,0,0,0,0,2147483647,2147483647],"split_type":[0,0,0,0,0,0,0,0,0,0,0,0,0,0,0],"sum_hessian":[3.9894833E2,1.9009453E2,2.0885382E2,1.807013E2,9.393226E0,1.368988E1,1.9516394E2,1.715432E2,9.158108E0,6.978239E0,6.711641E0,6.432938E0,1.88731E2,1.6025092E2,1.129228E1],"tree_param":{"num_deleted":"2","num_feature":"40","num_nodes":"15","size_leaf_vector":"0"}},{"base_weights":[3.8178544E-2,-1.048625E0,9.832782E-1,-1.1425639E0,1.10329576E-1,5.250192E-2,1.0497758E0,-1.1806258E0,-2.6410522E-3,-2.0616564E-1,6.520544E-1,-6.6615504E-1,8.4815335E-1,-0E0,1.0756533E0,1.9750828E-1,1.0952855E0],"categories":[],"categories_nodes":[],"categories_segments":[],"categories_sizes":[],"default_left":[1,1,1,1,1,1,1,0,0,0,0,0,0,0,1,1,1],"id":20,"left_children":[1,3,5,7,9,11,13,-1,-1,-1,-1,-1,-1,-1,-1,-1,-1],"loss_changes":[4.028104E2,2.2206589E1,1.0674255E1,4.990631E0,3.8241084E0,1.304671E1,3.7241516E0,0E0,0E0,0E0,0E0,0E0,0E0,0E0,1.5182495E-2,0E0,0E0],"parents":[2147483647,0,0,1,1,2,2,3,3,4,4,5,5,6,6,14,14],"right_children":[2,4,6,8,10,12,14,-1,-1,-1,-1,-1,-1,-1,-1,-1,-1],"split_conditions":[9.260657E-1,1.4171859E0,1.2121553E0,1.275637E0,1.366646E0,1.1160076E0,-2.8835863E-1,-5.903129E-2,-1.3205262E-4,-1.0308282E-2,3.2602724E-2,-3.3307754E-2,4.240767E-2,-0E0,5.3782668E-2,9.875414E-3,5.476428E-2],"split_indices":[28,29,30,14,2,37,2,0,0,0,0,0,0,0,29,2147483647,2147483647],"split_type":[0,0,0,0,0,0,0,0,0,0,0,0,0,0,0,0,0],"sum_hessian":[3.862836E2,1.7853505E2,2.0774855E2,1.6678445E2,1.1750586E1,1.6215984E1,1.9153256E2,1.5959402E2,7.1904383E0,6.259772E0,5.4908137E0,7.456051E0,8.759933E0,6.0286393E0,1.8550392E2,7.0098243E0,1.7849411E2],"tree_param":{"num_deleted":"2","num_feature":"40","num_nodes":"17","size_leaf_vector":"0"}},{"base_weights":[1.1333448E-2,-1.1660357E0,8.335425E-1,-1.1932509E0,-1.03256E-2,1.253959E-1,1.0418063E0,-4.143615E-1,1.0688038E0,7.875643E-2,1.0584506E0,5.321599E-3,-1.1363391E0],"categories":[],"categories_nodes":[],"categories_segments":[],"categories_sizes":[],"default_left":[1,1,1,0,0,1,1,1,0,1,1,0,0],"id":21,"left_children":[1,3,5,-1,-1,7,-1,11,-1,-1,-1,-1,-1],"loss_changes":[3.643343E2,2.4012299E0,3.0159897E1,0E0,0E0,3.1290173E1,1.9593811E-1,1.3371452E1,0E0,0E0,0E0,0E0,0E0],"parents":[2147483647,0,0,1,1,2,2,5,5,6,6,7,7],"right_children":[2,4,6,-1,-1,8,-1,12,-1,-1,-1,-1,-1],"split_conditions":[-3.68523E-2,1.8917049E0,1.2121553E0,-5.9662547E-2,-5.1628E-4,2.012449E0,5.2090317E-2,5.652353E-1,5.344019E-2,3.9378214E-3,5.292253E-2,2.6607997E-4,-5.6816954E-2],"split_indices":[39,12,30,0,0,39,2,2,0,2147483647,2147483647,0,0],"split_type":[0,0,0,0,0,0,0,0,0,0,0,0,0],"sum_hessian":[3.7103635E2,1.5105083E2,2.199855E2,1.4578972E2,5.2611127E0,5.326872E1,1.6671678E2,3.360466E1,1.9664057E1,5.1659627E0,1.6155081E2,2.1382692E1,1.222197E1],"tree_param":{"num_deleted":"2","num_feature":"40","num_nodes":"13","size_leaf_vector":"0"}},{"base_weights":[-0E0,-1.1692108E0,8.0183727E-1,-3.0844235E-1,9.566283E-1,-1.0707601E0,4.3812197E-1,2.832661E-1,1.0419657E0,-3.4664774E-1,6.305849E-1],"categories":[],"categories_nodes":[],"categories_segments":[],"categories_sizes":[],"default_left":[1,0,1,1,1,0,0,1,0,0,0],"id":22,"left_children":[1,-1,3,5,7,-1,-1,9,-1,-1,-1],"loss_changes":[3.3293378E2,0E0,3.81456E1,1.7636171E1,7.1504364E0,0E0,0E0,7.2781353E0,0E0,0E0,0E0],"parents":[2147483647,0,0,2,2,3,3,4,4,7,7],"right_children":[2,-1,4,6,8,-1,-1,10,-1,-1,-1],"split_conditions":[6.8706505E-2,-5.846054E-2,3.7164485E-1,6.99921E-1,5.530091E-1,-5.3538006E-2,2.1906098E-2,3.6455926E-1,5.2098285E-2,-1.7332388E-2,3.1529244E-2],"split_indices":[3,0,31,11,39,0,0,26,0,0,0],"split_type":[0,0,0,0,0,0,0,0,0,0,0],"sum_hessian":[3.4838446E2,1.4212247E2,2.06262E2,2.329242E1,1.8296957E2,1.2205527E1,1.1086892E1,2.467375E1,1.5829584E2,6.7247753E0,1.7948975E1],"tree_param":{"num_deleted":"0","num_feature":"40","num_nodes":"11","size_leaf_vector":"0"}},{"base_weights":[5.0709505E-2,-1.1459647E0,9.009558E-1,-1.1746901E0,-0E0,-7.231924E-1,9.692275E-1,-0E0,1.003648E0,9.242921E-2,1.0208563E0],"categories":[],"categories_nodes":[],"categories_segments":[],"categories_sizes":[],"default_left":[1,1,1,0,0,0,1,0,1,1,1],"id":23,"left_children":[1,3,5,-1,-1,-1,7,-1,-1,-1,-1],"loss_changes":[3.6120908E2,2.800766E0,2.5736649E1,0E0,0E0,0E0,6.9262695E0,0E0,5.6303406E-1,0E0,0E0],"parents":[2147483647,0,0,1,1,2,2,6,6,8,8],"right_children":[2,4,6,-1,-1,-1,8,-1,-1,-1,-1],"split_conditions":[6.0345244E-1,1.307656E0,-8.54599E-2,-5.8734506E-2,-0E0,-3.615962E-2,-3.247968E-2,-0E0,5.0182402E-2,4.6214606E-3,5.1042814E-2],"split_indices":[28,29,39,0,0,0,16,0,14,2147483647,2147483647],"split_type":[0,0,0,0,0,0,0,0,0,0,0],"sum_hessian":[3.4944528E2,1.4374149E2,2.057038E2,1.386822E2,5.0592732E0,5.955367E0,1.9974843E2,6.792227E0,1.9295619E2,6.0848527E0,1.8687134E2],"tree_param":{"num_deleted":"2","num_feature":"40","num_nodes":"11","size_leaf_vector":"0"}},{"base_weights":[2.1434005E-2,-1.0659351E0,8.853124E-1,-1.1664971E0,7.3415166E-1,-6.305763E-1,9.529402E-1,2.3053294E-1,1.0293821E0,6.832919E-1,-5.6266654E-1,1.7704068E-1,1.0528173E0],"categories":[],"categories_nodes":[],"categories_segments":[],"categories_sizes":[],"default_left":[1,1,1,0,0,0,1,1,1,0,0,1,1],"id":24,"left_children":[1,3,5,-1,-1,-1,7,9,-1,-1,-1,-1,-1],"loss_changes":[3.234788E2,3.08824E1,2.2243439E1,0E0,0E0,0E0,7.11203E0,1.0119034E1,2.973175E-1,0E0,0E0,0E0,0E0],"parents":[2147483647,0,0,1,1,2,2,6,6,7,7,8,8],"right_children":[2,4,6,-1,-1,-1,8,10,-1,-1,-1,-1,-1],"split_conditions":[6.0242003E-1,2.3037434E0,1.5598144E-1,-5.8324855E-2,3.6707584E-2,-3.1528816E-2,1.2121553E0,8.797999E-2,5.1469106E-2,3.4164596E-2,-2.8133327E-2,8.852034E-3,5.2640866E-2],"split_indices":[28,3,3,0,0,0,30,26,4,0,0,2147483647,2147483647],"split_type":[0,0,0,0,0,0,0,0,0,0,0,0,0],"sum_hessian":[3.3873355E2,1.4863231E2,1.9010124E2,1.428206E2,5.8116975E0,5.7892E0,1.8431204E2,2.1293236E1,1.630188E2,1.542548E1,5.8677564E0,7.3327103E0,1.556861E2],"tree_param":{"num_deleted":"2","num_feature":"40","num_nodes":"13","size_leaf_vector":"0"}},{"base_weights":[6.0935576E-2,-1.1323038E0,7.892953E-1,-2.734673E-1,9.164876E-1,4.7463158E-1,-7.409531E-1,-0E0,9.554689E-1,2.5165642E-2,9.701044E-1],"categories":[],"categories_nodes":[],"categories_segments":[],"categories_sizes":[],"default_left":[1,0,1,1,1,0,0,0,1,1,1],"id":25,"left_children":[1,-1,3,5,7,-1,-1,-1,-1,-1,-1],"loss_changes":[2.9532837E2,0E0,3.0747772E1,9.747416E0,7.9040527E0,0E0,0E0,0E0,4.600525E-1,0E0,0E0],"parents":[2147483647,0,0,2,2,3,3,4,4,8,8],"right_children":[2,-1,4,6,8,-1,-1,-1,-1,-1,-1],"split_conditions":[6.574076E-2,-5.6615192E-2,5.1524085E-1,-1.2229948E0,-2.699791E-1,2.373158E-2,-3.7047654E-2,-0E0,4.7773447E-2,1.2582821E-3,4.850522E-2],"split_indices":[3,0,28,21,2,0,0,0,37,2147483647,2147483647],"split_type":[0,0,0,0,0,0,0,0,0,0,0],"sum_hessian":[3.3451086E2,1.25120995E2,2.0938986E2,2.033182E1,1.8905803E2,6.1562138E0,1.4175606E1,6.693549E0,1.8236449E2,5.0674124E0,1.7729707E2],"tree_param":{"num_deleted":"2","num_feature":"40","num_nodes":"11","size_leaf_vector":"0"}},{"base_weights":[-0E0,-1.1342477E0,7.1032304E-1,-1.673786E-2,9.476017E-1,-5.635147E-1,7.068824E-1,-0E0,9.8469025E-1,4.193667E-1,-1.1878089E0,8.6202663E-1,1.22893E-2],"categories":[],"categories_nodes":[],"categories_segments":[],"categories_sizes":[],"default_left":[1,0,1,1,1,1,1,0,0,0,0,1,1],"id":26,"left_children":[1,-1,3,5,7,9,-1,-1,-1,-1,-1,-1,-1],"loss_changes":[2.5443967E2,0E0,3.5168144E1,2.0022472E1,4.360199E0,2.1906384E1,4.3397522E-1,0E0,0E0,0E0,0E0,0E0,0E0],"parents":[2147483647,0,0,2,2,3,3,4,4,5,5,6,6],"right_children":[2,-1,4,6,8,10,-1,-1,-1,-1,-1,-1,-1],"split_conditions":[-8.143032E-2,-5.6712385E-2,1.211841E0,1.8061483E0,-8.160285E-1,-6.062808E-1,3.534412E-2,-0E0,4.9234513E-2,2.0968335E-2,-5.9390444E-2,4.3101333E-2,6.14465E-4],"split_indices":[39,0,30,3,33,1,9,0,0,0,0,2147483647,2147483647],"split_type":[0,0,0,0,0,0,0,0,0,0,0,0,0],"sum_hessian":[3.0895184E2,1.1916488E2,1.8978697E2,4.5309776E1,1.444772E2,2.7760918E1,1.754886E1,6.403478E0,1.3807372E2,9.921604E0,1.7839314E1,1.1400014E1,6.1488466E0],"tree_param":{"num_deleted":"2","num_feature":"40","num_nodes":"13","size_leaf_vector":"0"}},{"base_weights":[1.8265015E-2,-9.6160597E-1,8.5102355E-1,-1.1016475E0,8.1314194E-1,-5.310237E-2,8.982324E-1,-1.1509508E0,-0E0,1.9897057E-1,9.574389E-1,-3.9650392E-4,5.814626E-1,1.0025533E-1,9.7689307E-1],"categories":[],"categories_nodes":[],"categories_segments":[],"categories_sizes":[],"default_left":[1,1,1,1,0,0,1,0,0,1,1,0,0,1,1],"id":27,"left_children":[1,3,5,7,-1,-1,9,-1,-1,11,-1,-1,-1,-1,-1],"loss_changes":[2.5975928E2,3.937616E1,9.23027E0,5.595871E0,0E0,0E0,4.028366E0,0E0,0E0,2.646593E0,6.1782837E-2,0E0,0E0,0E0,0E0],"parents":[2147483647,0,0,1,1,2,2,3,3,6,6,9,9,10,10],"right_children":[2,4,6,8,-1,-1,10,-1,-1,12,-1,-1,-1,-1,-1],"split_conditions":[8.954645E-1,2.2509003E0,-8.081973E-2,1.275637E0,4.06571E-2,-2.6551185E-3,1.4565042E0,-5.754754E-2,-0E0,6.19833E-1,4.7871944E-2,-1.9825196E-5,2.9073132E-2,5.012767E-3,4.8844654E-2],"split_indices":[28,3,39,14,0,0,30,0,0,37,29,0,0,2147483647,2147483647],"split_type":[0,0,0,0,0,0,0,0,0,0,0,0,0,0,0],"sum_hessian":[3.1259644E2,1.422965E2,1.7029994E2,1.3398846E2,8.308027E0,6.330037E0,1.6396991E2,1.2672777E2,7.260692E0,1.6457655E1,1.4751225E2,9.3514185E0,7.106236E0,5.9646773E0,1.4154758E2],"tree_param":{"num_deleted":"2","num_feature":"40","num_nodes":"15","size_leaf_vector":"0"}},{"base_weights":[8.771847E-3,-1.0990877E0,6.966451E-1,2.5093881E-2,8.925625E-1,-3.9868823E-1,9.096971E-1,-0E0,9.23319E-1,1.4797577E-1,-1.1173363E0,9.60363E-1,9.068251E-2],"categories":[],"categories_nodes":[],"categories_segments":[],"categories_sizes":[],"default_left":[1,0,1,1,1,1,0,0,1,0,0,0,0],"id":28,"left_children":[1,-1,3,5,7,9,-1,-1,11,-1,-1,-1,-1],"loss_changes":[2.223264E2,0E0,2.2007294E1,1.9517853E1,2.8745728E0,1.49875965E1,0E0,0E0,1.7267227E0,0E0,0E0,0E0,0E0],"parents":[2147483647,0,0,2,2,3,3,4,4,5,5,8,8],"right_children":[2,-1,4,6,8,10,-1,-1,12,-1,-1,-1,-1],"split_conditions":[8.516967E-2,-5.4954387E-2,1.2698308E0,2.3037434E0,-8.691586E-1,3.3399203E-1,4.5484856E-2,-0E0,2.1025648E0,7.398789E-3,-5.5866815E-2,4.801815E-2,4.5341253E-3],"split_indices":[3,0,30,3,7,25,0,0,25,0,0,0,0],"split_type":[0,0,0,0,0,0,0,0,0,0,0,0,0],"sum_hessian":[2.867833E2,1.08054436E2,1.7872884E2,4.3435726E1,1.3529312E2,2.895258E1,1.4483149E1,5.688007E0,1.296051E2,1.6216341E1,1.2736238E1,1.213443E2,8.260814E0],"tree_param":{"num_deleted":"0","num_feature":"40","num_nodes":"13","size_leaf_vector":"0"}},{"base_weights":[7.946284E-2,-1.090836E0,7.5132614E-1,-7.17817E-1,8.357187E-1,-0E0,8.900449E-1,-0E0,9.350605E-1],"categories":[],"categories_nodes":[],"categories_segments":[],"categories_sizes":[],"default_left":[1,0,1,0,1,0,1,0,0],"id":29,"left_children":[1,-1,3,-1,5,-1,7,-1,-1],"loss_changes":[2.3776883E2,0E0,2.6030563E1,0E0,9.673508E0,0E0,6.418686E0,0E0,0E0],"parents":[2147483647,0,0,2,2,4,4,6,6],"right_children":[2,-1,4,-1,6,-1,8,-1,-1],"split_conditions":[6.8706505E-2,-5.4541804E-2,1.8582767E-1,-3.589085E-2,2.0639929E-1,-0E0,-8.925748E-1,-0E0,4.6753027E-2],"split_indices":[3,0,28,0,27,0,33,0,0],"split_type":[0,0,0,0,0,0,0,0,0],"sum_hessian":[2.9713333E2,1.0660085E2,1.9053249E2,7.8396983E0,1.826928E2,9.765413E0,1.7292738E2,9.190035E0,1.6373734E2],"tree_param":{"num_deleted":"0","num_feature":"40","num_nodes":"9","size_leaf_vector":"0"}},{"base_weights":[-1.7180108E-2,-1.0676807E0,6.469852E-1,-1.0967342E0,-4.2463325E-2,-7.633643E-1,7.5661683E-1,2.3986019E-1,9.613539E-1,7.442289E-1,-4.849989E-1],"categories":[],"categories_nodes":[],"categories_segments":[],"categories_sizes":[],"default_left":[1,1,1,1,1,0,1,1,0,0,0],"id":30,"left_children":[1,-1,5,-1,-1,-1,7,9,-1,-1,-1],"loss_changes":[1.947032E2,8.2183075E-1,2.786715E1,0E0,0E0,0E0,1.3805862E1,2.0648031E1,0E0,0E0,0E0],"parents":[2147483647,0,0,1,1,2,2,6,6,7,7],"right_children":[2,-1,6,-1,-1,-1,8,10,-1,-1,-1],"split_conditions":[-3.968726E-2,-5.3384036E-2,1.8463671E-1,-5.483671E-2,-2.1231663E-3,-3.8168218E-2,1.0151144E0,-2.4515018E-1,4.8067696E-2,3.7211444E-2,-2.4249947E-2],"split_indices":[39,26,28,2147483647,2147483647,0,39,36,0,0,0],"split_type":[0,0,0,0,0,0,0,0,0,0,0],"sum_hessian":[2.718858E2,1.05773705E2,1.661121E2,1.0075826E2,5.015445E0,9.375078E0,1.5673703E2,4.9097687E1,1.07639336E2,3.0532011E1,1.8565678E1],"tree_param":{"num_deleted":"2","num_feature":"40","num_nodes":"11","size_leaf_vector":"0"}},{"base_weights":[3.845401E-2,-1.0810114E0,6.996596E-1,-4.1195765E-1,8.02683E-1,-6.2260604E-1,-0E0,1.1908515E-1,8.62499E-1,-6.178043E-1,7.0338154E-1],"categories":[],"categories_nodes":[],"categories_segments":[],"categories_sizes":[],"default_left":[1,0,1,1,1,0,0,1,0,0,0],"id":31,"left_children":[1,-1,3,5,7,-1,-1,9,-1,-1,-1],"loss_changes":[1.9769818E2,0E0,2.1193893E1,1.2684643E0,4.1835403E0,0E0,0E0,9.600512E0,0E0,0E0,0E0],"parents":[2147483647,0,0,2,2,3,3,4,4,7,7],"right_children":[2,-1,4,6,8,-1,-1,10,-1,-1,-1],"split_conditions":[-8.143032E-2,-5.4050572E-2,1.8582767E-1,9.1408855E-1,3.5435262E-1,-3.1130303E-2,-0E0,4.9581185E-1,4.312495E-2,-3.0890215E-2,3.5169076E-2],"split_indices":[39,0,28,2,27,0,0,38,0,0,0],"split_type":[0,0,0,0,0,0,0,0,0,0,0],"sum_hessian":[2.6205365E2,9.5476326E1,1.6657733E2,1.17191515E1,1.5485818E2,6.7163734E0,5.002778E0,1.5872321E1,1.3898586E2,5.4296803E0,1.0442641E1],"tree_param":{"num_deleted":"0","num_feature":"40","num_nodes":"11","size_leaf_vector":"0"}},{"base_weights":[2.3650646E-2,-1.0777124E0,6.464994E-1,-2.3282114E-1,8.275813E-1,-1.0445238E0,7.7016674E-2,-0E0,8.6967367E-1,-6.1306304E-1,5.4502296E-1,9.036208E-1,1.3034818E-1],"categories":[],"categories_nodes":[],"categories_segments":[],"categories_sizes":[],"default_left":[1,0,1,1,1,0,1,0,1,0,0,0,0],"id":32,"left_children":[1,-1,3,5,7,-1,9,-1,11,-1,-1,-1,-1],"loss_changes":[1.8471388E2,0E0,2.945604E1,9.758989E0,6.4697113E0,0E0,8.240033E0,0E0,1.128418E0,0E0,0E0,0E0,0E0],"parents":[2147483647,0,0,2,2,3,3,4,4,6,6,8,8],"right_children":[2,-1,4,6,8,-1,10,-1,12,-1,-1,-1,-1],"split_conditions":[-8.143032E-2,-5.388562E-2,3.5925588E-1,2.629302E-1,-7.1606E-1,-5.2226193E-2,1.5869763E-1,-0E0,2.4206886E0,-3.0653153E-2,2.7251149E-2,4.518104E-2,6.517409E-3],"split_indices":[39,0,31,38,12,0,16,0,31,0,0,0,0],"split_type":[0,0,0,0,0,0,0,0,0,0,0,0,0],"sum_hessian":[2.6447925E2,9.358825E1,1.7089098E2,2.7150112E1,1.4374088E2,7.3185706E0,1.9831541E1,5.306767E0,1.384341E2,5.9115787E0,1.3919963E1,1.2913295E2,9.301157E0],"tree_param":{"num_deleted":"0","num_feature":"40","num_nodes":"13","size_leaf_vector":"0"}},{"base_weights":[5.8669098E-2,-1.0552925E0,6.555128E-1,-0E0,8.729429E-1,-6.1041135E-1,8.121504E-1,9.083363E-1,-0E0,-1.1016144E0,-0E0,2.0848611E-2,9.41311E-1],"categories":[],"categories_nodes":[],"categories_segments":[],"categories_sizes":[],"default_left":[1,0,1,1,1,1,0,1,0,0,0,0,0],"id":33,"left_children":[1,-1,3,5,7,9,-1,11,-1,-1,-1,-1,-1],"loss_changes":[1.7561092E2,0E0,2.6440361E1,2.2952469E1,2.9541016E0,9.177341E0,0E0,1.7075958E0,0E0,0E0,0E0,0E0,0E0],"parents":[2147483647,0,0,2,2,3,3,4,4,5,5,7,7],"right_children":[2,-1,4,6,8,10,-1,12,-1,-1,-1,-1,-1],"split_conditions":[6.8706505E-2,-5.2764624E-2,1.2121553E0,1.412E0,2.103272E0,2.9651988E-1,4.0607523E-2,-8.725159E-1,-0E0,-5.508072E-2,-0E0,1.0424306E-3,4.7065552E-2],"split_indices":[3,0,30,29,25,11,0,4,0,0,0,0,0],"split_type":[0,0,0,0,0,0,0,0,0,0,0,0,0],"sum_hessian":[2.59213E2,8.845794E1,1.7075508E2,4.107987E1,1.2967522E2,2.5227346E1,1.5852522E1,1.2311766E2,6.5575533E0,1.3229113E1,1.1998234E1,6.758822E0,1.1635884E2],"tree_param":{"num_deleted":"0","num_feature":"40","num_nodes":"13","size_leaf_vector":"0"}},{"base_weights":[3.0260261E-2,-9.418069E-1,6.905351E-1,-1.0029202E0,-0E0,3.9567713E-2,8.348053E-1,-8.3580405E-2,-1.0737993E0,-5.877895E-1,5.6627584E-1,-0E0,8.744515E-1,-0E0,-1.0162898E0,-0E0,7.719799E-1,-0E0,9.1072136E-1],"categories":[],"categories_nodes":[],"categories_segments":[],"categories_sizes":[],"default_left":[1,1,1,1,0,1,1,0,0,1,1,0,1,0,0,0,0,0,0],"id":34,"left_children":[1,3,5,7,-1,9,11,-1,-1,13,15,-1,17,-1,-1,-1,-1,-1,-1],"loss_changes":[1.6233748E2,6.952751E0,1.2449089E1,3.6953888E0,0E0,1.1952991E1,4.382065E0,0E0,0E0,4.827982E0,2.3018632E0,0E0,3.1431656E0,0E0,0E0,0E0,0E0,0E0,0E0],"parents":[2147483647,0,0,1,1,2,2,3,3,5,5,6,6,9,9,10,10,12,12],"right_children":[2,4,6,8,-1,10,12,-1,-1,14,16,-1,18,-1,-1,-1,-1,-1,-1],"split_conditions":[6.0242003E-1,1.4171859E0,1.4565042E0,-7.0272213E-1,-0E0,1.4122198E0,-8.725159E-1,-4.1790204E-3,-5.3689964E-2,-5.732372E-1,2.3771048E-1,-0E0,-8.1739545E-1,-0E0,-5.081449E-2,-0E0,3.8598996E-2,-0E0,4.5536067E-2],"split_indices":[28,29,30,16,0,3,4,0,0,20,38,0,33,0,0,0,0,0,0],"split_type":[0,0,0,0,0,0,0,0,0,0,0,0,0,0,0,0,0,0,0],"sum_hessian":[2.4767168E2,9.843941E1,1.4923227E2,9.336591E1,5.0734935E0,3.0281868E1,1.1895039E2,9.170779E0,8.419514E1,1.1928669E1,1.8353199E1,5.0766916E0,1.138737E2,5.260437E0,6.6682315E0,6.001054E0,1.2352146E1,5.3340874E0,1.0853962E2],"tree_param":{"num_deleted":"0","num_feature":"40","num_nodes":"19","size_leaf_vector":"0"}},{"base_weights":[4.636232E-2,-1.057676E0,6.4118165E-1,-3.349296E-1,7.285282E-1,-0E0,-5.2265674E-1,-0E0,7.684358E-1,-0E0,8.05234E-1],"categories":[],"categories_nodes":[],"categories_segments":[],"categories_sizes":[],"default_left":[1,0,1,1,1,1,1,0,1,0,0],"id":35,"left_children":[1,-1,3,-1,7,-1,-1,-1,9,-1,-1],"loss_changes":[1.6179857E2,0E0,1.5328873E1,7.9133224E-1,5.272156E0,0E0,0E0,0E0,3.2448196E0,0E0,0E0],"parents":[2147483647,0,0,2,2,3,3,4,4,8,8],"right_children":[2,-1,4,-1,8,-1,-1,-1,10,-1,-1],"split_conditions":[-8.117984E-2,-5.28838E-2,1.8582767E-1,-1.674648E-2,2.0639929E-1,-0E0,-2.6132837E-2,-0E0,-8.925748E-1,-0E0,4.02617E-2],"split_indices":[39,0,28,35,27,2147483647,2147483647,0,33,0,0],"split_type":[0,0,0,0,0,0,0,0,0,0,0],"sum_hessian":[2.4155042E2,8.257919E1,1.5897122E2,1.0477932E1,1.4849329E2,5.046344E0,5.431588E0,6.3981786E0,1.4209511E2,7.9540043E0,1.341411E2],"tree_param":{"num_deleted":"2","num_feature":"40","num_nodes":"11","size_leaf_vector":"0"}},{"base_weights":[-1.5154991E-2,-8.365778E-1,7.366764E-1,-1.0915639E0,2.2193646E-1,-0E0,8.4017783E-1,5.1013553E-1,-1.6429126E-1,-4.6611515E-1,3.348487E-1,2.7028602E-1,9.178757E-1,-0E0,7.48785E-1,4.4754538E-1,-0E0],"categories":[],"categories_nodes":[],"categories_segments":[],"categories_sizes":[],"default_left":[1,1,1,0,1,1,1,1,0,0,0,1,0,0,0,0,0],"id":36,"left_children":[1,3,5,-1,7,9,11,13,-1,-1,-1,15,-1,-1,-1,-1,-1],"loss_changes":[1.4155862E2,3.2325836E1,9.470505E0,0E0,3.4416828E0,3.1811209E0,1.4996338E0,1.9673371E0,0E0,0E0,0E0,1.3524387E0,0E0,0E0,0E0,0E0,0E0],"parents":[2147483647,0,0,1,1,2,2,4,4,5,5,6,6,7,7,11,11],"right_children":[2,4,6,-1,8,10,12,14,-1,-1,-1,16,-1,-1,-1,-1,-1],"split_conditions":[5.867013E-1,1.210516E0,3.687838E-1,-5.4578196E-2,-5.0945944E-1,9.276235E-1,1.4298546E0,-1.16019145E-1,-8.214563E-3,-2.3305757E-2,1.6742436E-2,1.1842729E0,4.5893785E-2,-0E0,3.7439253E-2,2.237727E-2,-0E0],"split_indices":[39,30,31,0,19,15,3,10,0,0,0,3,0,0,0,0,0],"split_type":[0,0,0,0,0,0,0,0,0,0,0,0,0,0,0,0,0],"sum_hessian":[2.2290092E2,1.076302E2,1.1527072E2,8.8183426E1,1.9446783E1,1.3928426E1,1.013423E2,1.3551009E1,5.895774E0,6.003954E0,7.9244723E0,1.6859493E1,8.44828E1,5.3600373E0,8.190971E0,1.0995549E1,5.8639436E0],"tree_param":{"num_deleted":"0","num_feature":"40","num_nodes":"17","size_leaf_vector":"0"}},{"base_weights":[-1.13409925E-2,-8.19155E-1,6.9163716E-1,-1.0724728E0,-0E0,-0E0,7.4335957E-1,-8.3141685E-1,6.573425E-1,7.968932E-1,-0E0,8.624995E-1,-0E0,-0E0,8.2777125E-1],"categories":[],"categories_nodes":[],"categories_segments":[],"categories_sizes":[],"default_left":[1,1,1,0,1,0,1,0,1,1,0,0,0,0,0],"id":37,"left_children":[1,3,5,-1,7,-1,9,-1,11,13,-1,-1,-1,-1,-1],"loss_changes":[1.3178763E2,2.3705833E1,4.8460655E0,0E0,1.6677294E1,0E0,4.5669518E0,0E0,1.3839493E0,1.409317E0,0E0,0E0,0E0,0E0,0E0],"parents":[2147483647,0,0,1,1,2,2,4,4,6,6,8,8,9,9],"right_children":[2,4,6,-1,8,-1,10,-1,12,14,-1,-1,-1,-1,-1],"split_conditions":[1.1261251E0,5.556524E-1,1.2121553E0,-5.3623643E-2,8.037844E-1,-0E0,2.0602825E0,-4.1570842E-2,-7.8555727E-1,-8.493351E-1,-0E0,4.3124974E-2,-0E0,-0E0,4.1388564E-2],"split_indices":[28,2,30,0,27,0,25,0,18,4,0,0,0,0,0],"split_type":[0,0,0,0,0,0,0,0,0,0,0,0,0,0,0],"sum_hessian":[2.2562915E2,1.0607934E2,1.1954981E2,8.12461E1,2.4833237E1,7.6907187E0,1.1185909E2,9.943145E0,1.4890093E1,1.0413706E2,7.722035E0,9.251884E0,5.6382074E0,5.787129E0,9.834993E1],"tree_param":{"num_deleted":"0","num_feature":"40","num_nodes":"15","size_leaf_vector":"0"}},{"base_weights":[6.642162E-2,-1.0299197E0,5.8938646E-1,-3.130721E-1,7.147345E-1,-8.4415954E-1,4.906134E-1,-2.5772432E-2,7.6770145E-1,-0E0,8.018325E-1],"categories":[],"categories_nodes":[],"categories_segments":[],"categories_sizes":[],"default_left":[1,0,1,1,1,0,0,0,1,0,0],"id":38,"left_children":[1,-1,3,5,7,-1,-1,-1,9,-1,-1],"loss_changes":[1.3194011E2,0E0,1.932925E1,1.0225521E1,7.0910797E0,0E0,0E0,0E0,3.9213104E0,0E0,0E0],"parents":[2147483647,0,0,2,2,3,3,4,4,8,8],"right_children":[2,-1,4,6,8,-1,-1,-1,10,-1,-1],"split_conditions":[-8.1729904E-2,-5.1495988E-2,5.1524085E-1,2.1822476E0,-8.925748E-1,-4.220798E-2,2.453067E-2,-1.2886216E-3,-9.28425E-1,-0E0,4.0091626E-2],"split_indices":[39,0,28,3,33,0,0,0,0,0,0],"split_type":[0,0,0,0,0,0,0,0,0,0,0],"sum_hessian":[2.2548273E2,7.064672E1,1.5483601E2,1.6389482E1,1.3844652E2,1.127575E1,5.1137314E0,6.824014E0,1.3162251E2,5.1177697E0,1.2650474E2],"tree_param":{"num_deleted":"0","num_feature":"40","num_nodes":"11","size_leaf_vector":"0"}},{"base_weights":[-3.8373068E-2,-1.0069381E0,5.749171E-1,-1.0424824E0,-3.469452E-2,-0E0,7.551385E-1,-8.424049E-1,5.014744E-1,-0E0,8.011809E-1,8.6594677E-1,-0E0,-0E0,8.676627E-1],"categories":[],"categories_nodes":[],"categories_segments":[],"categories_sizes":[],"default_left":[1,1,1,1,1,1,1,0,1,0,1,0,0,0,0],"id":39,"left_children":[1,-1,5,-1,-1,7,9,-1,11,-1,13,-1,-1,-1,-1],"loss_changes":[1.2575897E2,5.963974E-1,1.23178215E1,0E0,0E0,1.5660009E1,2.887329E0,0E0,4.657001E0,0E0,3.9451103E0,0E0,0E0,0E0,0E0],"parents":[2147483647,0,0,1,1,2,2,5,5,6,6,8,8,10,10],"right_children":[2,-1,6,-1,-1,8,10,-1,12,-1,14,-1,-1,-1,-1],"split_conditions":[5.1524085E-1,-5.0346907E-2,1.4611509E0,-5.212412E-2,-1.734726E-3,3.4578916E-2,-8.1739545E-1,-4.2120244E-2,-3.9445373E-1,-0E0,8.764489E-2,4.329734E-2,-0E0,-0E0,4.3383136E-2],"split_indices":[28,33,30,2147483647,2147483647,0,33,0,9,0,25,0,0,0,0],"split_type":[0,0,0,0,0,0,0,0,0,0,0,0,0,0,0],"sum_hessian":[2.043331E2,7.973836E1,1.2459474E2,7.4732376E1,5.0059743E0,3.20346E1,9.2560135E1,1.0303372E1,2.1731228E1,6.1695623E0,8.639058E1,1.15044E1,1.0226828E1,7.9334135E0,7.845716E1],"tree_param":{"num_deleted":"2","num_feature":"40","num_nodes":"15","size_leaf_vector":"0"}},{"base_weights":[5.3284228E-2,-1.019726E0,5.691042E-1,-6.508202E-1,6.678016E-1,-3.784694E-2,7.377524E-1,8.149671E-2,8.161505E-1],"categories":[],"categories_nodes":[],"categories_segments":[],"categories_sizes":[],"default_left":[1,0,1,0,1,0,1,0,0],"id":40,"left_children":[1,-1,3,-1,5,-1,7,-1,-1],"loss_changes":[1.1784787E2,0E0,1.8911335E1,0E0,8.2967415E0,0E0,4.6063232E0,0E0,0E0],"parents":[2147483647,0,0,2,2,4,4,6,6],"right_children":[2,-1,4,-1,6,-1,8,-1,-1],"split_conditions":[-8.143032E-2,-5.09863E-2,1.8582767E-1,-3.254101E-2,-8.2530713E-1,-1.8923471E-3,2.7921236E-1,4.0748357E-3,4.0807527E-2],"split_indices":[39,0,28,0,33,0,2,0,0],"split_type":[0,0,0,0,0,0,0,0,0],"sum_hessian":[2.0840437E2,6.544904E1,1.4295534E2,7.927177E0,1.3502815E2,9.723626E0,1.2530453E2,1.67471E1,1.0855743E2],"tree_param":{"num_deleted":"0","num_feature":"40","num_nodes":"9","size_leaf_vector":"0"}},{"base_weights":[5.1467326E-2,-1.0069464E0,5.7939535E-1,-1.6995597E-1,6.80613E-1,-7.746451E-1,5.305713E-1,-1.8396167E-1,7.446224E-1,-0E0,7.787595E-1],"categories":[],"categories_nodes":[],"categories_segments":[],"categories_sizes":[],"default_left":[1,0,1,1,1,0,0,0,1,0,0],"id":41,"left_children":[1,-1,3,5,7,-1,-1,-1,9,-1,-1],"loss_changes":[1.17216324E2,0E0,1.2143257E1,8.903042E0,8.621761E0,0E0,0E0,0E0,3.1537704E0,0E0,0E0],"parents":[2147483647,0,0,2,2,3,3,4,4,8,8],"right_children":[2,-1,4,6,8,-1,-1,-1,10,-1,-1],"split_conditions":[1.8200228E-1,-5.0347324E-2,5.032288E-1,1.6946644E0,-5.764425E-1,-3.8732257E-2,2.6528565E-2,-9.198084E-3,-9.849538E-1,-0E0,3.8937975E-2],"split_indices":[3,0,28,29,13,0,0,0,4,0,0],"split_type":[0,0,0,0,0,0,0,0,0,0,0],"sum_hessian":[2.0517499E2,6.6114746E1,1.3906026E2,1.3954345E1,1.251059E2,8.85144E0,5.1029043E0,6.0824842E0,1.1902342E2,5.2631345E0,1.13760284E2],"tree_param":{"num_deleted":"0","num_feature":"40","num_nodes":"11","size_leaf_vector":"0"}},{"base_weights":[6.5245904E-2,-1.0077735E0,5.5477726E-1,-6.5959275E-1,6.387446E-1,-0E0,6.9627273E-1,-0E0,7.536552E-1],"categories":[],"categories_nodes":[],"categories_segments":[],"categories_sizes":[],"default_left":[1,0,1,0,1,0,1,0,0],"id":42,"left_children":[1,-1,3,-1,5,-1,7,-1,-1],"loss_changes":[1.0800129E2,0E0,1.5844353E1,0E0,6.34684E0,0E0,5.1712685E0,0E0,0E0],"parents":[2147483647,0,0,2,2,4,4,6,6],"right_children":[2,-1,4,-1,6,-1,8,-1,-1],"split_conditions":[-8.143032E-2,-5.0388675E-2,1.5363607E-1,-3.2979637E-2,-8.925748E-1,-0E0,1.8364403E-1,-0E0,3.768276E-2],"split_indices":[39,0,27,0,33,0,30,0,0],"split_type":[0,0,0,0,0,0,0,0,0],"sum_hessian":[2.0114009E2,6.0740204E1,1.4039989E2,6.2095795E0,1.341903E2,8.641838E0,1.2554846E2,9.725455E0,1.15823006E2],"tree_param":{"num_deleted":"0","num_feature":"40","num_nodes":"9","size_leaf_vector":"0"}},{"base_weights":[1.5230847E-2,-9.945417E-1,5.1476246E-1,-0E0,7.4403477E-1,4.3202373E-1,-9.327554E-1,2.5391352E-1,8.4111315E-1,-3.993677E-1,7.182688E-1,-1.2958027E0,-0E0,6.66617E-1,-1.11942135E-1,1.0985782E-2,8.7505966E-1],"categories":[],"categories_nodes":[],"categories_segments":[],"categories_sizes":[],"default_left":[1,0,1,1,1,1,1,1,1,0,0,0,0,0,0,1,1],"id":43,"left_children":[1,-1,3,5,7,9,11,13,-1,-1,-1,-1,-1,-1,-1,-1,-1],"loss_changes":[9.560591E1,0E0,1.5150211E1,1.8485573E1,1.4171753E0,9.017814E0,2.8245325E0,4.7249537E0,1.6648865E-1,0E0,0E0,0E0,0E0,0E0,0E0,0E0,0E0],"parents":[2147483647,0,0,2,2,3,3,4,4,5,5,6,6,7,7,8,8],"right_children":[2,-1,4,6,8,10,12,14,-1,-1,-1,-1,-1,-1,-1,-1,-1],"split_conditions":[2.5994468E-1,-4.9727086E-2,7.3710626E-1,-2.4895285E-1,1.732521E-2,-8.8482445E-1,1.4141653E0,-5.786259E-1,4.205566E-2,-1.9968385E-2,3.591344E-2,-6.479014E-2,-0E0,3.333085E-2,-5.5971066E-3,5.492891E-4,4.3752983E-2],"split_indices":[28,0,39,37,38,4,11,38,13,0,0,0,0,0,0,2147483647,2147483647],"split_type":[0,0,0,0,0,0,0,0,0,0,0,0,0,0,0,0,0],"sum_hessian":[1.8539632E2,5.9051247E1,1.2634508E2,4.0065434E1,8.627964E1,2.8596767E1,1.1468664E1,1.9463333E1,6.681631E1,5.230963E0,2.3365805E1,6.1791434E0,5.2895207E0,1.0556021E1,8.907312E0,5.0956063E0,6.1720703E1],"tree_param":{"num_deleted":"2","num_feature":"40","num_nodes":"17","size_leaf_vector":"0"}},{"base_weights":[5.402201E-2,-8.9536536E-1,5.083938E-1,-0E0,-9.7835964E-1,-1.6660805E-1,6.794261E-1,-8.934561E-1,2.4569944E-1,-1.4882871E-2,7.505292E-1,4.907481E-1,-0E0,-0E0,8.139849E-1],"categories":[],"categories_nodes":[],"categories_segments":[],"categories_sizes":[],"default_left":[1,1,1,0,0,1,1,0,1,0,1,0,0,0,0],"id":44,"left_children":[1,3,5,-1,-1,7,9,-1,11,-1,13,-1,-1,-1,-1],"loss_changes":[8.36107E1,4.8473206E0,1.6777084E1,0E0,0E0,1.0055372E1,6.9087906E0,0E0,1.3506124E0,0E0,6.016018E0,0E0,0E0,0E0,0E0],"parents":[2147483647,0,0,1,1,2,2,5,5,6,6,8,8,10,10],"right_children":[2,4,6,-1,-1,8,10,-1,12,-1,14,-1,-1,-1,-1],"split_conditions":[1.8953715E-1,-1.6909623E0,2.7921236E-1,-0E0,-4.8917983E-2,1.475521E0,-8.925748E-1,-4.4672806E-2,-6.8114907E-1,-7.4414356E-4,1.9396521E-1,2.4537405E-2,-0E0,-0E0,4.0699244E-2],"split_indices":[28,23,2,0,0,28,33,0,9,0,31,0,0,0,0],"split_type":[0,0,0,0,0,0,0,0,0,0,0,0,0,0,0],"sum_hessian":[1.8945222E2,5.8955105E1,1.3049712E2,5.001343E0,5.3953762E1,2.4032707E1,1.0646442E2,9.186997E0,1.4845709E1,7.4974203E0,9.8966995E1,7.081339E0,7.76437E0,6.1985664E0,9.2768425E1],"tree_param":{"num_deleted":"0","num_feature":"40","num_nodes":"15","size_leaf_vector":"0"}},{"base_weights":[1.7795138E-2,-9.773455E-1,4.8538417E-1,-2.6183692E-1,6.27229E-1,-6.697346E-1,3.0602252E-1,-0E0,7.061379E-1,-1.1012768E0,-0E0,-0E0,7.859528E-1],"categories":[],"categories_nodes":[],"categories_segments":[],"categories_sizes":[],"default_left":[1,0,1,1,1,1,0,0,1,0,0,0,0],"id":45,"left_children":[1,-1,3,5,7,9,-1,-1,11,-1,-1,-1,-1],"loss_changes":[8.526433E1,0E0,1.4725788E1,6.019253E0,6.724289E0,4.39451E0,0E0,0E0,6.5757256E0,0E0,0E0,0E0,0E0],"parents":[2147483647,0,0,2,2,3,3,4,4,5,5,8,8],"right_children":[2,-1,4,6,8,10,-1,-1,12,-1,-1,-1,-1],"split_conditions":[1.9008294E-1,-4.8867278E-2,3.6478114E-1,9.0446097E-1,-9.1479087E-1,2.9372072E-1,1.5301126E-2,-0E0,-1.496975E-1,-5.506384E-2,-0E0,-0E0,3.929764E-2],"split_indices":[28,0,31,27,4,8,0,0,14,0,0,0,0],"split_type":[0,0,0,0,0,0,0,0,0,0,0,0,0],"sum_hessian":[1.792953E2,5.4902317E1,1.2439299E2,1.719167E1,1.07201324E2,1.1741474E1,5.450196E0,9.76775E0,9.743357E1,6.075379E0,5.6660957E0,8.717544E0,8.871603E1],"tree_param":{"num_deleted":"0","num_feature":"40","num_nodes":"13","size_leaf_vector":"0"}},{"base_weights":[4.4535898E-2,-9.804934E-1,5.123786E-1,-8.650927E-2,6.8830997E-1,-7.3058057E-1,5.1473045E-1,-1.7195879E-1,7.7024424E-1,-0E0,-1.0864407E0,-0E0,8.556974E-1],"categories":[],"categories_nodes":[],"categories_segments":[],"categories_sizes":[],"default_left":[1,0,1,1,1,1,0,0,1,0,0,0,0],"id":46,"left_children":[1,-1,3,5,7,9,-1,-1,11,-1,-1,-1,-1],"loss_changes":[8.581044E1,0E0,1.4590004E1,1.26144285E1,8.628906E0,4.514618E0,0E0,0E0,5.049988E0,0E0,0E0,0E0,0E0],"parents":[2147483647,0,0,2,2,3,3,4,4,5,5,8,8],"right_children":[2,-1,4,6,8,10,-1,-1,12,-1,-1,-1,-1],"split_conditions":[-8.143032E-2,-4.902467E-2,5.642743E-1,1.6212667E0,-8.925748E-1,-7.0233166E-1,2.5736524E-2,-8.597939E-3,2.7921236E-1,-0E0,-5.4322034E-2,-0E0,4.278487E-2],"split_indices":[39,0,27,28,33,5,0,0,2,0,0,0,0],"split_type":[0,0,0,0,0,0,0,0,0,0,0,0,0],"sum_hessian":[1.7474808E2,5.239341E1,1.2235466E2,2.5546986E1,9.680768E1,1.3628596E1,1.191839E1,6.009097E0,9.0798584E1,5.2844524E0,8.344143E0,1.0901893E1,7.989669E1],"tree_param":{"num_deleted":"0","num_feature":"40","num_nodes":"13","size_leaf_vector":"0"}},{"base_weights":[3.1258385E-3,-9.635947E-1,4.5945653E-1,-0E0,7.445516E-1,-4.5839056E-1,2.9040757E-1,1.8009735E-2,8.56292E-1,2.4959408E-1,-9.9234694E-1,6.209942E-1,-4.355027E-2,4.1974196E-1,-2.1421847E-1,-0E0,9.046988E-1],"categories":[],"categories_nodes":[],"categories_segments":[],"categories_sizes":[],"default_left":[1,0,1,1,1,1,1,1,1,0,0,0,0,0,0,1,1],"id":47,"left_children":[1,-1,3,5,7,9,11,13,-1,-1,-1,-1,-1,-1,-1,-1,-1],"loss_changes":[7.525343E1,0E0,1.5370979E1,6.858583E0,4.129772E0,9.698868E0,4.7788253E0,2.0968063E0,7.8377914E-1,0E0,0E0,0E0,0E0,0E0,0E0,0E0,0E0],"parents":[2147483647,0,0,2,2,3,3,4,4,5,5,6,6,7,7,8,8],"right_children":[2,-1,4,6,8,10,12,14,-1,-1,-1,-1,-1,-1,-1,-1,-1],"split_conditions":[6.8706505E-2,-4.8179734E-2,8.0163115E-1,5.887102E-1,1.040479E0,-6.4081264E-1,-3.702256E-1,1.1971857E-1,4.28146E-2,1.2479704E-2,-4.9617346E-2,3.1049712E-2,-2.1775137E-3,2.0987099E-2,-1.0710924E-2,-0E0,4.523494E-2],"split_indices":[3,0,31,14,3,20,9,1,1,0,0,0,0,0,0,2147483647,2147483647],"split_type":[0,0,0,0,0,0,0,0,0,0,0,0,0,0,0,0,0],"sum_hessian":[1.6686172E2,5.1032833E1,1.15828896E2,4.585104E1,6.997785E1,1.6761003E1,2.9090038E1,1.2178003E1,5.779985E1,6.2826915E0,1.04783125E1,1.6332596E1,1.2757441E1,6.7283926E0,5.4496107E0,5.374638E0,5.2425213E1],"tree_param":{"num_deleted":"2","num_feature":"40","num_nodes":"17","size_leaf_vector":"0"}},{"base_weights":[-0E0,-9.6946657E-1,4.3805256E-1,-1.1324467E-1,5.893421E-1,-8.8744324E-1,3.985626E-1,-2.4971056E-1,6.6816175E-1,-0E0,6.508876E-1,-0E0,7.1199656E-1],"categories":[],"categories_nodes":[],"categories_segments":[],"categories_sizes":[],"default_left":[1,0,1,1,1,0,1,0,1,0,0,0,0],"id":48,"left_children":[1,-1,3,5,7,-1,9,-1,11,-1,-1,-1,-1],"loss_changes":[7.0920364E1,0E0,1.0978355E1,1.1959917E1,7.6711617E0,0E0,1.82887E0,0E0,1.5186806E0,0E0,0E0,0E0,0E0],"parents":[2147483647,0,0,2,2,3,3,4,4,6,6,8,8],"right_children":[2,-1,4,6,8,-1,10,-1,12,-1,-1,-1,-1],"split_conditions":[-8.143032E-2,-4.847333E-2,3.5925588E-1,4.8027247E-1,-8.925748E-1,-4.4372164E-2,5.494238E-1,-1.2485528E-2,-1.4629048E-1,-0E0,3.2544382E-2,-0E0,3.5599828E-2],"split_indices":[39,0,31,38,33,0,13,0,14,0,0,0,0],"split_type":[0,0,0,0,0,0,0,0,0,0,0,0,0],"sum_hessian":[1.6321443E2,4.840517E1,1.1480926E2,2.2037956E1,9.27713E1,9.44963E0,1.2588327E1,5.228972E0,8.7542336E1,5.4264903E0,7.1618366E0,7.8096814E0,7.973265E1],"tree_param":{"num_deleted":"0","num_feature":"40","num_nodes":"13","size_leaf_vector":"0"}},{"base_weights":[-0E0,-9.704034E-1,4.14921E-1,1.0791871E-1,8.6347294E-1,-6.603866E-1,3.8505247E-1,-0E0,-9.8749304E-1,7.2308767E-1,-0E0],"categories":[],"categories_nodes":[],"categories_segments":[],"categories_sizes":[],"default_left":[1,0,1,1,0,1,1,0,0,0,0],"id":49,"left_children":[1,-1,3,5,-1,7,9,-1,-1,-1,-1],"loss_changes":[6.800322E1,0E0,1.3963766E1,1.636374E1,0E0,5.1501236E0,7.6849575E0,0E0,0E0,0E0,0E0],"parents":[2147483647,0,0,2,2,3,3,5,5,6,6],"right_children":[2,-1,4,6,-1,8,10,-1,-1,-1,-1],"split_conditions":[-8.143032E-2,-4.852017E-2,2.2837234E0,4.9945384E-1,4.317365E-2,-6.116574E-1,1.2453284E0,-0E0,-4.937465E-2,3.6154386E-2,-0E0],"split_indices":[39,0,3,15,0,37,15,0,0,0,0],"split_type":[0,0,0,0,0,0,0,0,0,0,0],"sum_hessian":[1.622663E2,4.7725685E1,1.1454061E2,7.285622E1,4.1684387E1,1.630048E1,5.655574E1,5.38737E0,1.0913111E1,2.8586174E1,2.7969566E1],"tree_param":{"num_deleted":"0","num_feature":"40","num_nodes":"11","size_leaf_vector":"0"}},{"base_weights":[2.3126907E-3,-9.459808E-1,4.0728682E-1,1.5209271E-1,8.700117E-1,6.3071114E-1,-2.1972185E-1,8.2587653E-1,-6.525839E-2,-7.7241087E-1,3.8873917E-1],"categories":[],"categories_nodes":[],"categories_segments":[],"categories_sizes":[],"default_left":[1,0,1,1,0,1,1,0,0,0,0],"id":50,"left_children":[1,-1,3,5,-1,7,9,-1,-1,-1,-1],"loss_changes":[6.1094692E1,0E0,1.11280155E1,1.5560704E1,0E0,6.8872967E0,1.6858318E1,0E0,0E0,0E0,0E0],"parents":[2147483647,0,0,2,2,3,3,5,5,6,6],"right_children":[2,-1,4,6,-1,8,10,-1,-1,-1,-1],"split_conditions":[1.9008294E-1,-4.729904E-2,2.2649984E0,-4.017014E-1,4.3500584E-2,-1.1628878E-1,1.5813811E0,4.1293826E-2,-3.2629196E-3,-3.8620543E-2,1.943696E-2],"split_indices":[28,0,3,9,0,36,24,0,0,0,0],"split_type":[0,0,0,0,0,0,0,0,0,0,0],"sum_hessian":[1.5588222E2,4.397153E1,1.1191069E2,7.74855E1,3.442519E1,3.5315594E1,4.2169907E1,2.9388206E1,5.9273877E0,2.339654E1,1.8773365E1],"tree_param":{"num_deleted":"0","num_feature":"40","num_nodes":"11","size_leaf_vector":"0"}},{"base_weights":[3.4872063E-3,-9.500444E-1,4.2740583E-1,-3.193009E-1,6.0209227E-1,-6.683376E-1,1.5944347E-1,-0E0,6.679348E-1,-1.0829139E0,-0E0,-0E0,7.291996E-1],"categories":[],"categories_nodes":[],"categories_segments":[],"categories_sizes":[],"default_left":[1,0,1,1,1,1,0,0,1,0,0,0,0],"id":51,"left_children":[1,-1,3,5,7,9,-1,-1,11,-1,-1,-1,-1],"loss_changes":[6.2416733E1,0E0,1.5505856E1,4.7908587E0,4.946823E0,4.8797646E0,0E0,0E0,3.031662E0,0E0,0E0,0E0,0E0],"parents":[2147483647,0,0,2,2,3,3,4,4,5,5,8,8],"right_children":[2,-1,4,6,8,10,-1,-1,12,-1,-1,-1,-1],"split_conditions":[-8.143032E-2,-4.750222E-2,3.5925588E-1,8.2819974E-1,-8.925748E-1,6.861775E-1,7.972173E-3,-0E0,-1.4629048E-1,-5.4145694E-2,-0E0,-0E0,3.645998E-2],"split_indices":[39,0,31,12,33,38,0,0,14,0,0,0,0],"split_type":[0,0,0,0,0,0,0,0,0,0,0,0,0],"sum_hessian":[1.5098514E2,4.3868763E1,1.0711638E2,1.766665E1,8.944972E1,1.1946431E1,5.7202196E0,6.2402077E0,8.320952E1,6.854131E0,5.0923E0,8.176024E0,7.503349E1],"tree_param":{"num_deleted":"0","num_feature":"40","num_nodes":"13","size_leaf_vector":"0"}},{"base_weights":[6.6709514E-3,-9.348734E-1,3.9041433E-1,-1.9177161E-1,5.452805E-1,-7.5125754E-1,4.050206E-1,-2.3979798E-2,6.208786E-1,-9.79328E-1,-0E0,5.1793087E-2,7.391404E-1],"categories":[],"categories_nodes":[],"categories_segments":[],"categories_sizes":[],"default_left":[1,0,1,1,1,1,0,0,1,0,0,0,0],"id":52,"left_children":[1,-1,3,5,7,9,-1,-1,11,-1,-1,-1,-1],"loss_changes":[5.620625E1,0E0,1.1310936E1,9.4474535E0,5.268469E0,1.051197E0,0E0,0E0,4.0830765E0,0E0,0E0,0E0,0E0],"parents":[2147483647,0,0,2,2,3,3,4,4,5,5,8,8],"right_children":[2,-1,4,6,8,10,-1,-1,12,-1,-1,-1,-1],"split_conditions":[1.8953715E-1,-4.6743672E-2,2.7921236E-1,1.826612E0,1.9396521E-1,4.7162837E-1,2.025103E-2,-1.1989899E-3,-5.0586734E-2,-4.89664E-2,-0E0,2.5896544E-3,3.695702E-2],"split_indices":[28,0,2,14,31,26,0,0,38,0,0,0,0],"split_type":[0,0,0,0,0,0,0,0,0,0,0,0,0],"sum_hessian":[1.5254506E2,4.1413475E1,1.1113159E2,2.048676E1,9.064484E1,1.1902796E1,8.583963E0,7.765163E0,8.287967E1,6.8658314E0,5.0369644E0,1.7911854E1,6.496782E1],"tree_param":{"num_deleted":"0","num_feature":"40","num_nodes":"13","size_leaf_vector":"0"}},{"base_weights":[8.429522E-2,-7.4792284E-1,4.3571612E-1,-9.2186314E-1,1.4863485E-1,-2.1140595E-1,5.4189396E-1,1.6191274E-1,-7.8214806E-1,5.992871E-1,-5.530938E-2,-0E0,6.5458524E-1],"categories":[],"categories_nodes":[],"categories_segments":[],"categories_sizes":[],"default_left":[1,1,1,0,0,1,1,0,0,1,0,0,0],"id":53,"left_children":[1,3,5,-1,-1,7,9,-1,-1,11,-1,-1,-1],"loss_changes":[4.5328403E1,8.986479E0,8.680271E0,0E0,0E0,4.8694096E0,4.5964813E0,0E0,0E0,4.2393913E0,0E0,0E0,0E0],"parents":[2147483647,0,0,1,1,2,2,5,5,6,6,9,9],"right_children":[2,4,6,-1,-1,8,10,-1,-1,12,-1,-1,-1],"split_conditions":[6.510632E-4,1.394458E0,-8.43322E-1,-4.609316E-2,7.4317427E-3,-9.474263E-1,2.4206886E0,8.095637E-3,-3.9107405E-2,-1.4629048E-1,-2.765469E-3,-0E0,3.2729264E-2],"split_indices":[30,29,4,0,0,9,31,0,0,14,0,0,0],"split_type":[0,0,0,0,0,0,0,0,0,0,0,0,0],"sum_hessian":[1.5078291E2,4.2072594E1,1.0871032E2,3.7033783E1,5.0388103E0,1.2248695E1,9.6461624E1,6.585735E0,5.6629605E0,9.104991E1,5.411713E0,5.3251476E0,8.572476E1],"tree_param":{"num_deleted":"0","num_feature":"40","num_nodes":"13","size_leaf_vector":"0"}},{"base_weights":[1.0900908E-1,-9.3949544E-1,5.0436425E-1,-2.2993176E-1,6.571477E-1,-8.484223E-1,1.8250702E-1,1.4862916E-1,7.8590536E-1,7.731966E-1,-7.1475136E-1,8.339339E-1,-0E0],"categories":[],"categories_nodes":[],"categories_segments":[],"categories_sizes":[],"default_left":[1,0,1,1,1,0,0,1,1,0,0,0,0],"id":54,"left_children":[1,-1,3,5,7,-1,-1,9,11,-1,-1,-1,-1],"loss_changes":[6.558272E1,0E0,1.446294E1,6.9399195E0,4.3343735E0,0E0,0E0,1.6367647E1,2.2767525E0,0E0,0E0,0E0,0E0],"parents":[2147483647,0,0,2,2,3,3,4,4,7,7,8,8],"right_children":[2,-1,4,6,8,-1,-1,10,12,-1,-1,-1,-1],"split_conditions":[-8.143032E-2,-4.6974774E-2,3.5925588E-1,9.5199597E-1,1.2121553E0,-4.2421114E-2,9.125351E-3,-9.828026E-1,2.1109118E0,3.865983E-2,-3.573757E-2,4.1696694E-2,-0E0],"split_indices":[39,0,31,35,30,0,0,17,25,0,0,0,0],"split_type":[0,0,0,0,0,0,0,0,0,0,0,0,0],"sum_hessian":[1.538793E2,3.9619194E1,1.142601E2,1.716375E1,9.709635E1,7.5379033E0,9.625846E0,2.4061872E1,7.3034485E1,1.5487843E1,8.57403E0,6.780242E1,5.2320633E0],"tree_param":{"num_deleted":"0","num_feature":"40","num_nodes":"13","size_leaf_vector":"0"}},{"base_weights":[3.761768E-2,-9.15544E-1,4.1591185E-1,1.0479149E-1,7.4235076E-1,-5.6713796E-1,3.475791E-1,5.9663914E-3,-1.1056978E0,6.0390383E-1,-0E0],"categories":[],"categories_nodes":[],"categories_segments":[],"categories_sizes":[],"default_left":[1,0,1,1,0,1,1,0,0,0,0],"id":55,"left_children":[1,-1,3,5,-1,7,9,-1,-1,-1,-1],"loss_changes":[5.1353996E1,0E0,8.760506E0,1.0024174E1,0E0,6.853701E0,4.314556E0,0E0,0E0,0E0,0E0],"parents":[2147483647,0,0,2,2,3,3,5,5,6,6],"right_children":[2,-1,4,6,-1,8,10,-1,-1,-1,-1],"split_conditions":[8.550513E-2,-4.5777198E-2,1.804657E0,1.3953757E-1,3.7117537E-2,3.9410734E-1,-6.479839E-2,2.983196E-4,-5.5284888E-2,3.0195192E-2,-0E0],"split_indices":[3,0,3,16,0,29,9,0,0,0,0],"split_type":[0,0,0,0,0,0,0,0,0,0,0],"sum_hessian":[1.3902547E2,3.6787384E1,1.0223808E2,5.7513363E1,4.472472E1,1.201517E1,4.5498196E1,5.459084E0,6.5560856E0,2.4896044E1,2.0602152E1],"tree_param":{"num_deleted":"0","num_feature":"40","num_nodes":"11","size_leaf_vector":"0"}},{"base_weights":[-0E0,-9.273961E-1,3.3584085E-1,-1.20976724E-1,6.4567745E-1,-7.387601E-1,2.0328197E-1,8.285683E-2,9.2649996E-1,-0E0,-1.0486805E0,5.5539554E-1,-3.608673E-2,-3.7060428E-1,4.2767E-1],"categories":[],"categories_nodes":[],"categories_segments":[],"categories_sizes":[],"default_left":[1,0,1,1,1,1,1,1,0,0,0,0,0,0,0],"id":56,"left_children":[1,-1,3,5,7,9,11,13,-1,-1,-1,-1,-1,-1,-1],"loss_changes":[4.4886143E1,0E0,1.636539E1,1.013153E1,8.273155E0,4.202754E0,3.4938068E0,4.9404225E0,0E0,0E0,0E0,0E0,0E0,0E0,0E0],"parents":[2147483647,0,0,2,2,3,3,4,4,5,5,6,6,7,7],"right_children":[2,-1,4,6,8,10,12,14,-1,-1,-1,-1,-1,-1,-1],"split_conditions":[-8.117984E-2,-4.6369806E-2,7.60426E-1,7.4632394E-1,1.3285687E0,1.3801646E-1,-3.702256E-1,1.5162891E0,4.6325E-2,-0E0,-5.2434027E-2,2.7769778E-2,-1.8043366E-3,-1.8530214E-2,2.13835E-2],"split_indices":[39,0,31,16,39,39,9,14,0,0,0,0,0,0,0],"split_type":[0,0,0,0,0,0,0,0,0,0,0,0,0,0,0],"sum_hessian":[1.3877058E2,3.5215675E1,1.0355491E2,3.9981106E1,6.3573807E1,1.4564866E1,2.5416239E1,2.4825655E1,3.874815E1,5.0262814E0,9.538585E0,1.20642185E1,1.3352019E1,8.121067E0,1.6704588E1],"tree_param":{"num_deleted":"0","num_feature":"40","num_nodes":"15","size_leaf_vector":"0"}},{"base_weights":[5.022826E-2,-8.9911133E-1,4.0615565E-1,-1.6683829E-3,6.104701E-1,-5.467395E-1,4.633119E-1,-0E0,7.2390306E-1,-8.2737136E-1,-0E0,7.845647E-1,-0E0,-0E0,7.8731644E-1],"categories":[],"categories_nodes":[],"categories_segments":[],"categories_sizes":[],"default_left":[1,0,1,1,1,1,1,0,1,0,0,0,0,0,0],"id":57,"left_children":[1,-1,3,5,7,9,11,-1,13,-1,-1,-1,-1,-1,-1],"loss_changes":[4.6337643E1,0E0,9.811707E0,9.578888E0,6.118597E0,2.6980662E0,4.0777164E0,0E0,1.6576538E0,0E0,0E0,0E0,0E0,0E0,0E0],"parents":[2147483647,0,0,2,2,3,3,4,4,5,5,6,6,8,8],"right_children":[2,-1,4,6,8,10,12,-1,14,-1,-1,-1,-1,-1,-1],"split_conditions":[6.8706505E-2,-4.4955567E-2,-3.1094098E-1,1.8244352E0,5.572926E-1,1.0256126E0,-7.404157E-1,-0E0,6.006595E-1,-4.136857E-2,-0E0,3.9228234E-2,-0E0,-0E0,3.9365824E-2],"split_indices":[3,0,8,3,30,27,10,0,14,0,0,0,0,0,0],"split_type":[0,0,0,0,0,0,0,0,0,0,0,0,0,0,0],"sum_hessian":[1.3381139E2,3.3707726E1,1.0010365E2,3.1137667E1,6.896599E1,1.607158E1,1.5066085E1,9.110658E0,5.985533E1,9.269526E0,6.802056E0,9.924785E0,5.1413007E0,7.0432315E0,5.28121E1],"tree_param":{"num_deleted":"0","num_feature":"40","num_nodes":"15","size_leaf_vector":"0"}},{"base_weights":[3.5221424E-2,-4.773173E-1,6.675627E-1,-8.0425954E-1,4.6995035E-1,-0E0,7.5598884E-1,-9.508782E-1,4.7063205E-2,-0E0,5.619994E-1,-0E0,8.0375874E-1,-1.0537734E0,-7.984047E-2],"categories":[],"categories_nodes":[],"categories_segments":[],"categories_sizes":[],"default_left":[1,1,1,1,1,0,1,1,0,1,1,1,1,0,0],"id":58,"left_children":[1,3,5,7,-1,-1,-1,13,-1,-1,-1,-1,-1,-1,-1],"loss_changes":[4.344271E1,2.4026308E1,4.3137817E0,8.934616E0,5.9799194E-2,0E0,6.540222E-1,1.9560318E0,0E0,0E0,0E0,0E0,0E0,0E0,0E0],"parents":[2147483647,0,0,1,1,2,2,3,3,4,4,6,6,7,7],"right_children":[2,4,6,8,-1,-1,-1,14,-1,-1,-1,-1,-1,-1,-1],"split_conditions":[8.740608E-1,1.8292106E0,3.1049287E-1,1.5692744E0,2.3497518E-2,-0E0,3.7799444E-2,1.4623749E0,2.3531604E-3,-0E0,2.8099969E-2,-0E0,4.0187936E-2,-5.268867E-2,-3.9920234E-3],"split_indices":[39,14,31,38,16,0,39,30,0,2147483647,2147483647,2147483647,2147483647,0,0],"split_type":[0,0,0,0,0,0,0,0,0,0,0,0,0,0,0],"sum_hessian":[1.2691786E2,6.875871E1,5.8159145E1,5.3022606E1,1.5736107E1,5.9225926E0,5.2236553E1,4.693731E1,6.0852966E0,5.4455576E0,1.0290549E1,5.3582826E0,4.6878273E1,3.9362015E1,7.5752945E0],"tree_param":{"num_deleted":"4","num_feature":"40","num_nodes":"15","size_leaf_vector":"0"}},{"base_weights":[2.5996463E-2,-8.981268E-1,3.7494823E-1,-4.655419E-2,5.8159655E-1,-4.7448233E-1,5.4124963E-1,-0E0,6.6185087E-1,-0E0,-1.2166579E0,2.0562375E-1,7.92289E-1],"categories":[],"categories_nodes":[],"categories_segments":[],"categories_sizes":[],"default_left":[1,0,1,1,1,1,0,0,1,0,0,1,1],"id":59,"left_children":[1,-1,3,5,7,9,-1,-1,-1,-1,-1,-1,-1],"loss_changes":[4.0624504E1,0E0,9.444849E0,8.413854E0,2.8454456E0,8.905894E0,0E0,0E0,9.944973E-1,0E0,0E0,0E0,0E0],"parents":[2147483647,0,0,2,2,3,3,4,4,5,5,8,8],"right_children":[2,-1,4,6,8,10,-1,-1,-1,-1,-1,-1,-1],"split_conditions":[-8.1729904E-2,-4.490634E-2,5.224341E-1,1.412E0,5.887102E-1,9.088204E-1,2.7062481E-2,-0E0,3.3092543E-2,-0E0,-6.0832895E-2,1.02811875E-2,3.961445E-2],"split_indices":[39,0,16,29,14,25,0,0,29,0,0,2147483647,2147483647],"split_type":[0,0,0,0,0,0,0,0,0,0,0,0,0],"sum_hessian":[1.23089386E2,3.0873857E1,9.221553E1,2.791761E1,6.429792E1,1.8459637E1,9.4579735E0,8.835472E0,5.546245E1,1.2179369E1,6.2802677E0,1.745903E1,3.8003418E1],"tree_param":{"num_deleted":"2","num_feature":"40","num_nodes":"13","size_leaf_vector":"0"}},{"base_weights":[8.435169E-3,-8.8544375E-1,3.1346375E-1,4.966915E-2,8.258846E-1,-8.6031336E-1,2.4109223E-1,5.7678246E-1,-4.8798077E-2],"categories":[],"categories_nodes":[],"categories_segments":[],"categories_sizes":[],"default_left":[1,0,1,1,0,0,1,0,0],"id":60,"left_children":[1,-1,3,5,-1,-1,7,-1,-1],"loss_changes":[3.487168E1,0E0,1.1655483E1,1.1898386E1,0E0,0E0,7.3214173E0,0E0,0E0],"parents":[2147483647,0,0,2,2,3,3,6,6],"right_children":[2,-1,4,6,-1,-1,8,-1,-1],"split_conditions":[-8.143032E-2,-4.4272188E-2,2.2837234E0,7.348989E-2,4.129423E-2,-4.301567E-2,-2.3668349E-1,2.8839124E-2,-2.4399038E-3],"split_indices":[39,0,3,14,0,0,36,0,0],"split_type":[0,0,0,0,0,0,0,0,0],"sum_hessian":[1.26036736E2,2.8945988E1,9.709075E1,6.8843765E1,2.8246984E1,8.327191E0,6.0516575E1,2.9864248E1,3.0652325E1],"tree_param":{"num_deleted":"0","num_feature":"40","num_nodes":"9","size_leaf_vector":"0"}},{"base_weights":[2.3499014E-2,-5.298751E-1,6.1950576E-1,-7.503243E-1,2.6865032E-1,9.461995E-2,8.292853E-1,-2.0266034E-1,-1.1868311E0,-0E0,3.8130298E-1,5.7158726E-1,-1.875768E-1,-0E0,9.1381526E-1,-7.552002E-1,3.0035272E-1,-6.6780126E-1,-1.8147416E0,5.9723593E-2,-6.0559595E-1],"categories":[],"categories_nodes":[],"categories_segments":[],"categories_sizes":[],"default_left":[1,1,1,1,1,1,1,1,1,1,1,0,1,0,0,0,0,1,1,0,0],"id":61,"left_children":[1,3,5,7,-1,11,13,15,-1,-1,-1,-1,19,-1,-1,-1,-1,-1,-1,-1,-1],"loss_changes":[4.1484932E1,1.2705898E1,4.741686E0,9.010893E0,2.9317057E-1,4.294118E0,1.6671219E0,9.612061E0,2.7160645E-2,0E0,0E0,0E0,2.7076826E0,0E0,0E0,0E0,0E0,0E0,0E0,0E0,0E0],"parents":[2147483647,0,0,1,1,2,2,3,3,4,4,5,5,6,6,7,7,8,8,12,12],"right_children":[2,4,6,8,-1,12,14,16,-1,-1,-1,-1,20,-1,-1,-1,-1,-1,-1,-1,-1],"split_conditions":[7.734089E-1,2.0378394E0,8.0163115E-1,-2.4265039E-1,1.3432517E-2,4.2262948E-1,1.3285687E0,-2.2676831E-2,-5.9341557E-2,-0E0,1.906515E-2,2.8579364E-2,5.2599055E-1,-0E0,4.5690764E-2,-3.776001E-2,1.5017636E-2,-3.3390064E-2,-9.073708E-2,2.9861797E-3,-3.0279798E-2],"split_indices":[39,14,31,37,31,25,39,39,3,2147483647,2147483647,0,36,0,0,0,0,2147483647,2147483647,0,0],"split_type":[0,0,0,0,0,0,0,0,0,0,0,0,0,0,0,0,0,0,0,0,0],"sum_hessian":[1.1925315E2,6.0270775E1,5.8982376E1,4.9336216E1,1.093456E1,2.0807428E1,3.817495E1,2.586248E1,2.3473736E1,5.000988E0,5.933572E0,9.225432E0,1.1581995E1,5.2688165E0,3.290613E1,1.3502501E1,1.235998E1,1.7983969E1,5.4897676E0,5.8864684E0,5.6955266E0],"tree_param":{"num_deleted":"4","num_feature":"40","num_nodes":"21","size_leaf_vector":"0"}},{"base_weights":[1.0643388E-2,-8.7865156E-1,3.2720026E-1,-6.413124E-1,4.385024E-1,-8.783439E-2,5.596541E-1,-7.8820825E-1,4.1770655E-1,-0E0,6.294161E-1],"categories":[],"categories_nodes":[],"categories_segments":[],"categories_sizes":[],"default_left":[1,0,1,0,1,1,1,0,0,0,0],"id":62,"left_children":[1,-1,3,-1,5,7,9,-1,-1,-1,-1],"loss_changes":[3.3176502E1,0E0,1.0289367E1,0E0,6.549629E0,7.2242417E0,2.4129791E0,0E0,0E0,0E0,0E0],"parents":[2147483647,0,0,2,2,4,4,5,5,6,6],"right_children":[2,-1,4,-1,6,8,10,-1,-1,-1,-1],"split_conditions":[-8.143032E-2,-4.393258E-2,-8.925748E-1,-3.2065623E-2,-1.6769944E-2,1.743952E0,6.006595E-1,-3.9410412E-2,2.0885328E-2,-0E0,3.1470805E-2],"split_indices":[39,0,33,0,16,25,14,0,0,0,0],"split_type":[0,0,0,0,0,0,0,0,0,0,0],"sum_hessian":[1.1570494E2,2.7317545E1,8.83874E1,5.7858753E0,8.2601524E1,1.2521098E1,7.008042E1,6.2043567E0,6.3167415E0,9.211277E0,6.086915E1],"tree_param":{"num_deleted":"0","num_feature":"40","num_nodes":"11","size_leaf_vector":"0"}},{"base_weights":[5.7500284E-2,-8.70347E-1,3.699598E-1,-2.546594E-2,5.4176265E-1,3.553593E-1,-4.796594E-1,6.0666007E-1,-0E0,5.69338E-1,-0E0,-1.081728E0,1.6763783E-1,6.7805374E-1,-0E0],"categories":[],"categories_nodes":[],"categories_segments":[],"categories_sizes":[],"default_left":[1,0,1,1,1,1,1,1,0,0,0,0,0,0,0],"id":63,"left_children":[1,-1,3,5,7,9,11,13,-1,-1,-1,-1,-1,-1,-1],"loss_changes":[3.554788E1,0E0,7.5640507E0,5.6505604E0,3.3847084E0,1.2627454E0,8.82864E0,1.9218998E0,0E0,0E0,0E0,0E0,0E0,0E0,0E0],"parents":[2147483647,0,0,2,2,3,3,4,4,5,5,6,6,7,7],"right_children":[2,-1,4,6,8,10,12,14,-1,-1,-1,-1,-1,-1,-1],"split_conditions":[2.627744E-1,-4.351735E-2,1.2121553E0,-9.7669053E-1,2.1025648E0,-1.1041576E0,1.1454618E0,1.2362194E0,-0E0,2.84669E-2,-0E0,-5.40864E-2,8.381891E-3,3.3902686E-2,-0E0],"split_indices":[28,0,30,17,25,19,38,19,0,0,0,0,0,0,0],"split_type":[0,0,0,0,0,0,0,0,0,0,0,0,0,0,0],"sum_hessian":[1.1973497E2,2.7201874E1,9.25331E1,2.5274572E1,6.725852E1,1.170758E1,1.3566993E1,6.222741E1,5.0311127E0,6.6253667E0,5.082213E0,7.586717E0,5.980275E0,5.339494E1,8.832469E0],"tree_param":{"num_deleted":"0","num_feature":"40","num_nodes":"15","size_leaf_vector":"0"}},{"base_weights":[1.5844816E-2,-6.465969E-1,4.035026E-1,-9.8529816E-1,4.6397224E-1,-3.7756497E-1,5.180927E-1,-0E0,6.6096807E-1,3.2765117E-1,-3.0834618E-1,-0E0,7.35503E-1],"categories":[],"categories_nodes":[],"categories_segments":[],"categories_sizes":[],"default_left":[1,1,1,0,0,0,1,1,1,0,0,0,0],"id":64,"left_children":[1,3,5,-1,-1,-1,7,9,11,-1,-1,-1,-1],"loss_changes":[2.9370415E1,1.7852564E1,7.596032E0,0E0,0E0,0E0,4.9918118E0,2.1453671E0,2.8898506E0,0E0,0E0,0E0,0E0],"parents":[2147483647,0,0,1,1,2,2,6,6,7,7,8,8],"right_children":[2,4,6,-1,-1,-1,8,10,12,-1,-1,-1,-1],"split_conditions":[1.731861E-1,1.942971E0,2.3517948E-1,-4.9264908E-2,2.3198612E-2,-1.887825E-2,-1.4400575E-1,-7.118325E-1,1.7448644E-1,1.6382558E-2,-1.54173095E-2,-0E0,3.6775153E-2],"split_indices":[16,29,14,0,0,0,38,38,29,0,0,0,0],"split_type":[0,0,0,0,0,0,0,0,0,0,0,0,0],"sum_hessian":[1.1021578E2,3.8043243E1,7.217255E1,3.0791677E1,7.2515655E0,6.119895E0,6.605265E1,1.520036E1,5.0852287E1,7.5630593E0,7.6373014E0,5.0195723E0,4.5832714E1],"tree_param":{"num_deleted":"0","num_feature":"40","num_nodes":"13","size_leaf_vector":"0"}},{"base_weights":[6.26429E-2,-8.5949755E-1,3.4922644E-1,6.543745E-2,7.102768E-1,5.1479924E-1,-3.3822677E-1,-0E0,8.846892E-1,6.8315715E-1,-0E0,-8.732294E-1,4.1322213E-1],"categories":[],"categories_nodes":[],"categories_segments":[],"categories_sizes":[],"default_left":[1,0,1,1,1,1,1,0,0,0,0,0,0],"id":65,"left_children":[1,-1,3,5,7,9,11,-1,-1,-1,-1,-1,-1],"loss_changes":[3.1108603E1,0E0,7.934408E0,1.1578236E1,4.537712E0,3.64538E0,1.4283707E1,0E0,0E0,0E0,0E0,0E0,0E0],"parents":[2147483647,0,0,2,2,3,3,4,4,5,5,6,6],"right_children":[2,-1,4,6,8,10,12,-1,-1,-1,-1,-1,-1],"split_conditions":[-8.1729904E-2,-4.2974878E-2,1.6375861E0,-3.5064262E-1,8.0163115E-1,-1.1628878E-1,2.0093226E0,-0E0,4.4234462E-2,3.4157857E-2,-0E0,-4.366147E-2,2.0661106E-2],"split_indices":[39,0,39,9,31,36,14,0,0,0,0,0,0],"split_type":[0,0,0,0,0,0,0,0,0,0,0,0,0],"sum_hessian":[1.15169426E2,2.422962E1,9.093981E1,5.600358E1,3.493623E1,2.8455448E1,2.7548132E1,7.6857715E0,2.725046E1,2.2672924E1,5.782524E0,1.7362234E1,1.0185899E1],"tree_param":{"num_deleted":"0","num_feature":"40","num_nodes":"13","size_leaf_vector":"0"}},{"base_weights":[3.8006336E-3,-4.0348092E-1,6.320889E-1,-9.234812E-1,-0E0,-0E0,7.763216E-1,3.668613E-1,-2.5816724E-1,-0E0,5.93698E-1,-6.889324E-1,8.909613E-2],"categories":[],"categories_nodes":[],"categories_segments":[],"categories_sizes":[],"default_left":[1,1,1,0,1,0,0,1,1,0,0,0,0],"id":66,"left_children":[1,3,5,-1,7,-1,-1,9,11,-1,-1,-1,-1],"loss_changes":[3.0683254E1,1.5453931E1,4.858116E0,0E0,4.293583E0,0E0,0E0,2.445201E0,5.062338E0,0E0,0E0,0E0,0E0],"parents":[2147483647,0,0,1,1,2,2,4,4,7,7,8,8],"right_children":[2,4,6,-1,8,-1,-1,10,12,-1,-1,-1,-1],"split_conditions":[1.7430007E0,5.6495166E-1,7.336941E-1,-4.617406E-2,-4.5415112E-1,-0E0,3.881608E-2,-7.020234E-1,4.1849944E-1,-0E0,2.9684901E-2,-3.4446623E-2,4.4548064E-3],"split_indices":[3,30,31,0,9,0,0,34,20,0,0,0,0],"split_type":[0,0,0,0,0,0,0,0,0,0,0,0,0],"sum_hessian":[1.1213114E2,6.6750786E1,4.5380352E1,2.8435959E1,3.8314827E1,8.246257E0,3.7134094E1,1.6723967E1,2.159086E1,5.255533E0,1.1468433E1,1.088997E1,1.0700891E1],"tree_param":{"num_deleted":"0","num_feature":"40","num_nodes":"13","size_leaf_vector":"0"}},{"base_weights":[-1.8008068E-2,-8.278758E-1,2.0979512E-1,-3.9127648E-2,5.4769754E-1,4.8551807E-1,-3.3772865E-1,-0E0,7.140305E-1,6.942593E-1,-0E0,-6.3370514E-1,1.6239196E-1,3.6960146E-1,-2.3465969E-1,-0E0,8.132542E-1],"categories":[],"categories_nodes":[],"categories_segments":[],"categories_sizes":[],"default_left":[1,0,1,1,1,1,1,1,1,0,0,0,0,0,0,1,1],"id":67,"left_children":[1,-1,3,5,7,9,11,13,-1,-1,-1,-1,-1,-1,-1,-1,-1],"loss_changes":[2.0757137E1,0E0,7.8812795E0,7.393677E0,2.7113342E0,1.1407571E0,6.206793E0,1.5523686E0,8.316784E-1,0E0,0E0,0E0,0E0,0E0,0E0,0E0,0E0],"parents":[2147483647,0,0,2,2,3,3,4,4,5,5,6,6,7,7,8,8],"right_children":[2,-1,4,6,8,10,12,14,-1,-1,-1,-1,-1,-1,-1,-1,-1],"split_conditions":[8.83766E-2,-4.139379E-2,1.8228304E0,5.350993E-1,8.0241215E-1,-4.2618072E-1,1.6106427E0,5.7382397E-2,3.5701524E-2,3.4712967E-2,-0E0,-3.168526E-2,8.119598E-3,1.8480074E-2,-1.1732984E-2,-0E0,4.066271E-2],"split_indices":[3,0,3,3,31,1,24,37,37,0,0,0,0,0,0,2147483647,2147483647],"split_type":[0,0,0,0,0,0,0,0,0,0,0,0,0,0,0,0,0],"sum_hessian":[9.998595E1,2.214276E1,7.7843185E1,4.2942474E1,3.490071E1,1.2465176E1,3.0477299E1,1.0283181E1,2.4617529E1,6.930227E0,5.534949E0,2.1155174E1,9.322125E0,5.0418444E0,5.241337E0,5.0705295E0,1.9546999E1],"tree_param":{"num_deleted":"2","num_feature":"40","num_nodes":"17","size_leaf_vector":"0"}},{"base_weights":[3.0983958E-2,-4.868783E-1,5.7357436E-1,-8.1167495E-1,4.0799156E-1,-0E0,6.446504E-1,-1.0409214E0,2.1524906E-1,-0E0,6.164936E-1,6.838955E-1,-0E0,-1.1551319E-1,-1.1772393E0],"categories":[],"categories_nodes":[],"categories_segments":[],"categories_sizes":[],"default_left":[1,1,1,1,1,0,1,1,0,0,0,1,1,0,0],"id":68,"left_children":[1,3,5,7,9,-1,-1,13,-1,-1,-1,-1,-1,-1,-1],"loss_changes":[3.360126E1,1.8972794E1,2.1443424E0,1.3150694E1,1.4413521E0,0E0,2.150898E-1,2.0151978E0,0E0,0E0,0E0,0E0,0E0,0E0,0E0],"parents":[2147483647,0,0,1,1,2,2,3,3,4,4,6,6,7,7],"right_children":[2,4,6,8,10,-1,-1,14,-1,-1,-1,-1,-1,-1,-1],"split_conditions":[7.3968005E-1,1.8292106E0,-1.445666E-1,1.912533E0,1.4649205E0,-0E0,3.223252E-2,-1.0937011E0,1.0762453E-2,-0E0,3.082468E-2,3.419478E-2,-0E0,-5.77566E-3,-5.8861967E-2],"split_indices":[39,14,14,13,16,0,15,19,0,0,0,2147483647,2147483647,0,0],"split_type":[0,0,0,0,0,0,0,0,0,0,0,0,0,0,0],"sum_hessian":[1.1298429E2,5.6081078E1,5.6903217E1,4.299114E1,1.308994E1,7.3211427E0,4.9582073E1,3.6704124E1,6.287012E0,5.2506256E0,7.8393145E0,4.4180294E1,5.4017806E0,7.3078375E0,2.9396288E1],"tree_param":{"num_deleted":"2","num_feature":"40","num_nodes":"15","size_leaf_vector":"0"}},{"base_weights":[3.5459522E-2,-8.421044E-1,3.0465153E-1,4.0455773E-2,6.970373E-1,-2.6601413E-1,3.3023494E-1,-0E0,-8.9035445E-1,5.9115964E-1,-0E0],"categories":[],"categories_nodes":[],"categories_segments":[],"categories_sizes":[],"default_left":[1,0,1,1,0,1,1,0,0,0,0],"id":69,"left_children":[1,-1,3,5,-1,7,9,-1,-1,-1,-1],"loss_changes":[2.5698898E1,0E0,7.5822983E0,5.6256685E0,0E0,5.4142766E0,4.1163864E0,0E0,0E0,0E0,0E0],"parents":[2147483647,0,0,2,2,3,3,5,5,6,6],"right_children":[2,-1,4,6,-1,8,10,-1,-1,-1,-1],"split_conditions":[-8.143032E-2,-4.210522E-2,1.4694349E0,6.240468E-1,3.4851864E-2,1.5182441E-1,7.776761E-1,-0E0,-4.4517722E-2,2.9557982E-2,-0E0],"split_indices":[39,0,39,11,0,37,27,0,0,0,0],"split_type":[0,0,0,0,0,0,0,0,0,0,0],"sum_hessian":[1.0707834E2,2.1892973E1,8.518536E1,5.5932198E1,2.9253168E1,2.3948517E1,3.1983683E1,1.771304E1,6.2354765E0,1.9695915E1,1.2287767E1],"tree_param":{"num_deleted":"0","num_feature":"40","num_nodes":"11","size_leaf_vector":"0"}},{"base_weights":[-0E0,-7.597365E-1,2.8212535E-1,-8.984283E-1,-0E0,-2.8853425E-1,4.7452506E-1,-7.388318E-1,-0E0,-0E0,6.1086804E-1,5.282712E-1,-7.55372E-1,-0E0,7.7192974E-1],"categories":[],"categories_nodes":[],"categories_segments":[],"categories_sizes":[],"default_left":[1,1,1,0,0,1,1,0,0,1,1,0,0,0,0],"id":70,"left_children":[1,3,5,-1,-1,7,9,-1,-1,11,13,-1,-1,-1,-1],"loss_changes":[2.1616907E1,2.0493298E0,9.386053E0,0E0,0E0,3.6857557E0,4.587496E0,0E0,0E0,7.5620728E0,4.2530594E0,0E0,0E0,0E0,0E0],"parents":[2147483647,0,0,1,1,2,2,5,5,6,6,9,9,10,10],"right_children":[2,4,6,-1,-1,8,10,-1,-1,12,14,-1,-1,-1,-1],"split_conditions":[9.167801E-2,6.798936E-1,2.7492863E-1,-4.4921417E-2,-0E0,3.2530403E-1,-9.8480895E-2,-3.694159E-2,-0E0,-6.7380226E-1,1.666622E-1,2.641356E-2,-3.77686E-2,-0E0,3.859649E-2],"split_indices":[25,24,2,0,0,26,38,0,0,38,16,0,0,0,0],"split_type":[0,0,0,0,0,0,0,0,0,0,0,0,0,0,0],"sum_hessian":[9.900414E1,2.3645912E1,7.535823E1,1.8593048E1,5.0528626E0,1.600203E1,5.93562E1,6.6500816E0,9.351948E0,1.2435247E1,4.692095E1,7.142954E0,5.2922935E0,1.15210705E1,3.5399883E1],"tree_param":{"num_deleted":"0","num_feature":"40","num_nodes":"15","size_leaf_vector":"0"}},{"base_weights":[2.0577427E-2,-7.317844E-1,3.3003393E-1,-9.5317006E-1,-0E0,4.0408924E-2,8.396995E-1,6.4609915E-1,-3.377234E-1,-0E0,7.557968E-1,-8.81455E-1,2.7220294E-1],"categories":[],"categories_nodes":[],"categories_segments":[],"categories_sizes":[],"default_left":[1,1,1,0,0,1,0,1,1,1,1,0,0],"id":71,"left_children":[1,3,5,-1,-1,7,-1,-1,11,-1,-1,-1,-1],"loss_changes":[2.4878925E1,6.0919247E0,9.933121E0,0E0,0E0,1.4235888E1,0E0,9.188881E-1,1.3474854E1,0E0,0E0,0E0,0E0],"parents":[2147483647,0,0,1,1,2,2,5,5,7,7,8,8],"right_children":[2,4,6,-1,-1,8,-1,-1,12,-1,-1,-1,-1],"split_conditions":[2.795245E-1,1.5533719E0,2.2879205E0,-4.7658503E-2,-0E0,-1.13721415E-1,4.1984975E-2,3.2304958E-2,1.3868792E0,-0E0,3.778984E-2,-4.407275E-2,1.3610147E-2],"split_indices":[2,14,3,0,0,36,0,34,16,2147483647,2147483647,0,0],"split_type":[0,0,0,0,0,0,0,0,0,0,0,0,0],"sum_hessian":[1.041967E2,2.7290321E1,7.690638E1,2.1558977E1,5.731344E0,5.3605984E1,2.3300398E1,2.1819235E1,3.178675E1,5.07315E0,1.6746084E1,1.7832834E1,1.3953917E1],"tree_param":{"num_deleted":"2","num_feature":"40","num_nodes":"13","size_leaf_vector":"0"}},{"base_weights":[1.72895E-2,-6.143789E-1,3.2400298E-1,-9.2907745E-1,1.6849602E-2,4.3116443E-2,7.485081E-1,-6.9624233E-1,2.6287794E-1,5.9465295E-1,-0E0],"categories":[],"categories_nodes":[],"categories_segments":[],"categories_sizes":[],"default_left":[1,1,1,0,0,1,0,0,1,0,0],"id":72,"left_children":[1,3,5,-1,-1,7,-1,-1,9,-1,-1],"loss_changes":[1.9324278E1,8.124431E0,6.8072605E0,0E0,0E0,7.6204014E0,0E0,0E0,3.689554E0,0E0,0E0],"parents":[2147483647,0,0,1,1,2,2,5,5,8,8],"right_children":[2,4,6,-1,-1,8,-1,-1,10,-1,-1],"split_conditions":[3.6635506E-1,1.2852676E0,2.241285E0,-4.6453875E-2,8.424801E-4,5.429405E-2,3.7425406E-2,-3.481212E-2,6.956053E-1,2.9732648E-2,-0E0],"split_indices":[31,14,3,0,0,14,0,0,27,0,0],"split_type":[0,0,0,0,0,0,0,0,0,0,0],"sum_hessian":[9.665792E1,2.8478054E1,6.817987E1,2.0173452E1,8.304603E0,4.5854767E1,2.2325106E1,6.931008E0,3.892376E1,1.5626871E1,2.3296886E1],"tree_param":{"num_deleted":"0","num_feature":"40","num_nodes":"11","size_leaf_vector":"0"}},{"base_weights":[3.692512E-2,-7.7418786E-1,2.5118554E-1,-0E0,5.7604104E-1,3.9920998E-1,-3.7006196E-1,6.6246563E-1,-0E0,-0E0,7.459541E-1,-7.422001E-1,3.5598597E-1],"categories":[],"categories_nodes":[],"categories_segments":[],"categories_sizes":[],"default_left":[1,0,1,1,1,1,1,0,0,0,0,0,0],"id":73,"left_children":[1,-1,3,5,7,9,11,-1,-1,-1,-1,-1,-1],"loss_changes":[1.7611557E1,0E0,6.808282E0,8.214987E0,1.3529835E0,3.8686433E0,9.198353E0,0E0,0E0,0E0,0E0,0E0,0E0],"parents":[2147483647,0,0,2,2,3,3,4,4,5,5,6,6],"right_children":[2,-1,4,6,8,10,12,-1,-1,-1,-1,-1,-1],"split_conditions":[5.0244782E-2,-3.8709395E-2,1.1597958E0,-4.0165275E-1,2.4738274E0,-2.4848938E-1,1.5384909E0,3.312328E-2,-0E0,-0E0,3.7297707E-2,-3.7110005E-2,1.77993E-2],"split_indices":[3,0,31,9,31,8,35,0,0,0,0,0,0],"split_type":[0,0,0,0,0,0,0,0,0,0,0,0,0],"sum_hessian":[1.01000404E2,1.7516161E1,8.348424E1,4.9522E1,3.3962242E1,2.427046E1,2.5251537E1,2.8030157E1,5.932086E0,1.2507706E1,1.1762754E1,1.8471706E1,6.779831E0],"tree_param":{"num_deleted":"0","num_feature":"40","num_nodes":"13","size_leaf_vector":"0"}},{"base_weights":[6.930018E-2,-7.809932E-1,2.932258E-1,6.939334E-1,9.269511E-2,-0E0,8.115274E-1,-2.7591437E-1,5.1066357E-1,-7.7791476E-1,2.2800013E-1,-0E0,6.6438043E-1],"categories":[],"categories_nodes":[],"categories_segments":[],"categories_sizes":[],"default_left":[1,0,1,1,1,1,1,1,1,0,0,0,0],"id":74,"left_children":[1,-1,3,-1,7,-1,-1,9,11,-1,-1,-1,-1],"loss_changes":[1.9124998E1,0E0,5.043725E0,4.4228745E-1,1.0640309E1,0E0,0E0,9.986388E0,3.5932016E0,0E0,0E0,0E0,0E0],"parents":[2147483647,0,0,2,2,3,3,4,4,7,7,8,8],"right_children":[2,-1,4,-1,8,-1,-1,10,12,-1,-1,-1,-1],"split_conditions":[-8.1729904E-2,-3.9049663E-2,-8.9889675E-1,3.4696672E-2,6.4354396E-1,-0E0,4.057637E-2,1.1245598E0,-3.9246783E-1,-3.8895737E-2,1.1400007E-2,-0E0,3.321902E-2],"split_indices":[39,0,19,27,38,2147483647,2147483647,26,7,0,0,0,0],"split_type":[0,0,0,0,0,0,0,0,0,0,0,0,0],"sum_hessian":[9.8960396E1,1.7211168E1,8.174923E1,2.1477373E1,6.0271854E1,5.9082217E0,1.5569151E1,3.0026134E1,3.024572E1,1.6212708E1,1.3813427E1,5.463911E0,2.4781809E1],"tree_param":{"num_deleted":"2","num_feature":"40","num_nodes":"13","size_leaf_vector":"0"}},{"base_weights":[-6.5120636E-3,-6.5275407E-1,2.3343906E-1,-9.2399883E-1,-0E0,-0E0,5.739862E-1,2.1964245E-1,-1.0164826E0,-0E0,7.740558E-1,-6.539702E-2,6.3687265E-1],"categories":[],"categories_nodes":[],"categories_segments":[],"categories_sizes":[],"default_left":[1,1,1,0,0,1,1,1,0,0,0,0,0],"id":75,"left_children":[1,3,5,-1,-1,7,9,11,-1,-1,-1,-1,-1],"loss_changes":[1.6039335E1,5.5336695E0,5.9920626E0,0E0,0E0,1.0861437E1,4.848981E0,5.650152E0,0E0,0E0,0E0,0E0,0E0],"parents":[2147483647,0,0,1,1,2,2,5,5,6,6,7,7],"right_children":[2,4,6,-1,-1,8,10,12,-1,-1,-1,-1,-1],"split_conditions":[3.5925588E-1,7.9447544E-1,1.3285687E0,-4.6199944E-2,-0E0,3.7383997E-1,7.8114283E-1,-9.14375E-2,-5.082413E-2,-0E0,3.870279E-2,-3.269851E-3,3.1843632E-2],"split_indices":[31,2,39,0,0,9,31,8,0,0,0,0,0],"split_type":[0,0,0,0,0,0,0,0,0,0,0,0,0],"sum_hessian":[9.2079025E1,2.5791283E1,6.628774E1,1.7850119E1,7.9411635E0,3.9639797E1,2.6647943E1,3.384823E1,5.79157E0,5.2525573E0,2.1395386E1,1.8764875E1,1.5083353E1],"tree_param":{"num_deleted":"0","num_feature":"40","num_nodes":"13","size_leaf_vector":"0"}},{"base_weights":[4.6500467E-2,-6.599895E-1,3.428174E-1,-8.980681E-1,-0E0,7.690146E-1,-0E0,-8.8307285E-1,3.6123425E-1,-1.6442072E-1,6.589558E-1],"categories":[],"categories_nodes":[],"categories_segments":[],"categories_sizes":[],"default_left":[1,1,1,0,0,0,1,0,1,0,0],"id":76,"left_children":[1,3,5,-1,-1,-1,7,-1,9,-1,-1],"loss_changes":[1.9751862E1,5.8666487E0,1.0025558E1,0E0,0E0,0E0,1.4306746E1,0E0,6.393061E0,0E0,0E0],"parents":[2147483647,0,0,1,1,2,2,6,6,8,8],"right_children":[2,4,6,-1,-1,-1,8,-1,10,-1,-1],"split_conditions":[2.8013515E-1,1.7552934E0,-3.802378E-1,-4.4903405E-2,-0E0,3.845073E-2,9.738804E-1,-4.4153642E-2,7.3571885E-1,-8.221037E-3,3.294779E-2],"split_indices":[2,14,9,0,0,0,2,0,31,0,0],"split_type":[0,0,0,0,0,0,0,0,0,0,0],"sum_hessian":[9.11386E1,2.3847956E1,6.729065E1,1.8773928E1,5.0740275E0,2.792136E1,3.936929E1,9.915669E0,2.9453619E1,8.706685E0,2.0746933E1],"tree_param":{"num_deleted":"0","num_feature":"40","num_nodes":"11","size_leaf_vector":"0"}},{"base_weights":[1.082413E-1,-7.732965E-1,3.2310802E-1,-0E0,5.036352E-1,2.9498827E-1,-6.718596E-1,-7.932043E-2,6.044179E-1,-1.3747438E-2,5.316003E-1,6.842158E-1,-0E0],"categories":[],"categories_nodes":[],"categories_segments":[],"categories_sizes":[],"default_left":[1,0,1,1,1,1,0,0,1,0,0,0,0],"id":77,"left_children":[1,-1,3,5,7,9,-1,-1,11,-1,-1,-1,-1],"loss_changes":[1.8978317E1,0E0,5.3789797E0,7.2239304E0,4.4987593E0,2.766853E0,0E0,0E0,1.4620743E0,0E0,0E0,0E0,0E0],"parents":[2147483647,0,0,2,2,3,3,4,4,5,5,8,8],"right_children":[2,-1,4,6,8,10,-1,-1,12,-1,-1,-1,-1],"split_conditions":[-8.143032E-2,-3.8664825E-2,-1.3270003E-1,-4.1580677E-1,1.8364403E-1,5.4219115E-1,-3.359298E-2,-3.966022E-3,1.2362194E0,-6.873719E-4,2.6580015E-2,3.421079E-2,-0E0],"split_indices":[39,0,8,7,30,39,0,0,19,0,0,0,0],"split_type":[0,0,0,0,0,0,0,0,0,0,0,0,0],"sum_hessian":[9.799151E1,1.5851654E1,8.2139854E1,2.889083E1,5.3249027E1,2.0397804E1,8.493024E0,5.017955E0,4.823107E1,6.408681E0,1.3989123E1,4.0101166E1,8.129908E0],"tree_param":{"num_deleted":"0","num_feature":"40","num_nodes":"13","size_leaf_vector":"0"}}]},"name":"gbtree"},"learner_model_param":{"base_score":"5E-1","boost_from_average":"1","num_class":"0","num_feature":"40","num_target":"1"},"objective":{"name":"binary:logistic","reg_loss_param":{"scale_pos_weight":"9.34482765"}}},"version":[1,7,6]}